svm_type c_svc
kernel_type linear
nr_class 2
total_sv 478
rho 0.0208182
label 0 1
probA -4.23755
probB 0.47977
nr_sv 110 368
SV
1 1:0.0086334188 2:0.31492861 3:0.24957502 4:0.014784832 5:0.32494512 6:0.36562079 7:0.36175579 8:0.067609224 9:0.04650021 10:0.11678863 11:0.22180955 12:0.031512537 13:0.016084361 14:0.13521845 15:0.24957502 16:0.1082849 17:0.1574643 18:0.021652225 19:0.10491013 20:0.017891754 21:0.11218078 22:0.24957502 23:0.0685346 24:0.084415314 25:0.13994624 26:0.067609224 27:0.064234456 28:0.089023166 29:0.064234456 30:0.10951506 31:0.019268838 32:0.1574643 33:0.08739207 34:0.1574643 35:0.096861778 36:0.093679983 37:0.069096312 38:0.096861778 39:0.1082849 40:0.026503968 41:0.064234456 42:0.057603667 43:0.13994624 
0.8548853420978058 1:0.030432705 4:0.0086860617 9:0.035296684 13:0.028348596 18:0.019080963 29:0.11321287 40:0.046713097 44:0.24665448 45:0.27752996 46:0.15690283 47:0.43987458 48:0.27752996 49:0.27752996 50:0.179657 51:0.24665448 52:0.15402804 53:0.19301969 54:0.054336708 55:0.22859348 56:0.07468251 57:0.14878152 58:0.059029877 59:0.27752996 60:0.27752996 61:0.27752996 
0.922954641231523 1:0.030247628 9:0.030218013 18:0.016335494 29:0.096923213 40:0.06338546 54:0.046518459 57:0.12737406 62:0.2375975 63:0.067291463 64:0.18473159 65:0.29279264 66:0.082753751 67:0.21116454 68:0.13432684 69:0.475195 70:0.26373136 71:0.077252836 72:0.2375975 73:0.2375975 74:0.11191177 75:0.2375975 76:0.13695786 77:0.12955378 78:0.1870674 79:0.14978912 80:0.16339081 81:0.2375975 82:0.2375975 
0.2650688115790827 4:0.013989737 9:0.035867537 13:0.028807078 29:0.11504386 40:0.047468588 52:0.24807695 53:0.12375144 54:0.055215496 56:0.07589035 83:0.28201845 84:0.28201845 85:0.1251443 86:0.16591778 87:0.28201845 88:0.17779352 89:0.28201845 90:0.19393817 91:0.18256259 92:0.28201845 93:0.153775 94:0.28201845 95:0.12240017 96:0.14210454 97:0.18789396 98:0.12960012 99:0.063831726 100:0.28201845 101:0.20916835 102:0.18789396 
1 1:0.016070068 4:0.014961162 9:0.037277009 12:0.037008313 13:0.018889468 18:0.020151503 20:0.030782127 26:0.079400251 36:0.069413466 40:0.049333942 74:0.17420553 78:0.14559762 95:0.080260626 99:0.066340096 103:0.21738796 104:0.14377962 105:0.24141875 106:0.18492603 107:0.087102765 108:0.18492603 109:0.15231827 110:0.26349014 111:0.18492603 112:0.11658333 113:0.12320642 114:0.27431306 115:0.20155928 116:0.18492603 117:0.18492603 118:0.16435282 119:0.042920261 120:0.16435282 121:0.14377962 122:0.089387035 123:0.12716975 124:0.14377962 125:0.10083383 126:0.07775089 127:0.18492603 128:0.18492603 129:0.13715653 130:0.18492603 131:0.18492603 132:0.16435282 133:0.13174507 134:0.14377962 135:0.13715653 
1 9:0.03443608 13:0.017449877 20:0.030765253 40:0.045574138 56:0.072861601 66:0.094305169 76:0.15607551 79:0.17069786 126:0.11384056 136:0.27076322 137:0.27076322 138:0.27076322 139:0.22301991 140:0.27076322 141:0.27076322 142:0.27076322 143:0.27076322 144:0.27076322 145:0.18619819 146:0.14515393 147:0.27076322 148:0.062348558 149:0.15929608 150:0.20082054 151:0.081430098 152:0.27076322 
1 1:0.020122925 4:0.012788186 9:0.031862855 12:0.031633184 13:0.028598396 14:0.067868069 18:0.025233695 20:0.022663317 24:0.084738502 40:0.042168625 41:0.064480381 54:0.061894934 57:0.084738502 58:0.05328717 93:0.086188609 96:0.22359878 153:0.24452638 154:0.1570395 155:0.26039079 156:0.15794252 157:0.065759358 158:0.25053053 159:0.17228458 160:0.19478699 161:0.14441282 162:0.078519751 163:0.1301954 164:0.1301954 165:0.097232618 166:0.097232618 167:0.10869947 168:0.15806716 169:0.11261027 170:0.095025141 171:0.091114342 172:0.087726654 173:0.22265876 174:0.099650635 175:0.1301954 176:0.1301954 177:0.09299446 178:0.14048204 179:0.077440014 180:0.13007075 181:0.099290938 182:0.19478699 183:0.28535778 184:0.043075224 185:0.12289691 186:0.084738502 187:0.1301954 188:0.14048204 189:0.10232363 190:0.15806716 191:0.15806716 192:0.14048204 193:0.1301954 194:0.091114342 
1 1:0.018301196 4:0.015564953 8:0.061723971 9:0.05132765 12:0.028769431 13:0.021512035 18:0.01976744 20:0.026640115 23:0.026946913 29:0.11728594 30:0.063081612 31:0.035183046 40:0.024196849 42:0.052589379 54:0.044610025 63:0.040714408 67:0.12776419 71:0.074083515 145:0.15668766 157:0.047395262 162:0.071411356 184:0.039175623 195:0.29665927 196:0.2235421 197:0.12776419 198:0.18767351 199:0.10241566 200:0.22784999 201:0.11480993 202:0.10241566 203:0.1184088 204:0.3337942 205:0.12881604 206:0.075819618 207:0.05864297 208:0.14375734 209:0.10241566 210:0.11177105 211:0.11177105 212:0.25552839 213:0.084575669 214:0.086422513 215:0.14375734 216:0.14375734 217:0.050471082 218:0.14375734 219:0.1184088 220:0.067711733 221:0.088430147 222:0.12776419 223:0.093060268 224:0.10241566 225:0.14375734 226:0.082865759 227:0.095777903 228:0.095777903 229:0.057517224 230:0.070429368 231:0.037501182 232:0.093060268 233:0.14375734 234:0.12776419 235:0.10662241 236:0.095777903 237:0.093060268 238:0.090629261 239:0.084575669 240:0.14375734 241:0.08127387 242:0.025122547 243:0.093060268 244:0.14375734 245:0.12776419 
1 4:0.012214629 9:0.049635371 13:0.015869051 18:0.039308587 20:0.01765225 23:0.046155903 26:0.10572363 70:0.13665897 123:0.16933004 157:0.051219362 239:0.14486507 242:0.086062089 246:0.34685373 247:0.24623413 248:0.16405276 249:0.10686925 250:0.24623413 251:0.24623413 252:0.24623413 253:0.17542221 254:0.24623413 255:0.24006982 256:0.15939787 257:0.16405276 258:0.16933004 259:0.202816 260:0.202816 261:0.24623413 262:0.24623413 263:0.21884034 264:0.14486507 
0.8085740432718664 1:0.015424844 4:0.013955716 9:0.056710453 13:0.028737024 20:0.040336844 23:0.052735017 99:0.063676497 149:0.1655143 154:0.13975178 157:0.058520228 179:0.21845543 276:0.13783003 282:0.44590166 283:0.28133262 284:0.23172563 285:0.21873556 286:0.23172563 287:0.19346654 288:0.18211863 289:0.17736115 290:0.28133262 291:0.25003409 292:0.20865969 293:0.13251163 294:0.25003409 295:0.17736115 296:0.1234505 297:0.1508201 
0.3749388190371687 1:0.019632365 4:0.014141516 13:0.023076749 18:0.015532571 20:0.016195888 29:0.092159236 40:0.038026094 63:0.063983948 88:0.14242668 119:0.033082495 126:0.094986144 161:0.13022609 201:0.11383698 236:0.15051793 298:0.22591909 299:0.22591909 300:0.22591909 301:0.13581564 302:0.11552381 303:0.20078537 304:0.22591909 305:0.14624708 306:0.13022609 307:0.22591909 308:0.17565165 309:0.10641108 310:0.14624708 311:0.1675604 312:0.20078537 313:0.13291327 314:0.22591909 315:0.22591909 316:0.22591909 317:0.20078537 318:0.17565165 319:0.14624708 320:0.17565165 321:0.18608308 322:0.18608308 323:0.20078537 
1 1:0.016556571 4:0.016347732 12:0.047891667 13:0.015422735 18:0.024103433 20:0.017155782 26:0.064828138 27:0.06159219 50:0.097740372 57:0.080942914 58:0.050900343 86:0.088829073 88:0.095187106 99:0.034174233 119:0.035043222 145:0.10383063 148:0.034767739 151:0.045408274 157:0.03140694 172:0.083797222 238:0.095187106 242:0.026385988 324:0.21268548 325:0.35058108 326:0.15098705 327:0.23930882 328:0.30197411 329:0.24872743 330:0.15086799 331:0.095187106 332:0.070235711 333:0.10059468 334:0.08703317 335:0.075002712 336:0.15098705 337:0.11739214 338:0.07963267 339:0.10756625 340:0.15098705 341:0.15098705 342:0.15098705 343:0.11739214 344:0.15098705 345:0.15098705 346:0.097740372 347:0.11739214 348:0.1341896 349:0.15098705 350:0.15098705 351:0.15098705 352:0.10383063 353:0.12436371 354:0.11198456 355:0.090768797 356:0.11739214 357:0.11198456 358:0.17749134 359:0.15098705 360:0.053438253 361:0.15098705 362:0.10756625 
1 1:0.011194148 4:0.010421702 9:0.042349632 13:0.016603669 18:0.028074419 20:0.021442329 31:0.024984104 54:0.025220565 63:0.03648291 71:0.066383924 148:0.029662524 165:0.079239493 184:0.035104052 277:0.12797897 347:0.10015455 363:0.33298572 364:0.27701027 365:0.16816837 366:0.0833884 367:0.095541008 368:0.20416926 369:0.074253419 370:0.18145523 371:0.088584377 372:0.095541008 373:0.091771473 374:0.077440515 375:0.10015455 376:0.077440515 377:0.11542803 378:0.10015455 379:0.12797897 380:0.12559162 381:0.18145523 382:0.1144855 383:0.10610243 384:0.10015455 385:0.10015455 386:0.074253419 387:0.078706905 388:0.20416926 389:0.20416926 390:0.2742708 391:0.12881646 392:0.16816837 393:0.1144855 394:0.12881646 395:0.12881646 396:0.20416926 397:0.18145523 398:0.1144855 399:0.12881646 400:0.075785616 401:0.18145523 402:0.1144855 403:0.10610243 404:0.079239493 405:0.063109557 406:0.08121005 407:0.12881646 
0.7240798236573838 1:0.03122625 4:0.011246391 13:0.023158096 40:0.060482389 53:0.15767865 56:0.09669615 119:0.052619349 161:0.20713106 210:0.27938266 302:0.18374635 305:0.23261324 308:0.27938266 310:0.23261324 408:0.35933552 409:0.31935909 410:0.29597438 411:0.1994298 412:0.35933552 413:0.35933552 
1 1:0.014951647 4:0.022062546 9:0.069365317 12:0.086498503 20:0.045393006 23:0.0810189 63:0.077233631 205:0.15417334 276:0.13360174 291:0.24236365 292:0.20225851 293:0.12844649 414:0.30834667 415:0.40451702 416:0.16774851 417:0.20225851 418:0.35600927 419:0.27270202 420:0.19427847 421:0.16043672 422:0.14382683 423:0.18753145 424:0.1461933 425:0.16043672 426:0.27270202 427:0.21202528 
1 1:0.015525997 4:0.016775447 9:0.045445809 12:0.035755352 13:0.023028863 18:0.01946925 20:0.029739961 23:0.033490282 31:0.021863175 33:0.099158447 54:0.034980278 58:0.038001594 66:0.062227969 113:0.11903512 119:0.041467144 149:0.1665997 170:0.10740801 242:0.04948715 276:0.08753134 301:0.10740801 380:0.10990315 428:0.10511271 429:0.12286426 430:0.33417383 431:0.25167376 432:0.14716135 433:0.12728468 434:0.11565758 435:0.17866513 436:0.10298759 437:0.25167376 438:0.15878846 439:0.10740801 440:0.17866513 441:0.17866513 442:0.14716135 443:0.17866513 444:0.13251293 445:0.17866513 446:0.17866513 447:0.17866513 448:0.12728468 449:0.15878846 450:0.22016998 451:0.15878846 452:0.25167376 453:0.097419977 454:0.13891179 455:0.12286426 456:0.11903512 457:0.15878846 
1 1:0.014337882 8:0.11228148 13:0.01685338 18:0.01797938 71:0.085027002 119:0.038293902 458:0.41447973 459:0.41447973 460:0.21539632 461:0.26150759 462:0.26150759 463:0.23241462 464:0.26150759 465:0.21539632 466:0.23241462 467:0.23241462 468:0.26150759 469:0.23241462 470:0.15721036 471:0.16486282 
1 1:0.009624463 4:0.008707788 9:0.022325431 13:0.011313019 20:0.012584259 93:0.095715888 99:0.039731493 148:0.040421512 156:0.110666 331:0.110666 472:0.27822414 473:0.27822414 474:0.19821255 475:0.17553989 476:0.17553989 477:0.1560109 478:0.17553989 479:0.14458718 480:0.1560109 481:0.17553989 482:0.17553989 483:0.17553989 484:0.17553989 485:0.1207151 486:0.17553989 487:0.17553989 488:0.083745072 489:0.13019499 490:0.22916526 491:0.1560109 492:0.17553989 493:0.14458718 494:0.095715888 495:0.14458718 496:0.14458718 497:0.1560109 498:0.083745072 499:0.17553989 500:0.1560109 501:0.1560109 502:0.097423948 503:0.1560109 504:0.1560109 505:0.094105485 506:0.076186903 507:0.10118611 508:0.095715888 
1 1:0.0086250584 4:0.017650581 12:0.049897822 13:0.010138275 18:0.010815629 20:0.037463073 31:0.019250179 40:0.041967117 46:0.088936958 54:0.071514412 56:0.06709488 86:0.092550074 88:0.099174442 119:0.036511163 154:0.078144534 157:0.032722559 223:0.10183466 319:0.10183466 379:0.078144534 380:0.096767979 428:0.1466884 509:0.13981072 510:0.20650522 511:0.30085975 512:0.16088291 513:0.23027592 514:0.13150186 515:0.25914648 516:0.36526673 517:0.18492635 518:0.2709122 519:0.20366932 520:0.20536873 521:0.11207215 522:0.22159475 523:0.11207215 524:0.10183466 525:0.10818004 526:0.20536873 527:0.20536873 528:0.10480854 529:0.10183466 530:0.094571052 531:0.081673347 532:0.094571052 533:0.094571052 534:0.12230963 
1 1:0.035325569 4:0.012364207 12:0.049881038 13:0.01606338 18:0.0171366 50:0.16134983 56:0.13414462 119:0.057849358 122:0.12047882 151:0.074959989 162:0.12381449 174:0.1571349 206:0.13145763 239:0.14663905 301:0.14984115 338:0.13145763 429:0.17140362 508:0.13590719 512:0.12745381 535:0.22152022 536:0.18486414 537:0.20529965 538:0.13362058 539:0.16606172 540:0.35110123 541:0.1221119 542:0.13590719 543:0.20529965 544:0.1775704 545:0.14091433 546:0.16606172 547:0.20529965 548:0.22152022 549:0.22152022 550:0.20529965 551:0.12745381 552:0.22152022 553:0.22152022 
1 1:0.010147592 4:0.0091810922 9:0.02353891 12:0.08600275 13:0.018905319 18:0.020168413 23:0.034692957 31:0.035896717 46:0.10463651 54:0.057433432 58:0.039366275 80:0.12727646 119:0.027102393 148:0.042618588 151:0.088221938 157:0.038498892 242:0.075100829 256:0.11981097 257:0.12330981 277:0.091938958 439:0.11126516 502:0.16280631 512:0.094641344 554:0.22807654 555:0.11411951 556:0.10641542 557:0.13994737 558:0.20172842 559:0.18508121 560:0.18508121 561:0.18508121 562:0.18508121 563:0.14390027 564:0.29334677 565:0.16449074 566:0.097614399 567:0.18508121 568:0.13185562 569:0.13185562 570:0.16449074 571:0.20543868 572:0.13727162 573:0.11981097 574:0.12330981 575:0.18508121 576:0.16449074 577:0.18508121 578:0.15244609 579:0.13727162 580:0.070709633 581:0.10888743 582:0.11668116 583:0.18508121 584:0.18508121 585:0.1138499 
1 1:0.034871846 4:0.012559383 9:0.051036312 13:0.025861752 20:0.028767828 425:0.23608624 586:0.40128715 587:0.23608624 588:0.40128715 589:0.40128715 590:0.40128715 591:0.33052873 592:0.24124155 593:0.26735638 
0.4708507042238367 13:0.020325032 18:0.02168298 54:0.06174645 63:0.089319575 70:0.1750324 77:0.17196369 107:0.14854651 119:0.04618212 201:0.15891284 594:0.31537593 595:0.31537593 596:0.49985902 597:0.18959436 598:0.18554274 599:0.31537593 600:0.31537593 601:0.24520417 602:0.31537593 
0.5113631023819227 1:0.020489864 4:0.0073795933 9:0.029987718 13:0.015195748 23:0.04419757 54:0.046163937 71:0.076664084 99:0.053367696 119:0.034527466 285:0.18332373 295:0.14864757 297:0.12640333 424:0.12640333 485:0.1621456 498:0.11248713 587:0.21986383 603:0.23578675 604:0.24192049 605:0.23578675 606:0.23578675 607:0.23578675 608:0.23578675 609:0.23578675 610:0.23578675 611:0.23578675 612:0.23578675 613:0.23578675 614:0.23578675 615:0.23578675 616:0.14864757 617:0.20955524 618:0.13330312 
0.8607589143090686 9:0.05556237 13:0.028155253 85:0.19386093 619:0.43687454 620:0.38827181 621:0.38827181 622:0.43687454 623:0.22013402 624:0.24698902 625:0.2626356 626:0.31123832 
1 1:0.023183748 4:0.013234148 9:0.023161049 13:0.011736453 18:0.012520584 20:0.020692121 26:0.078191225 37:0.079911069 40:0.030652293 54:0.03565477 58:0.038734343 71:0.059211594 85:0.080810491 99:0.041218601 119:0.042266715 154:0.090463094 242:0.050441363 360:0.064453533 375:0.14159029 387:0.07020316 512:0.0931221 627:0.18211016 628:0.36422033 629:0.18211016 630:0.18211016 631:0.32370046 632:0.14159029 633:0.14159029 634:0.19849014 635:0.28863778 636:0.18211016 637:0.18211016 638:0.22441531 639:0.12523334 640:0.1071395 641:0.16185023 642:0.28863778 643:0.12133036 644:0.18211016 645:0.14159029 646:0.18211016 647:0.16185023 648:0.16185023 649:0.11480812 
0.9058813646408482 1:0.008370419 4:0.012351332 13:0.0098389602 18:0.027132585 20:0.021889121 31:0.018681852 54:0.04737497 56:0.08216475 90:0.20997243 119:0.022355883 186:0.08184377 199:0.10876342 230:0.074794605 270:0.10498621 414:0.086311254 456:0.10171425 520:0.12574782 598:0.089817699 640:0.089817699 650:0.15266747 651:0.15266747 652:0.15266747 653:0.12574782 654:0.11869866 655:0.11869866 656:0.15266747 657:0.15266747 658:0.093911078 659:0.24197221 660:0.10171425 661:0.15266747 662:0.15266747 663:0.10498621 664:0.10498621 665:0.1132309 666:0.24197221 667:0.24197221 668:0.15266747 669:0.24197221 670:0.15266747 671:0.13568306 672:0.084729846 673:0.11869866 674:0.098828176 675:0.15266747 676:0.15266747 677:0.15266747 678:0.15266747 679:0.15266747 680:0.15266747 681:0.15266747 682:0.15266747 683:0.10876342 684:0.15266747 685:0.15266747 686:0.15266747 
1 1:0.013091386 9:0.030367496 12:0.047784407 13:0.015388194 18:0.016416303 30:0.10477501 66:0.083163119 97:0.15908171 157:0.049667336 217:0.083829629 288:0.15456787 687:0.33634353 688:0.17709382 689:0.21220914 690:0.26961266 691:0.21220914 692:0.23877285 693:0.23877285 694:0.15456787 695:0.18564543 696:0.12209659 697:0.15908171 698:0.18564543 699:0.17709382 700:0.18564543 701:0.17709382 702:0.23877285 703:0.14354293 704:0.17709382 705:0.21220914 706:0.23877285 707:0.23877285 
1 1:0.02581607 4:0.022105164 9:0.029942185 12:0.047115163 13:0.015172675 20:0.039188626 54:0.046093842 58:0.050075057 119:0.054641645 205:0.21095963 242:0.041142729 277:0.11694905 295:0.14842186 297:0.1262114 411:0.13066202 420:0.16772422 421:0.21952999 424:0.1262114 425:0.27701601 498:0.11231633 703:0.14153255 708:0.38944358 709:0.47085745 710:0.12837122 711:0.23542873 712:0.23542873 713:0.23542873 714:0.15685369 715:0.1939159 716:0.14482041 717:0.17461353 
0.2282729168373259 9:0.073638433 46:0.32734177 63:0.16398292 85:0.25692955 157:0.1204388 201:0.29175005 718:0.47690785 719:0.51458798 720:0.45017337 
1 4:0.0092241761 12:0.074426364 13:0.023967804 18:0.025569131 20:0.013330529 23:0.055245073 31:0.022754588 40:0.049607043 54:0.036406507 80:0.12787373 102:0.24777692 119:0.043157857 181:0.073696103 184:0.050673563 220:0.087584945 272:0.11178729 301:0.11178729 313:0.1093984 579:0.1379158 581:0.17339236 721:0.37189946 722:0.18594973 723:0.37189946 724:0.17976372 725:0.29472335 726:0.18594973 727:0.16526264 728:0.24777692 729:0.11178729 730:0.37189946 731:0.1379158 732:0.13247438 733:0.1093984 734:0.1379158 735:0.070413108 736:0.16526264 
0.6041649505578284 1:0.029415626 4:0.016791536 9:0.04305092 13:0.021815296 18:0.02327281 20:0.048533345 139:0.27881259 150:0.25105961 292:0.25105961 436:0.19512077 587:0.19914703 616:0.21340118 737:0.33849979 738:0.33849979 739:0.25105961 740:0.26318292 741:0.47682227 742:0.27881259 
0.3487803869331885 1:0.031372005 4:0.017908311 9:0.045914159 18:0.024820642 40:0.060764704 63:0.10224468 65:0.28068674 70:0.20036068 78:0.17933285 85:0.16019766 107:0.17004212 371:0.24826092 529:0.23369901 724:0.17450147 729:0.21702985 743:0.3610128 744:0.3610128 745:0.3610128 746:0.32084977 747:0.2973559 
0.9960453514861655 4:0.019476815 9:0.03061785 20:0.034516955 40:0.040520935 63:0.068181848 149:0.14163353 157:0.050076801 379:0.11958809 453:0.131268 514:0.12697032 604:0.15584215 748:0.29666681 749:0.24074133 750:0.21395862 751:0.21395862 752:0.21395862 753:0.3391164 754:0.24074133 755:0.24074133 756:0.38156599 757:0.24074133 758:0.24074133 759:0.21395862 760:0.21395862 761:0.17150903 
0.9879403499070399 1:0.025630846 4:0.023189654 9:0.059454711 13:0.030127628 762:0.46747915 763:0.46747915 764:0.34672144 765:0.46747915 766:0.46747915 
0.546901261239253 9:0.03832879 13:0.01942244 54:0.059004419 71:0.09798817 85:0.13373178 88:0.18999383 259:0.24823045 306:0.17371854 474:0.34029566 538:0.16156237 767:0.30137074 768:0.30137074 769:0.30137074 770:0.30137074 771:0.30137074 772:0.24823045 773:0.30137074 774:0.30137074 
1 1:0.021693094 4:0.014972089 9:0.043343708 18:0.023431088 20:0.019361672 23:0.031941186 31:0.033049466 36:0.063961366 58:0.036243827 63:0.048260314 66:0.059349608 95:0.073956532 165:0.10481957 170:0.10243984 201:0.085862292 206:0.089871834 207:0.11017345 276:0.083482569 360:0.060309341 376:0.16236331 405:0.19384052 456:0.11352914 533:0.16236331 569:0.19240988 775:0.27007913 776:0.17993943 777:0.27007913 778:0.27007913 779:0.27007913 780:0.15144369 781:0.14035439 782:0.17040096 783:0.15144369 784:0.14035439 785:0.10481957 786:0.12638353 787:0.14035439 788:0.13248641 789:0.12139712 790:0.12139712 791:0.10742626 792:0.11030782 793:0.14035439 794:0.14035439 795:0.17040096 796:0.11030782 797:0.17040096 798:0.17040096 799:0.17040096 800:0.13248641 801:0.11718116 802:0.15144369 
1 1:0.015959014 4:0.016037012 9:0.047830167 13:0.020883994 18:0.022279286 20:0.03221759 23:0.037243853 31:0.015340165 36:0.047054624 40:0.033442936 41:0.051137859 54:0.024543702 58:0.061910938 63:0.03550379 71:0.040759531 99:0.04497122 107:0.059046004 154:0.098699023 179:0.061415837 180:0.065084206 201:0.063166535 231:0.032701792 242:0.02190737 274:0.077112881 275:0.097466621 293:0.093585703 321:0.10325488 360:0.070321503 372:0.1859538 405:0.061415837 425:0.11689368 517:0.0929769 519:0.081150441 789:0.089308531 803:0.1859538 804:0.10325488 805:0.10325488 806:0.12535931 807:0.10325488 808:0.19868981 809:0.11141297 810:0.16365511 811:0.16365511 812:0.0929769 813:0.10325488 814:0.11141297 815:0.062272151 816:0.12535931 817:0.16365511 818:0.12535931 819:0.11141297 820:0.12535931 821:0.083520274 822:0.079030553 823:0.12535931 824:0.12535931 825:0.11141297 826:0.11141297 827:0.12535931 828:0.12535931 829:0.16365511 830:0.12535931 831:0.12535931 832:0.10325488 833:0.11141297 834:0.12535931 835:0.057608227 836:0.11141297 837:0.11141297 838:0.097466621 839:0.072260622 840:0.12535931 841:0.12535931 842:0.097466621 843:0.10325488 844:0.11141297 845:0.11141297 846:0.12535931 847:0.0929769 848:0.10325488 849:0.10325488 850:0.10325488 851:0.12535931 852:0.12535931 853:0.12535931 854:0.0929769 855:0.11141297 856:0.11141297 857:0.12535931 858:0.12535931 859:0.11141297 860:0.10325488 861:0.097466621 862:0.0929769 
0.9873084989055243 1:0.020219251 4:0.018824033 9:0.059183333 13:0.014995056 18:0.015996899 20:0.026437246 23:0.087227693 205:0.13154257 271:0.16000412 313:0.13688656 406:0.23248921 422:0.1227148 498:0.1110015 863:0.36877747 864:0.19164582 865:0.23267268 866:0.23267268 867:0.20678762 868:0.36877747 869:0.23267268 870:0.23267268 871:0.20678762 872:0.10443299 873:0.19164582 874:0.28672376 875:0.17256942 876:0.19164582 877:0.19164582 
0.8921414067627571 1:0.012454469 4:0.019958821 9:0.045789674 18:0.024753347 20:0.016284572 31:0.027797001 99:0.051414261 119:0.033263646 154:0.17884664 157:0.047250939 206:0.11980532 207:0.18532775 274:0.22146946 295:0.14320657 297:0.12177655 332:0.10566783 423:0.15621053 424:0.19301126 498:0.10836972 508:0.12386048 786:0.26703118 878:0.360034 879:0.15621053 880:0.45431233 881:0.22715617 882:0.22715617 883:0.22715617 884:0.22715617 885:0.22715617 886:0.18710203 
0.9147867055458591 1:0.028519716 4:0.016280118 9:0.066155894 13:0.021150869 20:0.037290339 23:0.061518328 31:0.040160484 179:0.16078639 249:0.14243936 277:0.16302822 386:0.18917799 406:0.20690164 425:0.19308162 436:0.18917799 616:0.20690164 838:0.25516718 887:0.32819013 888:0.32819013 889:0.29167866 890:0.29167866 891:0.23380934 892:0.24341311 893:0.21865571 894:0.32819013 
0.8507547147140606 4:0.017454924 9:0.035464918 13:0.017971223 18:0.019171908 20:0.012612691 23:0.052270171 26:0.075540485 27:0.071769822 31:0.049989422 40:0.046935745 42:0.064361173 54:0.079981244 63:0.049828067 71:0.057204277 99:0.03982126 107:0.082868569 119:0.025763286 148:0.040512838 184:0.075990764 214:0.10576764 229:0.070392084 242:0.030746067 377:0.099466503 387:0.10749726 400:0.10350739 470:0.10576764 653:0.14491385 654:0.13679028 655:0.13679028 704:0.13048915 807:0.14491385 893:0.11721717 895:0.095932143 896:0.27340537 897:0.15636339 898:0.14491385 899:0.094318103 900:0.23443434 901:0.15636339 902:0.22968302 903:0.14491385 904:0.097644063 905:0.11721717 906:0.11091604 907:0.13679028 908:0.12534074 909:0.19176118 910:0.15636339 911:0.13679028 912:0.13679028 913:0.15636339 914:0.15636339 915:0.074744995 916:0.14491385 917:0.22968302 918:0.12534074 919:0.15476218 920:0.11721717 921:0.13048915 922:0.13679028 923:0.12534074 924:0.11389121 925:0.14491385 926:0.14491385 927:0.056785928 928:0.15636339 
1 1:0.019051823 4:0.010875491 9:0.044193651 13:0.035494212 18:0.023890557 19:0.23151075 85:0.15419469 99:0.078649311 598:0.20443313 929:0.27016878 930:0.34748483 931:0.28621331 932:0.4894789 933:0.28621331 934:0.34748483 935:0.3088268 936:0.23895803 
1 1:0.025080943 4:0.018066216 13:0.018600597 18:0.039686663 20:0.020690739 31:0.035318121 119:0.042263893 148:0.066460088 151:0.086799946 157:0.06003577 202:0.20561771 210:0.22440032 239:0.16980075 241:0.1631718 242:0.079942331 338:0.15222141 724:0.1395085 937:0.22440032 938:0.25650941 939:0.18195441 940:0.25650941 941:0.1663678 942:0.2140635 943:0.28861851 944:0.17350861 945:0.28861851 946:0.2140635 947:0.28861851 948:0.28861851 949:0.28861851 
0.859266666321638 12:0.08843189 13:0.028478057 52:0.24524353 96:0.22265789 119:0.064707255 162:0.21950525 950:0.30387392 951:0.62245188 952:0.39272341 953:0.44188337 
1 4:0.016653922 13:0.013266365 18:0.022431517 20:0.023389452 30:0.090327917 31:0.02518968 54:0.063878055 119:0.047776414 148:0.075128543 157:0.067866295 186:0.11035407 192:0.1829483 255:0.12662503 365:0.16955211 400:0.12110572 554:0.16004737 785:0.12662503 950:0.14155819 954:0.32626331 955:0.20584923 956:0.1163778 957:0.20584923 958:0.1829483 959:0.16004737 960:0.1829483 961:0.11424551 962:0.16004737 963:0.12464777 964:0.14155819 965:0.20584923 966:0.133255 967:0.1037241 968:0.20584923 969:0.20584923 970:0.133255 971:0.12662503 972:0.20584923 973:0.20584923 974:0.1829483 975:0.20584923 976:0.20584923 977:0.20584923 
1 1:0.019134667 4:0.014911917 9:0.044385821 11:0.13358282 12:0.06015929 13:0.019373325 18:0.03100153 20:0.021550298 21:0.10707986 23:0.07282906 35:0.092457422 37:0.065954467 40:0.025298819 54:0.029427605 95:0.065234293 109:0.12380136 148:0.034610526 242:0.05253335 268:0.06746271 288:0.097298408 293:0.18300359 338:0.18406524 339:0.10707986 406:0.094756688 417:0.11147819 422:0.12564408 427:0.11686131 498:0.11365117 514:0.079272586 543:0.12380136 585:0.092457422 643:0.10013981 821:0.10013981 835:0.069071575 879:0.10336112 950:0.10336112 978:0.17854743 979:0.10692587 980:0.12380136 981:0.12380136 982:0.1852208 983:0.11147819 984:0.12380136 985:0.11686131 986:0.11147819 987:0.10336112 988:0.16382351 989:0.10707986 990:0.13358282 991:0.15030432 992:0.11686131 993:0.21172375 994:0.062551083 995:0.13358282 996:0.15030432 997:0.17668875 998:0.15030432 999:0.10707986 1000:0.11686131 1001:0.081955796 1002:0.12380136 1003:0.11147819 1004:0.15030432 1005:0.10707986 1006:0.086639622 1007:0.11147819 1008:0.10013981 1009:0.15030432 1010:0.10336112 1011:0.15030432 1012:0.10707986 1013:0.11686131 1014:0.15030432 1015:0.10336112 1016:0.13358282 1017:0.15030432 
0.7761022554625419 4:0.010001874 9:0.040643619 13:0.020595438 18:0.021971452 40:0.053789454 85:0.14180838 95:0.13869885 96:0.16102703 306:0.1842101 623:0.16102703 1018:0.31957172 1019:0.31957172 1020:0.5065092 1021:0.31957172 1022:0.31957172 1023:0.31957172 1024:0.31957172 
0.9642484052766448 1:0.024686961 4:0.014092238 9:0.057265224 13:0.029018144 20:0.05116085 207:0.18367619 587:0.26490024 1025:0.4502637 1026:0.4502637 1027:0.37086931 1028:0.58781396 
0.9653442584531193 1:0.013604943 4:0.0077662088 9:0.050019466 13:0.015991851 20:0.028194658 23:0.046513072 148:0.057139017 276:0.12156815 842:0.19292803 1029:0.24813957 1030:0.2205338 1031:0.24813957 1032:0.19292803 1033:0.24813957 1034:0.2205338 1035:0.24813957 1036:0.18404095 1037:0.39329191 1038:0.24813957 1039:0.24813957 1040:0.24813957 1041:0.24813957 1042:0.24813957 1043:0.24813957 
0.3679226676670289 4:0.010003652 9:0.040650846 13:0.0205991 29:0.13038616 40:0.053799017 53:0.14025499 54:0.062579056 63:0.090523983 96:0.16105566 156:0.20150414 157:0.066486193 201:0.16105566 306:0.18424285 1044:0.31962854 1045:0.31962854 1046:0.50659925 1047:0.28406955 1048:0.31962854 1049:0.26326888 1050:0.31962854 
0.8046952501059373 1:0.014646387 4:0.013251402 8:0.11469742 9:0.03397456 13:0.01721601 18:0.018366239 20:0.03035293 35:0.16432367 157:0.088071361 285:0.20769647 295:0.16841013 297:0.14320854 414:0.23937 425:0.15716116 498:0.1274422 616:0.16841013 625:0.16059302 654:0.20769647 655:0.32919111 1051:0.1981291 1052:0.26713439 1053:0.32919111 1054:0.37629455 1055:0.23741543 1056:0.23741543 1057:0.22330598 1058:0.17292751 
0.813093494068392 1:0.019652927 4:0.017781098 18:0.024644327 56:0.096457408 63:0.10151837 96:0.18061632 99:0.081130774 119:0.052489432 201:0.18061632 333:0.23881514 429:0.24649739 439:0.21548816 658:0.22049405 1059:0.35844832 1060:0.35844832 1061:0.26585511 1062:0.29524362 1063:0.35844832 1064:0.26585511 1065:0.27869287 
1 1:0.021422761 4:0.018219807 9:0.021401786 13:0.010844978 18:0.02686366 20:0.041733285 23:0.049994702 30:0.073841201 36:0.0631643 40:0.028324013 42:0.061559348 54:0.032946512 63:0.047658909 119:0.049283474 176:0.13860534 220:0.079261064 242:0.029407604 272:0.10116327 332:0.07827882 356:0.13083541 373:0.11988431 453:0.091755944 512:0.086048751 513:0.10608755 514:0.08875188 533:0.10116327 541:0.082442236 542:0.18351189 618:0.095136443 703:0.10116327 891:0.11988431 906:0.10608755 927:0.054313875 985:0.13083541 1066:0.41985802 1067:0.33655496 1068:0.13860534 1069:0.096999854 1070:0.26671349 1071:0.26671349 1072:0.23704135 1073:0.10608755 1074:0.081339685 1075:0.16827748 1076:0.14955644 1077:0.11988431 1078:0.16827748 1079:0.13083541 1080:0.099001418 1081:0.084792304 1082:0.16827748 1083:0.14955644 1084:0.13083541 1085:0.13860534 
0.827245461429421 4:0.0080909083 9:0.032878218 12:0.051735123 13:0.016660458 20:0.018532588 37:0.11343759 38:0.15902103 40:0.043512399 54:0.080220744 63:0.073215384 65:0.20099421 78:0.1284167 85:0.11471436 107:0.12176379 112:0.16297562 201:0.13026108 479:0.21293066 529:0.16734722 623:0.13026108 624:0.14615213 724:0.12495704 729:0.15541077 1086:0.2585141 1087:0.2585141 1088:0.22975415 1089:0.21293066 1090:0.22975415 1091:0.22975415 1092:0.31856828 1093:0.19173557 1094:0.22975415 1095:0.22975415 1096:0.18417072 1097:0.16297562 1098:0.14901477 
1 1:0.0083840431 4:0.011112573 8:0.065656337 18:0.010513401 20:0.017374953 31:0.02965823 119:0.022392271 146:0.081976984 148:0.035211907 217:0.053686539 253:0.10894045 268:0.068634921 271:0.1051571 284:0.1259525 580:0.058421012 634:0.1051571 727:0.13590391 792:0.098989034 939:0.09640315 963:0.058421012 1034:0.13590391 1081:0.077051883 1099:0.24236606 1100:0.24236606 1101:0.15291596 1102:0.15291596 1103:0.30583192 1104:0.15291596 1105:0.15291596 1106:0.24236606 1107:0.15291596 1108:0.15291596 1109:0.15291596 1110:0.15291596 1111:0.15291596 1112:0.13590391 1113:0.18843914 1114:0.15291596 1115:0.081976984 1116:0.1259525 1117:0.15291596 1118:0.15291596 1119:0.15291596 1120:0.24236606 1121:0.13590391 1122:0.09640315 1123:0.15291596 1124:0.15291596 1125:0.091928396 1126:0.15291596 1127:0.1259525 1128:0.10187981 1129:0.086451738 1130:0.10187981 
0.8777938686053842 1:0.013251351 4:0.0075643656 13:0.02468773 29:0.098592847 46:0.1366408 54:0.047319803 119:0.035391975 122:0.11682505 358:0.17925774 411:0.13413724 474:0.1721852 508:0.13178552 542:0.13178552 1069:0.13931714 1131:0.24169044 1132:0.24169044 1133:0.24169044 1134:0.24169044 1135:0.24169044 1136:0.24169044 1137:0.24169044 1138:0.24169044 1139:0.24169044 1140:0.24169044 1141:0.24169044 1142:0.21480214 1143:0.1721852 1144:0.1990735 1145:0.14867221 1146:0.1990735 
1 1:0.014007547 13:0.016465089 18:0.017565148 119:0.037411638 148:0.058829903 616:0.16106449 1125:0.15358835 1147:0.3598815 1148:0.3598815 1149:0.25548264 1150:0.37897438 1151:0.25548264 1152:0.25548264 1153:0.25548264 1154:0.22705995 1155:0.25548264 1156:0.17021456 1157:0.22705995 1158:0.21043374 1159:0.19863725 
1 4:0.0094315685 8:0.055724471 9:0.033012328 20:0.018608182 23:0.056487179 31:0.025171815 54:0.040273981 56:0.034924577 121:0.30272109 166:0.079834837 167:0.089249931 184:0.035367797 231:0.053660665 232:0.084014916 402:0.11534566 428:0.07635501 429:0.14145779 634:0.089249931 696:0.10518642 761:0.14654717 899:0.1102758 917:0.1068996 994:0.1254106 1080:0.07635501 1121:0.18281854 1160:0.12978429 1161:0.12978429 1162:0.12978429 1163:0.12978429 1164:0.12978429 1165:0.12978429 1166:0.33548752 1167:0.22350608 1168:0.13525808 1169:0.2137992 1170:0.10090703 1171:0.23069132 1172:0.12978429 1173:0.12978429 1174:0.1068996 1175:0.10090703 1176:0.12978429 1177:0.12978429 1178:0.0864684 1179:0.092460973 1180:0.1068996 1181:0.11534566 1182:0.12978429 1183:0.084014916 1184:0.12978429 1185:0.12978429 1186:0.092460973 1187:0.092460973 1188:0.12978429 1189:0.12978429 1190:0.12978429 1191:0.12978429 1192:0.12978429 1193:0.12978429 1194:0.12978429 
0.9825655340872339 4:0.010912973 9:0.034310719 12:0.042785442 13:0.013778358 18:0.018547962 23:0.040075023 31:0.01650628 40:0.035985171 41:0.055025212 54:0.041857977 58:0.028690479 119:0.031306902 157:0.028058322 242:0.023572705 264:0.07935809 355:0.081090999 455:0.1470214 523:0.15231095 566:0.07114221 570:0.38001777 580:0.051533786 604:0.17463853 658:0.08297478 776:0.089869244 1053:0.10487575 1195:0.27835799 1196:0.1760957 1197:0.21379364 1198:0.22220803 1199:0.23976452 1200:0.13488877 1201:0.13488877 1202:0.13488877 1203:0.21379364 1204:0.19000889 1205:0.23976452 1206:0.13488877 1207:0.08297478 1208:0.087319263 1209:0.21379364 1210:0.08297478 1211:0.13488877 1212:0.085038227 1213:0.13488877 1214:0.11988226 1215:0.10004474 1216:0.089869244 1217:0.11988226 1218:0.067005899 1219:0.10487575 1220:0.13488877 1221:0.13488877 1222:0.13488877 1223:0.13488877 
1 1:0.02077714 4:0.017375123 9:0.030408158 12:0.04784839 13:0.024422368 18:0.026054065 20:0.034280559 31:0.029257654 54:0.046811174 56:0.06433912 77:0.13036899 107:0.11261597 119:0.035011555 151:0.071905376 360:0.084621092 379:0.11876906 434:0.15477484 624:0.13517208 1008:0.15929472 1150:0.17733095 1154:0.21249329 1224:0.17033442 1225:0.15929472 1226:0.21249329 1227:0.21249329 1228:0.21249329 1229:0.23909257 1230:0.23909257 1231:0.21249329 1232:0.21249329 1233:0.21249329 1234:0.23909257 1235:0.16441894 1236:0.17033442 1237:0.21249329 1238:0.21249329 1239:0.13781966 1240:0.21249329 1241:0.1969337 1242:0.1969337 
0.6717382190506093 1:0.022309671 4:0.016459997 9:0.025875366 18:0.022170316 20:0.014585264 40:0.068489069 46:0.11502266 50:0.13170333 52:0.22583039 53:0.17855221 56:0.086774177 63:0.057620972 85:0.090280932 88:0.12826285 95:0.088301275 122:0.098341984 161:0.18587738 164:0.16757778 181:0.080632744 201:0.1025163 207:0.082994327 237:0.13170333 268:0.091317665 311:0.15089711 360:0.07200705 430:0.13554946 533:0.12230926 541:0.099674999 835:0.093495427 1243:0.14494352 1244:0.40690448 1245:0.27109891 1246:0.40690448 1247:0.15089711 1248:0.18081798 1249:0.18081798 1250:0.16757778 1251:0.20345224 1252:0.099674999 1253:0.20345224 
0.9377724879642415 1:0.017222073 4:0.0098310019 9:0.039949263 12:0.062861681 13:0.020243586 20:0.03569074 113:0.2092763 272:0.18883462 386:0.18106305 1254:0.31411215 1255:0.27916687 1256:0.31411215 1257:0.24422158 1258:0.27916687 1259:0.25872519 1260:0.2237799 1261:0.23297171 1262:0.31411215 1263:0.31411215 1264:0.31411215 
1 9:0.06800006 18:0.036760015 63:0.15142702 70:0.29673937 904:0.29673937 1265:0.53466932 1266:0.53466932 1267:0.36768087 1268:0.29673937 
0.7119080184846719 1:0.033044121 9:0.048361365 13:0.02450627 18:0.026143573 209:0.27090116 278:0.28202849 403:0.31320486 406:0.23972478 422:0.20055158 424:0.20385137 1257:0.29564724 1269:0.33795094 1270:0.38025464 1271:0.38025464 1272:0.33795094 
1 1:0.011041419 4:0.012605708 13:0.012978572 18:0.032148699 20:0.040529697 36:0.075590968 56:0.054191759 110:0.14346982 119:0.046739981 133:0.14346982 135:0.14936288 270:0.13848731 301:0.12106569 474:0.14346982 573:0.13036424 660:0.13417127 1143:0.14346982 1273:0.20138365 1274:0.20138365 1275:0.20138365 1276:0.20138365 1277:0.20138365 1278:0.20138365 1279:0.20138365 1280:0.26290399 1281:0.31918554 1282:0.16587395 1283:0.16587395 1284:0.15657539 1285:0.20138365 1286:0.20138365 1287:0.20138365 1288:0.14936288 1289:0.20138365 1290:0.20138365 1291:0.20138365 1292:0.11176714 
1 1:0.043092012 4:0.016399019 9:0.03331953 13:0.026760641 18:0.028548562 31:0.050812111 119:0.060804979 148:0.060326977 295:0.16516318 296:0.11496022 297:0.22260399 424:0.14044748 982:0.20369207 1260:0.18664277 1293:0.244292 1294:0.21578875 1295:0.23283805 1296:0.21578875 1297:0.20369207 1298:0.19430916 1299:0.19430916 1300:0.21578875 1301:0.26198404 1302:0.26198404 1303:0.23283805 1304:0.18664277 1305:0.26198404 1306:0.16516318 1307:0.26198404 1308:0.19430916 
1 1:0.015018916 4:0.019906719 12:0.054820014 13:0.017653897 18:0.018833382 20:0.031124953 23:0.08138341 53:0.12020171 88:0.17269362 119:0.080225643 217:0.096172407 332:0.12742545 334:0.15790031 335:0.136074 411:0.15202948 815:0.136074 941:0.15790031 1006:0.15790031 1309:0.27392892 1310:0.43416707 1311:0.38586556 1312:0.2129792 1313:0.28926253 1314:0.18837517 1315:0.12902438 1316:0.27392892 1317:0.18250434 1318:0.27392892 
0.9375242556037606 1:0.021124071 4:0.015216016 9:0.04900055 13:0.024830166 20:0.034852966 33:0.13491115 40:0.040915392 46:0.13742915 54:0.075432825 63:0.068845575 76:0.14012093 85:0.10786772 99:0.055019545 113:0.16195458 171:0.14012093 186:0.13031579 421:0.14301229 444:0.18029197 582:0.15324854 625:0.14613519 1288:0.18029197 1319:0.20022205 1320:0.3852804 1321:0.24308487 1322:0.15735922 1323:0.18029197 1324:0.24308487 1325:0.21604144 1326:0.24308487 1327:0.24308487 1328:0.24308487 1329:0.24308487 1330:0.18899801 1331:0.18899801 
0.7352150527999494 13:0.023892776 20:0.026577599 29:0.15123414 31:0.045366715 54:0.072585082 119:0.054288674 148:0.08536909 302:0.18957562 465:0.30536403 512:0.18957562 515:0.30536403 538:0.19874812 626:0.26411937 760:0.32949062 761:0.26411937 1332:0.37073528 1333:0.37073528 1334:0.37073528 
0.8555377533227517 1:0.032474077 4:0.018537415 9:0.037664323 13:0.019085732 20:0.042460778 154:0.1471104 276:0.14508747 442:0.24392712 485:0.20365351 616:0.1867001 924:0.19170807 1335:0.41716153 1336:0.46938058 1337:0.29614618 1338:0.29614618 1339:0.23025307 1340:0.29614618 1341:0.26319962 
1 1:0.021612113 4:0.018073379 9:0.05013264 13:0.025403832 18:0.017098892 23:0.046618313 36:0.093351918 40:0.041860686 41:0.10145267 217:0.087315258 241:0.14060426 242:0.086924297 248:0.16569632 309:0.18566517 455:0.27107053 568:0.17717967 580:0.095015359 634:0.27107053 674:0.16099479 724:0.12021372 728:0.16569632 927:0.080271678 966:0.16099479 1036:0.18445737 1342:0.30647556 1343:0.2485049 1344:0.17717967 1345:0.24870101 1346:0.14060426 1347:0.13332656 1348:0.22103278 1349:0.22103278 1350:0.2048479 1351:0.22103278 1352:0.19336455 1353:0.2048479 
0.9383101926110138 4:0.0098702199 9:0.04010863 13:0.020324342 18:0.021682243 20:0.022608181 26:0.13540591 38:0.19399213 107:0.14854146 242:0.05511216 1354:0.28028053 1355:0.28028053 1356:0.24519584 1357:0.49984204 1358:0.49984204 1359:0.31536522 1360:0.31536522 
1 4:0.022387844 12:0.09771713 18:0.021180728 20:0.022085248 86:0.18124494 102:0.3253155 119:0.045112384 157:0.064082047 226:0.17758061 507:0.17758061 658:0.18950505 941:0.17758061 1252:0.15092953 1313:0.20525123 1361:0.5074981 1362:0.18124494 1363:0.30807075 1364:0.25374905 1365:0.19942736 1366:0.30807075 1367:0.25374905 
1 1:0.017236088 4:0.0077972247 8:0.10696725 9:0.031684805 13:0.01013003 18:0.021613666 20:0.011268337 23:0.029463682 24:0.084264984 31:0.019234524 54:0.030774533 58:0.03343259 63:0.044517024 71:0.051107023 98:0.072233044 166:0.096689283 186:0.084264984 213:0.092474808 217:0.055184945 231:0.041003691 235:0.11658065 491:0.13969702 505:0.084264984 555:0.06114861 557:0.074987946 705:0.13969702 735:0.059520419 780:0.13969702 835:0.072233044 1015:0.10809206 1098:0.090605196 1129:0.08886463 1368:0.15718388 1369:0.087236439 1370:0.36496968 1371:0.15718388 1372:0.15718388 1373:0.15718388 1374:0.27939405 1375:0.15718388 1376:0.11658065 1377:0.15718388 1378:0.15718388 1379:0.13969702 1380:0.18477596 1381:0.12221016 1382:0.090605196 1383:0.15718388 1384:0.15718388 1385:0.15718388 1386:0.15718388 1387:0.11658065 1388:0.15718388 1389:0.13969702 1390:0.11658065 1391:0.13969702 1392:0.10175185 1393:0.15718388 1394:0.12946786 1395:0.056548964 1396:0.08886463 1397:0.10175185 1398:0.15718388 1399:0.15718388 1400:0.12946786 
1 1:0.019833799 4:0.0071433061 9:0.029027541 13:0.014709195 18:0.024871136 23:0.067808512 31:0.027929273 40:0.060888322 42:0.1669876 66:0.079493577 68:0.12903488 93:0.12444987 148:0.052556079 157:0.094951565 217:0.080130677 231:0.094367 872:0.10244212 916:0.18799236 1168:0.16236691 1183:0.14774762 1395:0.082111286 1401:0.16927962 1402:0.14203385 1403:0.22823709 1404:0.36174723 1405:0.22823709 1406:0.18799236 1407:0.15206229 1408:0.36174723 1409:0.099058266 1410:0.36174723 1411:0.16260075 1412:0.18799236 1413:0.17745389 1414:0.18799236 1415:0.22823709 
0.351816347781587 1:0.014694366 4:0.0083880922 9:0.034085855 13:0.027376117 18:0.018426403 21:0.30262548 29:0.10932918 40:0.045110636 52:0.23575399 53:0.18639828 54:0.052472724 56:0.072120577 66:0.093346057 85:0.11892789 95:0.11632007 96:0.13504565 206:0.2240375 538:0.14367767 1047:0.23819316 1416:0.26800948 1417:0.26800948 1418:0.42478498 1419:0.26800948 1420:0.26800948 1421:0.26800948 1422:0.26800948 
0.5224486639714337 63:0.15558291 119:0.080443158 201:0.27680519 658:0.33792017 1423:0.48822827 1424:0.48822827 1425:0.54934325 
1 4:0.011798319 9:0.030249076 13:0.015328187 14:0.10212026 18:0.016352287 20:0.034101219 31:0.029104591 36:0.089275806 40:0.040032884 42:0.087007383 52:0.13200124 56:0.10144161 58:0.050588301 77:0.12968696 85:0.10554111 86:0.13992764 102:0.15846136 119:0.055201693 122:0.18221477 157:0.078413889 258:0.16355878 277:0.1872597 306:0.13709865 428:0.13992764 558:0.25923453 572:0.17640323 624:0.13446492 815:0.11814772 1225:0.15846136 1426:0.23784175 1427:0.23784175 1428:0.23784175 1429:0.29309363 1430:0.18492149 1431:0.23784175 1432:0.23784175 1433:0.12162047 1434:0.19590344 1435:0.19590344 1436:0.23784175 1437:0.12968696 
1 1:0.0207628 4:0.019330075 10:0.17720856 13:0.015398164 18:0.01642694 20:0.034256901 37:0.10484289 53:0.10484289 56:0.064294716 63:0.067668158 90:0.32861094 119:0.034987392 126:0.10045547 151:0.071855751 166:0.14697267 411:0.13260386 529:0.15466802 541:0.11705501 683:0.17021686 735:0.090474087 872:0.10724044 1093:0.17720856 1438:0.29443168 1439:0.18576571 1440:0.15918478 1441:0.21234663 1442:0.23892756 1443:0.23892756 1444:0.23892756 1445:0.18576571 1446:0.18576571 1447:0.17021686 1448:0.15062764 1449:0.21234663 1450:0.19679779 1451:0.29443168 
1 1:0.022440949 9:0.052055252 13:0.016642717 18:0.035509286 37:0.1133168 40:0.043466064 56:0.06949132 58:0.054926703 85:0.11459221 107:0.12163412 123:0.17758542 126:0.10857475 151:0.12309369 154:0.12827995 213:0.15192769 220:0.12163412 301:0.15524528 387:0.099550628 645:0.31822905 649:0.16280208 688:0.1915314 1452:0.20078018 1453:0.25823882 1454:0.27269415 1455:0.20078018 1456:0.21270392 1457:0.17205085 1458:0.2295095 1459:0.25823882 1460:0.17758542 1461:0.2295095 1462:0.25823882 1463:0.25823882 
1 1:0.02579608 4:0.0073626825 8:0.10100593 9:0.029918999 12:0.047078681 13:0.024029499 18:0.016173852 20:0.026729686 31:0.028787003 54:0.04605815 99:0.053245401 170:0.14142295 184:0.101608 236:0.15673224 277:0.1168585 293:0.11080438 335:0.1168585 364:0.15228506 506:0.10210042 555:0.091516964 618:0.13299765 733:0.13840075 843:0.19376575 891:0.16759435 918:0.16759435 946:0.17447833 986:0.17447833 1196:0.19376575 1218:0.1168585 1395:0.084632987 1464:0.23524643 1465:0.20907503 1466:0.20907503 1467:0.20907503 1468:0.23524643 1469:0.23524643 1470:0.17447833 1471:0.15673224 1472:0.23524643 1473:0.23524643 1474:0.23524643 1475:0.20907503 1476:0.17447833 
0.8452319830311082 1:0.024486266 4:0.0088189303 18:0.01937284 20:0.020200155 148:0.064884298 150:0.33123813 205:0.15930294 213:0.16577472 411:0.15638417 579:0.20898799 742:0.23209022 987:0.19377094 1027:0.23209022 1477:0.23209022 1478:0.15930294 1479:0.28177527 1480:0.28177527 1481:0.25042749 1482:0.28177527 1483:0.28177527 1484:0.28177527 1485:0.28177527 
0.9787614621590177 1:0.028570759 4:0.016309255 9:0.041814425 13:0.021188723 20:0.023569692 23:0.061628428 28:0.18587587 119:0.048144581 242:0.057456046 509:0.29220068 618:0.18587587 1465:0.29220068 1486:0.52110001 1487:0.3287775 1488:0.3287775 1489:0.3287775 1490:0.20727194 1491:0.3287775 
1 1:0.020990266 4:0.015300921 9:0.027489253 13:0.017577318 18:0.018751686 20:0.025271207 23:0.051124481 31:0.033375158 36:0.11885416 42:0.079069124 53:0.15468454 54:0.04231773 64:0.10602767 66:0.12277784 71:0.044339673 97:0.090856336 99:0.048921299 119:0.01996941 150:0.10114359 161:0.078607685 180:0.070800924 186:0.073107013 217:0.047877615 242:0.037772224 287:0.14863623 330:0.22223506 337:0.16804988 438:0.31329488 541:0.066810341 580:0.10419963 601:0.16804988 701:0.1603088 710:0.074358074 735:0.081845889 776:0.18171267 927:0.044015406 1208:0.17655669 1364:0.11232434 1365:0.088278347 1409:0.05918674 1492:0.121199 1493:0.14400389 1494:0.18755804 1495:0.13637034 1496:0.13637034 1497:0.21614187 1498:0.13637034 1499:0.1603088 1500:0.17802987 1501:0.22523333 1502:0.10114359 1503:0.13637034 1504:0.13637034 1505:0.13637034 1506:0.13637034 1507:0.1284647 1508:0.11232434 1509:0.19209588 1510:0.10114359 1511:0.074358074 1512:0.13637034 1513:0.11232434 1514:0.121199 1515:0.121199 
1 4:0.011107545 13:0.02287219 29:0.14477414 93:0.19351439 99:0.080327476 119:0.05196972 151:0.1067334 309:0.16716254 387:0.13681305 439:0.21335456 539:0.23645057 597:0.21335456 1292:0.19696768 1516:0.2632228 1517:0.35489923 1518:0.35489923 1519:0.31541634 1520:0.29232033 1521:0.35489923 1522:0.23645057 
1 4:0.013145514 9:0.033703079 12:0.084055432 13:0.017078442 20:0.01899754 23:0.049673475 54:0.051883468 119:0.038805284 242:0.04631047 566:0.13976458 724:0.12809201 815:0.13163846 1219:0.32656064 1523:0.5299996 1524:0.34595412 1525:0.42001474 1526:0.16301061 1527:0.1822348 1528:0.1965459 1529:0.23551831 1530:0.1965459 1531:0.13976458 1532:0.1822348 
1 1:0.033421718 4:0.022149294 13:0.019642682 53:0.13374293 95:0.13228256 96:0.15357783 119:0.044631697 161:0.17568843 162:0.1514033 184:0.083058478 387:0.11749532 649:0.19214828 927:0.098374577 1252:0.14932133 1315:0.14355952 1533:0.48307779 1534:0.30478815 1535:0.48307779 1536:0.30478815 1537:0.27088017 1538:0.21713729 
1 1:0.017743474 4:0.016519095 9:0.041158733 13:0.026317927 14:0.087668346 18:0.022249917 20:0.029275262 23:0.038273482 26:0.087668346 105:0.16817946 119:0.029899526 181:0.080922249 331:0.12872337 332:0.094981112 508:0.11133384 580:0.078007299 618:0.11543563 822:0.12872337 963:0.078007299 1356:0.15875166 1539:0.32362195 1540:0.32362195 1541:0.15875166 1542:0.16817946 1543:0.40836543 1544:0.20418272 1545:0.20418272 1546:0.18146719 1547:0.20418272 1548:0.20418272 1549:0.20418272 1550:0.20418272 1551:0.20418272 1552:0.20418272 1553:0.20418272 
1 4:0.015908536 9:0.040787043 13:0.020668116 18:0.022048985 20:0.036439214 54:0.062788722 56:0.08629929 58:0.068211908 77:0.17486641 107:0.15105395 119:0.046961668 256:0.20760245 839:0.18486014 971:0.19727339 1241:0.26415094 1554:0.32069943 1555:0.32069943 1556:0.26415094 1557:0.2850213 1558:0.23785739 1559:0.2850213 1560:0.2850213 1561:0.2850213 1562:0.2850213 
0.8325145386419055 1:0.0153078 4:0.017476526 9:0.035508809 12:0.055874459 13:0.017993464 20:0.031723631 23:0.052334861 54:0.054663261 71:0.090778843 99:0.063193316 107:0.13150613 119:0.040884379 206:0.14725283 207:0.11389326 243:0.1807367 265:0.24813682 266:0.22996728 267:0.24813682 268:0.12531539 269:0.24813682 270:0.1919985 271:0.1919985 272:0.16784521 273:0.24813682 274:0.17174433 275:0.21707578 276:0.13678417 277:0.13869134 278:0.32820827 279:0.39328756 280:0.20707636 281:0.22996728 
1 1:0.025520181 4:0.0091913034 18:0.020190844 40:0.1147735 42:0.10743161 122:0.14195169 194:0.26830461 360:0.16473869 453:0.16012984 555:0.22849286 696:0.23801352 1347:0.15743569 1563:0.29367303 1564:0.3802142 1565:0.38338668 1566:0.38338668 1567:0.29367303 1568:0.20195278 1569:0.20921865 
1 1:0.011611535 4:0.0066282976 18:0.029121207 40:0.03564657 56:0.090326875 63:0.059980083 99:0.047934481 119:0.049153367 151:0.063691906 161:0.12207706 201:0.10671351 305:0.13709551 310:0.13709551 313:0.12459608 318:0.16466006 319:0.13709551 320:0.16466006 321:0.17443874 322:0.17443874 323:0.18822101 387:0.081641587 510:0.1197319 538:0.11353456 541:0.10375588 565:0.18822101 639:0.14563801 649:0.13351417 658:0.13027446 1245:0.14109911 1570:0.18822101 1571:0.14563801 1572:0.21178196 1573:0.18822101 1574:0.17443874 1575:0.18822101 1576:0.18822101 1577:0.17443874 1578:0.14563801 1579:0.18822101 1580:0.17443874 1581:0.21178196 1582:0.15707513 1583:0.21178196 1584:0.21178196 1585:0.17443874 1586:0.16466006 
0.2812350772705463 4:0.020269029 9:0.051966676 12:0.081771536 13:0.026333198 40:0.068774857 157:0.084993716 201:0.20588815 238:0.25759612 242:0.071405974 302:0.20893899 494:0.35312471 502:0.22677272 556:0.14822592 566:0.21550258 733:0.24038996 822:0.25759612 835:0.18777112 1526:0.25134556 1587:0.25759612 1588:0.29109667 1589:0.31768756 1590:0.31768756 
1 13:0.033353753 93:0.28219559 119:0.075785712 148:0.11917324 157:0.10765344 411:0.28723141 597:0.31112785 796:0.33502429 1591:0.36870443 1592:0.42628101 1593:0.31112785 1594:0.42628101 
1 18:0.03296195 63:0.13578149 119:0.070204961 371:0.32969188 1595:0.39489029 1596:0.34155356 1597:0.39489029 1598:0.39489029 1599:0.39489029 1600:0.35558296 
0.9411535896511962 4:0.0098560009 12:0.06302153 13:0.020295062 18:0.021651008 29:0.12846169 119:0.046114024 126:0.13240215 301:0.1893148 623:0.15867852 1129:0.17803632 1219:0.24484261 1601:0.3149109 1602:0.3149109 1603:0.3149109 1604:0.3149109 1605:0.27987675 1606:0.27987675 1607:0.3149109 1608:0.23356413 1609:0.3149109 
1 1:0.020567012 4:0.007407379 9:0.047708367 13:0.024175375 18:0.016272038 20:0.016966933 23:0.070315249 31:0.02896176 58:0.050340037 63:0.067030063 66:0.082432286 99:0.08490428 157:0.049230862 592:0.14228149 747:0.30897581 789:0.16861176 844:0.54373202 1593:0.14228149 1610:0.48840424 1611:0.23667453 1612:0.23667453 1613:0.23667453 1614:0.21034426 1615:0.23667453 
1 1:0.019076032 4:0.01374078 9:0.05583704 13:0.022422811 20:0.024942454 24:0.11768131 52:0.12183113 58:0.046690698 63:0.062170801 71:0.071374146 88:0.219344 171:0.12653581 172:0.12183113 209:0.24786984 231:0.057264213 258:0.1509573 268:0.27660371 305:0.1421028 306:0.20055451 354:0.25805115 360:0.077692823 367:0.16281215 369:0.12653581 424:0.11768131 450:0.17067412 835:0.2017559 942:0.16281215 1080:0.12914684 1616:0.2195171 1617:0.2195171 1618:0.2195171 1619:0.15638846 1620:0.2195171 1621:0.2195171 1622:0.2195171 1623:0.2195171 1624:0.2195171 
0.9303704275415956 1:0.01288347 4:0.011656394 9:0.047366925 13:0.0302876 18:0.016155581 29:0.15192775 30:0.10311098 36:0.088201885 40:0.039551318 46:0.13284741 53:0.10311098 54:0.072917978 56:0.10022134 66:0.081842331 80:0.16159129 85:0.10427153 93:0.12812692 95:0.10198509 96:0.18766427 99:0.053185254 139:0.19354686 151:0.070668757 181:0.093128185 230:0.11512137 488:0.11210258 532:0.1412632 1208:0.15211304 1210:0.14454481 1493:0.15655519 1501:0.27648883 1502:0.17428123 1625:0.20883886 1626:0.18269702 1627:0.23498069 1628:0.23498069 1629:0.2653307 1630:0.19354686 1631:0.17428123 1632:0.19354686 1633:0.23498069 1634:0.23498069 1635:0.23498069 
1 1:0.025008764 13:0.029396406 18:0.031360426 40:0.048439688 54:0.05634508 74:0.21484509 119:0.042142264 145:0.1979057 156:0.18143078 217:0.10103809 302:0.14716046 538:0.15428072 1218:0.14295844 1629:0.20502597 1636:0.25577122 1637:0.25577122 1638:0.25577122 1639:0.25577122 1640:0.28778791 1641:0.21344746 1642:0.23704266 1643:0.22375454 1644:0.25577122 1645:0.16270221 1646:0.28778791 1647:0.28778791 
1 1:0.019349271 4:0.008753182 9:0.044883628 13:0.022743988 18:0.031360183 20:0.025299722 23:0.052424213 31:0.05581637 58:0.037531501 66:0.061458187 397:0.15682419 488:0.084181637 510:0.15811528 1195:0.15682419 1207:0.10854361 1314:0.12134439 1323:0.2617474 1352:0.1371934 1387:0.1308737 1648:0.31364839 1649:0.17645498 1650:0.17645498 1651:0.17645498 1652:0.17645498 1653:0.17645498 1654:0.15682419 1655:0.17645498 1656:0.17645498 1657:0.15682419 1658:0.24856047 1659:0.27967453 1660:0.17645498 1661:0.17645498 1662:0.17645498 1663:0.15682419 1664:0.17645498 1665:0.17645498 1666:0.17645498 1667:0.1308737 1668:0.083112784 1669:0.17645498 
0.896256938521773 1:0.011832947 4:0.0127852 8:0.05846515 9:0.040211107 10:0.1009931 18:0.0093618926 20:0.019523382 23:0.025524206 41:0.055546816 58:0.028962446 63:0.038564823 71:0.044273698 148:0.031355229 156:0.17168867 157:0.044892949 181:0.053966245 206:0.11382661 230:0.066710931 400:0.080110355 444:0.1009931 477:0.12101867 485:0.14841507 542:0.074247434 546:0.090721148 557:0.064961594 735:0.051562171 815:0.067641073 1239:0.078490722 1261:0.1009931 1306:0.085844336 1347:0.072998235 1565:0.11215721 1566:0.11215721 1670:0.093639482 1671:0.12101867 1672:0.13616743 1673:0.13616743 1674:0.13616743 1675:0.13616743 1676:0.27233486 1677:0.13616743 1678:0.13616743 1679:0.13616743 1680:0.11215721 1681:0.13616743 1682:0.13616743 1683:0.13616743 1684:0.13616743 1685:0.13616743 1686:0.10586991 1687:0.13616743 1688:0.13616743 1689:0.13616743 1690:0.13616743 1691:0.13616743 1692:0.13616743 1693:0.13616743 1694:0.13616743 1695:0.21582027 1696:0.13616743 1697:0.13616743 1698:0.13616743 1699:0.21582027 1700:0.10586991 1701:0.10586991 1702:0.13970968 1703:0.11215721 1704:0.13616743 1705:0.090721148 1706:0.13616743 1707:0.13616743 1708:0.11215721 1709:0.13616743 
0.7800459565804041 4:0.012559397 9:0.051036371 10:0.18778254 12:0.050668496 13:0.025861782 20:0.0181505 26:0.10870777 70:0.14051629 157:0.083472163 162:0.12576912 239:0.148954 242:0.070127668 253:0.18037365 257:0.16868329 264:0.148954 720:0.19685029 942:0.18778254 1629:0.28588547 1710:0.25318429 1711:0.25318429 1712:0.25318429 1713:0.28588547 1714:0.25318429 1715:0.25318429 1716:0.25318429 1717:0.25318429 1718:0.20854065 1719:0.25318429 
1 4:0.017454924 9:0.035464918 13:0.017971223 18:0.019171908 20:0.012612691 23:0.052270171 26:0.075540485 27:0.071769822 31:0.049989422 40:0.046935745 42:0.064361173 54:0.079981244 63:0.049828067 71:0.057204277 99:0.03982126 107:0.082868569 119:0.025763286 148:0.040512838 184:0.075990764 214:0.10576764 229:0.070392084 242:0.030746067 377:0.099466503 387:0.10749726 400:0.10350739 470:0.10576764 653:0.14491385 654:0.13679028 655:0.13679028 704:0.13048915 807:0.14491385 893:0.11721717 895:0.095932143 896:0.27340537 897:0.15636339 898:0.14491385 899:0.094318103 900:0.23443434 901:0.15636339 902:0.22968302 903:0.14491385 904:0.097644063 905:0.11721717 906:0.11091604 907:0.13679028 908:0.12534074 909:0.19176118 910:0.15636339 911:0.13679028 912:0.13679028 913:0.15636339 914:0.15636339 915:0.074744995 916:0.14491385 917:0.22968302 918:0.12534074 919:0.15476218 920:0.11721717 921:0.13048915 922:0.13679028 923:0.12534074 924:0.11389121 925:0.14491385 926:0.14491385 927:0.056785928 928:0.15636339 
0.816324143154341 1:0.017788702 4:0.020308909 8:0.08789181 9:0.041263646 13:0.020909626 18:0.014073917 20:0.014674942 21:0.14583471 23:0.03837104 26:0.08789181 27:0.083504621 31:0.025049438 54:0.040078183 98:0.094070288 107:0.09641808 119:0.029975739 277:0.10168616 400:0.12043147 422:0.25068301 489:0.15182491 867:0.28835182 891:0.14583471 1407:0.13638289 1720:0.36385949 1721:0.28835182 1722:0.26723758 1723:0.28835182 1724:0.20470317 1725:0.20470317 1726:0.20470317 1727:0.20470317 1728:0.20470317 1729:0.20470317 1730:0.20470317 1731:0.18192974 
1 4:0.020269029 9:0.051966676 12:0.081771536 13:0.026333198 40:0.068774857 157:0.084993716 201:0.20588815 238:0.25759612 242:0.071405974 302:0.20893899 494:0.35312471 502:0.22677272 556:0.14822592 566:0.21550258 733:0.24038996 822:0.25759612 835:0.18777112 1526:0.25134556 1587:0.25759612 1588:0.29109667 1589:0.31768756 1590:0.31768756 
1 1:0.021971683 4:0.016204967 9:0.02195017 12:0.034539425 13:0.011122862 18:0.03067316 20:0.024745468 27:0.070404399 40:0.029049767 148:0.062989707 159:0.11868604 171:0.099485308 181:0.068401059 206:0.14427279 207:0.070404399 217:0.096038517 220:0.081291992 242:0.047804248 324:0.15338857 329:0.14215686 404:0.10616569 448:0.12295613 460:0.14215686 470:0.16444842 494:0.14915612 521:0.12295613 546:0.11498711 566:0.18205199 598:0.10153816 624:0.09757415 735:0.10358355 815:0.085733611 822:0.10880586 904:0.095786382 963:0.1045079 1098:0.099485308 1526:0.10616569 1528:0.20288564 1531:0.21135581 1538:0.12295613 1732:0.24311513 1733:0.14215686 1734:0.13418784 1735:0.1725893 1736:0.11498711 1737:0.1725893 1738:0.1725893 1739:0.12295613 1740:0.21268269 1741:0.15338857 1742:0.1725893 1743:0.2253133 1744:0.1725893 1745:0.15338857 1746:0.15338857 1747:0.15338857 1748:0.079312521 1749:0.12800659 1750:0.12295613 1751:0.13418784 
1 1:0.020116245 9:0.046662742 13:0.023645523 157:0.1209626 843:0.30220399 1239:0.21149072 1369:0.20362736 1752:0.32608089 1753:0.39989961 1754:0.36689874 1755:0.36689874 1756:0.36689874 1757:0.36689874 
1 1:0.015339061 4:0.016573468 9:0.035581326 12:0.035324852 18:0.019234837 20:0.029381887 23:0.066174108 27:0.072005395 95:0.076609672 99:0.039951967 119:0.0516957 179:0.086477449 184:0.076240191 242:0.048891317 271:0.1923906 274:0.1085799 276:0.086477449 289:0.1112801 332:0.08211025 335:0.087683193 400:0.10384714 436:0.20349521 471:0.17637479 639:0.12138496 860:0.14538951 999:0.19931245 1130:0.11760192 1168:0.079226674 1303:0.15687662 1380:0.13091745 1439:0.13723927 1758:0.35302795 1759:0.2175191 1760:0.17651398 1761:0.17651398 1762:0.17651398 1763:0.17651398 1764:0.16459381 1765:0.1112801 1766:0.11760192 1767:0.15687662 1768:0.17651398 1769:0.17651398 1770:0.12138496 1771:0.17651398 1772:0.17651398 1773:0.15687662 1774:0.17651398 1775:0.15687662 1776:0.15687662 1777:0.13723927 
-0.09492511957910779 1:0.017760518 4:0.010138366 13:0.013171603 18:0.022271289 31:0.039639517 36:0.076715238 40:0.034400498 63:0.057883402 99:0.046258869 157:0.04251301 177:0.12024066 194:0.18672395 207:0.083372319 231:0.05331518 268:0.091733564 309:0.096265318 405:0.10012896 428:0.12024066 531:0.10610967 582:0.12884701 735:0.077391614 915:0.17365693 1074:0.098789875 1245:0.1361668 1247:0.30316872 1252:0.15870065 1306:0.12884701 1343:0.12884701 1369:0.11342946 1531:0.10779224 1632:0.168341 1778:0.23077634 1779:0.12024066 1780:0.20437885 1781:0.20437885 1782:0.12286631 1783:0.168341 1784:0.15890415 1785:0.15890415 1786:0.24025553 1787:0.1816415 1788:0.1816415 1789:0.1816415 1790:0.20437885 1791:0.168341 1792:0.20437885 1793:0.168341 1794:0.168341 1795:0.12572055 
-0.2795969773299748 1:0.0099052975 4:0.013128909 9:0.04595374 13:0.018453915 18:0.01242102 20:0.030072354 23:0.053674107 36:0.067812933 37:0.07927561 58:0.038426324 70:0.20053341 71:0.058740738 77:0.15613276 98:0.083022294 99:0.081781655 115:0.12423747 123:0.12423747 151:0.086115457 231:0.074696588 242:0.031571882 311:0.13399398 533:0.10860847 592:0.10860847 835:0.083022294 994:0.075184827 1098:0.10413865 1392:0.11695024 1460:0.12423747 1795:0.11113149 1796:0.12423747 1797:0.18066201 1798:0.18066201 1799:0.18066201 1800:0.18066201 1801:0.11695024 1802:0.18066201 1803:0.18066201 1804:0.16056318 1805:0.28634251 1806:0.14880612 1807:0.16056318 1808:0.18066201 1809:0.16056318 1810:0.18066201 1811:0.18066201 1812:0.18066201 1813:0.16056318 1814:0.18066201 1815:0.14880612 1816:0.18066201 1817:0.18066201 1818:0.18066201 1819:0.18066201 
-0.2795969773299748 1:0.021724642 4:0.015648618 9:0.031794865 18:0.017187922 20:0.01792193 58:0.084277946 63:0.070802901 66:0.087072049 71:0.081284083 157:0.052001858 592:0.15028991 747:0.20591449 899:0.26804152 1293:0.23311346 1593:0.15028991 1721:0.22218364 1820:0.39623418 1821:0.11629237 1822:0.22218364 1823:0.22218364 1824:0.22218364 1825:0.20591449 1826:0.24999594 1827:0.24999594 1828:0.39623418 1829:0.24999594 
-0.2795969773299748 1:0.030414572 4:0.020991459 9:0.048158758 12:0.047811625 13:0.015396959 18:0.026034046 20:0.03425422 40:0.040212498 119:0.055449364 157:0.049695627 181:0.094685009 226:0.13771376 231:0.062322834 242:0.041750906 411:0.13259348 490:0.19678239 714:0.15917232 872:0.10723204 911:0.29440864 994:0.099425007 1129:0.13506822 1143:0.17020354 1239:0.21827115 1304:0.17020354 1705:0.15917232 1770:0.16429261 1830:0.23890886 1831:0.37866159 1832:0.29392233 1833:0.21233002 1834:0.21233002 1835:0.23890886 1836:0.17719469 1837:0.23890886 1838:0.17719469 1839:0.17719469 
-0.2795969773299748 1:0.019032817 4:0.015916413 12:0.10177319 13:0.022372014 18:0.023866723 20:0.024885949 27:0.089344809 31:0.042479148 40:0.036864825 42:0.080121931 54:0.042881191 98:0.10064942 157:0.045558488 231:0.057134486 296:0.096107248 302:0.11199586 355:0.13166801 360:0.12286125 494:0.23884799 538:0.23482942 541:0.10730184 580:0.083675758 593:0.2918426 598:0.12885427 601:0.17028747 604:0.14178088 696:0.11199586 899:0.11741471 963:0.083675758 967:0.11036054 1028:0.18040034 1128:0.1459213 1168:0.098305024 1317:0.23127979 1396:0.12382385 1397:0.14178088 1840:0.21901981 1841:0.19465364 1842:0.22471738 1843:0.16244331 1844:0.1459213 1845:0.15061532 1846:0.21901981 1847:0.119424 1848:0.21901981 1849:0.1459213 1850:0.21901981 1851:0.18040034 
-0.2795969773299748 4:0.0090753791 13:0.018687639 20:0.020787562 42:0.10607664 157:0.060316711 189:0.1877094 436:0.16714632 915:0.1231907 1490:0.18280588 1703:0.23883925 1852:0.23883925 1853:0.28996911 1854:0.20657991 1855:0.45959017 1856:0.28996911 1857:0.28996911 1858:0.28996911 1859:0.28996911 1860:0.28996911 
-0.2795969773299748 1:0.025808926 4:0.014732698 9:0.059867796 13:0.030336952 23:0.088236493 31:0.057602676 52:0.26125171 63:0.13331756 85:0.20888286 157:0.097916336 201:0.23719181 231:0.12279599 242:0.082262685 556:0.1707625 1248:0.41835828 1395:0.16935026 1402:0.18482295 1668:0.22171912 1861:0.29676156 1862:0.47072714 1863:0.19202385 1864:0.17824904 1865:0.19202385 1866:0.18655986 
-0.2795969773299748 1:0.02802752 4:0.011182929 13:0.0099173684 18:0.016768845 20:0.028516736 31:0.043723602 56:0.082819533 85:0.068285314 86:0.09053347 110:0.10963017 119:0.02253404 126:0.064699523 151:0.04627954 154:0.12115741 207:0.062773983 374:0.092510412 376:0.092510412 411:0.085405071 532:0.18502082 587:0.09053347 598:0.09053347 633:0.11964459 794:0.12674993 958:0.13676434 1081:0.18004164 1150:0.11413325 1159:0.11964459 1239:0.17740622 1288:0.11413325 1867:0.3535307 1868:0.27352869 1869:0.1538841 1870:0.1538841 1871:0.1538841 1872:0.13676434 1873:0.1538841 1874:0.1538841 1875:0.22826651 1876:0.086999081 1877:0.18089693 1878:0.15788723 1879:0.27352869 1880:0.13676434 1881:0.1538841 1882:0.1538841 1883:0.24390053 1884:0.12674993 1885:0.1538841 1886:0.12674993 
-0.2795969773299748 1:0.014852058 4:0.0084781085 16:0.29525053 18:0.029518572 23:0.050776754 24:0.14521954 31:0.033148154 36:0.10167908 332:0.12600977 386:0.15614606 406:0.270672 624:0.15314642 787:0.22312072 978:0.12448408 979:0.19270689 989:0.30587308 1215:0.20091131 1382:0.15614606 1396:0.15314642 1397:0.27793241 1765:0.17077502 1876:0.15314642 1887:0.18047674 1888:0.24074932 1889:0.17535583 1890:0.22312072 1891:0.16663117 1892:0.22312072 1893:0.18047674 1894:0.21061303 
-0.2795969773299748 1:0.019047451 4:0.01723329 13:0.022389215 18:0.023885073 56:0.093485703 119:0.080630709 379:0.17257323 514:0.18322627 534:0.27010677 542:0.18942809 710:0.18942809 1507:0.16363269 1876:0.19640705 1895:0.27010677 1896:0.39227578 1897:0.34740508 1898:0.34740508 1899:0.34740508 1900:0.34740508 
-0.2795969773299748 13:0.023939634 18:0.025539079 66:0.12937806 71:0.12077787 387:0.14319811 1901:0.28881125 1902:0.3301368 1903:0.37146235 1904:0.37146235 1905:0.37146235 1906:0.37146235 1907:0.3059629 1908:0.3301368 
-0.2795969773299748 1:0.016479685 4:0.016662478 13:0.01937095 18:0.01303826 36:0.071182775 40:0.050591436 42:0.10995532 63:0.053709032 119:0.027769915 146:0.20332854 184:0.05167912 227:0.12634688 231:0.049470256 242:0.033140791 255:0.18489218 374:0.11400557 506:0.13045259 688:0.14065257 748:0.14744448 874:0.14744448 963:0.072451184 1112:0.26713288 1218:0.094203378 1268:0.21049856 1507:0.089322964 1909:0.18963968 1910:0.16854208 1911:0.14065257 1912:0.30057179 1913:0.15620078 1914:0.18963968 1915:0.11400557 1916:0.30057179 1917:0.18963968 1918:0.18963968 1919:0.18963968 1920:0.15620078 1921:0.13510318 1922:0.18963968 1923:0.14744448 1924:0.18963968 1925:0.18963968 1926:0.16854208 
-0.2795969773299748 1:0.018885701 4:0.018978003 8:0.063695314 9:0.01886721 12:0.047054795 18:0.026365033 20:0.016855998 23:0.044073916 31:0.018153362 41:0.060515912 54:0.046034782 58:0.031553363 99:0.033577064 119:0.050440309 125:0.080889446 157:0.048908974 172:0.082332927 184:0.080853631 214:0.089182679 229:0.059354211 235:0.11002772 242:0.025924912 249:0.064385511 400:0.087276851 453:0.080889446 531:0.077019847 554:0.1153408 815:0.11679921 872:0.066584933 918:0.10568661 950:0.10201626 959:0.1153408 1001:0.080889446 1315:0.13974863 1409:0.064385511 1411:0.10568661 1433:0.075858146 1437:0.12820674 1478:0.13293017 1494:0.10201626 1564:0.1522078 1701:0.1153408 1779:0.087276851 1927:0.20896896 1928:0.10568661 1929:0.19206486 1930:0.1522078 1931:0.1153408 1932:0.10201626 1933:0.10568661 1934:0.26368946 1935:0.18281084 1936:0.14834867 1937:0.20896896 1938:0.23512707 1939:0.14834867 1940:0.13184473 1941:0.085512329 1942:0.10568661 1943:0.13184473 1944:0.11002772 1945:0.23512707 1946:0.13184473 1947:0.13184473 1948:0.13184473 1949:0.14834867 1950:0.14834867 1951:0.12219055 1952:0.13184473 1953:0.14834867 1954:0.14834867 1955:0.13184473 
-0.2795969773299748 4:0.019122699 9:0.060122349 12:0.047302399 18:0.025756765 20:0.033889389 28:0.13362965 36:0.088721241 58:0.050274055 66:0.082324241 129:0.27785573 162:0.11741381 184:0.064412151 268:0.27423854 367:0.27785573 369:0.13624702 454:0.18377279 555:0.091951853 587:0.13905843 835:0.17215863 915:0.1004172 1293:0.32288368 1956:0.15300872 1957:0.33295078 1958:0.18377279 1959:0.23636432 1960:0.19468652 1961:0.23636432 1962:0.23636432 1963:0.23636432 1964:0.23636432 
-0.2795969773299748 12:0.15034985 13:0.048417733 54:0.1470907 498:0.35841419 532:0.45164647 1051:0.55721168 1299:0.55721168 
-0.2795969773299748 1:0.012516113 4:0.025613353 9:0.02903306 12:0.045684622 18:0.024875865 20:0.032730346 23:0.042790542 27:0.09312252 30:0.10017089 95:0.0990771 119:0.033428286 217:0.080145912 242:0.039893526 387:0.08800174 530:0.21751271 531:0.18784809 533:0.13723524 538:0.19396657 849:0.1880281 906:0.14391538 1292:0.12669477 1376:0.39312983 1433:0.11673131 1629:0.16263167 1965:0.37605619 1966:0.28131123 1967:0.22828048 1968:0.22828048 1969:0.20288406 1970:0.22828048 1971:0.20288406 1972:0.20288406 1973:0.20288406 
-0.2795969773299748 1:0.022645657 4:0.020488788 18:0.028397144 31:0.050542609 157:0.085915229 249:0.17926221 377:0.23350982 593:0.27518169 739:0.30633928 1143:0.29425278 1440:0.27518169 1974:0.36708224 1975:0.41303251 1976:0.41303251 1977:0.30633928 
-0.2795969773299748 1:0.011773913 4:0.0116254 8:0.046101383 9:0.021643782 13:0.017887394 18:0.02452284 20:0.0266285 23:0.02012654 27:0.043800196 29:0.069421669 30:0.0471154 31:0.033963918 41:0.069421669 54:0.033319047 56:0.028893434 58:0.053027469 68:0.060703124 71:0.034911032 90:0.073837314 99:0.024302401 107:0.080157289 119:0.031446002 126:0.071551121 148:0.049448925 151:0.096873872 157:0.035399329 181:0.067446292 184:0.046376183 202:0.076493839 229:0.068089008 241:0.060703124 242:0.037527857 268:0.048192832 346:0.069506336 360:0.038001669 466:0.095426558 469:0.095426558 514:0.056629365 553:0.095426558 555:0.041770406 604:0.069506336 643:0.071536127 673:0.083481342 683:0.17761319 717:0.079635842 899:0.057561121 927:0.034655719 944:0.10230715 994:0.044684149 1006:0.061892099 1057:0.056629365 1080:0.063169224 1097:0.067690627 1122:0.067690627 1168:0.096385664 1268:0.059590912 1369:0.059590912 1437:0.05854615 1438:0.21579614 1439:0.1323148 1440:0.071536127 1441:0.095426558 1446:0.083481342 1451:0.1323148 1478:0.060703124 1582:0.079635842 1645:0.060703124 1765:0.067690627 1893:0.071536127 1920:0.088439055 1978:0.10737177 1979:0.14017259 1980:0.1323148 1981:0.083481342 1982:0.095426558 1983:0.095426558 1984:0.095426558 1985:0.083481342 1986:0.11702937 1987:0.10737177 1988:0.10737177 1989:0.10737177 1990:0.088439055 1991:0.095426558 1992:0.10737177 1993:0.095426558 1994:0.083481342 1995:0.063169224 1996:0.095426558 1997:0.10737177 1998:0.10737177 1999:0.10737177 2000:0.10737177 2001:0.076493839 2002:0.10737177 2003:0.10737177 2004:0.088439055 2005:0.10737177 2006:0.17018023 2007:0.10737177 2008:0.10737177 2009:0.10737177 2010:0.095426558 2011:0.10737177 2012:0.095426558 2013:0.10737177 2014:0.076493839 2015:0.10737177 2016:0.095426558 2017:0.10468379 2018:0.073837314 2019:0.10737177 2020:0.095426558 2021:0.10737177 2022:0.095426558 2023:0.095426558 2024:0.069506336 2025:0.10737177 2026:0.083481342 2027:0.095426558 2028:0.10737177 2029:0.083481342 2030:0.095426558 2031:0.088439055 2032:0.10737177 2033:0.10737177 2034:0.10737177 2035:0.10737177 2036:0.083481342 2037:0.10737177 2038:0.095426558 
-0.2795969773299748 1:0.027171974 4:0.018535184 18:0.011357681 31:0.052254887 37:0.072488983 40:0.044070404 57:0.088560156 58:0.035136723 98:0.075914922 99:0.086817462 119:0.04838097 153:0.25555437 154:0.23037419 155:0.13606713 157:0.034362533 184:0.04501789 194:0.15092575 205:0.18678851 242:0.057738153 293:0.077809595 309:0.12332529 335:0.16412189 338:0.08712661 352:0.18005451 360:0.058467133 507:0.22110222 530:0.099310717 580:0.10003098 592:0.099310717 696:0.084472983 710:0.14276655 963:0.10003098 994:0.068748404 1058:0.10693836 1066:0.14681769 1073:0.10414482 1128:0.11006128 1252:0.080932512 1313:0.174443 1315:0.077809595 1343:0.10414482 1362:0.19437691 2039:0.10414482 2040:0.13606713 2041:0.10414482 2042:0.13606713 2043:0.12843948 2044:0.14681769 2045:0.23270053 2046:0.14681769 2047:0.091683073 2048:0.18653253 2049:0.1651959 2050:0.14681769 2051:0.12843948 2052:0.12843948 2053:0.14681769 2054:0.12843948 2055:0.1651959 2056:0.14681769 2057:0.13606713 
-0.2795969773299748 1:0.024145163 4:0.0086960794 9:0.035337392 23:0.08254836 26:0.11929831 31:0.034000388 63:0.078691634 184:0.075717514 905:0.18511677 985:0.21602786 1125:0.16703494 1347:0.14895311 1643:0.21602786 2058:0.27785004 2059:0.22885712 2060:0.27785004 2061:0.19794603 2062:0.24693895 2063:0.44038189 2064:0.24693895 2065:0.20607671 2066:0.27785004 2067:0.22885712 2068:0.22885712 
-0.2795969773299748 1:0.021442639 4:0.021680481 29:0.15953776 40:0.04153243 99:0.11169857 122:0.11927105 157:0.081351105 194:0.14223407 287:0.16968534 334:0.22543567 371:0.16968534 496:0.20324156 1061:0.18301092 1065:0.19184825 2069:0.39109075 2070:0.30407229 2071:0.34758152 2072:0.30407229 2073:0.30407229 2074:0.18301092 2075:0.16968534 2076:0.19184825 2077:0.21929952 
-0.1257473456012149 4:0.013729927 9:0.027896468 13:0.014136044 18:0.015080495 31:0.04254197 40:0.036919345 54:0.042944608 56:0.09355203 58:0.046653819 74:0.10331398 78:0.10895883 151:0.10455371 157:0.045625864 179:0.10746053 186:0.11758835 229:0.087759286 506:0.09519841 839:0.12643586 994:0.091282718 1001:0.11960061 1167:0.16268355 1507:0.10331398 1876:0.12400697 1908:0.19494151 2017:0.13492596 2078:0.18066714 2079:0.17053931 2080:0.30897498 2081:0.16268355 2082:0.15626493 2083:0.13828135 2084:0.17053931 2085:0.21934371 2086:0.19494151 2087:0.21934371 2088:0.21934371 2089:0.19494151 2090:0.21934371 2091:0.12904483 2092:0.18066714 2093:0.21934371 2094:0.17053931 2095:0.17053931 2096:0.13492596 2097:0.16268355 2098:0.18066714 
-0.2795969773299748 1:0.017408544 4:0.012839475 9:0.027564874 13:0.013968014 18:0.01490124 20:0.025340726 23:0.05126512 31:0.016733485 40:0.023016632 54:0.026772963 58:0.029085397 66:0.075487979 107:0.06440905 119:0.020024345 121:0.10631934 148:0.049907833 157:0.028444539 207:0.088413364 221:0.08411691 249:0.059349558 276:0.06699413 318:0.10631934 364:0.14030277 378:0.10631934 403:0.11263334 405:0.10618318 416:0.08411691 422:0.072121467 555:0.053197541 696:0.11082827 786:0.10142183 871:0.12153241 872:0.097280166 886:0.11263334 1208:0.088521194 1293:0.12751093 1294:0.11263334 1295:0.19262432 1362:0.080450437 1396:0.077309685 1397:0.088521194 1409:0.094066824 1450:0.11263334 1494:0.14904511 1511:0.074562627 1527:0.094036998 1770:0.094036998 1784:0.10631934 2099:0.12153241 2100:0.13674548 2101:0.35348194 2102:0.13674548 2103:0.10631934 2104:0.12153241 2105:0.13674548 2106:0.13674548 2107:0.12153241 2108:0.13674548 2109:0.13674548 2110:0.1607498 2111:0.13674548 2112:0.13674548 2113:0.21673646 2114:0.17851962 2115:0.13674548 2116:0.13674548 2117:0.12153241 2118:0.10631934 2119:0.13674548 2120:0.10142183 2121:0.13674548 2122:0.13674548 2123:0.13674548 2124:0.13674548 2125:0.12153241 2126:0.12153241 
-0.2795969773299748 1:0.016236481 4:0.017800615 9:0.041929602 13:0.0082194954 20:0.027429351 31:0.015606872 36:0.047872726 37:0.055964833 54:0.039577185 58:0.027127169 63:0.036121066 99:0.028866992 122:0.061647995 154:0.12670966 157:0.026529458 166:0.078453583 179:0.062483627 181:0.050546539 205:0.072104668 222:0.11335002 229:0.051028212 242:0.044576514 249:0.055353739 277:0.063354828 289:0.080404596 293:0.060072591 310:0.082561341 352:0.087705783 360:0.071544128 386:0.073516961 433:0.090861269 455:0.087705783 508:0.06954256 788:0.099161197 789:0.090861269 803:0.18918683 809:0.17965553 810:0.10505009 811:0.10505009 812:0.094593417 813:0.10505009 814:0.17965553 817:0.16650045 832:0.10505009 838:0.099161197 847:0.094593417 848:0.10505009 939:0.080404596 946:0.094593417 1064:0.094593417 1207:0.078453583 1392:0.082561341 1396:0.072104668 1440:0.084972376 1475:0.17965553 1476:0.094593417 1507:0.060072591 1668:0.060072591 1801:0.13085663 2024:0.082561341 2110:0.094593417 2127:0.12753884 2128:0.11335002 2129:0.11335002 2130:0.11335002 2131:0.12753884 2132:0.12753884 2133:0.12753884 2134:0.17965553 2135:0.12753884 2136:0.12753884 2137:0.12753884 2138:0.12753884 2139:0.090861269 2140:0.11335002 2141:0.094593417 2142:0.29613601 2143:0.20214428 2144:0.17965553 2145:0.094593417 2146:0.11335002 2147:0.12753884 2148:0.12753884 2149:0.12753884 2150:0.12753884 2151:0.12753884 2152:0.11335002 
-0.2795969773299748 4:0.011365917 18:0.024967891 41:0.14814172 58:0.077241988 203:0.29911997 229:0.1452979 306:0.20933243 506:0.15761442 735:0.13751479 1994:0.28235191 2153:0.29911997 2154:0.3631545 2155:0.3631545 2156:0.3631545 2157:0.32275321 2158:0.32275321 
-0.2795969773299748 1:0.035927345 4:0.020508669 20:0.046976025 99:0.14831446 151:0.19706964 236:0.43657588 436:0.3777196 1145:0.40308326 1956:0.42418833 2159:0.50947601 
-0.2795969773299748 1:0.035169283 4:0.020075939 9:0.081580594 71:0.2085621 274:0.39457826 276:0.31425818 1293:0.37737945 2099:0.57008808 2160:0.47575272 
-0.2795969773299748 1:0.012017447 4:0.0068600071 8:0.094109911 12:0.043864459 13:0.022388924 18:0.015069608 20:0.024904759 33:0.12164701 40:0.03689269 54:0.068016452 56:0.058982145 71:0.071266281 119:0.050871652 157:0.045592924 186:0.11750346 217:0.076952746 242:0.038304092 256:0.22488723 374:0.13176753 377:0.12391744 488:0.10456708 812:0.1625661 1168:0.098379328 1380:0.1625661 1764:0.12895166 2161:0.1625661 2162:0.15072917 2163:0.38960154 2164:0.17041618 2165:0.41919323 2166:0.14188805 2167:0.12391744 2168:0.1805367 2169:0.19480077 2170:0.1805367 2171:0.13818151 2172:0.19480077 2173:0.21918535 2174:0.1805367 2175:0.17041618 2176:0.21918535 
-0.2795969773299748 1:0.020913052 4:0.01471083 13:0.013878454 18:0.014805695 20:0.01948055 26:0.058336885 27:0.055424954 31:0.033252386 40:0.022869054 58:0.028898906 71:0.044176567 95:0.058969019 96:0.068462041 99:0.086332793 129:0.10077153 153:0.25412771 154:0.22420582 160:0.10563764 163:0.11191115 173:0.19138924 194:0.18184998 205:0.17835656 217:0.047701496 256:0.087953612 288:0.087953612 293:0.06399607 301:0.081680102 309:0.06399607 334:0.078318523 335:0.13498535 352:0.093434049 405:0.066564576 456:0.090522117 506:0.058969019 507:0.078318523 557:0.064819077 580:0.082272493 592:0.18965532 701:0.10077153 732:0.096795627 801:0.093434049 815:0.067492677 927:0.043853493 1061:0.10077153 1168:0.060983413 1313:0.21018585 1315:0.06399607 1362:0.079934603 1510:0.10077153 1614:0.12075317 1782:0.081680102 1941:0.078318523 2042:0.11191115 2044:0.12075317 2045:0.19138924 2047:0.075406592 2048:0.096795627 2052:0.1674317 2053:0.12075317 2075:0.093434049 2177:0.21534679 2178:0.17737498 2179:0.12075317 2180:0.13586869 2181:0.13586869 2182:0.13586869 2183:0.12075317 2184:0.13586869 2185:0.13586869 2186:0.090522117 2187:0.13586869 2188:0.13586869 2189:0.13586869 2190:0.15341744 2191:0.13586869 2192:0.10563764 
-0.2795969773299748 1:0.01594394 4:0.025550848 12:0.15043554 13:0.018741211 18:0.031688696 20:0.041694308 119:0.042583394 148:0.066962505 248:0.19374489 302:0.14870088 387:0.11210305 411:0.16139306 421:0.17108438 538:0.15589568 580:0.11109927 585:0.17888144 597:0.27708359 625:0.34964057 664:0.19997731 724:0.14056314 1098:0.16762548 1645:0.16440532 1845:0.19997731 2193:0.25131717 2194:0.22609672 2195:0.29080037 2196:0.25844854 2197:0.29080037 2198:0.25844854 
-0.2795969773299748 1:0.037711646 4:0.02716432 20:0.031110545 31:0.053104243 36:0.16289265 37:0.19042701 56:0.11677902 148:0.09992923 293:0.20440415 411:0.24084948 512:0.22190873 623:0.21866851 710:0.23662685 1292:0.24084948 1795:0.26694766 1895:0.33740779 2199:0.35744545 2200:0.4339661 2201:0.30916629 
-0.2795969773299748 1:0.011640995 4:0.0093275967 9:0.034900985 13:0.015885865 18:0.021896317 20:0.019672768 29:0.043305727 31:0.025981416 37:0.046583504 42:0.038835367 54:0.020784657 56:0.07384527 58:0.063389705 63:0.047653686 71:0.054708015 74:0.050002683 112:0.066926454 113:0.070728541 122:0.08133077 148:0.024445343 151:0.031926748 157:0.034999699 184:0.057859581 202:0.075630285 214:0.063819922 224:0.075630285 231:0.027693276 249:0.046074847 264:0.062456094 387:0.040924358 506:0.046074847 566:0.055990064 626:0.075630285 785:0.065302487 791:0.066926454 792:0.068721665 861:0.082538905 944:0.063819922 963:0.040557919 974:0.094349268 994:0.070023169 1167:0.1247949 1168:0.047648773 1183:0.10892126 1186:0.075630285 1250:0.087440648 1346:0.060017834 1348:0.094349268 1395:0.060533394 1397:0.068721665 1407:0.070728541 1433:0.054284767 1448:0.066926454 1569:0.075630285 1995:0.098990567 2061:0.075630285 2168:0.087440648 2202:0.29802776 2203:0.10615963 2204:0.10615963 2205:0.087440648 2206:0.082538905 2207:0.094349268 2208:0.10615963 2209:0.10615963 2210:0.10615963 2211:0.10615963 2212:0.094349268 2213:0.10615963 2214:0.31847889 2215:0.10615963 2216:0.10615963 2217:0.10615963 2218:0.24649503 2219:0.10615963 2220:0.10615963 2221:0.094349268 2222:0.094349268 2223:0.07300375 2224:0.13859015 2225:0.1247949 2226:0.078736817 2227:0.094349268 2228:0.075630285 2229:0.10615963 2230:0.10615963 2231:0.082538905 2232:0.087440648 2233:0.087440648 2234:0.07300375 2235:0.10615963 2236:0.10615963 2237:0.087440648 2238:0.10615963 2239:0.10615963 2240:0.078736817 2241:0.10615963 2242:0.13082107 2243:0.068721665 2244:0.094349268 2245:0.10615963 2246:0.10615963 2247:0.087440648 2248:0.10615963 2249:0.075630285 2250:0.078736817 2251:0.10615963 2252:0.082538905 2253:0.10615963 2254:0.094349268 2255:0.10615963 2256:0.094349268 2257:0.10615963 
-0.09201505506255295 1:0.029178375 4:0.016656105 9:0.067683756 13:0.054360333 20:0.038151555 23:0.099756089 231:0.13882745 242:0.093002379 249:0.23097497 276:0.2607259 295:0.33550487 556:0.19305616 1055:0.47297649 1057:0.28068033 1058:0.34450434 1395:0.19145956 1402:0.20895226 1863:0.21709327 1864:0.2015201 1865:0.21709327 1866:0.21091593 
-0.2795969773299748 1:0.019598306 4:0.015703563 9:0.022730651 18:0.019475887 20:0.025625341 40:0.030082687 56:0.048094662 71:0.058111275 119:0.04148128 125:0.097453189 151:0.085192647 157:0.037176949 217:0.099453351 229:0.071508181 242:0.062467119 313:0.10514854 414:0.10104359 471:0.11267466 529:0.115697 580:0.068281665 708:0.12732808 927:0.057686293 937:0.13895915 1369:0.157216 1409:0.077569741 1433:0.091391628 1447:0.12732808 1748:0.082132631 1944:0.13255811 1990:0.23332474 1993:0.25175956 2097:0.13255811 2258:0.13255811 2259:0.17872604 2260:0.15884259 2261:0.17872604 2262:0.17872604 2263:0.17872604 2264:0.17872604 2265:0.17872604 2266:0.17872604 2267:0.17872604 2268:0.17872604 2269:0.17872604 2270:0.17872604 2271:0.13895915 2272:0.17872604 2273:0.17872604 2274:0.17872604 2275:0.17872604 2276:0.17872604 2277:0.12732808 2278:0.15884259 2279:0.17872604 
-0.2111016765626745 9:0.073667004 13:0.05916579 23:0.10857453 231:0.15109981 242:0.1012238 249:0.25139317 465:0.47709289 556:0.21012234 626:0.41265329 1395:0.20838459 1402:0.22742365 1861:0.36516352 1863:0.23628433 1864:0.21933449 1865:0.23628433 1866:0.22956091 
-0.2795969773299748 1:0.033432302 4:0.019084405 18:0.020961676 20:0.034642275 28:0.17236795 33:0.16920979 56:0.082043584 85:0.13529108 99:0.06900724 148:0.070205692 620:0.27096595 621:0.42947087 717:0.22612784 944:0.18328733 1010:0.20966279 1243:0.21720605 2280:0.30488467 2281:0.42947087 2282:0.23704723 2283:0.27096595 2284:0.25112477 
-0.2154014376538912 1:0.010169453 4:0.016296985 9:0.02358962 12:0.037119162 13:0.018946047 14:0.079638074 18:0.029609843 20:0.030874327 23:0.055105495 26:0.079638074 31:0.022697098 41:0.075662877 54:0.05755716 58:0.062528486 99:0.04198131 148:0.042710401 172:0.16315704 179:0.090870032 196:0.14421028 217:0.1032116 229:0.11762071 237:0.12006908 242:0.032413845 293:0.08736366 332:0.086281004 392:0.1527745 436:0.10691583 498:0.08848718 624:0.10486193 674:0.12006908 716:0.11409516 785:0.11409516 815:0.14603372 839:0.10691583 915:0.078799434 978:0.13509641 979:0.13194965 986:0.13756735 994:0.077189866 1073:0.11693252 1218:0.092137022 1347:0.099434258 1382:0.16945758 1457:0.12357545 1530:0.13756735 1766:0.12357545 1832:0.11409516 1887:0.12357545 1891:0.11409516 2205:0.1527745 2285:0.18547993 2286:0.18547993 2287:0.18547993 2288:0.1527745 2289:0.18547993 2290:0.14421028 2291:0.10113585 2292:0.18547993 2293:0.13213968 2294:0.1527745 2295:0.1527745 2296:0.1527745 2297:0.13756735 2298:0.1648451 2299:0.13213968 2300:0.24214186 2301:0.21803909 
-0.2795969773299748 1:0.016924991 4:0.015312983 12:0.061777313 13:0.0099471911 18:0.016819271 20:0.025692026 181:0.061171162 277:0.076671687 392:0.12713108 411:0.13577089 546:0.10283313 850:0.12713108 915:0.065572833 927:0.049817572 933:0.12713108 970:0.09991531 1143:0.17428222 1169:0.12713108 1315:0.072699541 1323:0.18144091 1450:0.12713108 1542:0.20149799 1889:0.09991531 2081:0.11447647 2120:0.11447647 2170:0.12713108 2302:0.3185119 2303:0.10614109 2304:0.18144091 2305:0.13717561 2306:0.15434685 2307:0.15434685 2308:0.15434685 2309:0.15434685 2310:0.15434685 2311:0.12000437 2312:0.24463397 2313:0.15434685 2314:0.12000437 2315:0.12000437 2316:0.15434685 2317:0.15434685 2318:0.15434685 2319:0.15434685 2320:0.13717561 2321:0.15434685 2322:0.15434685 2323:0.13717561 2324:0.15434685 2325:0.15434685 2326:0.10283313 2327:0.15434685 2328:0.15434685 
-0.2795969773299748 1:0.031975016 4:0.018252532 20:0.041808241 58:0.12404295 119:0.085399513 448:0.41547645 2329:0.58319001 2330:0.48035691 2331:0.48035691 
-0.2795969773299748 1:0.017826221 4:0.020351744 9:0.065539275 12:0.10312854 18:0.04470736 20:0.023308291 40:0.054725205 54:0.063656398 74:0.15314136 78:0.16150868 107:0.15314136 280:0.24114433 390:0.26780123 439:0.19545891 488:0.1551108 573:0.2104713 1306:0.20497317 1317:0.21661768 2332:0.28896001 2333:0.32513117 2334:0.26780123 2335:0.45799078 2336:0.32513117 
-0.2795969773299748 1:0.036766982 4:0.033265137 20:0.048073873 40:0.11287196 207:0.2735541 2337:0.55234605 2338:0.5959865 2339:0.49736559 
-0.2795969773299748 1:0.028474416 4:0.020510591 20:0.046980427 249:0.14221311 386:0.1888775 538:0.17566056 927:0.10575963 1606:0.29121536 2340:0.32766884 2341:0.32766884 2342:0.32766884 2343:0.29121536 2344:0.32766884 2345:0.29121536 2346:0.32766884 2347:0.32766884 
-0.2795969773299748 1:0.019705668 4:0.0056243653 12:0.035963482 13:0.011581457 18:0.019582579 31:0.043980878 33:0.15807725 36:0.067453762 40:0.030247485 53:0.078855727 56:0.12500396 85:0.079743271 86:0.10572456 99:0.04067425 119:0.026315147 146:0.09633844 148:0.041380642 151:0.054045031 157:0.059246867 207:0.073307164 268:0.080658995 354:0.21125059 360:0.06360233 505:0.15269281 545:0.10159712 835:0.082582568 847:0.13328428 1245:0.11972802 1247:0.21125059 1718:0.14801797 1778:0.20291578 1779:0.10572456 1849:0.11972802 1956:0.11633081 2282:0.13972039 2348:0.17970513 2349:0.17970513 2350:0.17970513 2351:0.13328428 2352:0.17970513 2353:0.17970513 2354:0.17970513 2355:0.17970513 2356:0.17970513 2357:0.17970513 2358:0.14787627 2359:0.17970513 2360:0.17970513 2361:0.17970513 2362:0.15971276 2363:0.25313874 2364:0.17970513 2365:0.17970513 2366:0.15971276 
-0.2795969773299748 1:0.034259415 4:0.019556552 54:0.12233837 170:0.37564371 181:0.24764423 264:0.36761623 579:0.46344447 927:0.20168056 2367:0.624855 
-0.2795969773299748 1:0.01087071 4:0.023626185 18:0.027263249 20:0.039903073 26:0.17025937 52:0.11003912 54:0.03881867 56:0.053353908 63:0.056153303 98:0.091113997 99:0.04487622 119:0.04601734 169:0.14125165 172:0.11003912 184:0.05403101 242:0.054917383 268:0.14104851 360:0.16293655 424:0.16846718 430:0.13209686 731:0.1470536 735:0.075078426 835:0.14441227 963:0.0757484 987:0.13634618 1247:0.23307444 1252:0.097136168 1777:0.1541546 1778:0.14125165 1786:0.44116079 1847:0.10810989 1995:0.18488071 2074:0.23307444 2075:0.21610358 2368:0.27928996 2369:0.31425066 2370:0.17621235 2371:0.1541546 2372:0.1470536 2373:0.17621235 
-0.2795969773299748 18:0.043875513 20:0.045749211 177:0.37544576 268:0.2864337 360:0.2258626 384:0.49617067 971:0.39255644 2412:0.56716696 
-0.2795969773299748 1:0.010397324 4:0.016662158 12:0.060150763 13:0.012221474 18:0.02607602 20:0.013594797 23:0.03554675 27:0.077358285 28:0.10721161 54:0.074256478 68:0.16992638 70:0.16681296 71:0.061658572 74:0.089321252 78:0.094201573 112:0.11955268 119:0.027769382 148:0.04366743 157:0.091591586 186:0.10166232 360:0.06711714 414:0.10721161 453:0.10340204 529:0.12275952 551:0.096970465 556:0.068792985 581:0.11156714 724:0.091663702 729:0.11400339 735:0.11381457 791:0.11955268 915:0.080565124 1092:0.14744166 1094:0.16853885 1095:0.16853885 1096:0.13510059 1097:0.11955268 1098:0.10931153 2078:0.15619778 2232:0.15619778 2413:0.16853885 2414:0.18963605 2415:0.18963605 2416:0.18963605 2417:0.14744166 2418:0.30056603 2419:0.18963605 2420:0.13040873 2421:0.15619778 2422:0.18963605 2423:0.16853885 2424:0.18963605 2425:0.16853885 2426:0.18963605 2427:0.18963605 2428:0.18963605 
-0.2795969773299748 1:0.016353418 4:0.012065495 9:0.037934283 12:0.029845517 13:0.009611265 18:0.016251268 30:0.065441103 31:0.036499025 42:0.054556421 54:0.046278609 98:0.10862374 99:0.053500262 126:0.062702547 148:0.034341131 157:0.03102157 170:0.089655043 180:0.077427789 202:0.10624639 217:0.052358892 230:0.073063693 231:0.038903869 303:0.13254306 436:0.1719305 555:0.058017155 664:0.1025566 672:0.08276901 696:0.076259935 792:0.096541075 825:0.13254306 899:0.079949725 963:0.090305273 1049:0.12283774 1218:0.074082411 1392:0.096541075 1395:0.053653059 1440:0.09936036 1670:0.1025566 1854:0.10624639 1930:0.096541075 1933:0.10624639 1944:0.11061049 1947:0.13254306 2145:0.17531348 2172:0.13254306 2252:0.11595171 2323:0.13254306 2382:0.13906321 2405:0.13254306 2429:0.13254306 2430:0.09936036 2431:0.12283774 2432:0.34627937 2433:0.11595171 2434:0.14913441 2435:0.13254306 2436:0.14913441 2437:0.14913441 2438:0.14913441 2439:0.13254306 2440:0.10624639 2441:0.19469321 2442:0.14913441 2443:0.17531348 2444:0.14913441 2445:0.14913441 2446:0.23637244 2447:0.14913441 2448:0.14913441 2449:0.12283774 2450:0.14913441 
-0.2795969773299748 1:0.039637296 9:0.09194484 33:0.40122985 276:0.3541825 1293:0.42532288 2451:0.72294179 
-0.2795969773299748 1:0.026961455 4:0.022546828 13:0.019995227 18:0.042662279 20:0.035252868 40:0.052221872 58:0.065991143 119:0.045432744 165:0.19085079 293:0.14613611 364:0.20084356 375:0.24122535 380:0.19085079 382:0.27574191 598:0.18253202 872:0.13925666 1000:0.24122535 1168:0.13925666 1641:0.2301135 2079:0.24122535 2452:0.31025847 2453:0.24122535 2454:0.31025847 2455:0.2301135 2456:0.27574191 2457:0.31025847 
-0.2795969773299748 1:0.025747314 4:0.014697527 20:0.033665344 76:0.27069256 77:0.25605865 99:0.10628948 220:0.13955524 380:0.18225631 494:0.25605865 506:0.12859283 571:0.26062804 927:0.15157097 1842:0.19179908 2458:0.34829696 2459:0.26332457 2460:0.41735956 2461:0.4696034 
-0.2795969773299748 1:0.017200997 4:0.019637941 9:0.039900373 13:0.020218811 20:0.022490792 31:0.038390728 54:0.097354352 71:0.10200595 154:0.15584403 180:0.16288156 186:0.16818685 268:0.14081381 271:0.21574398 414:0.28112071 415:0.36879954 835:0.14417197 1369:0.27596997 2221:0.27882522 2462:0.31372774 2463:0.21574398 2464:0.31372774 2465:0.31372774 2466:0.31372774 
-0.2795969773299748 1:0.024408033 4:0.013038307 5:0.13188335 9:0.018872736 13:0.0095634267 18:0.010202374 20:0.016860935 40:0.079175099 56:0.03993189 63:0.042027053 76:0.085537376 99:0.077986364 119:0.021729821 151:0.044627866 169:0.2454686 185:0.11537458 331:0.14827511 334:0.085537376 571:0.082357043 593:0.1566986 931:0.19372416 933:0.12222634 936:0.10204615 1057:0.078264065 1219:0.11537458 1304:0.10571757 1501:0.17460483 1516:0.11005994 1843:0.11005994 2283:0.13188335 2320:0.13188335 2467:0.13188335 2468:0.13188335 2469:0.13188335 2470:0.14839212 2471:0.29678424 2472:0.23519594 2473:0.23074916 2474:0.14839212 2475:0.11537458 2476:0.24445268 2477:0.13188335 2478:0.14839212 2479:0.14839212 2480:0.14839212 2481:0.14839212 2482:0.14839212 2483:0.13188335 2484:0.13188335 2485:0.14839212 2486:0.14839212 2487:0.14839212 2488:0.14839212 2489:0.14839212 
-0.2795969773299748 1:0.011079729 4:0.021010274 18:0.027787461 19:0.13463679 20:0.033637913 31:0.024728733 277:0.10038428 289:0.12739925 293:0.09518365 386:0.18462586 425:0.1188896 427:0.15711866 495:0.16644947 555:0.078615291 803:0.14988111 817:0.26381617 847:0.14988111 848:0.16644947 856:0.17960052 1000:0.15711866 1414:0.26381617 1478:0.1142482 1511:0.1101886 2047:0.11215493 2134:0.17960052 2490:0.320293 2491:0.20208238 2492:0.20208238 2493:0.20208238 2494:0.20208238 2495:0.20208238 2496:0.20208238 2497:0.16644947 2498:0.20208238 2499:0.20208238 2500:0.20208238 
-0.2795969773299748 4:0.0079426134 9:0.051155627 12:0.08049532 13:0.032710191 18:0.027654117 20:0.018192912 95:0.11014249 99:0.057439342 184:0.06915702 221:0.1561064 416:0.1561064 624:0.14347337 735:0.096096672 997:0.18822133 1074:0.19442221 2146:0.22554309 2291:0.21931968 2389:0.1561064 2501:0.25377591 2502:0.18079513 2503:0.25377591 2504:0.20902795 2505:0.25377591 2506:0.25377591 2507:0.25377591 2508:0.22554309 2509:0.22554309 2510:0.25377591 2511:0.25377591 2512:0.25377591 
-0.2795969773299748 1:0.018042023 4:0.016244958 14:0.04457172 18:0.02262429 19:0.069162528 20:0.02667915 28:0.058688968 29:0.084693774 31:0.020133903 56:0.027934737 58:0.022079923 71:0.033752669 119:0.015201305 126:0.043645843 133:0.073955741 148:0.037887093 166:0.063856613 183:0.080711395 184:0.073126652 220:0.077497635 227:0.069162528 242:0.018141333 296:0.072198355 332:0.048289625 360:0.036740757 366:0.067200086 373:0.11721708 386:0.059838492 506:0.045054695 541:0.080608031 542:0.056603563 640:0.061073242 672:0.05761366 674:0.067200086 855:0.092260263 872:0.046593773 875:0.1220318 899:0.055651219 915:0.044102351 927:0.05310548 970:0.067200086 1074:0.05017785 1146:0.085504609 1170:0.080711395 1239:0.059838492 1292:0.05761366 1298:0.07699349 1315:0.077497635 1350:0.085504609 1409:0.045054695 1437:0.089714525 1490:0.065444623 1522:0.069162528 1531:0.086777296 1569:0.073955741 1680:0.085504609 1686:0.16142279 1736:0.13832506 1748:0.075610558 1785:0.080711395 2050:0.092260263 2199:0.085504609 2234:0.07138736 2305:0.14622906 2358:0.053895755 2376:0.11314629 2513:0.16453358 2514:0.10380913 2515:0.10380913 2516:0.10380913 2517:0.085504609 2518:0.10380913 2519:0.20762001 2520:0.20761826 2521:0.10380913 2522:0.2142217 2523:0.10380913 2524:0.10380913 2525:0.1355216 2526:0.10380913 2527:0.10380913 2528:0.10380913 2529:0.10380913 2530:0.10380913 2531:0.10380913 2532:0.10380913 2533:0.10380913 2534:0.10380913 2535:0.1355216 2536:0.092260263 2537:0.092260263 2538:0.10380913 2539:0.10380913 2540:0.092260263 2541:0.10380913 2542:0.10380913 2543:0.10380913 2544:0.092260263 2545:0.11721708 2546:0.10380913 2547:0.16453358 2548:0.14622906 2549:0.10380913 2550:0.061073242 2551:0.10380913 2552:0.092260263 2553:0.18452053 2554:0.10380913 2555:0.092260263 2556:0.085504609 2557:0.10380913 2558:0.10380913 
-0.2795969773299748 1:0.027437251 4:0.015662206 13:0.025558278 18:0.027265867 20:0.017937492 27:0.10206947 31:0.048529109 40:0.042115183 54:0.048988412 74:0.11785386 78:0.12429314 113:0.16670369 119:0.03663998 148:0.05761647 149:0.14720594 156:0.15774235 360:0.088556909 380:0.15391475 423:0.17206624 453:0.13643259 927:0.0807597 1878:0.16197358 1915:0.15042041 2094:0.19454013 2330:0.2060933 2559:0.25021302 2560:0.2060933 2561:0.25021302 2562:0.25021302 2563:0.2060933 2564:0.25021302 2565:0.25021302 2566:0.25021302 2567:0.1855788 2568:0.25021302 2569:0.22237658 2570:0.22237658 
-0.2795969773299748 4:0.0083993742 12:0.053707525 13:0.017295638 20:0.019239143 46:0.15172418 148:0.06179746 456:0.17880069 479:0.22104865 510:0.15172418 604:0.17372734 938:0.23851353 1008:0.17880069 1129:0.15172418 1225:0.17880069 1226:0.23851353 1227:0.23851353 1242:0.22104865 1733:0.22104865 2571:0.26836995 2572:0.26836995 2573:0.26836995 2574:0.20865711 2575:0.19904549 2576:0.42535631 
-0.2795969773299748 1:0.019632254 4:0.016417699 13:0.014559725 18:0.024618404 20:0.016195796 40:0.03802588 58:0.048052113 66:0.078685789 181:0.089536363 242:0.078961269 428:0.13291252 524:0.23179483 862:0.16755945 939:0.14242587 963:0.086311119 1058:0.14624626 1077:0.32189692 1252:0.1106813 1314:0.15535894 1365:0.14624626 1493:0.15051708 2039:0.14242587 2140:0.20078424 2258:0.16755945 2475:0.17565066 2484:0.20078424 2577:0.16755945 2578:0.22591782 2579:0.37216407 2580:0.26557545 2581:0.22591782 2582:0.22591782 2583:0.22591782 2584:0.20078424 
-0.2795969773299748 4:0.013288637 165:0.26117867 268:0.30204991 369:0.24474424 735:0.16077753 1236:0.30248492 2585:0.34972072 2586:0.42458768 2587:0.42458768 2588:0.42458768 
-0.2795969773299748 1:0.032342419 4:0.020050626 12:0.045668718 13:0.023309838 18:0.036429797 20:0.032718952 31:0.027924859 56:0.12281647 68:0.12901449 70:0.12665067 71:0.11760049 95:0.099042608 123:0.15692905 125:0.19721719 151:0.10877569 157:0.075235441 199:0.16257505 226:0.13154146 239:0.13425578 241:0.20448313 242:0.039879638 338:0.12035638 379:0.11335869 386:0.13154146 542:0.12443019 544:0.25767536 551:0.11669067 552:0.32145167 724:0.11030471 729:0.13718747 927:0.073655021 1115:0.19389905 1130:0.15203825 1821:0.10615387 1847:0.12443019 1896:0.16257505 2027:0.20281343 2190:0.16257505 2589:0.22820101 2590:0.18796264 2591:0.20281343 2592:0.22820101 2593:0.22820101 2594:0.20281343 
-0.02583586401879811 1:0.015612684 4:0.015353279 13:0.012527079 18:0.026728065 20:0.017583687 23:0.036435615 31:0.042130717 40:0.020642244 42:0.044863808 56:0.033001764 119:0.02846377 126:0.081724907 134:0.095351475 148:0.02824001 151:0.036882759 181:0.048604567 184:0.033420581 231:0.031992122 235:0.090959186 249:0.084362921 289:0.077315492 296:0.053814693 319:0.079389376 338:0.06468144 360:0.04340509 379:0.060920768 385:0.095351475 401:0.10899517 405:0.060083038 411:0.068064087 422:0.10251766 513:0.077315492 536:0.18191837 544:0.13847885 545:0.069334443 557:0.092732196 580:0.074261441 674:0.079389376 694:0.079389376 735:0.046439344 764:0.090959186 776:0.081707781 791:0.077315492 835:0.056358057 839:0.14138495 875:0.090959186 899:0.065745682 915:0.052101988 927:0.091909769 961:0.068064087 971:0.075439436 978:0.089325407 989:0.087370425 994:0.051037746 1074:0.093955801 1208:0.15877875 1511:0.066870771 1568:0.084336171 1578:0.084336171 1748:0.056358057 1764:0.072151196 2065:0.090959186 2167:0.069334443 2169:0.10899517 2201:0.13847885 2223:0.084336171 2247:0.16010359 2408:0.095351475 2574:0.095351475 2595:0.15112851 2596:0.10101412 2597:0.10101412 2598:0.10101412 2599:0.12263886 2600:0.12263886 2601:0.10899517 2602:0.12263886 2603:0.18191837 2604:0.12263886 2605:0.12263886 2606:0.12263886 2607:0.10899517 2608:0.084336171 2609:0.12263886 2610:0.12263886 2611:0.12263886 2612:0.095351475 2613:0.12263886 2614:0.10899517 2615:0.084336171 2616:0.12263886 2617:0.10101412 2618:0.10899517 2619:0.090959186 2620:0.12263886 2621:0.10101412 2622:0.12263886 2623:0.12263886 2624:0.12263886 2625:0.10899517 2626:0.12263886 2627:0.12263886 2628:0.12263886 2629:0.12263886 2630:0.084336171 2631:0.090959186 2632:0.17275325 2633:0.090959186 2634:0.081707781 
-0.2795969773299748 1:0.0089233211 4:0.016146852 9:0.020699024 12:0.032570699 13:0.024354392 18:0.011189643 20:0.030160039 31:0.031565905 58:0.054866446 148:0.059399332 184:0.044351848 211:0.12653921 221:0.10011431 230:0.07973511 242:0.028441957 246:0.14464551 248:0.10843291 555:0.063314678 557:0.077644245 812:0.12071029 920:0.10843291 961:0.090326616 1204:0.14464551 1381:0.12653921 1507:0.076658397 1586:0.12653921 2315:0.12653921 2388:0.10843291 2449:0.13405401 2574:0.20055991 2635:0.12653921 2636:0.25795552 2637:0.085837566 2638:0.25795552 2639:0.16275181 2640:0.25795552 2641:0.16275181 2642:0.16275181 2643:0.25795552 2644:0.16275181 2645:0.16275181 2646:0.16275181 2647:0.13405401 2648:0.25795552 2649:0.16275181 2650:0.16275181 2651:0.11594771 2652:0.16275181 2653:0.16275181 2654:0.16275181 2655:0.16275181 2656:0.16275181 
-0.2795969773299748 1:0.022066293 9:0.045977701 12:0.03115844 13:0.025937696 26:0.066849519 29:0.1006652 31:0.01905232 63:0.044095326 66:0.08594869 71:0.050622899 77:0.084895108 98:0.071548799 151:0.074214493 220:0.073334503 242:0.027208719 293:0.073334503 432:0.12824145 525:0.10706813 531:0.080833885 587:0.091598818 625:0.093599023 872:0.069882233 1077:0.17580442 1097:0.098155098 1168:0.069882233 1331:0.1210525 1471:0.16441019 1654:0.13837371 1864:0.058956597 1995:0.091598818 2167:0.088022838 2243:0.10078798 2249:0.11092024 2394:0.11547631 2657:0.24677061 2658:0.15569492 2659:0.15569492 2660:0.11092024 2661:0.1210525 2662:0.11547631 2663:0.15569492 2664:0.12824145 2665:0.15569492 2666:0.27674742 2667:0.1210525 2668:0.15569492 2669:0.15569492 2670:0.31138985 2671:0.13837371 2672:0.21931714 2673:0.15569492 2674:0.15569492 2675:0.15569492 2676:0.13837371 2677:0.13837371 2678:0.15569492 2679:0.15569492 2680:0.13837371 2681:0.15569492 
-0.2795969773299748 1:0.040290607 4:0.014510994 13:0.029880429 30:0.20344962 31:0.056735847 184:0.12634848 228:0.30890108 490:0.38188983 506:0.2012281 967:0.23362245 1239:0.26725708 1764:0.27277185 1832:0.28520323 2249:0.33030904 2682:0.34387656 2683:0.38188983 
-0.2795969773299748 1:0.043569894 9:0.063766246 162:0.24906005 170:0.30141418 1293:0.29497298 2684:0.50137978 2685:0.50137978 2686:0.50137978 
-0.2795969773299748 4:0.012239072 13:0.015452647 18:0.024150181 20:0.025181511 24:0.081099901 31:0.037024109 37:0.066382554 40:0.040357939 63:0.042844917 79:0.095371719 146:0.081099901 148:0.055212438 151:0.090992684 177:0.089001355 217:0.053112139 387:0.058318141 502:0.083959745 506:0.065657705 521:0.10777488 556:0.054878781 581:0.14106381 649:0.095371719 698:0.11761982 703:0.090944841 718:0.12460491 729:0.090944841 899:0.081099901 915:0.064269864 927:0.048827669 956:0.085526779 963:0.057795958 967:0.076227494 1081:0.076227494 1093:0.11220176 1096:0.10777488 1129:0.085526779 1391:0.13444985 1392:0.097929937 1471:0.10078978 1527:0.104032 1587:0.095371719 1923:0.11761982 1941:0.087201968 1981:0.11761982 2084:0.11761982 2141:0.11220176 2258:0.11220176 2326:0.10078978 2383:0.13444985 2687:0.11761982 2688:0.186423 2689:0.15127989 2690:0.15127989 2691:0.15127989 2692:0.15127989 2693:0.15127989 2694:0.11761982 2695:0.12460491 2696:0.12460491 2697:0.13444985 2698:0.12460491 2699:0.10078978 2700:0.13444985 2701:0.19749412 2702:0.15127989 2703:0.13444985 2704:0.23977295 2705:0.15127989 2706:0.11761982 2707:0.11761982 2708:0.12460491 2709:0.15127989 2710:0.15127989 2711:0.12460491 2712:0.15127989 2713:0.15127989 2714:0.10078978 2715:0.15127989 
-0.2795969773299748 1:0.032451099 13:0.014756289 18:0.031484361 20:0.016414448 33:0.12707625 58:0.048700842 63:0.0648474 119:0.053142108 146:0.12274776 148:0.083566112 151:0.068860433 157:0.047627784 242:0.040013644 270:0.15745637 297:0.12274776 309:0.10784708 319:0.14822066 759:0.20349493 801:0.15745637 833:0.20349493 1447:0.16312135 2020:0.20349493 2125:0.20349493 2412:0.20349493 2455:0.1698216 2716:0.17802204 2717:0.22896783 2718:0.22896783 2719:0.22896783 2720:0.22896783 2721:0.22896783 2722:0.20349493 2723:0.18859424 2724:0.22896783 2725:0.22896783 2726:0.22896783 2727:0.22896783 
