svm_type c_svc
kernel_type linear
nr_class 2
total_sv 480
rho 0.0950108
label 0 1
probA -4.0455
probB 0.38198
nr_sv 110 370
SV
1 1:0.0084937579 2:0.30983408 3:0.2455377 4:0.014545662 5:0.31968856 6:0.35970623 7:0.35590375 8:0.066515525 9:0.045747987 10:0.15491704 11:0.13768237 12:0.031002766 13:0.015824168 14:0.13303105 15:0.2455377 16:0.1065332 17:0.15491704 18:0.021301962 19:0.11036606 20:0.017602324 21:0.11036606 22:0.15491704 23:0.060266748 24:0.083049746 25:0.13768237 26:0.15491704 27:0.087583058 28:0.06319535 29:0.087583058 30:0.06319535 31:0.13881586 32:0.06664311 33:0.018957131 34:0.15491704 35:0.15491704 36:0.12760073 37:0.15491704 38:0.095294867 39:0.092164543 40:0.067978557 41:0.11489937 42:0.12044769 43:0.02607522 44:0.065133815 45:0.095294867 46:0.13768237 
0.9208296886605783 1:0.029553575 4:0.0084351415 9:0.034277044 13:0.027529671 18:0.018529758 30:0.10994241 43:0.045363664 47:0.2395292 48:0.26951276 49:0.15237027 50:0.42716762 51:0.26951276 52:0.26951276 53:0.22198994 54:0.2395292 55:0.22198994 56:0.21524287 57:0.052767047 58:0.22198994 59:0.072525105 60:0.14448357 61:0.05732464 62:0.26951276 63:0.26951276 64:0.26951276 
0.9245609757294112 1:0.029024538 9:0.02899612 18:0.015674954 30:0.093004036 43:0.060822412 57:0.044637443 60:0.12222357 65:0.22799003 66:0.064570472 67:0.1772618 68:0.28095331 69:0.079407528 70:0.20262592 71:0.16909638 72:0.45598006 73:0.2976383 74:0.074129048 75:0.22799003 76:0.22799003 77:0.10738652 78:0.22799003 79:0.16909638 80:0.12431515 81:0.17950316 82:0.1772618 83:0.16909638 84:0.12889521 85:0.22799003 86:0.22799003 
0.2828167434885409 4:0.013489931 9:0.034586112 13:0.027777899 30:0.11093374 43:0.045772697 55:0.22399157 57:0.053242834 59:0.073179046 87:0.27194289 88:0.27194289 89:0.12067332 90:0.15999011 91:0.27194289 92:0.17604025 93:0.19373766 94:0.27194289 95:0.18700942 96:0.18118115 97:0.27194289 98:0.18118115 99:0.27194289 100:0.12496995 101:0.15374416 102:0.1390581 103:0.18118115 104:0.17144156 105:0.061551236 106:0.27194289 107:0.20169548 108:0.18118115 
1 1:0.015609834 4:0.014532686 9:0.036209425 12:0.035948424 13:0.018348489 18:0.01957438 20:0.029900551 27:0.10155458 39:0.06742552 43:0.047921057 77:0.16921642 81:0.14142782 100:0.08254799 105:0.064440168 109:0.21116214 110:0.13966189 111:0.23450471 112:0.17962989 113:0.084608211 114:0.17962989 115:0.147956 116:0.25594399 117:0.17962989 118:0.11324447 119:0.15964589 120:0.21116214 121:0.13966189 122:0.17962989 123:0.17962989 124:0.15964589 125:0.041691058 126:0.15964589 127:0.15964589 128:0.088003992 129:0.127972 130:0.13966189 131:0.17962989 132:0.097946027 133:0.11324447 134:0.13322848 135:0.17962989 136:0.17962989 137:0.13966189 138:0.17962989 139:0.17962989 140:0.15964589 141:0.15964589 142:0.15964589 143:0.147956 
1 9:0.033537933 13:0.016994757 20:0.029962847 43:0.044385494 59:0.070961257 69:0.091845542 79:0.19558283 82:0.20502724 133:0.1662458 144:0.2637013 145:0.2637013 146:0.2637013 147:0.21720321 148:0.2637013 149:0.2637013 150:0.2637013 151:0.2637013 152:0.2637013 153:0.18786618 154:0.15200482 155:0.2637013 156:0.06072241 157:0.15852915 158:0.19558283 159:0.079306274 160:0.2637013 
1 1:0.018158424 4:0.011539739 9:0.028752243 12:0.028544994 13:0.025806477 14:0.061242448 18:0.022770255 20:0.020450811 24:0.076465904 43:0.038051912 57:0.055852441 60:0.076465904 61:0.048085009 102:0.14587379 161:0.23594665 162:0.14374381 163:0.22607248 164:0.14252338 165:0.0593396 166:0.22607248 167:0.18620943 168:0.11748507 169:0.17577091 170:0.13300351 171:0.077774445 172:0.11748507 173:0.11748507 174:0.12676748 175:0.087740283 176:0.098087683 177:0.14263585 178:0.11748507 179:0.14263585 180:0.095030717 181:0.089922241 182:0.20092169 183:0.10161669 184:0.11748507 185:0.12676748 186:0.089922241 187:0.14263585 188:0.075228131 189:0.12546934 190:0.25353495 191:0.089597659 192:0.18620943 193:0.3311902 194:0.038870005 195:0.11748507 196:0.1108991 197:0.1108991 198:0.076465904 199:0.11748507 200:0.14263585 201:0.092334283 202:0.14263585 203:0.14263585 204:0.12676748 205:0.11748507 206:0.092334283 
1 1:0.017744214 4:0.015091246 8:0.059845451 9:0.049765534 12:0.027893856 13:0.020857333 18:0.019165834 20:0.025829344 30:0.11371644 32:0.029980121 33:0.034112278 43:0.023460437 57:0.043252355 66:0.039475298 70:0.12387579 74:0.071828843 153:0.09929872 165:0.045952825 171:0.076000339 194:0.037983344 207:0.28763068 208:0.22961025 209:0.1393822 210:0.11480513 211:0.11480513 212:0.22091556 213:0.11131578 214:0.10836939 215:0.12387579 216:0.11480513 217:0.2787644 218:0.14300808 219:0.078800365 220:0.078800365 221:0.1393822 222:0.09929872 223:0.10836939 224:0.10836939 225:0.24775159 226:0.082001676 227:0.092862979 228:0.087871032 229:0.1393822 230:0.1393822 231:0.1393822 232:0.048935035 233:0.1393822 234:0.1393822 235:0.11480513 236:0.083792313 237:0.085738846 238:0.1393822 239:0.12387579 240:0.09929872 241:0.1393822 242:0.087871032 243:0.092862979 244:0.055766733 245:0.092862979 246:0.058005702 247:0.068285907 248:0.036359864 249:0.10337744 250:0.1393822 251:0.12387579 252:0.12387579 253:0.09929872 254:0.12387579 255:0.09929872 256:0.090228053 257:0.1393822 258:0.080343806 259:0.024357962 260:0.090228053 261:0.1393822 262:0.12387579 
1 4:0.011558564 9:0.046969386 13:0.015016702 18:0.037197268 20:0.016704123 32:0.050118485 84:0.13173245 129:0.16600004 165:0.048468298 256:0.15083639 259:0.081439575 263:0.32822374 264:0.23300855 265:0.20708612 266:0.10112915 267:0.23300855 268:0.23300855 269:0.23300855 270:0.19192247 271:0.23300855 272:0.32822374 273:0.15083639 274:0.15524126 275:0.18116369 276:0.19192247 277:0.19192247 278:0.23300855 279:0.23300855 280:0.20708612 281:0.13708416 282:0.12705158 
0.8724384129565912 1:0.014858629 4:0.01344343 9:0.054628728 13:0.027682146 20:0.03885616 23:0.10542816 105:0.061339062 157:0.1629202 162:0.13655528 165:0.056372069 188:0.14293205 294:0.15621515 300:0.42953351 301:0.27100547 302:0.22321945 303:0.21070622 304:0.24085585 305:0.22321945 306:0.18636477 307:0.17543342 308:0.17085059 309:0.27100547 310:0.24085585 311:0.24085585 312:0.13462178 313:0.24085585 314:0.17085059 315:0.11891888 316:0.15040697 
0.4441676090496485 1:0.018842151 4:0.013572312 13:0.022147897 18:0.014907376 20:0.015543994 30:0.088449776 43:0.036495523 66:0.061408559 92:0.14036055 125:0.031750906 213:0.10925498 253:0.15447106 317:0.21682572 318:0.21682572 319:0.21682572 320:0.13034899 321:0.11087391 322:0.21682572 323:0.21682572 324:0.14036055 325:0.14036055 326:0.21682572 327:0.16858157 328:0.1491065 329:0.12258342 330:0.1444595 331:0.21682572 332:0.160816 333:0.19270365 334:0.1444595 335:0.21682572 336:0.21682572 337:0.21682572 338:0.19270365 339:0.16858157 340:0.14036055 341:0.16858157 342:0.19270365 343:0.17859314 344:0.19270365 
1 1:0.015772127 4:0.015573182 12:0.045622578 13:0.014692012 18:0.022961421 20:0.016342948 27:0.081316841 28:0.058673976 60:0.077107869 61:0.048488704 90:0.084620386 92:0.09310947 105:0.032555071 125:0.033382887 156:0.033120457 159:0.043256847 165:0.029918891 181:0.090677177 215:0.12783174 259:0.02513583 345:0.20260852 346:0.33397069 347:0.14383335 348:0.22797046 349:0.28766669 350:0.28766669 351:0.1624108 352:0.12783174 353:0.06690797 354:0.10667878 355:0.082909571 356:0.084620386 357:0.14383335 358:0.11183014 359:0.075859704 360:0.10246981 361:0.14383335 362:0.14383335 363:0.14383335 364:0.11183014 365:0.14383335 366:0.14383335 367:0.14383335 368:0.095828542 369:0.11183014 370:0.12783174 371:0.14383335 372:0.14383335 373:0.14383335 374:0.10246981 375:0.11847141 376:0.14383335 377:0.086468206 378:0.10246981 379:0.11183014 380:0.11847141 381:0.18777274 382:0.14383335 383:0.067747533 384:0.14383335 385:0.10246981 
1 1:0.010838158 4:0.010090277 9:0.041002853 13:0.016075648 18:0.027181612 20:0.020760432 33:0.024189573 57:0.024418515 66:0.035322701 74:0.06427282 156:0.028719213 194:0.033987693 295:0.12390906 369:0.096969487 386:0.3223963 387:0.26820094 388:0.16282038 389:0.096969487 390:0.12471991 391:0.19767638 392:0.074977795 393:0.17568469 394:0.085767266 395:0.092502666 396:0.096969487 397:0.096969487 398:0.096969487 399:0.076719563 400:0.12471991 401:0.10272822 402:0.12462157 403:0.12796437 404:0.17568469 405:0.1108447 406:0.10272822 407:0.12471991 408:0.1108447 409:0.096969487 410:0.071892053 411:0.076203912 412:0.19767638 413:0.19767638 414:0.2655486 415:0.12471991 416:0.16282038 417:0.1108447 418:0.12471991 419:0.12471991 420:0.19767638 421:0.17568469 422:0.1108447 423:0.12471991 424:0.078627454 425:0.12471991 426:0.1108447 427:0.1108447 428:0.071892053 429:0.12471991 430:0.12471991 431:0.10272822 432:0.061102582 433:0.078627454 434:0.12471991 
0.7561719371083776 1:0.031026513 4:0.011174454 13:0.023009966 43:0.060095517 56:0.17990521 59:0.096077639 125:0.052282772 170:0.21005291 223:0.27759561 321:0.18257103 324:0.23112534 327:0.27759561 330:0.23787488 435:0.35703705 436:0.31731633 437:0.2940812 438:0.19815416 439:0.35703705 440:0.35703705 
1 1:0.014669256 4:0.021645851 9:0.068055216 12:0.084864807 20:0.044535669 32:0.091212099 66:0.075774921 294:0.15422418 310:0.23778613 312:0.13290602 441:0.30252293 442:0.39687691 443:0.16458025 444:0.19843846 445:0.22037451 446:0.34928533 447:0.2675515 448:0.19060914 449:0.15740655 450:0.14588667 451:0.19060914 452:0.18398955 453:0.14588667 454:0.16458025 455:0.2675515 456:0.20802076 
1 1:0.014963709 4:0.01616791 9:0.043799949 12:0.034460441 13:0.022194853 18:0.018764154 20:0.028662903 32:0.03703784 33:0.021071381 57:0.033713437 61:0.036625333 69:0.059974329 125:0.039965375 157:0.16407237 259:0.04769493 294:0.099257805 320:0.10351814 403:0.11146894 457:0.10130596 458:0.11841463 459:0.32207143 460:0.27292202 461:0.1530378 462:0.12267496 463:0.13388098 464:0.17219462 465:0.099257805 466:0.24255917 467:0.1530378 468:0.12771386 469:0.10351814 470:0.17219462 471:0.17219462 472:0.14183178 473:0.17219462 474:0.1530378 475:0.17219462 476:0.17219462 477:0.10130596 478:0.17219462 479:0.12267496 480:0.17219462 481:0.24255917 482:0.1530378 483:0.24255917 484:0.093891828 485:0.1530378 486:0.11841463 487:0.11472416 488:0.1530378 489:0.12267496 
1 1:0.014175368 8:0.11100882 13:0.016662354 18:0.017775592 74:0.084063257 125:0.037859857 490:0.40978178 491:0.40978178 492:0.21295489 493:0.25854352 494:0.25854352 495:0.2297803 496:0.25854352 497:0.21295489 498:0.2297803 499:0.2297803 500:0.25854352 501:0.25854352 502:0.15903912 503:0.18419167 
1 1:0.0094468567 4:0.0085470977 9:0.021913446 13:0.011104253 20:0.012352034 98:0.11479473 105:0.038998303 156:0.039675588 164:0.10862381 504:0.27308989 505:0.27308989 506:0.19455481 507:0.17230054 508:0.17230054 509:0.15313194 510:0.17230054 511:0.14191902 512:0.15313194 513:0.17230054 514:0.17230054 515:0.17230054 516:0.17230054 517:0.14191902 518:0.17230054 519:0.17230054 520:0.082199671 521:0.13396333 522:0.22493633 523:0.17230054 524:0.17230054 525:0.14191902 526:0.093949582 527:0.17230054 528:0.14191902 529:0.15313194 530:0.082199671 531:0.17230054 532:0.15313194 533:0.15313194 534:0.10358181 535:0.12779242 536:0.15313194 537:0.15313194 538:0.092368898 539:0.074780978 540:0.10862381 541:0.0974109 
1 1:0.0081666874 4:0.016712557 12:0.047246048 13:0.0095994851 18:0.010240842 20:0.035472132 33:0.018227145 43:0.039736812 49:0.084210483 57:0.067713843 59:0.063529183 90:0.087631584 92:0.096422751 125:0.03457081 162:0.075054318 165:0.030983548 340:0.096422751 402:0.093903905 457:0.13889277 542:0.13238061 543:0.19553069 544:0.28487083 545:0.2098183 546:0.25651482 547:0.15282644 548:0.24537437 549:0.34585496 550:0.1750986 551:0.22094984 552:0.20486181 553:0.19445459 554:0.12268719 555:0.08585989 556:0.2098183 557:0.1024309 558:0.14895162 559:0.13238061 560:0.12268719 561:0.11580959 562:0.19445459 563:0.19445459 564:0.09923858 565:0.13238061 566:0.1024309 567:0.1024309 568:0.077332891 569:0.089545158 570:0.1024309 571:0.11580959 
1 1:0.033607296 4:0.011762799 12:0.047454771 13:0.01528204 18:0.016303057 59:0.12761968 125:0.055035503 128:0.11617225 159:0.071313855 171:0.12929652 320:0.14255272 359:0.12506339 378:0.16893318 458:0.16306637 541:0.1340601 555:0.1366859 572:0.21074524 573:0.17587215 574:0.19531365 575:0.12712113 576:0.1579843 577:0.2371257 578:0.11617225 579:0.1340601 580:0.19531365 581:0.16893318 582:0.1340601 583:0.16306637 584:0.2371257 585:0.19531365 586:0.2371257 587:0.19531365 588:0.21074524 589:0.21074524 590:0.19531365 591:0.12311122 592:0.16893318 593:0.21074524 594:0.2371257 
1 1:0.009733205 4:0.0088061729 9:0.022577675 12:0.08249074 13:0.018133301 18:0.019344815 32:0.038183985 33:0.034430838 49:0.10036357 57:0.055088079 61:0.037758713 83:0.131666 125:0.025995639 156:0.040878214 159:0.084619305 165:0.036926751 259:0.072034009 273:0.11491837 274:0.11827433 295:0.088184536 469:0.10672153 534:0.16914963 545:0.15777359 595:0.2187628 596:0.10945932 597:0.10206984 598:0.13423248 599:0.19349063 600:0.17752323 601:0.17752323 602:0.17752323 603:0.17752323 604:0.13802396 605:0.28136766 606:0.15777359 607:0.10036357 608:0.17752323 609:0.131666 610:0.17752323 611:0.15777359 612:0.2088818 613:0.131666 614:0.1462208 615:0.122079 616:0.17752323 617:0.17752323 618:0.17752323 619:0.1462208 620:0.15777359 621:0.067822133 622:0.11491837 623:0.13802396 624:0.17752323 625:0.17752323 626:0.11491837 
0.9784029660244294 1:0.033875108 4:0.012200399 9:0.049577548 13:0.025122549 20:0.027945561 454:0.23979015 627:0.38981721 628:0.22933822 629:0.38981721 630:0.38981721 631:0.38981721 632:0.38981721 633:0.23979015 634:0.25971457 
0.5908044138125259 13:0.02022219 18:0.021573266 57:0.06143402 66:0.088867627 80:0.17109357 84:0.17739705 113:0.14779488 125:0.045948443 213:0.15810876 635:0.31378016 636:0.31378016 637:0.49732979 638:0.19301711 639:0.18460391 640:0.31378016 641:0.31378016 642:0.25845173 643:0.31378016 
0.5727518323706956 1:0.020096473 4:0.0072379102 9:0.029411975 13:0.014904 23:0.089966065 57:0.045277622 74:0.075192187 105:0.052343074 125:0.033864563 303:0.17980404 314:0.14579364 316:0.12834828 453:0.12609805 517:0.19048208 530:0.11032745 628:0.2156426 644:0.2312598 645:0.23727579 646:0.2312598 647:0.2312598 648:0.2312598 649:0.2312598 650:0.2312598 651:0.2312598 652:0.2312598 653:0.2312598 654:0.2312598 655:0.2312598 656:0.2312598 657:0.14579364 658:0.20553192 659:0.19048208 
0.8897322986831826 9:0.055422403 13:0.028084327 89:0.19337258 660:0.43577401 661:0.38729372 662:0.38729372 663:0.43577401 664:0.21957949 665:0.25637563 666:0.261974 667:0.31045428 
1 1:0.023175419 4:0.013229394 9:0.023152728 13:0.011732237 18:0.012516087 20:0.020684687 27:0.10291983 40:0.079882363 43:0.030641282 57:0.035641962 61:0.038720428 74:0.059190323 89:0.080781461 105:0.041203795 125:0.042251532 162:0.091729407 259:0.050423244 383:0.085745641 398:0.14153943 411:0.070177941 555:0.10493569 668:0.18204474 669:0.36408949 670:0.18204474 671:0.18204474 672:0.32358418 673:0.14153943 674:0.14153943 675:0.20555757 676:0.18204474 677:0.18204474 678:0.18204474 679:0.18204474 680:0.25643439 681:0.13501953 682:0.10710101 683:0.16179209 684:0.18204474 685:0.18204474 686:0.13501953 687:0.18204474 688:0.14153943 689:0.18204474 690:0.16179209 691:0.16179209 692:0.11476688 
0.9571788413098236 1:0.0082656132 4:0.012196681 13:0.0097157669 18:0.026792859 20:0.021615048 33:0.018447937 57:0.04678179 59:0.081135967 95:0.20734337 125:0.022075966 198:0.080819007 211:0.12417334 247:0.073858104 288:0.10740159 441:0.085230553 487:0.10044069 553:0.12417334 639:0.088693094 682:0.088693094 693:0.15075592 694:0.15075592 695:0.15075592 696:0.12417334 697:0.11721244 698:0.11721244 699:0.15075592 700:0.15075592 701:0.092735221 702:0.15075592 703:0.13398418 704:0.15075592 705:0.15075592 706:0.10367168 707:0.10367168 708:0.15075592 709:0.23894249 710:0.23894249 711:0.15075592 712:0.23894249 713:0.15075592 714:0.15075592 715:0.083668946 716:0.15075592 717:0.15075592 718:0.097590752 719:0.15075592 720:0.15075592 721:0.15075592 722:0.15075592 723:0.15075592 724:0.15075592 725:0.15075592 726:0.15075592 727:0.10740159 728:0.15075592 729:0.15075592 730:0.15075592 
1 1:0.012263071 9:0.028446091 12:0.044761004 13:0.014414556 18:0.015377615 69:0.077901243 103:0.14901633 165:0.046524796 227:0.14901633 232:0.078525581 307:0.14478809 731:0.31506248 732:0.1987823 733:0.1987823 734:0.25255379 735:0.1987823 736:0.22366528 737:0.22366528 738:0.22366528 739:0.1987823 740:0.11437132 741:0.14901633 742:0.17389931 743:0.18422668 744:0.1987823 745:0.1987823 746:0.22366528 747:0.22366528 748:0.16588878 749:0.1987823 750:0.22366528 751:0.22366528 
1 1:0.024860654 4:0.021287083 9:0.028834066 12:0.045371497 13:0.014611155 20:0.03773831 57:0.044387973 61:0.04822185 125:0.052619434 218:0.14676285 259:0.039620094 295:0.11262093 314:0.14292897 316:0.1258264 438:0.1258264 448:0.16151698 449:0.21140549 452:0.15590772 453:0.12362038 454:0.27892162 530:0.10815966 752:0.3904353 753:0.45343168 754:0.12362038 755:0.22671584 756:0.22671584 757:0.22671584 758:0.22671584 759:0.14676285 760:0.22671584 761:0.13946081 762:0.16815133 
0.2716055768072341 9:0.073638433 49:0.32734177 66:0.16398292 89:0.25692955 165:0.1204388 213:0.29175005 763:0.47690785 764:0.51458798 765:0.45017337 
1 4:0.0086692184 12:0.069948621 13:0.02252582 18:0.024030805 20:0.012528519 32:0.059578968 33:0.021385595 43:0.046622515 57:0.034216168 108:0.23286982 125:0.040561334 191:0.069262295 194:0.047624869 290:0.10506179 320:0.10506179 622:0.17930862 766:0.34952473 767:0.17476236 768:0.34952473 769:0.16894852 770:0.27699179 771:0.17476236 772:0.15531988 773:0.11313115 774:0.15531988 775:0.12961831 776:0.27699179 777:0.17476236 778:0.34952473 779:0.12961831 780:0.12450427 781:0.17476236 782:0.15531988 783:0.12961831 784:0.12961831 785:0.08129544 786:0.15531988 
0.6968720388794444 1:0.029201696 4:0.016669417 9:0.042737826 13:0.021656641 18:0.023103555 20:0.048180379 147:0.27678488 158:0.24923375 445:0.27678488 465:0.19370172 628:0.1976987 657:0.21184919 787:0.336038 788:0.336038 789:0.24923375 790:0.26126889 791:0.47335451 792:0.27678488 
0.5363906883447098 1:0.030195537 4:0.017236739 9:0.044192351 18:0.023889854 43:0.058485993 66:0.098410441 68:0.27016083 81:0.17260777 84:0.19644636 89:0.15419015 113:0.16366544 394:0.23895099 769:0.16795756 793:0.34747461 794:0.34747461 795:0.30881772 796:0.21374374 797:0.34747461 798:0.34747461 799:0.28620489 
0.9885925641376941 4:0.019191428 9:0.030169218 20:0.034011191 43:0.039927195 66:0.067182803 157:0.1426057 165:0.049343043 402:0.14954725 484:0.12934458 547:0.15355865 645:0.15355865 800:0.29231985 801:0.23721384 802:0.21082356 803:0.21082356 804:0.21082356 805:0.33414744 806:0.23721384 807:0.23721384 808:0.37597503 809:0.23721384 810:0.23721384 811:0.23721384 812:0.21082356 813:0.16899597 
1 1:0.02547981 4:0.023053004 9:0.059104362 13:0.029950095 814:0.46472443 815:0.46472443 816:0.36132233 817:0.46472443 818:0.46472443 
0.560030860922442 9:0.038141507 13:0.019327537 57:0.058716109 74:0.097509377 89:0.13307834 92:0.1941369 276:0.24701754 325:0.1941369 506:0.3386329 575:0.16077293 819:0.29989817 820:0.29989817 821:0.29989817 822:0.29989817 823:0.29989817 824:0.24701754 825:0.29989817 826:0.29989817 
1 1:0.020631386 4:0.014239322 9:0.041222371 18:0.022284319 20:0.018414069 23:0.063045997 33:0.031431952 39:0.060830955 61:0.034469974 66:0.045898347 69:0.056444907 213:0.081660002 219:0.09162202 220:0.14521747 399:0.15800406 432:0.18435354 468:0.12019804 487:0.10797277 827:0.25686086 828:0.17113279 829:0.25686086 830:0.16206116 831:0.25686086 832:0.12019804 833:0.1440317 834:0.1440317 835:0.16206116 836:0.1440317 837:0.13348514 838:0.07273966 839:0.12600223 840:0.12019804 841:0.16206116 842:0.12019804 843:0.13348514 844:0.16206116 845:0.12600223 846:0.11545567 847:0.16206116 848:0.10216858 849:0.16206116 850:0.12600223 851:0.13348514 852:0.1440317 853:0.19050939 854:0.13348514 855:0.16206116 856:0.10490911 857:0.16206116 858:0.16206116 859:0.16206116 860:0.12600223 861:0.11144606 862:0.1440317 
1 1:0.015374644 4:0.015449785 9:0.046078771 13:0.020119285 18:0.021463486 20:0.031037879 23:0.046982289 32:0.025976562 33:0.014778454 39:0.045331626 43:0.032218356 44:0.050776519 57:0.023644986 61:0.059643946 66:0.034203748 74:0.03926704 105:0.04332451 113:0.056883918 162:0.096450622 189:0.06702634 213:0.060853567 248:0.031504351 259:0.021105189 293:0.093897688 312:0.059991933 395:0.17914473 432:0.059166975 454:0.074289241 550:0.089572367 552:0.083050331 838:0.085914588 846:0.086038323 863:0.17914473 864:0.099473996 865:0.10733336 866:0.12076904 867:0.10733336 868:0.099473996 869:0.19141439 870:0.10733336 871:0.17011935 872:0.15766255 873:0.093897688 874:0.099473996 875:0.10733336 876:0.063695267 877:0.12076904 878:0.15766255 879:0.12076904 880:0.12076904 881:0.10733336 882:0.12076904 883:0.080462014 884:0.078178957 885:0.12076904 886:0.12076904 887:0.12076904 888:0.10733336 889:0.12076904 890:0.12076904 891:0.17011935 892:0.12076904 893:0.12076904 894:0.099473996 895:0.10733336 896:0.12076904 897:0.056178983 898:0.12076904 899:0.10733336 900:0.10733336 901:0.099473996 902:0.069614657 903:0.12076904 904:0.12076904 905:0.099473996 906:0.10733336 907:0.10733336 908:0.12076904 909:0.12076904 910:0.089572367 911:0.099473996 912:0.099473996 913:0.099473996 914:0.12076904 915:0.12076904 916:0.12076904 917:0.089572367 918:0.10733336 919:0.10733336 920:0.10733336 921:0.12076904 922:0.12076904 923:0.086038323 924:0.12076904 925:0.12076904 926:0.12076904 927:0.099473996 
1 1:0.019734864 4:0.018373071 9:0.057765493 13:0.014635823 18:0.015613666 20:0.025803896 23:0.14002708 32:0.048847297 218:0.14701063 334:0.15130377 433:0.22691952 450:0.12382909 530:0.10834226 928:0.35994277 929:0.18705462 930:0.2270986 931:0.2270986 932:0.20183366 933:0.35994277 934:0.18705462 935:0.2270986 936:0.2270986 937:0.2270986 938:0.10193112 939:0.18705462 940:0.27985479 941:0.16843522 942:0.18705462 943:0.18705462 
0.9810399778149627 1:0.012291199 4:0.019697174 9:0.045189402 18:0.024428848 20:0.016071092 33:0.027432601 105:0.050740254 125:0.032827582 162:0.17903709 165:0.04663151 219:0.12674023 220:0.12674023 292:0.22400152 314:0.14132923 316:0.12441808 353:0.1042826 451:0.15970919 453:0.19374066 530:0.10694907 541:0.12674023 840:0.26353058 944:0.3553142 945:0.15970919 946:0.4483566 947:0.2241783 948:0.2241783 949:0.2241783 950:0.2241783 951:0.2241783 952:0.17650208 953:0.18464925 
0.9144115672473679 1:0.028283882 4:0.016145495 9:0.065608839 13:0.020975969 20:0.036981979 32:0.070007635 33:0.03982839 188:0.17166071 266:0.14126151 295:0.16168011 410:0.18761364 433:0.20519073 454:0.20021179 465:0.18761364 657:0.20519073 901:0.26808548 954:0.32547627 955:0.32547627 956:0.28926672 957:0.28926672 958:0.23187593 959:0.24140029 960:0.21684761 961:0.32547627 
0.6752307326448396 4:0.016876827 9:0.03429034 13:0.017376026 18:0.018536945 20:0.012194966 27:0.096172229 28:0.069392846 32:0.057992767 33:0.048333801 43:0.045381259 57:0.07733231 66:0.048177789 74:0.055309703 105:0.038502402 113:0.080124008 125:0.02491002 156:0.039171076 194:0.073473992 228:0.10724256 244:0.068060738 246:0.070793296 259:0.029727775 411:0.10393701 424:0.10724256 502:0.10464033 696:0.14011439 697:0.13225986 698:0.13225986 748:0.12616742 868:0.14011439 960:0.113335 962:0.092754925 963:0.26435034 964:0.15118472 965:0.14011439 966:0.09119434 967:0.22667001 968:0.15118472 969:0.12616742 970:0.22207605 971:0.14011439 972:0.094410146 973:0.12118953 974:0.13225986 975:0.15118472 976:0.13225986 977:0.13225986 978:0.15118472 979:0.15118472 980:0.13225986 981:0.15118472 982:0.15118472 983:0.072269483 984:0.14011439 985:0.22207605 986:0.12118953 987:0.15242938 988:0.12616742 989:0.15118472 990:0.14011439 991:0.15118472 992:0.1101192 993:0.15118472 994:0.15118472 995:0.13225986 996:0.05490521 997:0.15118472 
1 1:0.018153264 4:0.01036256 9:0.042109304 13:0.033820165 18:0.022763784 89:0.14692226 105:0.074939899 639:0.19479125 998:0.27271436 999:0.33109608 1000:0.27271436 1001:0.46639315 1002:0.27271436 1003:0.33109608 1004:0.33109608 1005:0.33109608 1006:0.22768782 
1 1:0.023968936 4:0.017265219 13:0.017775907 18:0.037927087 20:0.019773379 33:0.033752231 125:0.04039005 156:0.063513465 159:0.08295152 165:0.057373981 214:0.21445115 223:0.21445115 256:0.17855143 258:0.15899159 259:0.076397949 359:0.14547241 769:0.13332315 1007:0.24513663 1008:0.27582211 1009:0.18376567 1010:0.24513663 1011:0.24513663 1012:0.20457263 1013:0.27582211 1014:0.17855143 1015:0.27582211 1016:0.20457263 1017:0.27582211 1018:0.27582211 1019:0.27582211 
0.9727112231067109 12:0.085271069 13:0.027460166 101:0.24089144 102:0.21788084 125:0.062394424 171:0.23233181 1020:0.3786863 1021:0.60020358 1022:0.3786863 1023:0.42608913 
1 4:0.015776125 13:0.01256712 18:0.021249194 20:0.022156639 33:0.02386198 57:0.060511163 125:0.04525821 156:0.07116866 165:0.064289191 198:0.10453752 204:0.17330544 388:0.16061534 424:0.12293385 595:0.15161157 839:0.15161157 1024:0.30906658 1025:0.1949993 1026:0.11995086 1027:0.17330544 1028:0.1949993 1029:0.17330544 1030:0.15161157 1031:0.1949993 1032:0.10822385 1033:0.16061534 1034:0.11807782 1035:0.15161157 1036:0.1949993 1037:0.17330544 1038:0.12623138 1039:0.098257 1040:0.1949993 1041:0.1949993 1042:0.12623138 1043:0.17330544 1044:0.1949993 1045:0.1949993 1046:0.1949993 1047:0.1949993 1048:0.1949993 1049:0.17330544 1050:0.1949993 
1 1:0.018174119 4:0.014163348 9:0.04215768 11:0.12687704 12:0.057139331 13:0.018400795 18:0.029445272 20:0.020468486 21:0.10170452 23:0.12895294 32:0.030706476 38:0.087816116 40:0.062643593 43:0.024028834 57:0.027950357 100:0.065604224 115:0.11758661 156:0.032873098 259:0.049896208 307:0.092414087 312:0.16466069 359:0.17482528 360:0.10170452 433:0.08999996 444:0.10588205 450:0.12337612 456:0.11099495 530:0.10794595 547:0.092414087 580:0.11758661 626:0.092414087 883:0.095112852 897:0.066408272 923:0.10170452 945:0.10170452 1051:0.16958446 1052:0.10525462 1053:0.11758661 1054:0.11758661 1055:0.17592283 1056:0.10588205 1057:0.14275913 1058:0.14275913 1059:0.11099495 1060:0.098172459 1061:0.12687704 1062:0.10588205 1063:0.12687704 1064:0.14275913 1065:0.11099495 1066:0.20109535 1067:0.059411056 1068:0.12687704 1069:0.14275913 1070:0.10170452 1071:0.14275913 1072:0.14275913 1073:0.10170452 1074:0.12687704 1075:0.11099495 1076:0.092414087 1077:0.11099495 1078:0.11758661 1079:0.14275913 1080:0.14275913 1081:0.10170452 1082:0.087816116 1083:0.10588205 1084:0.11758661 1085:0.14275913 1086:0.10170452 1087:0.14275913 1088:0.10170452 1089:0.11758661 1090:0.14275913 1091:0.12687704 1092:0.12687704 1093:0.14275913 1094:0.11099495 1095:0.12687704 
0.8028925755887732 4:0.0099425609 9:0.040402594 13:0.020473303 18:0.021841157 43:0.053470471 89:0.14096743 100:0.14598664 102:0.16244405 325:0.20564564 664:0.16007211 1096:0.3176766 1097:0.3176766 1098:0.50350549 1099:0.3176766 1100:0.3176766 1101:0.3176766 1102:0.3176766 
1 1:0.024488303 4:0.013978837 9:0.056804407 13:0.028784633 20:0.050749155 628:0.26276857 952:0.2218683 1103:0.4466404 1104:0.4466404 1105:0.3678849 1106:0.58308378 
0.9828056912544364 1:0.013488186 4:0.0076995597 9:0.049590202 13:0.015854609 20:0.027952694 23:0.095704294 156:0.056648653 294:0.14180709 905:0.20263143 1107:0.24601005 1108:0.21864119 1109:0.24601005 1110:0.19127233 1111:0.24601005 1112:0.21864119 1113:0.24601005 1114:0.18246153 1115:0.38991671 1116:0.24601005 1117:0.24601005 1118:0.24601005 1119:0.24601005 1120:0.24601005 1121:0.24601005 
0.4266641986204739 4:0.009747696 9:0.039610741 13:0.020072046 30:0.12705006 43:0.0524225 57:0.06097789 66:0.088207811 93:0.22188364 102:0.1592603 164:0.19634839 165:0.064785058 213:0.15693484 325:0.20161517 1122:0.31145043 1123:0.31145043 1124:0.49363726 1125:0.27680127 1126:0.31145043 1127:0.27680127 1128:0.31145043 
0.782872908481351 1:0.014605936 4:0.013214804 8:0.11438064 9:0.033880728 13:0.017168462 18:0.018315514 20:0.0302691 38:0.16386984 165:0.087828124 303:0.20712284 314:0.16794501 316:0.14784907 441:0.2387089 454:0.16386984 530:0.12709022 657:0.16794501 666:0.16014949 697:0.20712284 698:0.32828194 1129:0.1975819 1130:0.26639661 1131:0.32828194 1132:0.37525529 1133:0.23675973 1134:0.23675973 1135:0.22268925 1136:0.17748596 
0.8246307271125135 1:0.01892499 4:0.017122493 18:0.02373151 59:0.092884659 66:0.097758169 102:0.17650359 105:0.078125718 125:0.050545242 213:0.17392636 458:0.23736721 469:0.20750656 701:0.21232703 1137:0.34517152 1138:0.34517152 1139:0.2843079 1140:0.30677085 1141:0.34517152 1142:0.2843079 1143:0.26837018 1144:0.2843079 
1 1:0.020326855 4:0.017287752 9:0.020306953 13:0.010290191 18:0.025489418 20:0.03959837 32:0.054433442 39:0.059933057 43:0.026875065 45:0.098217993 57:0.031261095 66:0.045220862 125:0.04676232 236:0.095988146 259:0.027903223 290:0.095988146 353:0.074274375 379:0.12414237 396:0.12414237 484:0.087062062 555:0.092037714 570:0.10980105 578:0.078224807 579:0.18053926 659:0.13151482 759:0.1033606 958:0.11375148 996:0.051535385 1038:0.1033606 1145:0.39837969 1146:0.31933809 1147:0.15966905 1148:0.10066051 1149:0.25306945 1150:0.25306945 1151:0.14190571 1152:0.12414237 1153:0.15966905 1154:0.077178659 1155:0.15966905 1156:0.14190571 1157:0.14190571 1158:0.11375148 1159:0.12414237 1160:0.15966905 1161:0.15966905 1162:0.093936885 1163:0.15966905 1164:0.13151482 1165:0.080454655 1166:0.15966905 1167:0.14190571 1168:0.13151482 1169:0.14190571 1170:0.14190571 
0.857261700767711 4:0.007997238 9:0.03249758 12:0.051136174 13:0.016467576 20:0.018318032 40:0.1121243 41:0.18951581 43:0.043008646 57:0.07929201 66:0.072367753 68:0.19866725 81:0.12692999 89:0.11338629 113:0.1203541 118:0.16108882 213:0.12875302 511:0.21046552 566:0.17571658 664:0.12875302 665:0.15032887 769:0.12351038 796:0.15718001 1171:0.25552123 1172:0.25552123 1173:0.22709424 1174:0.21046552 1175:0.22709424 1176:0.22709424 1177:0.31488014 1178:0.19866725 1179:0.22709424 1180:0.22709424 1181:0.18203853 1182:0.16108882 1183:0.15361154 
1 1:0.0080044698 4:0.01060947 8:0.062683857 18:0.010037425 20:0.016588331 33:0.028315504 125:0.021378499 156:0.033617748 232:0.051255972 286:0.068764737 302:0.12025021 621:0.0557761 675:0.10400835 774:0.12975109 934:0.12025021 1009:0.097267372 1034:0.0557761 1112:0.12975109 1165:0.073563489 1184:0.23139335 1185:0.23139335 1186:0.14599295 1187:0.14599295 1188:0.2919859 1189:0.14599295 1190:0.14599295 1191:0.23139335 1192:0.14599295 1193:0.14599295 1194:0.14599295 1195:0.14599295 1196:0.14599295 1197:0.12975109 1198:0.12025021 1199:0.14599295 1200:0.23139335 1201:0.14599295 1202:0.078265615 1203:0.12025021 1204:0.14599295 1205:0.14599295 1206:0.14599295 1207:0.23139335 1208:0.14599295 1209:0.10400835 1210:0.14599295 1211:0.14599295 1212:0.12975109 1213:0.14599295 1214:0.12975109 1215:0.11350923 1216:0.12975109 1217:0.12975109 1218:0.10828052 
0.9472974459812227 1:0.012880813 4:0.0073528485 13:0.023997404 30:0.095835964 49:0.13282001 57:0.045996632 125:0.034402333 128:0.11509762 438:0.13038646 506:0.1673705 541:0.13282001 579:0.13282001 1148:0.14810884 1219:0.23493222 1220:0.23493222 1221:0.23493222 1222:0.23493222 1223:0.23493222 1224:0.23493222 1225:0.23493222 1226:0.23493222 1227:0.23493222 1228:0.23493222 1229:0.23493222 1230:0.20879578 1231:0.1673705 1232:0.20879578 1233:0.14451499 1234:0.23493222 1235:0.23493222 
1 1:0.013962192 13:0.016411777 18:0.017508274 125:0.037290502 156:0.058639417 657:0.16054298 1236:0.35871624 1237:0.35871624 1238:0.25465541 1239:0.37774729 1240:0.25465541 1241:0.16054298 1242:0.25465541 1243:0.25465541 1244:0.22632475 1245:0.25465541 1246:0.18142171 1247:0.22632475 1248:0.20975237 1249:0.19799408 
1 4:0.0089694907 8:0.05299438 9:0.031394965 20:0.017696517 23:0.048015842 32:0.05309603 33:0.02393858 57:0.038300851 59:0.033213528 127:0.17386177 175:0.075923514 176:0.084877337 194:0.033635033 248:0.051031685 249:0.09154285 427:0.10969457 457:0.072614173 458:0.1345274 675:0.087931061 740:0.10003306 813:0.087931061 966:0.1048731 985:0.1016623 1067:0.1192664 1162:0.072614173 1250:0.12342581 1251:0.12342581 1252:0.12342581 1253:0.12342581 1254:0.12342581 1255:0.12342581 1256:0.31905108 1257:0.21255592 1258:0.12863142 1259:0.24685162 1260:0.28355634 1261:0.19562528 1262:0.12342581 1263:0.19562528 1264:0.12342581 1265:0.12342581 1266:0.12342581 1267:0.10969457 1268:0.12342581 1269:0.12342581 1270:0.1016623 1271:0.087931061 1272:0.10969457 1273:0.12342581 1274:0.12342581 1275:0.079898799 1276:0.12342581 1277:0.12342581 1278:0.12342581 1279:0.10969457 1280:0.087931061 1281:0.12342581 1282:0.12342581 1283:0.12342581 1284:0.12342581 1285:0.12342581 1286:0.12342581 1287:0.12342581 1288:0.12342581 
0.9803859121552982 4:0.010731044 9:0.033738729 12:0.042072171 13:0.013548661 18:0.018238751 32:0.045218875 33:0.016231106 43:0.035385266 44:0.055767608 57:0.041160167 61:0.028212183 125:0.030784989 165:0.027590565 259:0.023179728 281:0.07803512 377:0.079739141 486:0.14457042 607:0.074988662 611:0.37368254 621:0.050674673 645:0.17172715 701:0.081591517 828:0.088371044 1131:0.10312738 1289:0.27371751 1290:0.17316003 1291:0.21022951 1292:0.21850363 1293:0.26528011 1294:0.13264005 1295:0.13264005 1296:0.13264005 1297:0.17316003 1298:0.13264005 1299:0.18684127 1300:0.23576743 1301:0.13264005 1302:0.085863574 1303:0.088371044 1304:0.21022951 1305:0.081591517 1306:0.13264005 1307:0.083620565 1308:0.13264005 1309:0.13264005 1310:0.098376901 1311:0.13264005 1312:0.13264005 1313:0.13264005 1314:0.065888852 1315:0.10312738 1316:0.13264005 1317:0.13264005 1318:0.13264005 1319:0.13264005 
1 1:0.020168285 4:0.016865961 9:0.029517075 12:0.046446237 13:0.023706693 18:0.025290575 20:0.033275999 33:0.028400285 57:0.045439416 59:0.062453722 80:0.12654865 113:0.10931586 125:0.033985574 159:0.069798256 428:0.13378098 665:0.13654151 838:0.10416975 1239:0.17213443 1244:0.20626637 1320:0.16534293 1321:0.15462674 1322:0.20626637 1323:0.20626637 1324:0.20626637 1325:0.23208618 1326:0.23208618 1327:0.20626637 1328:0.20626637 1329:0.20626637 1330:0.20626637 1331:0.23208618 1332:0.18044655 1333:0.16534293 1334:0.20626637 1335:0.20626637 1336:0.14631461 1337:0.23208618 1338:0.19116274 1339:0.19116274 1340:0.17213443 
0.6434151293753201 1:0.021484933 4:0.015851509 9:0.024918813 18:0.02135073 20:0.01404608 43:0.065957185 49:0.11077053 53:0.16138282 56:0.19745301 59:0.083566334 66:0.055490857 89:0.086943453 92:0.12683456 100:0.090039116 101:0.22154106 128:0.095990243 170:0.18269966 173:0.16138282 191:0.077651936 213:0.098726506 254:0.17413355 286:0.092286299 332:0.14531879 459:0.1305385 570:0.13473769 578:0.095990243 838:0.08794186 897:0.091142639 952:0.097328623 1341:0.13958529 1342:0.39186215 1343:0.261077 1344:0.39186215 1345:0.14531879 1346:0.17413355 1347:0.17413355 1348:0.19593108 1349:0.19593108 1350:0.13958529 1351:0.19593108 
1 1:0.016549768 4:0.009447225 9:0.038389747 12:0.060407724 13:0.019453328 20:0.034297466 290:0.181463 410:0.17399482 489:0.21504411 1352:0.30185003 1353:0.30185003 1354:0.30185003 1355:0.24862523 1356:0.30185003 1357:0.24862523 1358:0.26826892 1359:0.2238771 1360:0.30185003 1361:0.30185003 1362:0.30185003 
0.9822972102023837 9:0.06305139 18:0.034084823 66:0.14040699 84:0.28027964 972:0.27514431 1363:0.49575903 1364:0.49575903 1365:0.36769615 1366:0.44060535 
0.8552052648155023 1:0.030641187 9:0.044844577 13:0.0227242 18:0.024242439 222:0.25120151 296:0.26151967 433:0.22229225 450:0.19226229 1355:0.29042893 1367:0.35260292 1368:0.3133755 1369:0.35260292 1370:0.35260292 1371:0.3133755 1372:0.35260292 
1 1:0.010761146 4:0.012285727 13:0.012649126 18:0.031332641 20:0.039500898 39:0.073672179 59:0.052816164 116:0.139828 125:0.04555354 143:0.16166343 320:0.11799258 506:0.139828 1231:0.139828 1373:0.19627176 1374:0.19627176 1375:0.19627176 1376:0.19627176 1377:0.19627176 1378:0.19627176 1379:0.19627176 1380:0.17443633 1381:0.31108338 1382:0.16166343 1383:0.16166343 1384:0.15260091 1385:0.19627176 1386:0.17443633 1387:0.19627176 1388:0.14557147 1389:0.17443633 1390:0.19627176 1391:0.19627176 1392:0.16166343 1393:0.19627176 1394:0.139828 1395:0.19627176 1396:0.19627176 1397:0.13497197 
1 1:0.041789592 4:0.015903372 9:0.032312474 13:0.025951823 18:0.027685705 33:0.049276357 125:0.058967198 156:0.058503644 314:0.16017126 315:0.11148564 316:0.22348845 453:0.13853337 1055:0.19753565 1398:0.23690847 1399:0.20926671 1400:0.22580072 1401:0.20926671 1402:0.19753565 1403:0.18843633 1404:0.20926671 1405:0.22580072 1406:0.25406578 1407:0.25406578 1408:0.22580072 1409:0.18100164 1410:0.25406578 1411:0.20926671 1412:0.16017126 1413:0.25406578 1414:0.25406578 
1 1:0.014368037 4:0.019044017 12:0.052444265 13:0.016888826 18:0.018017195 20:0.029776083 32:0.08933915 56:0.13204659 92:0.16964108 125:0.076748884 232:0.092004559 353:0.12190318 355:0.15105734 356:0.15417437 438:0.14544094 876:0.13821282 1415:0.2620576 1416:0.41535146 1417:0.41535146 1418:0.20374927 1419:0.27672669 1420:0.19436372 1421:0.20374927 1422:0.12343282 1423:0.16964108 1424:0.2620576 1425:0.18021151 1426:0.2620576 
0.9270462453809325 1:0.020188351 4:0.014542002 9:0.046830002 13:0.023730279 20:0.033309106 43:0.039102988 49:0.13134153 57:0.072091424 66:0.065795965 79:0.17230569 89:0.10308957 105:0.052582378 119:0.20647158 180:0.15478058 198:0.12454327 449:0.13667736 477:0.13667736 666:0.13966192 1392:0.19135293 1427:0.19135293 1428:0.36821387 1429:0.17230569 1430:0.23231709 1431:0.20647158 1432:0.17230569 1433:0.23231709 1434:0.20647158 1435:0.23231709 1436:0.20647158 1437:0.23231709 1438:0.23231709 1439:0.23231709 1440:0.18062608 1441:0.18062608 
0.7821074113630602 13:0.023777382 20:0.026449238 30:0.15050374 33:0.04514761 57:0.072234522 125:0.054026479 156:0.084956788 321:0.18866004 497:0.30388923 548:0.30388923 555:0.2126701 575:0.19778824 667:0.26284377 812:0.32789929 813:0.26284377 1442:0.36894476 1443:0.36894476 1444:0.36894476 
0.919485935243203 1:0.032150056 4:0.018352452 9:0.037288515 13:0.018895298 20:0.042037112 162:0.14773435 294:0.16900367 472:0.24149326 657:0.18483724 992:0.18979525 1445:0.22795565 1446:0.41299917 1447:0.46469719 1448:0.29319128 1449:0.29319128 1450:0.22795565 1451:0.29319128 1452:0.26057346 
1 1:0.02028998 4:0.01696773 9:0.047065747 13:0.023849738 18:0.016052857 32:0.050221306 39:0.087641061 43:0.039299834 44:0.098167846 232:0.081973697 258:0.13458821 259:0.081606653 486:0.25448764 609:0.17317308 621:0.08920274 675:0.26364362 718:0.15114584 769:0.11285958 996:0.075361012 1037:0.20751097 1114:0.17317308 1453:0.30481399 1454:0.23956049 1455:0.19231621 1456:0.1663406 1457:0.19839012 1458:0.23348658 1459:0.15555975 1460:0.12517023 1461:0.23348658 1462:0.20751097 1463:0.19231621 1464:0.20751097 1465:0.20751097 1466:0.18153536 1467:0.23348658 
1 4:0.0095588195 9:0.038843223 13:0.019683119 18:0.020998179 20:0.021894904 113:0.14385505 259:0.053373399 1468:0.27143782 1469:0.27143782 1470:0.23746003 1471:0.48407228 1472:0.22652163 1473:0.25156209 1474:0.48407228 1475:0.3054156 1476:0.3054156 
1 4:0.022016829 12:0.096097748 18:0.020829718 20:0.021719248 90:0.17824132 108:0.31992433 125:0.044364776 165:0.06302007 242:0.19099913 540:0.19099913 701:0.18636454 1419:0.20184978 1423:0.19612242 1477:0.49908778 1478:0.17824132 1479:0.30296536 1480:0.26926016 1481:0.19612242 1482:0.30296536 1483:0.24954389 1484:0.15729393 
1 1:0.016535051 4:0.0074800911 8:0.10261661 9:0.030396101 13:0.0097180147 18:0.020734581 20:0.010810025 24:0.080837706 32:0.032434031 33:0.018452205 57:0.029522852 61:0.032072799 66:0.0427064 74:0.049028366 104:0.095063384 175:0.092756676 198:0.080837706 226:0.088713615 232:0.052940428 248:0.039335964 252:0.13401518 538:0.080837706 596:0.058661536 598:0.07193799 749:0.13401518 833:0.13401518 897:0.07014442 1183:0.090650817 1485:0.1507908 1486:0.083688304 1487:0.3501254 1488:0.1507908 1489:0.1507908 1490:0.1507908 1491:0.30158161 1492:0.1507908 1493:0.1507908 1494:0.11183901 1495:0.1507908 1496:0.1507908 1497:0.1507908 1498:0.10046393 1499:0.17726064 1500:0.11723955 1501:0.086920045 1502:0.1507908 1503:0.1507908 1504:0.1507908 1505:0.1507908 1506:0.11183901 1507:0.1507908 1508:0.1507908 1509:0.13401518 1510:0.1507908 1511:0.097613331 1512:0.1507908 1513:0.12420207 1514:0.054248969 1515:0.11723955 1516:0.085250272 1517:0.097613331 1518:0.1507908 1519:0.1507908 1520:0.1507908 1521:0.12420207 
1 1:0.019413432 4:0.0069919075 9:0.028412318 13:0.014397442 18:0.024344006 32:0.076160134 33:0.027337327 43:0.059597826 69:0.077808753 98:0.14883941 156:0.051442181 165:0.092939118 232:0.07843235 244:0.17876419 248:0.092366942 938:0.10027091 984:0.18400796 1258:0.15892563 1275:0.14461619 1514:0.080370981 1522:0.17369285 1523:0.14033002 1524:0.15915452 1525:0.22339973 1526:0.35408019 1527:0.22339973 1528:0.18400796 1529:0.16569183 1530:0.35408019 1531:0.096958779 1532:0.22339973 1533:0.15915452 1534:0.22339973 1535:0.22339973 1536:0.18400796 1537:0.22339973 1538:0.22339973 
0.4177868578847779 1:0.014369525 4:0.0082026611 9:0.033332337 13:0.026770928 18:0.018019061 21:0.2959355 30:0.1069123 43:0.044113399 55:0.21587169 56:0.13206027 57:0.051312738 59:0.070526246 69:0.091282505 89:0.11629882 93:0.18671451 100:0.12043969 101:0.14817081 102:0.13401713 219:0.23484518 575:0.14050147 1125:0.23292755 1539:0.26208474 1540:0.26208474 1541:0.41539448 1542:0.26208474 1543:0.26208474 1544:0.26208474 1545:0.26208474 
0.5797628146258448 66:0.14656632 125:0.075781185 213:0.26076333 701:0.31833647 1546:0.51750681 1547:0.51750681 1548:0.51750681 
1 4:0.011636151 9:0.029833304 13:0.015117501 14:0.10071662 18:0.016127525 20:0.033632499 33:0.02870455 39:0.088048713 43:0.039482633 59:0.10004729 61:0.049892966 80:0.12790441 89:0.10409045 90:0.13800434 101:0.13261671 108:0.15628332 125:0.054442948 128:0.18214618 165:0.077336092 244:0.093852362 275:0.18237975 295:0.18468583 457:0.13800434 599:0.25567136 613:0.17397858 665:0.13800434 876:0.12371686 1321:0.15628332 1549:0.23457262 1550:0.23457262 1551:0.23457262 1552:0.28906507 1553:0.18237975 1554:0.23457262 1555:0.23457262 1556:0.1199488 1557:0.19321075 1558:0.17397858 1559:0.19321075 1560:0.23457262 1561:0.13521423 
1 1:0.019886713 4:0.018514441 13:0.014748438 18:0.015733804 20:0.032811428 40:0.10041904 56:0.1153118 59:0.061581796 66:0.064812895 95:0.31474517 125:0.033511097 133:0.14427189 159:0.068823792 175:0.14077114 438:0.12700863 566:0.15737259 578:0.11211587 727:0.16303455 938:0.10271542 1178:0.17792731 1498:0.15246797 1562:0.28200812 1563:0.18849389 1564:0.20338665 1565:0.20338665 1566:0.228846 1567:0.228846 1568:0.228846 1569:0.17792731 1570:0.17792731 1571:0.16303455 1572:0.16973123 1573:0.20338665 1574:0.18849389 1575:0.18849389 1576:0.29875575 
1 1:0.021375131 9:0.049582922 13:0.015852282 18:0.033822796 40:0.10793489 43:0.041401673 59:0.066190876 61:0.052317996 89:0.10914973 113:0.11585719 129:0.17523685 159:0.11724744 162:0.1239423 226:0.14471199 236:0.14787201 320:0.14787201 411:0.094822537 688:0.30311497 692:0.1550699 1577:0.19124425 1578:0.24597394 1579:0.19124425 1580:0.19124425 1581:0.20260169 1582:0.13906249 1583:0.2186091 1584:0.2186091 1585:0.20260169 1586:0.24597394 1587:0.24597394 1588:0.17523685 1589:0.24597394 1590:0.24597394 1591:0.24597394 
1 1:0.024052063 4:0.0068649075 8:0.094177137 9:0.027896241 12:0.043895793 13:0.022404917 18:0.015080372 20:0.024922549 33:0.026840776 57:0.042944258 105:0.049645595 194:0.094738505 253:0.15626366 295:0.10895795 387:0.1419894 539:0.095197633 596:0.0853297 923:0.15626366 958:0.15626366 986:0.15626366 1016:0.16268222 1290:0.18066566 1314:0.10895795 1514:0.078911134 1592:0.21934192 1593:0.19493992 1594:0.21934192 1595:0.19493992 1596:0.12904378 1597:0.21934192 1598:0.21934192 1599:0.21934192 1600:0.15626366 1601:0.15626366 1602:0.21934192 1603:0.14613591 1604:0.21934192 1605:0.21934192 1606:0.21934192 1607:0.21934192 1608:0.13828022 1609:0.19493992 1610:0.21934192 
0.9297321895771699 1:0.023186331 4:0.0083507482 18:0.018344369 20:0.019127763 156:0.0614397 158:0.31365325 226:0.15697402 438:0.148082 792:0.21976894 1060:0.18348397 1105:0.21976894 1611:0.23713272 1612:0.15084582 1613:0.2668163 1614:0.2668163 1615:0.2668163 1616:0.2668163 1617:0.2668163 1618:0.2668163 1619:0.2668163 1620:0.2668163 1621:0.2668163 
1 1:0.028441824 4:0.016235654 9:0.041625723 13:0.021093102 20:0.023463327 29:0.18503704 32:0.07039857 125:0.047927313 259:0.057196757 542:0.29088203 1593:0.29088203 1596:0.19255428 1622:0.51874838 1623:0.32729379 1624:0.32729379 1625:0.32729379 1626:0.21805852 1627:0.32729379 
1 1:0.020044282 4:0.014611343 9:0.026250375 13:0.016785148 18:0.01790659 20:0.024132291 32:0.056020703 33:0.031871015 39:0.11349767 45:0.080105586 56:0.16962004 57:0.040410565 67:0.10124924 69:0.11724452 74:0.042341384 103:0.086761646 105:0.046716526 125:0.019069434 158:0.096585278 170:0.076613958 189:0.07227405 198:0.069812245 232:0.045719879 244:0.052102717 259:0.036069915 306:0.14193753 358:0.16047625 467:0.29917539 578:0.063799349 621:0.099503588 745:0.11573684 754:0.071006924 785:0.096012935 828:0.17352329 996:0.042031731 1303:0.17352329 1480:0.11573684 1481:0.084299841 1531:0.056519327 1628:0.11573684 1629:0.14193753 1630:0.19317056 1631:0.13022444 1632:0.13022444 1633:0.20640085 1634:0.23981871 1635:0.13022444 1636:0.11573684 1637:0.18343855 1638:0.2242756 1639:0.096585278 1640:0.13022444 1641:0.13022444 1642:0.13022444 1643:0.11573684 1644:0.13022444 1645:0.12267509 1646:0.10726214 1647:0.20640085 1648:0.18343855 1649:0.096585278 1650:0.096585278 1651:0.13022444 1652:0.10726214 1653:0.11573684 1654:0.10124924 1655:0.11573684 1656:0.13022444 
1 4:0.01087003 13:0.022383108 30:0.14167839 98:0.23139448 105:0.078609812 125:0.050858437 159:0.10445109 329:0.19635348 411:0.13388754 469:0.20879234 576:0.23139448 638:0.21364268 1657:0.25759424 1658:0.34731032 1659:0.34731032 1660:0.30867171 1661:0.28606957 1662:0.34731032 1663:0.21895562 1664:0.23139448 
1 4:0.012926105 9:0.033140548 12:0.082652481 13:0.016793389 20:0.018680456 32:0.056048208 57:0.051017492 125:0.038157593 259:0.045537512 607:0.14731826 769:0.12595405 876:0.1374318 1315:0.32111009 1665:0.52115349 1666:0.34017987 1667:0.41300437 1668:0.16028983 1669:0.1932654 1670:0.1932654 1671:0.23158733 1672:0.1932654 1673:0.17919316 1674:0.20259791 
1 1:0.033137152 4:0.021960706 13:0.019475436 56:0.1522702 100:0.13887126 102:0.15452654 125:0.044251685 170:0.17778696 171:0.16477553 194:0.082351284 411:0.11649491 692:0.19051225 996:0.097536975 1422:0.14233719 1484:0.15689297 1675:0.47896467 1676:0.30219306 1677:0.47896467 1678:0.30219306 1679:0.26857379 1680:0.2152885 
1 1:0.017547186 4:0.016336352 9:0.040703412 13:0.026026782 14:0.086698508 18:0.022003775 20:0.028951403 32:0.043432403 111:0.16631896 125:0.02956876 191:0.08002704 282:0.1101022 353:0.093930376 535:0.14976359 621:0.077144338 884:0.13071399 1034:0.077144338 1470:0.15699546 1596:0.11879638 1681:0.32004186 1682:0.32004186 1683:0.15699546 1684:0.16631896 1685:0.20192393 1686:0.20192393 1687:0.20192393 1688:0.17945969 1689:0.20192393 1690:0.32004186 1691:0.20192393 1692:0.20192393 1693:0.20192393 1694:0.20192393 1695:0.20192393 1696:0.20192393 1697:0.20192393 
1 4:0.015683896 9:0.0402111 13:0.020376267 18:0.021737637 20:0.035924666 57:0.061902099 59:0.085080681 61:0.067248705 80:0.17239717 113:0.14892096 125:0.046298535 273:0.20467095 902:0.18224978 1338:0.26042093 1698:0.31617092 1699:0.31617092 1700:0.26042093 1701:0.24582227 1702:0.28099659 1703:0.24582227 1704:0.28099659 1705:0.28099659 1706:0.28099659 1707:0.28099659 
0.840428648951933 1:0.014944063 4:0.017061257 9:0.034665065 12:0.054546795 13:0.017565911 20:0.030969829 32:0.058626513 57:0.053364377 74:0.088621798 105:0.061691745 113:0.12838134 125:0.039912903 219:0.15409513 220:0.15409513 260:0.17644212 283:0.24224071 284:0.2245029 285:0.24224071 286:0.12838134 287:0.24224071 288:0.19417992 289:0.21191773 290:0.16385695 291:0.24224071 292:0.17183293 293:0.21191773 294:0.15711335 295:0.13539582 296:0.32040954 297:0.38394244 298:0.2245029 299:0.2245029 
1 1:0.024274789 4:0.0087427652 18:0.019205525 43:0.10917252 45:0.17183281 128:0.13685465 206:0.28660848 484:0.15231546 596:0.21734234 740:0.2263984 838:0.19872252 1460:0.14975278 1708:0.2793417 1709:0.36165964 1710:0.39349018 1711:0.39349018 1712:0.2793417 1713:0.19209743 1714:0.19900872 
1 1:0.011350438 4:0.0064792534 18:0.028466386 43:0.03484502 59:0.088295781 66:0.058631368 105:0.046856624 125:0.048048102 159:0.062259726 170:0.12179441 213:0.10431394 324:0.13401278 330:0.13792635 334:0.13792635 339:0.1609575 340:0.13401278 341:0.1609575 342:0.18398866 343:0.1705163 344:0.18398866 411:0.07980579 543:0.1170396 575:0.11098162 578:0.10142282 606:0.18398866 681:0.15354313 692:0.13051197 701:0.1273451 1343:0.13792635 1715:0.18398866 1716:0.14236318 1717:0.20701982 1718:0.18398866 1719:0.1705163 1720:0.18398866 1721:0.18398866 1722:0.1705163 1723:0.1705163 1724:0.18398866 1725:0.18398866 1726:0.20701982 1727:0.15354313 1728:0.20701982 1729:0.20701982 1730:0.1705163 1731:0.20701982 
0.250325900859441 4:0.019541978 9:0.050102631 12:0.07883839 13:0.025388626 43:0.066307902 165:0.08194499 213:0.19850294 259:0.068844641 321:0.20144434 526:0.34045812 534:0.23682817 597:0.14290906 607:0.22271908 884:0.25501796 897:0.18325455 1608:0.24835614 1668:0.2423298 1732:0.24835614 1733:0.28065503 1734:0.3062921 1735:0.3062921 1736:0.32448189 
1 13:0.031286998 125:0.071089673 156:0.11178871 165:0.10098273 438:0.2694332 638:0.29862868 856:0.31426461 1737:0.34585777 1738:0.39986663 1739:0.2918489 1740:0.43145979 1741:0.39986663 
1 18:0.031941823 66:0.13157924 125:0.068032213 394:0.31948836 1742:0.38266897 1743:0.41290335 1744:0.38266897 1745:0.38266897 1746:0.38266897 1747:0.34457814 
0.9604540977937797 4:0.0093227199 12:0.059611609 13:0.019196953 18:0.020479531 30:0.12151098 125:0.043618921 320:0.1790715 328:0.20484028 664:0.15009286 1315:0.23159485 1748:0.29787194 1749:0.29787194 1750:0.22092662 1751:0.29787194 1752:0.29787194 1753:0.29787194 1754:0.2647334 1755:0.29787194 1756:0.29787194 1757:0.29787194 
1 1:0.020494629 4:0.0073813095 9:0.047540462 13:0.024090292 18:0.01621477 20:0.01690722 23:0.091748495 32:0.050727849 33:0.028859832 61:0.050162871 66:0.066794158 69:0.082142175 105:0.084605469 165:0.049057599 633:0.14507437 799:0.30788841 846:0.16801835 907:0.54181841 1739:0.14178074 1758:0.48668535 1759:0.23584158 1760:0.23584158 1761:0.23584158 1762:0.20960397 1763:0.23584158 
1 1:0.018373498 4:0.013234733 9:0.053780667 13:0.021597021 20:0.02402387 24:0.11334733 61:0.044971168 66:0.059881168 74:0.068745571 92:0.2169329 101:0.11953445 180:0.14086641 181:0.13329399 222:0.23874126 248:0.05515528 275:0.16438851 286:0.27957825 324:0.13686942 325:0.2169329 383:0.099587782 392:0.12710687 453:0.11528701 897:0.19670728 1012:0.15681609 1162:0.1243906 1764:0.2114327 1765:0.2114327 1766:0.2114327 1767:0.16438851 1768:0.2114327 1769:0.16438851 1770:0.2114327 1771:0.2114327 1772:0.2114327 1773:0.26054962 1774:0.2114327 1775:0.2114327 
0.8978956044092263 1:0.012239172 4:0.011073461 9:0.044998121 13:0.028772927 18:0.015347646 30:0.14432989 31:0.12620375 39:0.083790937 43:0.037573369 49:0.12620375 57:0.069271373 59:0.095209301 69:0.077749422 83:0.16556548 89:0.099056941 93:0.15903316 98:0.14872592 100:0.10258391 102:0.18092097 105:0.050525477 147:0.18386765 159:0.067134635 191:0.088470874 247:0.10936418 520:0.10649637 569:0.13419867 1303:0.14872592 1305:0.13731617 1638:0.29745183 1639:0.16556548 1776:0.19839489 1777:0.1735604 1778:0.22322938 1779:0.22322938 1780:0.25206159 1781:0.22322938 1782:0.19839489 1783:0.1735604 1784:0.19839489 1785:0.22322938 1786:0.22322938 1787:0.22322938 
1 1:0.024248089 13:0.028502275 18:0.030406557 43:0.04696633 57:0.054631269 77:0.20831029 125:0.040860451 153:0.19878984 164:0.17591232 232:0.097964884 321:0.14268437 575:0.14958807 1314:0.13861017 1780:0.19878984 1788:0.2479916 1789:0.2479916 1790:0.2479916 1791:0.2479916 1792:0.27903446 1793:0.2479916 1794:0.22983269 1795:0.21694874 1796:0.27903446 1797:0.21694874 1798:0.27903446 1799:0.27903446 
1 1:0.019285118 4:0.0087241606 9:0.044734816 13:0.02266858 18:0.031256208 20:0.02521584 32:0.059956557 33:0.05563131 61:0.037407065 69:0.061254422 421:0.15630424 520:0.083902531 543:0.15759104 1289:0.15630424 1302:0.11384813 1432:0.26087957 1466:0.13673854 1506:0.13043979 1800:0.31260848 1801:0.17586994 1802:0.17586994 1803:0.17586994 1804:0.17586994 1805:0.17586994 1806:0.15630424 1807:0.17586994 1808:0.17586994 1809:0.17586994 1810:0.15630424 1811:0.17586994 1812:0.17586994 1813:0.17586994 1814:0.17586994 1815:0.17586994 1816:0.17586994 1817:0.17586994 1818:0.17586994 1819:0.17586994 1820:0.14485904 1821:0.14485904 1822:0.17586994 1823:0.099428879 1824:0.17586994 
1 1:0.011249795 4:0.012155119 8:0.055583868 9:0.038229422 18:0.0089005193 20:0.01856123 32:0.027845242 44:0.054429239 61:0.027535118 66:0.036664269 74:0.0420918 156:0.029809979 164:0.1632275 165:0.042680533 191:0.051306678 247:0.06342328 474:0.11505462 509:0.11505462 517:0.16900435 579:0.073189006 583:0.089024736 587:0.16900435 598:0.061760154 876:0.068277324 1359:0.09601595 1412:0.081613752 1460:0.069400732 1575:0.10662987 1825:0.10662987 1826:0.12945682 1827:0.12945682 1828:0.12945682 1829:0.12945682 1830:0.12945682 1831:0.25891364 1832:0.12945682 1833:0.12945682 1834:0.12945682 1835:0.12945682 1836:0.12945682 1837:0.12945682 1838:0.12945682 1839:0.12945682 1840:0.12945682 1841:0.10065242 1842:0.12945682 1843:0.12945682 1844:0.12945682 1845:0.12945682 1846:0.12945682 1847:0.12945682 1848:0.12945682 1849:0.12945682 1850:0.2051842 1851:0.12945682 1852:0.12945682 1853:0.12945682 1854:0.12945682 1855:0.2051842 1856:0.10065242 1857:0.10662987 1858:0.16900435 1859:0.11505462 1860:0.12945682 1861:0.12945682 1862:0.12945682 1863:0.12945682 1864:0.10662987 1865:0.12945682 1866:0.092227676 1867:0.10662987 1868:0.10065242 1869:0.12945682 
0.9328763964155663 4:0.012182462 9:0.049504659 12:0.049147825 13:0.025085614 20:0.017605764 84:0.13884299 165:0.080966983 171:0.13390946 256:0.15897811 259:0.068022985 270:0.2022819 274:0.16362074 281:0.14448357 282:0.13390946 765:0.19094239 1012:0.18214678 1780:0.27730543 1870:0.24558569 1871:0.24558569 1872:0.24558569 1873:0.27730543 1874:0.24558569 1875:0.24558569 1876:0.24558569 1877:0.24558569 1878:0.24558569 1879:0.21826404 1880:0.24558569 
1 4:0.016876827 9:0.03429034 13:0.017376026 18:0.018536945 20:0.012194966 27:0.096172229 28:0.069392846 32:0.057992767 33:0.048333801 43:0.045381259 57:0.07733231 66:0.048177789 74:0.055309703 105:0.038502402 113:0.080124008 125:0.02491002 156:0.039171076 194:0.073473992 228:0.10724256 244:0.068060738 246:0.070793296 259:0.029727775 411:0.10393701 424:0.10724256 502:0.10464033 696:0.14011439 697:0.13225986 698:0.13225986 748:0.12616742 868:0.14011439 960:0.113335 962:0.092754925 963:0.26435034 964:0.15118472 965:0.14011439 966:0.09119434 967:0.22667001 968:0.15118472 969:0.12616742 970:0.22207605 971:0.14011439 972:0.094410146 973:0.12118953 974:0.13225986 975:0.15118472 976:0.13225986 977:0.13225986 978:0.15118472 979:0.15118472 980:0.13225986 981:0.15118472 982:0.15118472 983:0.072269483 984:0.14011439 985:0.22207605 986:0.12118953 987:0.15242938 988:0.12616742 989:0.15118472 990:0.14011439 991:0.15118472 992:0.1101192 993:0.15118472 994:0.15118472 995:0.13225986 996:0.05490521 997:0.15118472 
0.8387909319899244 1:0.017550758 4:0.020037255 8:0.08671616 9:0.040711699 13:0.020629937 18:0.013885663 20:0.014478649 21:0.14388401 23:0.078569642 28:0.082387655 33:0.024714375 57:0.039542094 104:0.12732527 113:0.095128382 125:0.02957478 282:0.11012462 295:0.10032599 424:0.12732527 450:0.25570145 521:0.15702742 932:0.2844948 958:0.14388401 1881:0.35899247 1882:0.17949623 1883:0.17949623 1884:0.2844948 1885:0.20196504 1886:0.20196504 1887:0.20196504 1888:0.20196504 1889:0.20196504 1890:0.20196504 1891:0.20196504 1892:0.17949623 1893:0.17949623 1894:0.20196504 1895:0.17949623 
1 4:0.019541978 9:0.050102631 12:0.07883839 13:0.025388626 43:0.066307902 165:0.08194499 213:0.19850294 259:0.068844641 321:0.20144434 526:0.34045812 534:0.23682817 597:0.14290906 607:0.22271908 884:0.25501796 897:0.18325455 1608:0.24835614 1668:0.2423298 1732:0.24835614 1733:0.28065503 1734:0.3062921 1735:0.3062921 1736:0.32448189 
1 1:0.020256798 4:0.014940173 9:0.020236964 12:0.031843631 13:0.010254725 18:0.028279127 20:0.02281409 28:0.064909351 43:0.026782439 156:0.058073374 191:0.063062371 219:0.14258086 220:0.089958509 232:0.088542731 259:0.044073137 345:0.14141662 431:0.13106155 479:0.11335943 492:0.13106155 502:0.1551353 526:0.13751451 554:0.13106155 583:0.10942262 607:0.089958509 639:0.093613126 665:0.093613126 773:0.10300436 884:0.10300436 972:0.088310275 1034:0.09635108 1498:0.10601239 1668:0.097879479 1670:0.18705046 1680:0.11335943 1866:0.11335943 1896:0.22414005 1897:0.14141662 1898:0.14141662 1899:0.15911874 1900:0.15911874 1901:0.18705046 1902:0.10601239 1903:0.15911874 1904:0.16325805 1905:0.15911874 1906:0.15911874 1907:0.14141662 1908:0.14141662 1909:0.11335943 1910:0.19608285 1911:0.14141662 1912:0.15911874 1913:0.20772764 1914:0.15911874 1915:0.14141662 1916:0.14141662 1917:0.15911874 1918:0.1180157 1919:0.073122196 1920:0.10601239 1921:0.15911874 1922:0.11335943 1923:0.12371451 1924:0.13106155 
1 1:0.019881293 9:0.046117736 13:0.02336935 165:0.1195498 906:0.32227237 1336:0.22860323 1486:0.20124906 1925:0.32227237 1926:0.39522891 1927:0.36261348 1928:0.36261348 1929:0.36261348 1930:0.36261348 
1 1:0.014623968 4:0.015800828 9:0.033922557 12:0.03367804 18:0.018338127 20:0.028012131 28:0.068648569 32:0.072393842 100:0.07733453 105:0.038089443 125:0.049285694 188:0.088755877 194:0.072685944 259:0.046612048 289:0.20737856 292:0.10609233 294:0.097004223 308:0.10609233 353:0.078282346 424:0.10609233 465:0.19400845 503:0.11988971 681:0.1248142 1073:0.11988971 1218:0.1248142 1258:0.075533199 1408:0.14956318 1499:0.1248142 1563:0.13861158 1601:0.11988971 1931:0.33657012 1932:0.20737856 1933:0.16828506 1934:0.16828506 1935:0.14956318 1936:0.16828506 1937:0.16828506 1938:0.19002069 1939:0.16828506 1940:0.10609233 1941:0.16828506 1942:0.14956318 1943:0.14956318 1944:0.16828506 1945:0.16828506 1946:0.1157261 1947:0.16828506 1948:0.16828506 1949:0.16828506 1950:0.16828506 1951:0.14956318 1952:0.16828506 1953:0.13861158 
-0.2059666709360361 1:0.016613121 4:0.0094833893 13:0.012320668 18:0.020832479 33:0.037078654 39:0.071759143 43:0.032178096 66:0.054143915 105:0.043270371 165:0.039766509 186:0.12052301 206:0.12375588 248:0.049870818 286:0.090046213 432:0.093660251 457:0.11247266 568:0.09925458 785:0.088930314 952:0.094966144 983:0.16243804 1154:0.092407675 1343:0.12736991 1345:0.28358287 1350:0.13619711 1412:0.12052301 1429:0.14179144 1454:0.12375588 1457:0.10248745 1484:0.09925458 1486:0.10610148 1673:0.13146717 1954:0.21586731 1955:0.11492868 1956:0.1911752 1957:0.1911752 1958:0.16990677 1959:0.15746554 1960:0.16990677 1961:0.16990677 1962:0.30300552 1963:0.16990677 1964:0.1911752 1965:0.16990677 1966:0.1911752 1967:0.15746554 1968:0.1911752 1969:0.15746554 1970:0.15746554 1971:0.1911752 1972:0.13619711 1973:0.12052301 
-0.2795969773299748 1:0.0093267903 4:0.012362131 9:0.043269866 13:0.017376136 18:0.011695585 20:0.028316013 32:0.057993135 39:0.063852398 40:0.074645611 61:0.03618208 73:0.14011528 74:0.055310054 80:0.14701401 84:0.15243034 104:0.10724324 105:0.077005294 129:0.1211903 134:0.12616822 159:0.081085984 248:0.070334021 259:0.029727964 332:0.12616822 570:0.11698153 1067:0.070793746 1511:0.1101199 1588:0.1211903 1973:0.10724324 1974:0.12616822 1975:0.17011066 1976:0.17011066 1977:0.17011066 1978:0.17011066 1979:0.11698153 1980:0.17011066 1981:0.17011066 1982:0.17011066 1983:0.17011066 1984:0.26961901 1985:0.14011528 1986:0.15118568 1987:0.17011066 1988:0.17011066 1989:0.17011066 1990:0.17011066 1991:0.17011066 1992:0.17011066 1993:0.17011066 1994:0.17011066 1995:0.17011066 1996:0.17011066 1997:0.17011066 1998:0.17011066 1999:0.17011066 2000:0.17011066 
-0.2795969773299748 1:0.021263259 4:0.015316276 9:0.031119612 18:0.016822888 20:0.017541308 61:0.08248807 66:0.069299204 69:0.085222832 74:0.07955779 165:0.050897454 633:0.15051524 799:0.20154133 966:0.26234891 1398:0.22816265 1739:0.14709808 1882:0.21746495 2001:0.38781905 2002:0.21746495 2003:0.21746495 2004:0.21746495 2005:0.21746495 2006:0.21746495 2007:0.24468658 2008:0.24468658 2009:0.38781905 2010:0.24468658 
-0.2795969773299748 1:0.028325042 4:0.019549312 9:0.044850174 12:0.04452689 13:0.014339163 18:0.024245465 20:0.0319009 43:0.037449834 125:0.051639904 165:0.046281457 191:0.088179996 242:0.1402683 248:0.058041155 259:0.038882551 438:0.12348409 522:0.18326312 938:0.099865029 1067:0.092594349 1231:0.15851029 1336:0.22231999 1409:0.15851029 1750:0.16502113 1946:0.15300544 2011:0.35264693 2012:0.22249544 2013:0.35264693 2014:0.28806161 2015:0.1977426 2016:0.22249544 2017:0.1977426 2018:0.15300544 2019:0.22249544 2020:0.1977426 2021:0.22249544 2022:0.16502113 2023:0.1977426 
-0.2795969773299748 1:0.018322327 4:0.015322257 12:0.097974027 13:0.021536872 18:0.022975785 20:0.023956963 28:0.086009591 33:0.040893413 43:0.035488671 57:0.041280448 165:0.043857802 244:0.084358497 248:0.055001671 315:0.09251959 321:0.10781508 377:0.12675287 383:0.1574033 526:0.22993186 575:0.2260633 578:0.10329629 621:0.080552164 634:0.28094819 639:0.12404417 642:0.17366604 645:0.13648824 740:0.10781508 966:0.11303165 1034:0.080552164 1039:0.10624081 1106:0.17366604 1215:0.16393068 1258:0.094635323 1425:0.14499289 1516:0.11920154 1517:0.13648824 2024:0.21084385 2025:0.18738727 2026:0.21632874 2027:0.15637935 2028:0.1404741 2029:0.21084385 2030:0.21084385 2031:0.12404417 2032:0.21084385 2033:0.16393068 2034:0.10781508 2035:0.21084385 2036:0.21084385 2037:0.17366604 
-0.2795969773299748 4:0.0089285931 13:0.018385383 20:0.020451342 165:0.059341143 201:0.18467337 244:0.11414 465:0.16444288 983:0.1211982 1626:0.19006638 2038:0.28527913 2039:0.23497625 2040:0.28527913 2041:0.20323866 2042:0.45215672 2043:0.28527913 2044:0.28527913 2045:0.28527913 2046:0.28527913 2047:0.28527913 
-0.2795969773299748 1:0.024848132 4:0.014184241 9:0.057639087 13:0.029207592 32:0.097480811 33:0.05545829 66:0.12835452 89:0.20110674 101:0.25622056 165:0.094271186 213:0.22836182 248:0.11822464 259:0.079200277 597:0.16440549 1346:0.40278398 1514:0.16304583 1523:0.17961476 2048:0.29337786 2049:0.32287127 2050:0.4532033 2051:0.18487534 2052:0.18132636 2053:0.18487534 2054:0.18307921 
-0.2795969773299748 1:0.027534403 4:0.010986176 13:0.0097428819 18:0.016473814 20:0.028015012 33:0.042954328 59:0.081362404 89:0.0670839 90:0.088940622 116:0.10770133 125:0.022137576 159:0.045465296 162:0.12073527 397:0.11753956 399:0.092994029 438:0.083902452 569:0.18176556 628:0.088940622 639:0.088940622 674:0.11753956 854:0.12451988 952:0.075096898 1029:0.13435811 1165:0.17687398 1239:0.11212519 1249:0.11753956 1336:0.19061328 1392:0.12451988 1582:0.085468417 2055:0.34731067 2056:0.26871621 2057:0.15117666 2058:0.15117666 2059:0.15117666 2060:0.15117666 2061:0.15117666 2062:0.15117666 2063:0.22425038 2064:0.090882781 2065:0.17771422 2066:0.15963901 2067:0.26871621 2068:0.13435811 2069:0.15117666 2070:0.15117666 2071:0.23960933 2072:0.12451988 2073:0.15117666 2074:0.15117666 
-0.2795969773299748 1:0.014043288 4:0.0080164327 16:0.27917265 18:0.027911137 24:0.1373116 32:0.055092717 33:0.03134307 39:0.096142145 353:0.1191479 410:0.14764312 433:0.25593255 1051:0.1177053 1052:0.18884495 1062:0.18997068 1310:0.18997068 1501:0.14764312 1516:0.14480683 1517:0.26279759 1940:0.16147546 2075:0.2276393 2076:0.17064887 2077:0.25613452 2078:0.17613833 2079:0.21097067 2080:0.15755727 2081:0.21097067 2082:0.17064887 2083:0.2276393 2084:0.2276393 2085:0.2276393 2086:0.2276393 
-0.2795969773299748 1:0.018512401 4:0.016749201 13:0.021760294 18:0.023214134 59:0.090859658 125:0.078365764 428:0.19462882 571:0.26251938 579:0.19088991 754:0.18410699 1158:0.24054614 1645:0.15903619 2064:0.20298265 2087:0.26251938 2088:0.39691682 2089:0.33764635 2090:0.33764635 2091:0.33764635 2092:0.33764635 
-0.2795969773299748 13:0.023639216 18:0.02521859 69:0.1277545 74:0.11926224 411:0.14140112 2093:0.32599393 2094:0.32599393 2095:0.36680089 2096:0.36680089 2097:0.36680089 2098:0.36680089 2099:0.30212339 2100:0.32599393 
-0.2795969773299748 1:0.014953932 4:0.015119801 13:0.017577512 18:0.011831127 39:0.064592397 43:0.045907484 45:0.16777414 66:0.048736441 125:0.025198868 154:0.099192948 194:0.046894466 243:0.1146492 248:0.044890108 259:0.030072487 539:0.11837478 800:0.1337935 940:0.1337935 1034:0.065743372 1314:0.085481663 1585:0.1417391 1645:0.081053097 2101:0.1720821 2102:0.27274368 2103:0.1529378 2104:0.12763041 2105:0.27274368 2106:0.27274368 2107:0.1720821 2108:0.1720821 2109:0.20228941 2110:0.1720821 2111:0.27274368 2112:0.1720821 2113:0.1337935 2114:0.1720821 2115:0.22465116 2116:0.1720821 2117:0.1720821 2118:0.1337935 2119:0.1720821 2120:0.1337935 2121:0.11833725 2122:0.1720821 2123:0.1720821 2124:0.1529378 
-0.2795969773299748 1:0.018301968 4:0.018391417 8:0.061726574 9:0.018284049 12:0.045600392 18:0.025550123 20:0.016335 23:0.055927693 32:0.030922487 33:0.017592265 44:0.060444344 57:0.044611906 61:0.030578089 105:0.03253924 125:0.048881264 132:0.078389258 165:0.047397261 194:0.07835455 228:0.090633082 246:0.059828995 259:0.025123606 266:0.062395438 424:0.090633082 484:0.078389258 568:0.074639263 595:0.11177576 876:0.12017632 938:0.064526879 986:0.10241998 1030:0.11177576 1077:0.11177576 1422:0.13542918 1531:0.062395438 1533:0.10241998 1556:0.073513469 1561:0.13134466 1612:0.12882147 1709:0.14750325 1857:0.1184138 1955:0.086426157 2125:0.20250999 2126:0.11177576 2127:0.19772615 2128:0.15181079 2129:0.1437634 2130:0.10241998 2131:0.1184138 2132:0.12776958 2133:0.18768143 2134:0.1437634 2135:0.1437634 2136:0.20250999 2137:0.20250999 2138:0.2278596 2139:0.1437634 2140:0.093064192 2141:0.1437634 2142:0.12776958 2143:0.082869253 2144:0.12776958 2145:0.12776958 2146:0.1066269 2147:0.1437634 2148:0.12776958 2149:0.12776958 2150:0.1437634 2151:0.12776958 2152:0.1437634 2153:0.1437634 2154:0.1184138 2155:0.1437634 2156:0.12776958 2157:0.1437634 2158:0.1437634 2159:0.12776958 
-0.2795969773299748 4:0.018698921 9:0.058789977 12:0.04625413 18:0.025185969 20:0.033138365 29:0.13066828 39:0.086755088 61:0.049159931 69:0.080499852 137:0.28481808 171:0.12602522 194:0.062984712 286:0.25277373 392:0.13894603 485:0.20541322 596:0.089914107 628:0.13597676 897:0.17040665 983:0.098191851 1076:0.14961789 1398:0.31572825 1769:0.28481808 2160:0.14961789 2161:0.32557226 2162:0.1797002 2163:0.23112624 2164:0.19037207 2165:0.23112624 2166:0.23112624 2167:0.23112624 2168:0.23112624 
-0.2795969773299748 12:0.14518337 13:0.046753952 57:0.14203621 530:0.34609798 569:0.43612652 1129:0.53806418 1404:0.5975436 
-0.2795969773299748 1:0.012117392 4:0.024797398 9:0.028108165 12:0.044229263 18:0.024083404 20:0.031687668 28:0.090155949 32:0.047537302 100:0.10156319 125:0.032363373 232:0.077592733 259:0.038622652 411:0.0851983 567:0.24088692 568:0.18186388 570:0.15198272 575:0.18778745 912:0.18203815 1038:0.14306807 1397:0.15198272 1494:0.38060604 1556:0.11301264 1780:0.15745077 2169:0.36407631 2170:0.28852365 2171:0.18203815 2172:0.22100823 2173:0.22100823 2174:0.19642085 2175:0.22100823 2176:0.19642085 2177:0.19642085 2178:0.19642085 
-0.2795969773299748 1:0.021263877 4:0.019238614 18:0.026664422 33:0.047458627 165:0.080672899 266:0.16832408 634:0.2583908 789:0.28764724 1231:0.27629822 2179:0.34468381 2180:0.38783031 2181:0.28764724 2182:0.38783031 2183:0.38783031 2184:0.28764724 
-0.2795969773299748 1:0.011092155 4:0.010952242 8:0.043431923 9:0.020390517 13:0.01685164 18:0.023102867 20:0.0250866 28:0.041263984 30:0.065401868 31:0.057188162 32:0.021757616 33:0.031997267 44:0.067408016 57:0.031389736 59:0.027220385 61:0.049956959 74:0.032889539 95:0.069561829 105:0.022895192 113:0.075515851 125:0.029625149 133:0.10107474 156:0.046585628 159:0.091264475 165:0.033349562 191:0.063540874 194:0.04369081 246:0.066721774 258:0.058308291 259:0.035354839 286:0.047645197 368:0.06739389 383:0.047645197 498:0.089900966 596:0.039351727 645:0.065481633 727:0.16732866 762:0.075024598 966:0.054228095 996:0.03264901 1014:0.10378593 1067:0.042096753 1082:0.062223659 1135:0.053350291 1162:0.059511465 1182:0.06377106 1209:0.07206453 1258:0.090804536 1486:0.056140352 1562:0.20330065 1565:0.089900966 1570:0.078647428 1576:0.13205601 1612:0.057188162 1727:0.075024598 1940:0.06377106 2082:0.06739389 2185:0.1011545 2186:0.1603261 2187:0.12465322 2188:0.078647428 2189:0.1011545 2190:0.089900966 2191:0.089900966 2192:0.078647428 2193:0.07206453 2194:0.1011545 2195:0.1011545 2196:0.06377106 2197:0.1011545 2198:0.1011545 2199:0.1011545 2200:0.1011545 2201:0.089900966 2202:0.089900966 2203:0.059511465 2204:0.089900966 2205:0.1603261 2206:0.1011545 2207:0.1011545 2208:0.1011545 2209:0.1011545 2210:0.1011545 2211:0.1011545 2212:0.07206453 2213:0.1011545 2214:0.1011545 2215:0.083318068 2216:0.1011545 2217:0.1603261 2218:0.1011545 2219:0.1011545 2220:0.1011545 2221:0.089900966 2222:0.1011545 2223:0.089900966 2224:0.1011545 2225:0.1011545 2226:0.07206453 2227:0.1011545 2228:0.089900966 2229:0.089900966 2230:0.1011545 2231:0.1011545 2232:0.1011545 2233:0.089900966 2234:0.1011545 2235:0.1011545 2236:0.083318068 2237:0.089900966 2238:0.083318068 2239:0.089900966 2240:0.1011545 2241:0.1011545 2242:0.1011545 2243:0.065481633 2244:0.1011545 2245:0.089900966 2246:0.1011545 2247:0.1011545 2248:0.1011545 2249:0.1011545 2250:0.1011545 2251:0.1011545 2252:0.069561829 2253:0.1011545 2254:0.1011545 2255:0.1011545 2256:0.089900966 2257:0.083318068 2258:0.1011545 2259:0.089900966 2260:0.075024598 
-0.2795969773299748 1:0.02550925 4:0.017400967 18:0.010662675 33:0.049057273 40:0.068053191 43:0.04137362 60:0.083140927 61:0.032986615 105:0.081504873 125:0.045420411 161:0.2565434 162:0.21938327 165:0.032259799 168:0.12774082 194:0.042263127 206:0.15912155 218:0.15912155 259:0.054205004 312:0.077039418 329:0.087679216 356:0.18248247 359:0.081795103 374:0.17511811 383:0.073048221 452:0.10665016 540:0.097771922 621:0.093909818 633:0.095399492 740:0.079303858 754:0.13403029 1034:0.093909818 1067:0.064541509 1136:0.10332634 1145:0.13783353 1152:0.12057993 1215:0.12057993 1419:0.16376837 1422:0.073048221 1454:0.10039452 1457:0.083140927 1478:0.18248247 1484:0.080518327 2034:0.079303858 2261:0.12774082 2262:0.13783353 2263:0.12774082 2264:0.13783353 2265:0.12774082 2266:0.15508712 2267:0.13783353 2268:0.21846097 2269:0.20246441 2270:0.13783353 2271:0.087679216 2272:0.18231113 2273:0.15508712 2274:0.13783353 2275:0.12057993 2276:0.12774082 2277:0.13783353 2278:0.12057993 2279:0.15508712 2280:0.13783353 2281:0.13783353 2282:0.13783353 
-0.2795969773299748 1:0.021945149 4:0.0079037262 9:0.032117585 23:0.15570997 33:0.030902404 66:0.071521556 194:0.068818426 282:0.13769782 1164:0.20800454 1460:0.13538108 1795:0.19634423 2283:0.25253341 2284:0.20800454 2285:0.25253341 2286:0.25253341 2287:0.22443882 2288:0.40025599 2289:0.22443882 2290:0.25253341 2291:0.22443882 2292:0.25253341 2293:0.25253341 2294:0.25253341 2295:0.20800454 
-0.2795969773299748 1:0.021034053 4:0.021267363 30:0.15649779 43:0.040741037 105:0.10957017 128:0.11858426 165:0.079800974 206:0.15668866 306:0.16645201 355:0.22114003 394:0.16645201 528:0.19936883 1139:0.19936883 1144:0.19936883 2296:0.38363859 2297:0.18819262 2298:0.34095842 2299:0.29827825 2300:0.31599212 2301:0.17952368 2302:0.17952368 2303:0.242049 2304:0.18819262 2305:0.21512081 
-0.2421577923654668 4:0.013125559 9:0.026668513 13:0.013513799 18:0.014416678 33:0.040669345 43:0.035294218 57:0.04105426 59:0.08943403 61:0.044600197 77:0.098766276 81:0.10416265 159:0.099951438 165:0.043617492 188:0.11059267 198:0.11241232 246:0.087264609 539:0.091007938 902:0.12087037 1067:0.087264609 1257:0.1555225 1645:0.098766276 2100:0.18636052 2140:0.13574038 2306:0.17271448 2307:0.20968858 2308:0.29537443 2309:0.1555225 2310:0.14938642 2311:0.13574038 2312:0.20968858 2313:0.18636052 2314:0.20968858 2315:0.18636052 2316:0.20968858 2317:0.20968858 2318:0.18636052 2319:0.20968858 2320:0.1233645 2321:0.17271448 2322:0.20968858 2323:0.17271448 2324:0.16303246 2325:0.17271448 2326:0.12898675 2327:0.17271448 2328:0.17271448 
-0.2795969773299748 1:0.016761317 4:0.012362121 9:0.026540048 13:0.013448702 18:0.014347231 20:0.024398592 23:0.081181346 32:0.028319447 33:0.016111356 43:0.022160904 57:0.02577758 61:0.02800404 69:0.072681436 113:0.062014406 125:0.019279866 156:0.048052326 165:0.027387009 237:0.080989554 266:0.05714302 294:0.075893359 339:0.10236653 387:0.1350865 401:0.10844578 432:0.10223543 443:0.080989554 450:0.071790487 596:0.051219727 740:0.10670782 840:0.0976511 938:0.093663418 952:0.10366089 953:0.10844578 1303:0.087719064 1368:0.117014 1398:0.12277024 1399:0.10844578 1400:0.1854628 1478:0.077459396 1516:0.074435413 1517:0.085230093 1531:0.090569544 1574:0.10844578 1630:0.15477333 1669:0.0976511 1946:0.090540826 2329:0.117014 2330:0.13166147 2331:0.34033995 2332:0.13166147 2333:0.10236653 2334:0.13166147 2335:0.13166147 2336:0.13166147 2337:0.13166147 2338:0.13166147 2339:0.13166147 2340:0.13166147 2341:0.15477333 2342:0.13166147 2343:0.13166147 2344:0.13166147 2345:0.20867849 2346:0.13166147 2347:0.13166147 2348:0.13166147 2349:0.13166147 2350:0.13166147 2351:0.13166147 2352:0.13166147 2353:0.117014 2354:0.13166147 2355:0.13166147 2356:0.13166147 2357:0.13166147 2358:0.13166147 2359:0.087719064 2360:0.13166147 2361:0.13166147 
-0.2795969773299748 1:0.015665929 4:0.017175098 9:0.040456189 13:0.007930661 20:0.026465479 33:0.015058444 39:0.04619047 40:0.05399822 57:0.038186437 61:0.026173915 66:0.034851766 105:0.027852601 128:0.060287942 162:0.12401297 165:0.025597208 175:0.075696711 191:0.048770326 218:0.079660121 246:0.051211802 259:0.043010087 266:0.0534086 295:0.061128529 308:0.077579165 312:0.061128529 330:0.081986433 374:0.087668389 383:0.09186701 410:0.070933563 462:0.087668389 486:0.084623787 541:0.069570898 845:0.095676656 846:0.087668389 863:0.18253878 867:0.10936688 870:0.1733424 871:0.10936688 872:0.10135861 873:0.095676656 874:0.10135861 875:0.1733424 878:0.1606496 894:0.10135861 901:0.10135861 910:0.091269389 911:0.10135861 1016:0.091269389 1302:0.079660121 1511:0.079660121 1516:0.069570898 1564:0.10936688 1609:0.1733424 1645:0.05796163 1979:0.084623787 2243:0.079660121 2341:0.091269389 2362:0.1230571 2363:0.1230571 2364:0.10936688 2365:0.1230571 2366:0.10936688 2367:0.10936688 2368:0.1230571 2369:0.1230571 2370:0.1230571 2371:0.10936688 2372:0.1230571 2373:0.1230571 2374:0.1230571 2375:0.1230571 2376:0.1230571 2377:0.087668389 2378:0.10135861 2379:0.1230571 2380:0.10135861 2381:0.28572975 2382:0.19504089 2383:0.1733424 2384:0.10135861 2385:0.1230571 2386:0.1230571 2387:0.1230571 2388:0.1230571 2389:0.1230571 2390:0.1230571 2391:0.095676656 2392:0.1230571 2393:0.1230571 2394:0.1230571 
-0.2795969773299748 4:0.011099318 18:0.024382243 44:0.14910444 61:0.075430198 216:0.2921038 246:0.14758649 325:0.22957126 539:0.15391741 785:0.16496869 2202:0.3151827 2395:0.2921038 2396:0.35463635 2397:0.35463635 2398:0.35463635 2399:0.3151827 2400:0.3151827 
-0.2795969773299748 1:0.035446172 4:0.020233998 20:0.046346877 105:0.1463281 159:0.1944303 253:0.46057991 465:0.37266083 1233:0.39768479 2160:0.4185072 2401:0.50265263 
-0.2795969773299748 1:0.033553904 4:0.01915382 9:0.077833472 74:0.19898252 292:0.38581649 294:0.3527666 1398:0.36004583 2329:0.54390306 2402:0.50407637 
-0.2795969773299748 1:0.011315281 4:0.0064591846 8:0.088611175 12:0.041301508 13:0.021080764 18:0.014189107 20:0.023449602 36:0.16998814 43:0.034737091 57:0.064042327 59:0.055535885 74:0.067102272 125:0.047899279 165:0.04292898 198:0.11063786 232:0.072456484 259:0.036066027 273:0.21174732 397:0.16045896 520:0.098457341 873:0.16045896 1258:0.092631135 1499:0.15306754 2403:0.15306754 2404:0.14192223 2405:0.36683756 2406:0.16045896 2407:0.39470024 2408:0.13359769 2409:0.12695067 2410:0.16998814 2411:0.18341878 2412:0.2063786 2413:0.16998814 2414:0.16998814 2415:0.2063786 2416:0.2063786 2417:0.2063786 2418:0.16045896 2419:0.18341878 2420:0.2063786 
-0.2795969773299748 1:0.019983815 4:0.014057179 13:0.013261788 18:0.014147829 20:0.018614964 27:0.073400886 28:0.052962237 33:0.031774871 43:0.021852905 61:0.027614831 74:0.042213654 100:0.059663439 105:0.082496737 137:0.10094381 161:0.25966537 162:0.21732068 169:0.10094381 172:0.10693856 182:0.18288518 190:0.1153877 206:0.19514769 232:0.045581958 273:0.084045537 307:0.084045537 312:0.064493751 320:0.07805078 355:0.074838568 356:0.12106394 374:0.092494673 432:0.063606888 452:0.17856492 487:0.086499916 539:0.056348828 540:0.081850021 598:0.061938948 621:0.07861685 633:0.18543831 780:0.092494673 861:0.08928246 876:0.068474985 996:0.041904935 1258:0.058273715 1419:0.20084658 1422:0.06115251 1457:0.069601645 1478:0.07638284 1643:0.1153877 1649:0.096293913 1762:0.1153877 2143:0.074838568 2265:0.10693856 2267:0.1153877 2268:0.18288518 2271:0.073400886 2272:0.096293913 2276:0.16949361 2277:0.1153877 2421:0.2057782 2422:0.16949361 2423:0.1153877 2424:0.10094381 2425:0.12983159 2426:0.12983159 2427:0.12983159 2428:0.12983159 2429:0.12983159 2430:0.12983159 2431:0.086499916 2432:0.1153877 2433:0.12983159 2434:0.12983159 2435:0.12983159 2436:0.15262224 2437:0.12983159 2438:0.10094381 2439:0.1153877 2440:0.081850021 2441:0.12983159 
-0.2795969773299748 1:0.015509429 4:0.024854525 12:0.14633581 13:0.018230467 18:0.030825101 20:0.040558037 125:0.041422893 156:0.065137613 321:0.14464842 411:0.10904797 438:0.15699471 449:0.16642192 575:0.15164714 621:0.10807155 626:0.1831173 638:0.27579375 666:0.34011201 707:0.19452744 769:0.13673245 1183:0.170056 2196:0.17833374 2442:0.2098039 2443:0.18846487 2444:0.21993503 2445:0.25140519 2446:0.28287535 2447:0.25140519 2448:0.28287535 2449:0.25140519 2450:0.170056 
-0.2795969773299748 1:0.034541148 4:0.024880558 20:0.028495017 33:0.048639657 39:0.14919793 40:0.17441741 59:0.10696117 156:0.091527969 438:0.22060076 664:0.20028459 754:0.21673313 923:0.28317403 1663:0.25058525 1973:0.25058525 2087:0.30904121 2451:0.32739426 2452:0.30904121 2453:0.39748166 2454:0.35326143 
-0.2795969773299748 1:0.011146008 4:0.0089309779 9:0.03341696 13:0.015210382 18:0.020965264 20:0.018836262 30:0.041464324 33:0.02487666 40:0.044602727 57:0.019900872 59:0.070705295 61:0.060694311 66:0.045627403 74:0.052381775 77:0.047876518 118:0.064080674 128:0.078928058 156:0.023405903 159:0.030569191 165:0.033511476 194:0.055399333 228:0.064080674 240:0.072414409 244:0.040668349 248:0.02651573 266:0.044115698 281:0.059800398 411:0.039184213 489:0.072414409 539:0.044115698 607:0.057465816 667:0.072414409 848:0.064080674 850:0.079029268 1014:0.065799551 1034:0.038833356 1067:0.067045714 1257:0.1194885 1258:0.0456227 1275:0.10428982 1514:0.057959453 1517:0.065799551 1529:0.075388848 1556:0.051976524 1714:0.072414409 2203:0.094781389 2455:0.28535532 2456:0.10164562 2457:0.10164562 2458:0.10164562 2459:0.10164562 2460:0.090337442 2461:0.10164562 2462:0.10164562 2463:0.090337442 2464:0.10164562 2465:0.10164562 2466:0.10164562 2467:0.10164562 2468:0.10164562 2469:0.090337442 2470:0.10164562 2471:0.30493685 2472:0.10164562 2473:0.10164562 2474:0.10164562 2475:0.23601381 2476:0.10164562 2477:0.10164562 2478:0.10164562 2479:0.090337442 2480:0.079029268 2481:0.090337442 2482:0.090337442 2483:0.079029268 2484:0.090337442 2485:0.090337442 2486:0.10164562 2487:0.10164562 2488:0.10164562 2489:0.10164562 2490:0.083722584 2491:0.072414409 2492:0.10164562 2493:0.10164562 2494:0.083722584 2495:0.10164562 2496:0.10164562 2497:0.10164562 2498:0.075388848 2499:0.10164562 2500:0.10164562 2501:0.10164562 2502:0.083722584 2503:0.13269716 2504:0.083722584 2505:0.10164562 2506:0.10164562 2507:0.10164562 2508:0.090337442 2509:0.083722584 2510:0.10164562 2511:0.072414409 2512:0.090337442 2513:0.10164562 2514:0.10164562 2515:0.083722584 2516:0.10164562 2517:0.10164562 2518:0.090337442 2519:0.079029268 2520:0.10164562 2521:0.10164562 2522:0.10164562 2523:0.10164562 
-0.2795969773299748 1:0.019098776 4:0.015303304 9:0.022151283 18:0.018979478 20:0.024972192 43:0.029315928 59:0.046868806 74:0.056630111 125:0.040423989 132:0.094969263 159:0.083021223 165:0.036229369 232:0.096918445 246:0.072483344 259:0.060874932 334:0.11604065 441:0.098468148 503:0.12408269 566:0.11977347 621:0.066541275 752:0.12917941 996:0.056215962 1486:0.15320881 1531:0.075592612 1556:0.089062202 1571:0.12408269 1919:0.080039202 2146:0.12917941 2201:0.24534261 2327:0.14345934 2525:0.1741706 2526:0.1741706 2527:0.15479395 2528:0.1741706 2529:0.1741706 2530:0.1741706 2531:0.1741706 2532:0.1741706 2533:0.1741706 2534:0.1741706 2535:0.1741706 2536:0.1741706 2537:0.1741706 2538:0.1741706 2539:0.1354173 2540:0.1741706 2541:0.1741706 2542:0.1741706 2543:0.1741706 2544:0.1741706 2545:0.1741706 2546:0.15479395 2547:0.15479395 2548:0.15479395 2549:0.1741706 
-0.1501879212180541 9:0.072955076 13:0.058594004 32:0.12338363 248:0.14963956 259:0.10024556 266:0.24896368 497:0.4724822 597:0.20809169 667:0.40866535 1514:0.20637074 1523:0.22734241 2048:0.37133489 2051:0.23400084 2052:0.22950882 2053:0.23400084 2054:0.23172744 
-0.2795969773299748 1:0.032787633 4:0.018716404 18:0.020557476 20:0.033974274 29:0.16904421 59:0.080461552 89:0.13268228 105:0.067676586 156:0.068851929 477:0.17591173 661:0.26574096 662:0.42118946 762:0.22176746 1014:0.19355912 1086:0.21301771 1341:0.21301771 2550:0.29900564 2551:0.42118946 2552:0.26574096 2553:0.26574096 2554:0.26574096 
-0.2795969773299748 1:0.0094218527 4:0.015098923 9:0.021855445 12:0.034390372 13:0.017553241 14:0.073783534 18:0.027433095 20:0.028604622 23:0.10595786 33:0.021028536 44:0.072250848 57:0.053325884 61:0.057931746 105:0.038895082 156:0.039570575 181:0.17170899 232:0.095624066 246:0.11334908 259:0.030030963 282:0.093700916 304:0.15272662 312:0.08536363 353:0.079938113 416:0.14154339 465:0.099055982 530:0.081982104 665:0.10109997 718:0.11124228 761:0.10570753 839:0.13360876 876:0.090633173 902:0.099055982 983:0.073006546 1051:0.12516489 1052:0.12669891 1059:0.13360876 1067:0.071515304 1152:0.13360876 1314:0.08536363 1460:0.092124415 1501:0.15700002 1672:0.12745418 1923:0.13360876 2076:0.11449089 2080:0.10570753 2555:0.15272662 2556:0.15272662 2557:0.17184449 2558:0.17184449 2559:0.17184449 2560:0.17184449 2561:0.13360876 2562:0.15272662 2563:0.17184449 2564:0.13360876 2565:0.14154339 2566:0.17184449 2567:0.17184449 2568:0.14154339 2569:0.14154339 2570:0.14154339 2571:0.12745418 2572:0.12242552 2573:0.17184449 2574:0.12242552 2575:0.22434096 2576:0.21176487 2577:0.14154339 
-0.2795969773299748 1:0.016324639 4:0.01476981 12:0.059585987 13:0.0095943507 18:0.016222669 20:0.024780695 191:0.059001338 295:0.073952038 416:0.12262157 438:0.13095491 583:0.10237612 913:0.12262157 983:0.063246876 996:0.048050475 1002:0.12262157 1042:0.096371178 1231:0.1681002 1422:0.070120789 1432:0.17500495 1574:0.12262157 1684:0.19435059 2309:0.11041583 2413:0.12262157 2578:0.30721385 2579:0.14887196 2580:0.17500495 2581:0.14887196 2582:0.14887196 2583:0.12262157 2584:0.14887196 2585:0.14887196 2586:0.14887196 2587:0.14887196 2588:0.1323098 2589:0.23595647 2590:0.14887196 2591:0.14887196 2592:0.14887196 2593:0.14887196 2594:0.14887196 2595:0.14887196 2596:0.14887196 2597:0.14887196 2598:0.1323098 2599:0.14887196 2600:0.14887196 2601:0.14887196 2602:0.14887196 2603:0.14887196 2604:0.14887196 2605:0.11574765 2606:0.14887196 2607:0.14887196 
-0.2795969773299748 1:0.030357988 4:0.017329472 20:0.039693931 61:0.1177699 125:0.081080723 479:0.39446514 2608:0.55369715 2609:0.45606449 2610:0.55369715 
-0.2795969773299748 1:0.017461027 4:0.019934811 9:0.064196612 12:0.1010158 18:0.043791467 20:0.022830788 43:0.053604083 57:0.062352309 77:0.15000405 81:0.15819995 113:0.15000405 414:0.26231496 469:0.19145466 520:0.15193314 1388:0.23620416 1412:0.20077401 1425:0.21900541 2611:0.28304026 2612:0.28304026 2613:0.31847041 2614:0.26231496 2615:0.4486082 2616:0.31847041 
-0.2795969773299748 1:0.03612019 4:0.032679949 20:0.047228175 43:0.11088636 952:0.32725523 2617:0.54262938 2618:0.58550212 2619:0.48861612 
-0.2795969773299748 1:0.027852972 4:0.020062955 20:0.045955096 266:0.13910936 410:0.18475532 575:0.17182683 996:0.10345147 1754:0.28485969 2620:0.32051758 2621:0.32051758 2622:0.32051758 2623:0.32051758 2624:0.32051758 2625:0.32051758 2626:0.32051758 2627:0.32051758 
-0.2795969773299748 1:0.019172016 4:0.0054720509 12:0.034989548 13:0.011267817 18:0.01905226 33:0.042789824 39:0.065627035 43:0.029428348 56:0.0880983 59:0.1216187 89:0.077583728 90:0.10286142 105:0.039572743 125:0.025602502 154:0.10078181 156:0.040260005 159:0.052581427 165:0.057642392 286:0.082351401 383:0.082351401 477:0.16303149 538:0.14855771 582:0.098845751 897:0.081330859 910:0.12967479 952:0.086850904 1343:0.11648564 1345:0.20552967 1773:0.21545441 1879:0.15538755 1954:0.19742058 1955:0.10510756 2160:0.11318044 2628:0.17483851 2629:0.17483851 2630:0.17483851 2631:0.14400947 2632:0.17483851 2633:0.17483851 2634:0.17483851 2635:0.17483851 2636:0.17483851 2637:0.17483851 2638:0.1438716 2639:0.17483851 2640:0.17483851 2641:0.17483851 2642:0.17483851 2643:0.17483851 2644:0.15538755 2645:0.24628344 2646:0.17483851 2647:0.17483851 2648:0.15538755 
-0.2795969773299748 1:0.030856554 4:0.017614072 57:0.11018695 191:0.22304664 281:0.33110226 996:0.18164838 1600:0.40094339 2649:0.56279046 2650:0.56279046 
-0.2795969773299748 1:0.010073656 4:0.021893885 18:0.025264275 20:0.036977332 27:0.20774824 57:0.035972439 59:0.049441936 66:0.052036076 101:0.10387412 104:0.11583101 105:0.041585842 125:0.042643294 178:0.15133536 181:0.11583101 194:0.050069392 259:0.050890775 286:0.13716374 383:0.20094125 453:0.15878652 459:0.12241136 779:0.13627145 897:0.13546394 1034:0.070194437 1060:0.12634911 1345:0.21598514 1484:0.095390568 1866:0.13089491 1953:0.15133536 1954:0.13089491 2031:0.10809407 2203:0.17132504 2301:0.21598514 2302:0.21598514 2651:0.25881209 2652:0.36926656 2653:0.29120942 2654:0.29120942 2655:0.16329225 2656:0.14285181 2657:0.14285181 2658:0.18373269 
-0.1345001634852505 1:0.020853909 4:0.017856283 9:0.015260256 13:0.015465732 14:0.051518311 18:0.026150331 20:0.032750126 33:0.048775466 40:0.052651475 43:0.032009992 44:0.050448135 57:0.037234046 61:0.040450024 96:0.079941646 118:0.075644298 125:0.027848519 128:0.093170954 132:0.065425342 156:0.027629595 165:0.0249588 181:0.075644298 183:0.085481891 188:0.10030171 194:0.0518254 244:0.048007122 245:0.079941646 259:0.033234597 266:0.05207656 286:0.056516036 295:0.05960395 311:0.10663921 315:0.052651475 316:0.10554719 353:0.055815659 359:0.14693935 443:0.073808794 530:0.057242847 557:0.082513223 578:0.058784327 609:0.08899308 621:0.045840997 628:0.070591629 633:0.073808794 664:0.060460012 703:0.16901915 718:0.077673354 741:0.079941646 785:0.055815659 996:0.061382076 1051:0.11027973 1052:0.088465727 1053:0.098830673 1067:0.049934552 1075:0.093290428 1084:0.098830673 1164:0.098830673 1168:0.098830673 1355:0.098830673 1422:0.056516036 1440:0.093290428 1509:0.10663921 1556:0.061355904 1561:0.10962305 1603:0.079941646 1919:0.055139863 1938:0.085481891 1973:0.11989338 2014:0.077673354 2031:0.070591629 2127:0.082513223 2252:0.082513223 2333:0.093290428 2444:0.093290428 2659:0.093290428 2660:0.098830673 2661:0.098830673 2662:0.08899308 2663:0.072133109 2664:0.11998799 2665:0.093290428 2666:0.11998799 2667:0.070591629 2668:0.11998799 2669:0.10663921 2670:0.14786183 2671:0.11998799 2672:0.15664291 2673:0.10663921 2674:0.10663921 2675:0.098830673 2676:0.085481891 2677:0.073808794 2678:0.11998799 2679:0.11998799 2680:0.098830673 2681:0.11998799 2682:0.08899308 2683:0.11998799 2684:0.11998799 2685:0.11998799 2686:0.11998799 2687:0.11998799 2688:0.10663921 2689:0.098830673 2690:0.11998799 2691:0.11998799 2692:0.093290428 2693:0.11998799 2694:0.098830673 2695:0.11998799 2696:0.11998799 2697:0.10663921 2698:0.11998799 2699:0.093290428 2700:0.10663921 2701:0.10663921 2702:0.08899308 2703:0.093290428 2704:0.11998799 2705:0.11998799 2706:0.11998799 
-0.2795969773299748 18:0.035567816 20:0.037086735 286:0.24366923 383:0.24366923 2707:0.51732895 2708:0.42610904 2709:0.51732895 2710:0.40222224 
-0.2795969773299748 1:0.0099060146 4:0.015874814 12:0.05730843 13:0.011643967 18:0.024843838 20:0.012952395 28:0.073702837 29:0.10214549 32:0.038861928 57:0.070747602 71:0.13400368 74:0.05874499 77:0.085100513 81:0.089750221 84:0.16189677 118:0.1139034 125:0.026457183 156:0.041603993 165:0.087263565 198:0.096858423 441:0.10214549 484:0.098515936 591:0.093803118 597:0.065542277 769:0.087332273 785:0.084045903 795:0.16057481 796:0.11113954 838:0.08109435 848:0.1139034 983:0.076758142 1177:0.14047453 1179:0.16057481 1180:0.16057481 1181:0.12871661 1182:0.1139034 1183:0.10861633 1498:0.12037424 2306:0.1488169 2711:0.16057481 2712:0.18067509 2713:0.18067509 2714:0.18067509 2715:0.18067509 2716:0.1488169 2717:0.28636324 2718:0.18067509 2719:0.13400368 2720:0.16057481 2721:0.16057481 2722:0.18067509 2723:0.18067509 2724:0.16057481 2725:0.18067509 2726:0.18067509 2727:0.18067509 2728:0.18067509 2729:0.18067509 
-0.2795969773299748 1:0.015491224 4:0.011429371 9:0.035934292 12:0.028271986 13:0.0091045347 18:0.01539446 31:0.079868583 33:0.034574704 57:0.043838684 105:0.050679593 133:0.089062211 156:0.032530579 165:0.029386034 214:0.10983844 232:0.049598398 244:0.056522707 247:0.06921159 248:0.036852758 465:0.16286589 596:0.054958343 707:0.097149558 715:0.078405218 740:0.072239318 850:0.10983844 966:0.075734573 1034:0.08554415 1314:0.070176599 1511:0.091451185 1514:0.050824334 1600:0.10064481 2034:0.11449661 2041:0.10064481 2128:0.09412183 2146:0.10477882 2667:0.13173145 2697:0.12555505 2730:0.12555505 2731:0.09412183 2732:0.12555505 2733:0.10477882 2734:0.32802265 2735:0.14127166 2736:0.12555505 2737:0.14127166 2738:0.14127166 2739:0.10477882 2740:0.12555505 2741:0.10983844 2742:0.14127166 2743:0.14127166 2744:0.14127166 2745:0.14127166 2746:0.12555505 2747:0.14127166 2748:0.10983844 2749:0.12555505 2750:0.12555505 2751:0.14127166 2752:0.14127166 2753:0.22391029 2754:0.12555505 2755:0.14127166 2756:0.14127166 2757:0.10983844 2758:0.14127166 2759:0.14127166 2760:0.22391029 2761:0.14127166 2762:0.14127166 2763:0.14127166 2764:0.11636142 2765:0.14127166 
-0.2795969773299748 1:0.038352389 9:0.0889643 294:0.40321513 477:0.41153536 1398:0.41153536 2766:0.69950647 
-0.2795969773299748 1:0.025551189 4:0.021367477 13:0.018949342 18:0.040430755 20:0.033408906 43:0.049490316 61:0.062539362 125:0.043056305 312:0.14605912 387:0.19033809 398:0.22860764 403:0.19033809 405:0.26131875 639:0.17298437 938:0.1319726 1258:0.1319726 2767:0.29402986 2768:0.24218398 2769:0.26131875 2770:0.26131875 2771:0.24218398 2772:0.29402986 2773:0.24218398 2774:0.26131875 2775:0.26131875 2776:0.29402986 
-0.2795969773299748 1:0.024596486 4:0.014040592 20:0.032160604 80:0.24461359 105:0.10153866 403:0.18322623 526:0.24461359 539:0.12284511 612:0.26392941 773:0.18322623 996:0.1447962 2026:0.18322623 2777:0.33272913 2778:0.28304363 2779:0.39870484 2780:0.44861353 2781:0.33272913 
-0.2795969773299748 1:0.016803102 4:0.019183675 9:0.038977394 13:0.019751108 20:0.021970533 33:0.03750267 57:0.095102342 74:0.099646336 162:0.15442557 189:0.17008996 198:0.16429634 286:0.14435196 441:0.2746178 442:0.36026843 897:0.14256307 934:0.25243103 1486:0.26958621 2782:0.30647056 2783:0.21075337 2784:0.30647056 2785:0.30647056 2786:0.30647056 2787:0.30647056 
-0.2795969773299748 1:0.02343414 4:0.012518072 5:0.12662114 9:0.018119705 13:0.0091818412 18:0.0097952945 20:0.016188175 43:0.076015973 59:0.038338588 66:0.040350153 105:0.074874669 125:0.020862791 159:0.042847192 196:0.11077108 355:0.082124392 535:0.16748061 612:0.083819005 634:0.15044625 1000:0.18599447 1002:0.11734945 1006:0.097974453 1135:0.07514129 1315:0.11077108 1409:0.10149939 1638:0.18984203 1657:0.1056685 2027:0.1056685 2553:0.12662114 2598:0.12662114 2788:0.12662114 2789:0.12662114 2790:0.12662114 2791:0.1424712 2792:0.2849424 2793:0.22581151 2794:0.22154216 2795:0.1424712 2796:0.11077108 2797:0.2346989 2798:0.12662114 2799:0.1424712 2800:0.1424712 2801:0.1424712 2802:0.1424712 2803:0.1424712 2804:0.1424712 2805:0.12662114 2806:0.1424712 2807:0.33080788 2808:0.1424712 2809:0.1424712 2810:0.10149939 2811:0.1424712 2812:0.1424712 
-0.2795969773299748 1:0.010742804 4:0.02037137 18:0.026942469 19:0.13958968 20:0.032615014 33:0.023976755 295:0.097331683 308:0.12352515 410:0.17901155 454:0.12052782 456:0.15234082 596:0.07622467 863:0.14532336 878:0.25579376 910:0.14532336 911:0.16138789 920:0.17413903 923:0.13958968 1612:0.11077402 2271:0.11077402 2371:0.17413903 2774:0.17413903 2813:0.31055317 2814:0.19593724 2815:0.19593724 2816:0.14532336 2817:0.19593724 2818:0.19593724 2819:0.19593724 2820:0.19593724 2821:0.19593724 2822:0.17413903 2823:0.19593724 2824:0.19593724 2825:0.19593724 2826:0.19593724 2827:0.19593724 
-0.2795969773299748 4:0.0074316658 9:0.04786479 12:0.075317063 13:0.030605948 18:0.02587513 20:0.017022563 105:0.053744274 194:0.064708156 237:0.14606409 443:0.14606409 1094:0.18461732 1154:0.18191505 1866:0.16916459 2085:0.21103392 2677:0.14606409 2828:0.23745053 2829:0.23745053 2830:0.16916459 2831:0.21693879 2832:0.23745053 2833:0.23745053 2834:0.1955812 2835:0.23745053 2836:0.23745053 2837:0.23745053 2838:0.21103392 2839:0.23745053 2840:0.23745053 2841:0.23745053 2842:0.23745053 
-0.2795969773299748 1:0.017381713 4:0.015650418 14:0.042940464 18:0.021796276 19:0.071249076 20:0.025702735 29:0.056541043 30:0.081594114 33:0.019397033 59:0.026912369 61:0.021271833 74:0.032517374 125:0.014644961 156:0.036500484 175:0.06151956 194:0.07045033 236:0.095292508 243:0.066631287 259:0.017477389 315:0.069556008 353:0.0465223 410:0.057648497 539:0.043405764 578:0.077657903 579:0.056541043 682:0.058838056 715:0.05550509 718:0.064740668 838:0.044888513 918:0.088883681 938:0.044888513 941:0.11756562 966:0.053614471 983:0.042488273 996:0.051161902 1042:0.064740668 1154:0.048341419 1397:0.068774694 1403:0.074175649 1422:0.074661342 1463:0.082375273 1531:0.043405764 1561:0.091370706 1582:0.056541043 1626:0.066631287 1664:0.066631287 1714:0.071249076 1841:0.15551497 1868:0.077757484 1902:0.13326257 1919:0.072843329 1920:0.10560809 2274:0.088883681 2451:0.082375273 2491:0.071249076 2638:0.051923254 2843:0.088883681 2844:0.15851191 2845:0.088883681 2846:0.10000988 2847:0.10000988 2848:0.10000988 2849:0.10000988 2850:0.082375273 2851:0.10000988 2852:0.15551497 2853:0.20001976 2854:0.10000988 2855:0.23221575 2856:0.10000988 2857:0.10000988 2858:0.1408773 2859:0.10000988 2860:0.14249815 2861:0.15851191 2862:0.10000988 2863:0.10000988 2864:0.10000988 2865:0.1232427 2866:0.10000988 2867:0.1408773 2868:0.088883681 2869:0.10000988 2870:0.10000988 2871:0.10000988 2872:0.10000988 2873:0.13056172 2874:0.088883681 2875:0.088883681 2876:0.10000988 2877:0.10000988 2878:0.088883681 2879:0.10000988 2880:0.10000988 2881:0.10000988 2882:0.10000988 2883:0.088883681 2884:0.11292711 2885:0.10000988 2886:0.15851191 2887:0.1408773 2888:0.10000988 2889:0.060122879 2890:0.10000988 2891:0.10000988 2892:0.088883681 2893:0.17776736 2894:0.10000988 2895:0.088883681 2896:0.082375273 2897:0.10000988 2898:0.10000988 2899:0.088883681 
-0.2795969773299748 1:0.026778777 4:0.015286325 13:0.024944899 18:0.026611507 20:0.017507006 28:0.099619875 33:0.047364447 43:0.041104451 57:0.047812727 77:0.11502546 81:0.1213102 125:0.035760648 156:0.056233718 157:0.14681043 164:0.15395666 403:0.15808634 451:0.17397883 484:0.13315831 489:0.17397883 838:0.10961056 996:0.078821528 2066:0.16270292 2324:0.18987132 2609:0.20114722 2900:0.2442081 2901:0.21703971 2902:0.2442081 2903:0.2442081 2904:0.20114722 2905:0.21703971 2906:0.2442081 2907:0.2442081 2908:0.2442081 2909:0.18112505 2910:0.2442081 2911:0.21703971 2912:0.21703971 
-0.2795969773299748 4:0.0081698305 12:0.05223977 13:0.016822971 20:0.018713362 49:0.14757776 156:0.060108618 487:0.17391431 511:0.21500768 543:0.14757776 645:0.1689796 1321:0.17391431 1322:0.23199528 1323:0.23199528 1339:0.21500768 1340:0.19360584 2913:0.26103576 2914:0.26103576 2915:0.26103576 2916:0.20295479 2917:0.19360584 2918:0.26103576 2919:0.41373189 2920:0.26103576 2921:0.17950881 
-0.2795969773299748 1:0.017803754 4:0.014888595 13:0.013203668 18:0.022325506 20:0.01468736 43:0.034484243 61:0.043576657 69:0.071357187 191:0.081197166 259:0.07160701 457:0.12053338 927:0.16875081 1009:0.13649829 1034:0.078272313 1350:0.14595811 1481:0.13262524 1629:0.14088919 2796:0.15929099 2805:0.18208369 2922:0.20487639 2923:0.16875081 2924:0.18208369 2925:0.20487639 2926:0.20487639 2927:0.33750162 2928:0.36416737 2929:0.2408404 2930:0.20487639 2931:0.20487639 2932:0.20487639 2933:0.20487639 2934:0.18208369 2935:0.15929099 2936:0.18208369 2937:0.20487639 
-0.2795969773299748 4:0.012574007 286:0.189232 392:0.24152247 426:0.35705885 785:0.18688693 1076:0.2600728 1333:0.28621804 2938:0.33091361 2939:0.40175442 2940:0.40175442 2941:0.40175442 
-0.2795969773299748 1:0.030015525 4:0.018608071 12:0.042383055 13:0.021632798 18:0.033808834 20:0.030364968 33:0.025915788 59:0.11398036 71:0.15707586 74:0.10913965 84:0.11973246 132:0.18302829 159:0.10094976 165:0.069822583 242:0.1335148 258:0.19348847 259:0.037010474 359:0.11169727 410:0.12207763 428:0.12207763 579:0.11973246 581:0.23913676 591:0.10995374 592:0.15087849 593:0.29832464 769:0.10236877 796:0.13027507 842:0.15707586 996:0.068355867 1202:0.17994887 1218:0.15707586 2031:0.12459667 2436:0.15707586 2942:0.21178296 2943:0.21178296 2944:0.18822189 2945:0.16466083 2946:0.18822189 2947:0.21178296 2948:0.17443956 2949:0.21178296 2950:0.21178296 2951:0.21178296 2952:0.18822189 
-0.04693669390247199 1:0.014895465 4:0.014647977 13:0.011951607 18:0.025500225 20:0.016775923 32:0.039888681 33:0.040195307 43:0.019693976 59:0.031485721 125:0.027156195 156:0.026942715 159:0.03518843 191:0.04637176 194:0.031885299 244:0.04681365 248:0.030522461 266:0.080487438 308:0.073763756 315:0.051342542 340:0.07574237 359:0.06171009 402:0.073763756 409:0.090971198 432:0.05732293 438:0.064937344 450:0.10111878 546:0.086780683 573:0.17356137 581:0.13211738 582:0.066149342 598:0.088472244 621:0.070850002 718:0.07574237 828:0.077954271 838:0.05251664 848:0.073763756 897:0.054428064 902:0.13488998 941:0.086780683 966:0.062725443 983:0.049708516 996:0.087687598 1032:0.064937344 1051:0.085221957 1062:0.086780683 1067:0.048693163 1154:0.089639638 1303:0.1235546 1582:0.066149342 1713:0.080461918 1919:0.053769068 2409:0.071973883 2418:0.090971198 2454:0.10398812 2509:0.15274872 2703:0.090971198 2816:0.086780683 2916:0.090971198 2953:0.14418594 2954:0.096373711 2955:0.096373711 2956:0.090971198 2957:0.096373711 2958:0.096373711 2959:0.11700505 2960:0.11700505 2961:0.10398812 2962:0.11700505 2963:0.18544862 2964:0.07574237 2965:0.090971198 2966:0.11700505 2967:0.11700505 2968:0.086780683 2969:0.11700505 2970:0.10398812 2971:0.080461918 2972:0.096373711 2973:0.10398812 2974:0.11700505 2975:0.11700505 2976:0.11700505 2977:0.11700505 2978:0.11700505 2979:0.096373711 2980:0.11700505 2981:0.11700505 2982:0.080461918 2983:0.11700505 2984:0.11700505 2985:0.10398812 2986:0.11700505 2987:0.11700505 2988:0.10398812 2989:0.090971198 2990:0.11700505 2991:0.096373711 2992:0.10398812 2993:0.11700505 2994:0.11700505 2995:0.11700505 2996:0.11700505 2997:0.080461918 2998:0.11700505 2999:0.11700505 3000:0.11700505 3001:0.11700505 3002:0.080461918 3003:0.086780683 3004:0.10398812 3005:0.16481728 3006:0.086780683 3007:0.077954271 
-0.2795969773299748 1:0.0086655288 4:0.015680374 9:0.020101035 12:0.031629741 13:0.0236508 18:0.010866378 20:0.029288724 33:0.030653974 61:0.053281369 156:0.057683301 194:0.043070535 224:0.12288353 237:0.097222034 247:0.077431585 259:0.027620276 263:0.14046674 265:0.14046674 596:0.061485534 598:0.075401124 873:0.12288353 988:0.117223 1032:0.087717105 1299:0.14046674 1500:0.12288353 1645:0.074443757 2764:0.13018122 2916:0.19476579 3008:0.12288353 3009:0.25050325 3010:0.117223 3011:0.25050325 3012:0.15804996 3013:0.25050325 3014:0.15804996 3015:0.15804996 3016:0.25050325 3017:0.15804996 3018:0.15804996 3019:0.15804996 3020:0.15804996 3021:0.15804996 3022:0.14046674 3023:0.25050325 3024:0.15804996 3025:0.15804996 3026:0.15804996 3027:0.117223 3028:0.15804996 3029:0.15804996 3030:0.15804996 3031:0.15804996 3032:0.15804996 
