svm_type c_svc
kernel_type linear
nr_class 2
total_sv 339
rho 0.183479
label 0 1
probA -2.22764
probB 0.847756
nr_sv 67 272
SV
0.1573733670229505 1:0.45565437 2:0.084095262 3:0.081524903 4:0.20234946 5:0.24009589 6:0.11774285 7:0.18620627 8:0.23538255 9:0.24511352 10:0.026971373 11:0.45565437 12:0.31635173 13:0.45565437 
1 3:0.024681699 6:0.022490562 9:0.074208223 10:0.019064357 14:0.14841645 15:0.21063869 16:0.12163445 17:0.032832253 18:0.037630466 19:0.025262907 20:0.13794955 21:0.12163445 22:0.15515298 23:0.056374028 24:0.10006705 25:0.098560182 26:0.017767231 27:0.095775619 28:0.06595653 29:0.092147263 30:0.017064561 31:0.1776596 32:0.04533113 33:0.02939103 34:0.10531934 35:0.1776596 36:0.13794955 37:0.15860253 38:0.19278604 39:0.047196818 40:0.19155124 41:0.027042811 42:0.10006705 43:0.12163445 44:0.028858594 45:0.11209072 46:0.13794955 47:0.12163445 48:0.083751948 49:0.13794955 50:0.11209072 51:0.13794955 52:0.13794955 53:0.086231894 54:0.10006705 55:0.067436842 56:0.11209072 57:0.12163445 58:0.11209072 59:0.089004239 60:0.095775619 61:0.12163445 62:0.12163445 63:0.10531934 64:0.12163445 65:0.12163445 66:0.13794955 67:0.13794955 68:0.074208223 69:0.077576491 70:0.11209072 71:0.083934501 72:0.10531934 73:0.13794955 74:0.13794955 75:0.13794955 76:0.11209072 77:0.083751948 78:0.11209072 79:0.092147263 80:0.092147263 81:0.13794955 82:0.11209072 83:0.10006705 84:0.079460514 85:0.075832158 86:0.11209072 87:0.12163445 88:0.10006705 89:0.13794955 90:0.11209072 
1 2:0.030107819 3:0.029187578 6:0.026596429 10:0.006092448 17:0.061537901 18:0.038343839 19:0.047350582 26:0.021010809 28:0.033591705 30:0.020179859 32:0.026803379 33:0.023725099 39:0.038098331 41:0.013772922 68:0.1390894 76:0.13255395 80:0.10896962 91:0.14383998 92:0.32626712 93:0.32626712 94:0.16313356 95:0.11833525 96:0.17951344 97:0.11833525 98:0.16313356 99:0.14540259 100:0.16313356 101:0.12454639 102:0.10896962 103:0.11326037 104:0.13255395 105:0.16313356 106:0.08967604 107:0.052101158 108:0.14383998 109:0.14383998 110:0.091738817 111:0.099041663 112:0.11833525 113:0.12454639 114:0.10197435 115:0.16313356 116:0.17951344 117:0.12454639 118:0.16313356 119:0.11326037 120:0.099041663 121:0.25856057 122:0.030342713 123:0.085959226 124:0.099041663 125:0.041511041 126:0.16313356 127:0.16313356 128:0.10197435 129:0.13255395 130:0.08967604 131:0.14383998 132:0.16313356 
0.9507967835302298 4:0.16963517 10:0.020899105 18:0.021914342 19:0.069953976 26:0.049198158 30:0.029812968 33:0.035050573 39:0.056285048 41:0.020347599 44:0.079910575 79:0.16098764 122:0.044827188 133:0.061850712 134:0.21250379 135:0.12699294 136:0.24100741 137:0.1296469 138:0.15065308 139:0.19583025 140:0.42500759 141:0.17482406 142:0.24100741 143:0.16098764 144:0.21250379 145:0.10864071 146:0.21250379 147:0.24100741 148:0.10253738 149:0.16732663 150:0.14632044 151:0.24100741 152:0.16732663 153:0.17482406 154:0.16732663 155:0.21250379 156:0.1296469 
1 2:0.056495274 3:0.054768504 10:0.011432064 19:0.0560582 33:0.028088068 55:0.14964185 122:0.056936036 125:0.077892643 157:0.30610902 158:0.17632228 159:0.30610902 160:0.26990593 161:0.30610902 162:0.18584494 163:0.20447408 164:0.17632228 165:0.29455726 166:0.24872847 167:0.20447408 168:0.30610902 169:0.30610902 170:0.12192712 171:0.26990593 
0.2430302439444365 2:0.09109721 3:0.088312837 4:0.2191975 5:0.26008678 6:0.12754637 7:0.2017102 9:0.26552219 10:0.029217066 12:0.34269184 172:0.43521653 173:0.43521653 174:0.49359311 
1 2:0.068210038 3:0.066125208 10:0.02022044 18:0.021202709 26:0.047600527 39:0.034358719 125:0.059335366 175:0.32587316 176:0.23318108 177:0.23318108 178:0.20560307 179:0.23318108 180:0.23318108 181:0.23318108 182:0.15575983 183:0.23318108 184:0.18947097 185:0.23318108 186:0.13777685 187:0.13431496 188:0.23318108 189:0.17802507 190:0.13113033 191:0.20560307 192:0.13431496 193:0.17802507 194:0.16914693 195:0.15575983 196:0.23318108 197:0.23318108 
0.8539511165580331 2:0.06473607 3:0.062757421 10:0.020762414 109:0.30927629 198:0.35076023 199:0.35076023 200:0.21925927 201:0.30927629 202:0.35076023 203:0.12565742 204:0.28500975 205:0.28500975 206:0.17453949 207:0.22630843 208:0.35076023 
1 4:0.17252416 5:0.20470696 6:0.063337867 10:0.02901763 17:0.09246211 18:0.035324942 39:0.057243618 162:0.23586203 209:0.34254664 210:0.68509328 211:0.22377651 212:0.26972307 213:0.21355834 214:0.31566963 
0.5147885822792623 2:0.053195265 4:0.12799809 6:0.04699125 7:0.11778656 10:0.021528586 19:0.052783721 30:0.03565429 39:0.042469842 41:0.024334351 77:0.17498934 125:0.073342769 135:0.15187496 140:0.40280261 154:0.20011132 215:0.28822854 216:0.28822854 217:0.28822854 218:0.11778656 219:0.28822854 220:0.13621367 221:0.23419971 222:0.20907774 223:0.23419971 224:0.28822854 225:0.25414015 226:0.17498934 
1 2:0.040727109 3:0.078964582 10:0.019135723 17:0.052520394 30:0.027297471 32:0.057466247 39:0.032515561 125:0.056152347 191:0.19457359 192:0.12710969 227:0.22067219 228:0.34975714 229:0.14740416 230:0.17930689 231:0.13038587 232:0.22067219 233:0.16007312 234:0.22067219 235:0.16007312 236:0.13397452 237:0.18814744 238:0.13397452 239:0.17930689 240:0.17930689 241:0.17930689 242:0.13794159 243:0.19457359 244:0.22067219 245:0.22067219 246:0.16007312 247:0.24282939 248:0.17930689 249:0.22067219 250:0.22067219 
0.9424904784686204 2:0.030109749 3:0.029189449 10:0.012185677 18:0.029668745 19:0.029876806 26:0.048788714 28:0.033593858 30:0.020181152 41:0.013773805 122:0.030344658 145:0.073541647 170:0.064982337 251:0.16314402 252:0.37184478 253:0.33400749 254:0.16314402 255:0.2651249 256:0.16314402 257:0.1438492 258:0.08118102 259:0.1438492 260:0.16314402 261:0.16314402 262:0.16314402 263:0.16314402 264:0.16314402 265:0.16314402 266:0.16314402 267:0.16314402 268:0.03757729 269:0.13909831 270:0.1438492 271:0.1438492 272:0.16314402 273:0.11834283 274:0.16314402 275:0.096394906 276:0.12455438 277:0.11326763 278:0.16314402 279:0.16314402 280:0.16314402 281:0.16314402 282:0.1438492 283:0.16314402 
1 2:0.02636549 3:0.025559633 6:0.023290557 10:0.016005515 18:0.036466596 19:0.052323029 25:0.064396472 26:0.018399216 30:0.041032072 32:0.037201899 33:0.020776127 39:0.021049584 41:0.031177184 125:0.057615478 133:0.036661833 156:0.076847828 206:0.07108586 211:0.13042172 212:0.15720036 268:0.052152265 284:0.14285645 285:0.14285645 286:0.26952435 287:0.089299184 288:0.14285645 289:0.12596102 290:0.12596102 291:0.14285645 292:0.14285645 293:0.12596102 294:0.099182382 295:0.14285645 296:0.092528948 297:0.12596102 298:0.10906558 299:0.084407843 300:0.089299184 301:0.14285645 302:0.22642212 303:0.22642212 304:0.14285645 305:0.14285645 306:0.12596102 307:0.11607782 308:0.11607782 309:0.14285645 310:0.10362646 311:0.10362646 312:0.09768772 313:0.11607782 314:0.14285645 315:0.086731026 316:0.099182382 317:0.099182382 318:0.12596102 319:0.14285645 320:0.12596102 321:0.14285645 322:0.07108586 323:0.095424965 324:0.11607782 325:0.10362646 326:0.13746542 327:0.12596102 328:0.089299184 329:0.057629208 330:0.14285645 331:0.14285645 332:0.10906558 333:0.14285645 334:0.11607782 335:0.14285645 336:0.12596102 337:0.11607782 
0.8617604382269942 3:0.049984749 10:0.026970285 27:0.19396235 39:0.041164839 41:0.037383894 138:0.17463464 145:0.12593457 268:0.064348301 338:0.27937193 339:0.27937193 340:0.44279403 341:0.27937193 342:0.24633099 343:0.20265325 344:0.24633099 345:0.16506907 346:0.27937193 347:0.27937193 348:0.22700329 349:0.27937193 
1 2:0.053045236 3:0.032444879 10:0.010733934 18:0.016488815 19:0.033208895 26:0.046711183 30:0.022431908 32:0.029794607 33:0.01663938 39:0.06204172 41:0.015309964 80:0.12113051 122:0.033728926 125:0.046143626 203:0.064963471 255:0.14734683 287:0.11335457 350:0.28741564 351:0.18133908 352:0.088647876 353:0.18133908 354:0.28741564 355:0.18133908 356:0.18133908 357:0.18133908 358:0.18133908 359:0.11335457 360:0.18133908 361:0.085816505 362:0.18133908 363:0.1259001 364:0.18133908 365:0.15989236 366:0.18133908 367:0.18133908 368:0.1259001 369:0.15989236 370:0.15989236 371:0.18133908 372:0.12113051 373:0.083006649 374:0.13844563 375:0.081743573 376:0.12113051 377:0.11699891 378:0.18133908 379:0.1259001 380:0.18133908 381:0.14734683 382:0.14734683 383:0.18133908 
0.837274883510896 2:0.044385714 6:0.039209133 10:0.017963284 19:0.044042326 122:0.044732001 138:0.15033318 164:0.27705646 170:0.095792477 352:0.11756665 384:0.24049565 385:0.30972452 386:0.38117659 387:0.24049565 388:0.16697132 389:0.30972452 390:0.24049565 391:0.24049565 392:0.11756665 393:0.18360947 394:0.1352437 395:0.24049565 396:0.24049565 397:0.16697132 398:0.079154335 399:0.24049565 
1 2:0.029137395 3:0.028246815 6:0.040795639 10:0.0058960784 17:0.037574665 18:0.037107955 26:0.032227987 32:0.025939463 33:0.0289728 39:0.03687036 41:0.021125962 107:0.050421853 122:0.029364718 123:0.08318862 125:0.040173072 133:0.040516231 193:0.12053206 206:0.12451368 268:0.036363782 296:0.064516901 307:0.12828152 345:0.093281962 398:0.051961563 400:0.13920378 401:0.1096098 402:0.1578755 403:0.1578755 404:0.1578755 405:0.16144482 406:0.1578755 407:0.1578755 408:0.13920378 409:0.22063277 410:0.095849389 411:0.1578755 412:0.090938084 413:0.1096098 414:0.084927133 415:0.095849389 416:0.22063277 417:0.25022675 418:0.13460632 419:0.08318862 420:0.22063277 421:0.1578755 422:0.13920378 423:0.1578755 424:0.13920378 425:0.12828152 426:0.13920378 427:0.10545735 428:0.1578755 429:0.078559387 430:0.13920378 431:0.1578755 432:0.077177669 433:0.12828152 434:0.1578755 435:0.1578755 436:0.1578755 437:0.069093573 438:0.15641606 439:0.1578755 440:0.1578755 441:0.13920378 
0.8922872096586664 2:0.05903923 10:0.018935301 19:0.058582475 388:0.2220953 442:0.50701837 443:0.50701837 444:0.31989297 445:0.31989297 446:0.24422636 447:0.21368146 448:0.24422636 449:0.24422636 
1 2:0.041791738 3:0.064213773 6:0.058513147 8:0.11697503 9:0.12181091 10:0.01691348 17:0.08541887 18:0.032634088 26:0.046224572 32:0.037204948 39:0.033365536 145:0.10207436 211:0.13043241 222:0.16425752 258:0.11267766 312:0.097695726 450:0.35889999 451:0.22644068 452:0.35889999 453:0.26034201 454:0.22644068 455:0.22644068 456:0.26034201 457:0.17287902 458:0.22644068 459:0.22644068 460:0.1070134 461:0.12181091 462:0.11267766 463:0.22644068 464:0.22644068 465:0.22644068 
1 2:0.076408806 10:0.021443038 18:0.033814267 19:0.068102799 26:0.020627787 32:0.041707909 33:0.014695992 44:0.053103976 70:0.13013753 122:0.029789573 123:0.084392211 125:0.040754305 133:0.065145808 200:0.30034614 236:0.27297641 258:0.079696002 275:0.094631585 322:0.159392 323:0.16956426 345:0.094631585 352:0.15658858 414:0.086155877 419:0.084392211 437:0.070093233 466:0.16015968 467:0.25384708 468:0.14121781 469:0.11119566 470:0.086155877 471:0.16956426 472:0.16015968 473:0.16015968 474:0.094631585 475:0.090066442 476:0.16015968 477:0.061482908 478:0.16015968 479:0.11119566 480:0.18413781 481:0.097236158 482:0.16378064 483:0.17624095 484:0.11617802 485:0.13013753 486:0.16015968 487:0.11617802 488:0.16015968 489:0.16015968 490:0.14121781 491:0.043289783 492:0.16015968 493:0.10698313 494:0.090066442 495:0.16015968 496:0.16015968 497:0.12227594 498:0.12227594 
0.9272747358260349 2:0.094187419 18:0.029277632 19:0.093458741 39:0.04744403 200:0.20127301 207:0.20774391 275:0.19024833 499:0.51033683 500:0.32198669 501:0.28390576 502:0.32198669 503:0.32198669 504:0.32198669 505:0.32198669 
0.3802988836185254 2:0.082433326 3:0.079913764 5:0.23535099 6:0.11541595 7:0.18252636 9:0.24026946 10:0.02643835 12:0.31009981 223:0.36292444 506:0.44664949 507:0.44664949 508:0.44664949 
1 10:0.026504347 19:0.050277926 28:0.056533135 30:0.033961679 33:0.025191851 39:0.040453676 41:0.023179129 203:0.098354028 268:0.063236621 361:0.081973742 376:0.18339035 447:0.18339035 509:0.27454551 510:0.27454551 511:0.20960526 512:0.27454551 513:0.24207538 514:0.24207538 515:0.27454551 516:0.24207538 517:0.17161766 518:0.27454551 519:0.27454551 520:0.27454551 521:0.27454551 522:0.22308158 
1 10:0.032584261 19:0.056914779 28:0.063995696 30:0.06093346 39:0.045793695 41:0.026238851 120:0.18868468 135:0.16376128 268:0.071584064 523:0.22544097 524:0.27403014 525:0.31078642 526:0.27077848 527:0.13408591 528:0.2157728 529:0.15751547 530:0.2157728 531:0.18363057 532:0.25252909 533:0.31078642 534:0.23727385 535:0.25252909 536:0.31078642 537:0.27403014 
1 10:0.022516334 18:0.02120767 19:0.04271279 26:0.047611665 28:0.0480268 44:0.048792131 122:0.043381645 268:0.053721637 269:0.12546617 300:0.14579497 522:0.18951531 529:0.11821051 538:0.23323564 539:0.23323564 540:0.23323564 541:0.23323564 542:0.23323564 543:0.23323564 544:0.23323564 545:0.23323564 546:0.23323564 547:0.23323564 548:0.23323564 549:0.16918651 550:0.20565118 551:0.16918651 552:0.23323564 553:0.14160205 554:0.18951531 555:0.18951531 556:0.23323564 
0.9990288287362785 10:0.025981137 19:0.049285413 26:0.034662098 41:0.022721561 268:0.061988296 388:0.29614816 528:0.18684869 557:0.26912583 558:0.26912583 559:0.26912583 560:0.42655436 561:0.26912583 562:0.26912583 563:0.26912583 564:0.26912583 565:0.26912583 566:0.18684869 567:0.26912583 
0.979749517930234 2:0.059989007 3:0.036692005 10:0.015317758 19:0.059524904 32:0.053405002 33:0.018817522 39:0.030217627 41:0.027442171 97:0.14876046 99:0.11532581 170:0.081684729 222:0.14876046 258:0.10204696 392:0.10025213 408:0.18082272 529:0.10393884 568:0.16663494 569:0.24815529 570:0.20507688 571:0.14876046 572:0.18082272 573:0.14876046 574:0.15656855 575:0.128193 576:0.20507688 577:0.18082272 578:0.18082272 579:0.20507688 580:0.20507688 581:0.14238078 582:0.128193 583:0.20507688 584:0.20507688 585:0.20507688 586:0.20507688 587:0.084916997 588:0.18082272 589:0.16663494 590:0.20507688 591:0.10204696 592:0.18082272 593:0.13231439 594:0.20507688 
0.7188075705648981 2:0.11016947 6:0.097320715 7:0.24394057 10:0.022293271 19:0.10931715 30:0.073841428 63:0.45573577 595:0.52633417 596:0.37314094 597:0.52633417 
0.983251688224781 10:0.029467271 19:0.055898502 39:0.044975998 154:0.21191994 268:0.070305851 344:0.26913702 549:0.22141547 598:0.26913702 599:0.30523698 600:0.30523698 601:0.30523698 602:0.30523698 603:0.30523698 604:0.22141547 605:0.22141547 606:0.30523698 607:0.30523698 
1 2:0.036826125 6:0.051560729 10:0.011811024 18:0.028756569 19:0.036541221 26:0.025699194 30:0.039121351 32:0.051961931 33:0.018309049 39:0.029401108 41:0.016846233 42:0.14474076 44:0.041742159 122:0.058823401 164:0.18216716 312:0.08608771 359:0.12472906 375:0.089946081 468:0.17593666 608:0.16213225 609:0.31625619 610:0.19953544 611:0.19953544 612:0.13853347 613:0.19953544 614:0.17593666 615:0.16213225 616:0.19953544 617:0.19953544 618:0.12873909 619:0.19953544 620:0.13853347 621:0.19953544 622:0.13328528 623:0.15233787 624:0.19953544 625:0.19953544 626:0.19953544 627:0.278853 628:0.19953544 629:0.17593666 630:0.19953544 
1 2:0.03547953 3:0.054514949 6:0.031341652 10:0.0071794371 17:0.045753282 23:0.078559848 30:0.047560529 32:0.031585526 33:0.035279109 41:0.032460458 44:0.080431605 47:0.1695033 96:0.13346781 102:0.12841153 103:0.21154148 107:0.061396829 124:0.11671226 125:0.048917267 130:0.10567566 135:0.10129571 156:0.16390515 203:0.068868351 226:0.11671226 268:0.070180293 298:0.14676744 571:0.22102005 581:0.21154148 587:0.079601235 631:0.1695033 632:0.19223917 633:0.38447833 634:0.12403158 635:0.099273725 636:0.22102005 637:0.19223917 638:0.19223917 639:0.19223917 640:0.19223917 641:0.19223917 642:0.1695033 643:0.12016818 644:0.1695033 645:0.13944813 646:0.15620368 647:0.19223917 648:0.1695033 
1 2:0.077096091 3:0.094310952 6:0.042969213 10:0.022854655 18:0.03798345 26:0.03394508 33:0.024183721 44:0.055135618 69:0.14821331 95:0.19118252 325:0.19118252 471:0.17605142 649:0.21415428 650:0.16001179 651:0.26355872 652:0.3394265 653:0.26355872 654:0.26355872 655:0.21415428 656:0.26355872 657:0.21415428 658:0.15572571 659:0.19118252 660:0.20121726 661:0.15181282 662:0.26355872 663:0.26355872 664:0.17605142 
1 2:0.040284212 5:0.1150133 6:0.05640244 10:0.022884674 19:0.039972555 28:0.044945645 32:0.035862877 33:0.020028325 156:0.1174169 238:0.13251758 352:0.1067028 361:0.15132409 593:0.14082809 665:0.3849153 666:0.21827243 667:0.50681289 668:0.50681289 669:0.19245765 670:0.21827243 671:0.12896796 672:0.19245765 673:0.15154219 674:0.14082809 
1 10:0.019466218 22:0.18493704 26:0.067132454 28:0.067717795 32:0.054033154 33:0.030175871 41:0.027764947 71:0.12624532 128:0.20557093 164:0.30023695 268:0.075747515 361:0.098191636 675:0.2899682 676:0.29311827 677:0.2510741 678:0.2899682 679:0.32886229 680:0.2899682 681:0.2899682 682:0.15292245 683:0.32886229 684:0.2510741 
1 2:0.023629916 3:0.045815341 8:0.066140109 9:0.068874413 10:0.012360298 18:0.030093899 23:0.052322073 26:0.026136332 30:0.025102674 32:0.063109346 33:0.011748216 37:0.092874607 39:0.037731132 41:0.034265568 42:0.092874607 44:0.042452184 78:0.10403406 96:0.17778325 99:0.072000583 102:0.085524063 107:0.064811078 108:0.11289182 110:0.072000583 122:0.02381427 124:0.077732171 125:0.032579656 156:0.068874413 163:0.085524063 220:0.060507596 246:0.092874607 268:0.058980777 343:0.092874607 363:0.088891626 375:0.057714958 398:0.097845853 413:0.088891626 415:0.077732171 429:0.063710283 517:0.080033868 566:0.088891626 568:0.10403406 571:0.14720277 572:0.11289182 573:0.14720277 581:0.088891626 587:0.084027822 591:0.063710283 622:0.085524063 642:0.11289182 645:0.14720277 685:0.16489009 686:0.12803426 687:0.16489009 688:0.11289182 689:0.12803426 690:0.12803426 691:0.11289182 692:0.12803426 693:0.12803426 694:0.068874413 695:0.11289182 696:0.11289182 697:0.10403406 698:0.085524063 699:0.11289182 700:0.097749383 701:0.11289182 702:0.12803426 703:0.088891626 704:0.088891626 705:0.092874607 706:0.06746451 707:0.11289182 708:0.12803426 709:0.11289182 710:0.085524063 711:0.12803426 712:0.097749383 713:0.12803426 714:0.11289182 715:0.097749383 716:0.082606947 717:0.10403406 718:0.12803426 719:0.11289182 720:0.12803426 721:0.12803426 722:0.12803426 723:0.12803426 724:0.097749383 725:0.12803426 726:0.12803426 727:0.12803426 728:0.12803426 729:0.11289182 730:0.072000583 731:0.11289182 732:0.12803426 733:0.12803426 
1 10:0.015707805 26:0.079359004 28:0.054643275 30:0.032826365 145:0.11962176 178:0.23398298 252:0.23398298 255:0.21562413 326:0.16111004 352:0.12972537 368:0.18423946 373:0.12147012 734:0.26536765 735:0.26536765 736:0.26536765 737:0.20259831 738:0.26536765 739:0.26536765 740:0.18423946 741:0.23398298 742:0.26536765 743:0.19249471 744:0.21562413 745:0.19249471 746:0.23398298 
1 7:0.064772019 10:0.013744405 18:0.014412081 19:0.029026301 26:0.032355426 30:0.045525241 32:0.060467733 33:0.023051193 37:0.11497396 39:0.023354594 41:0.031071356 68:0.085262959 80:0.10587436 135:0.083517572 148:0.067434244 149:0.11004323 170:0.06313248 218:0.064772019 268:0.057863137 329:0.063939827 361:0.047324833 373:0.072552127 379:0.11004323 413:0.11004323 415:0.15251841 456:0.11497396 491:0.042841128 523:0.11497396 575:0.099077787 676:0.14127245 747:0.15849978 748:0.25121621 749:0.25121621 750:0.15849978 751:0.11497396 752:0.15849978 753:0.15849978 754:0.2990383 755:0.15849978 756:0.11497396 757:0.15849978 758:0.15849978 759:0.13975423 760:0.13975423 761:0.15849978 762:0.12100868 763:0.13975423 764:0.15849978 765:0.12878879 766:0.15849978 767:0.15849978 768:0.15849978 769:0.15849978 770:0.13975423 771:0.13975423 772:0.15849978 773:0.15849978 774:0.073703114 775:0.15849978 776:0.12100868 777:0.093650825 
1 2:0.048963674 3:0.047467106 10:0.019816024 19:0.048584868 26:0.034169409 33:0.024343541 41:0.035500933 48:0.16106925 122:0.049345676 129:0.21556953 133:0.068085137 313:0.21556953 778:0.42049129 779:0.26530046 780:0.26530046 781:0.26530046 782:0.23392374 783:0.26530046 784:0.21556953 785:0.17117029 786:0.26530046 787:0.23392374 788:0.15675484 789:0.23392374 790:0.26530046 
0.9705591063068938 2:0.072981677 10:0.018635342 19:0.072417057 32:0.040992566 33:0.0228931 39:0.036762287 41:0.033385711 99:0.14030356 104:0.20272543 125:0.063486177 165:0.24007806 166:0.20272543 167:0.16665602 296:0.10195714 398:0.082115726 405:0.1609716 461:0.13421177 491:0.067435889 530:0.1732182 694:0.13421177 791:0.24949329 792:0.19047883 793:0.24949329 794:0.24949329 795:0.19047883 796:0.24949329 797:0.24949329 798:0.21998606 799:0.18097962 800:0.16665602 801:0.24949329 802:0.24949329 803:0.24949329 
1 2:0.048694612 10:0.025471099 19:0.048317888 22:0.14837296 26:0.053859631 29:0.17624105 30:0.032637714 32:0.043350206 33:0.038371577 39:0.038876627 41:0.035305851 54:0.19138845 68:0.1419308 203:0.094519787 233:0.19138845 792:0.31926533 804:0.38294933 805:0.33979211 806:0.41818063 807:0.2638426 808:0.18318065 809:0.17624105 810:0.1189343 811:0.12077204 812:0.21438495 813:0.1649273 814:0.2326383 
0.7444642912324404 10:0.027376228 19:0.057814842 26:0.040660787 28:0.065007738 30:0.039052706 41:0.04224527 138:0.19734401 165:0.19166859 166:0.25652264 170:0.12574783 268:0.07271611 392:0.15433103 566:0.21918508 605:0.22900614 698:0.21088149 815:0.27836371 816:0.27836371 817:0.31570127 818:0.31570127 819:0.27836371 820:0.31570127 821:0.25652264 822:0.24102615 
1 2:0.046661892 3:0.045235678 5:0.13322188 7:0.10332017 10:0.021924194 17:0.060173702 18:0.036437064 30:0.031275277 39:0.037253751 41:0.033832035 123:0.13322188 148:0.10756678 398:0.083213508 682:0.11756648 782:0.22292699 823:0.25282869 824:0.25049149 825:0.35333091 826:0.25282869 827:0.22292699 828:0.19302528 829:0.22292699 830:0.19302528 831:0.25282869 832:0.25282869 833:0.22292699 834:0.25282869 835:0.25282869 836:0.25282869 
0.8980996698750463 2:0.087396515 3:0.084725253 10:0.028030164 128:0.29600957 405:0.30552624 715:0.36153136 837:0.47354159 838:0.47354159 839:0.47354159 
1 2:0.049128106 3:0.030048984 4:0.074583294 6:0.043398433 10:0.016213539 19:0.048748028 30:0.020775422 32:0.055188843 39:0.02474678 133:0.043101199 170:0.066895857 236:0.10196466 238:0.10196466 289:0.14808509 361:0.050145904 840:0.26619141 841:0.21629347 842:0.26619141 843:0.14808509 844:0.116603 845:0.23470932 846:0.14808509 847:0.13646599 848:0.16794808 849:0.13012806 850:0.16794808 851:0.16794808 852:0.13646599 853:0.16794808 854:0.16794808 855:0.16794808 856:0.16794808 857:0.096740007 858:0.16794808 859:0.16794808 860:0.16794808 861:0.14808509 862:0.086758847 863:0.10196466 864:0.16794808 865:0.075707212 866:0.10835911 867:0.14808509 868:0.11218562 869:0.082101666 870:0.11218562 871:0.16794808 872:0.16794808 873:0.16794808 874:0.1282221 875:0.14808509 876:0.14808509 
1 2:0.032208354 3:0.03122391 10:0.013035001 18:0.044547968 25:0.078667391 26:0.035624682 28:0.0359353 30:0.021587749 32:0.028673373 33:0.02538033 39:0.025714388 44:0.036507947 68:0.093878096 85:0.095932476 122:0.032459636 170:0.069511509 414:0.093878096 437:0.076375745 477:0.066993669 480:0.2531823 774:0.081150221 811:0.079882936 877:0.27659959 878:0.27659959 879:0.17451491 880:0.40521108 881:0.12659115 882:0.17451491 883:0.17451491 884:0.17451491 885:0.27659959 886:0.15387527 887:0.22475062 888:0.15387527 889:0.12116222 890:0.17451491 891:0.15387527 892:0.10052258 893:0.17451491 894:0.095932476 895:0.17451491 896:0.15387527 897:0.17451491 898:0.17451491 
0.9070065611288693 2:0.092127244 19:0.091414504 359:0.31203242 899:0.49917416 900:0.44013751 901:0.44013751 902:0.49917416 
1 2:0.044811125 3:0.037418453 6:0.017048301 10:0.012379371 18:0.026692942 19:0.044464445 26:0.026935841 28:0.034127841 30:0.020501937 32:0.044412128 33:0.01520778 39:0.039828962 68:0.056251333 110:0.058804548 122:0.019449668 125:0.026608562 128:0.1036019 148:0.07051344 170:0.083301968 211:0.060232676 258:0.052033668 268:0.024085485 282:0.092201371 287:0.13073104 361:0.031222057 370:0.092201371 413:0.11506805 415:0.063485669 437:0.045764003 457:0.079834192 587:0.043299115 635:0.034070189 706:0.055099832 800:0.069849488 812:0.13466956 857:0.060232676 903:0.29227143 904:0.10456855 905:0.30628633 906:0.36174775 907:0.29356104 908:0.092201371 909:0.13466956 910:0.10456855 911:0.14613572 912:0.16573723 913:0.10456855 914:0.063485669 915:0.065365519 916:0.10456855 917:0.10456855 918:0.10456855 919:0.10456855 920:0.10456855 921:0.079834192 922:0.10456855 923:0.092201371 924:0.075852849 925:0.075852849 926:0.092201371 927:0.10456855 928:0.10456855 929:0.16573723 930:0.072599855 931:0.084967035 932:0.050247972 933:0.10456855 934:0.10456855 935:0.16573723 936:0.16573723 937:0.079834192 938:0.10456855 939:0.10456855 940:0.10456855 941:0.10456855 942:0.13466956 943:0.10456855 944:0.058804548 945:0.092201371 946:0.10456855 
0.5321306356769631 2:0.08739217 10:0.022314957 19:0.054711744 32:0.049086695 122:0.055568496 135:0.15742247 222:0.21671469 352:0.14604762 388:0.20742076 448:0.22808955 526:0.16422931 529:0.23999252 698:0.19956284 947:0.47351805 948:0.41751572 949:0.24275429 950:0.18675196 951:0.29875663 952:0.29875663 
1 10:0.034468701 19:0.072793172 138:0.24847074 268:0.091554973 531:0.23486081 953:0.32298102 954:0.32298102 955:0.35048055 956:0.35048055 957:0.35048055 958:0.30346979 959:0.35048055 960:0.27597027 
0.8422636618213347 2:0.041079896 3:0.039824295 10:0.019301481 28:0.072644221 41:0.018792135 68:0.11973609 99:0.12517084 125:0.05663875 138:0.13913647 170:0.088657917 203:0.079739068 269:0.11973609 343:0.1614597 398:0.073258972 800:0.23565382 961:0.22258369 962:0.18086008 963:0.22258369 964:0.22258369 965:0.22258369 966:0.18086008 967:0.22258369 968:0.22258369 969:0.35278681 970:0.22258369 971:0.35278681 972:0.15453541 973:0.22258369 974:0.19625902 975:0.22258369 
1 2:0.072927776 3:0.044605944 7:0.16147889 8:0.12878839 9:0.13411264 10:0.024068042 17:0.059336014 18:0.022669191 24:0.18084596 27:0.17309027 28:0.051336555 30:0.030839889 39:0.058223812 72:0.19033815 123:0.13136727 124:0.15136052 361:0.11798245 398:0.13005422 497:0.19033815 700:0.19033815 716:0.16085271 810:0.17812267 976:0.24930902 977:0.22221164 978:0.34841214 979:0.19033815 980:0.18084596 981:0.14730617 982:0.21982358 983:0.24930902 984:0.24930902 985:0.24930902 986:0.24930902 
0.9697027415764038 2:0.080099595 3:0.048992555 4:0.12160232 6:0.044643204 10:0.020452851 12:0.30132072 18:0.039463206 28:0.089368211 30:0.033872726 41:0.023118418 229:0.18291001 315:0.16624552 987:0.54765283 988:0.24144134 989:0.27382642 990:0.27382642 991:0.24144134 992:0.24144134 993:0.27382642 994:0.27382642 995:0.19011221 
1 2:0.065283782 10:0.013210457 18:0.0321638 19:0.064778716 30:0.043756657 39:0.052121028 55:0.17292041 205:0.28742113 863:0.21475532 996:0.35372791 997:0.56064547 998:0.35372791 999:0.28742113 1000:0.31189299 1001:0.28742113 
0.8633193913156687 2:0.048014895 3:0.046547327 7:0.21263207 14:0.13994962 19:0.04764343 23:0.10631603 28:0.053570874 30:0.051007472 39:0.038333957 41:0.034813025 119:0.28628175 233:0.29910922 352:0.12717944 1002:0.52031937 1003:0.33504903 1004:0.26015969 1005:0.26015969 1006:0.26015969 1007:0.26015969 1008:0.26015969 
0.8695566244230168 2:0.069606216 3:0.033739356 4:0.13272953 5:0.099364495 6:0.030744119 7:0.077062094 8:0.097413863 10:0.016352318 18:0.034293363 19:0.034533855 26:0.024287426 30:0.046653781 32:0.030983344 33:0.017303254 39:0.078005103 41:0.044695329 44:0.039449082 68:0.10144106 120:0.11448713 122:0.035074633 133:0.048394538 203:0.067555366 222:0.13678953 300:0.11787716 415:0.11448713 526:0.10366094 527:0.081358542 635:0.061440606 1009:0.35577889 1010:0.1662717 1011:0.1216669 1012:0.26353441 1013:0.29888288 1014:0.15322563 1015:0.1662717 1016:0.29888288 1017:0.1885741 1018:0.1885741 1019:0.24285688 1020:0.13678953 1021:0.1439693 1022:0.1885741 1023:0.1216669 1024:0.1885741 1025:0.13092323 1026:0.1885741 1027:0.15322563 1028:0.1885741 
1 10:0.0470687 17:0.14998025 26:0.081162076 28:0.12976047 79:0.42093577 133:0.16172159 410:0.38258532 529:0.31938526 703:0.43751038 1029:0.5556355 
1 4:0.15605159 5:0.18516158 10:0.020800281 17:0.083633847 26:0.045258604 28:0.11468574 33:0.03224389 401:0.24396996 1030:0.30984036 1031:0.55695574 1032:0.35139995 1033:0.35139995 1034:0.35139995 1035:0.28552955 
1 2:0.058235872 10:0.019219336 18:0.018102295 30:0.024626938 33:0.018267594 39:0.068112689 41:0.016808091 71:0.076425243 125:0.050658919 149:0.1382198 269:0.16974083 273:0.14441304 418:0.10709454 448:0.15199295 528:0.1382198 1036:0.1755383 1037:0.39816731 1038:0.19908366 1039:0.15199295 1040:0.40758732 1041:0.1755383 1042:0.19908366 1043:0.19908366 1044:0.19908366 1045:0.1755383 1046:0.19908366 1047:0.1755383 1048:0.19908366 1049:0.1755383 1050:0.097322337 1051:0.1755383 1052:0.19908366 1053:0.19908366 
1 6:0.060745231 10:0.022054625 17:0.088677318 30:0.046090029 135:0.1963276 203:0.21155777 605:0.2702732 844:0.25868237 1054:0.30274818 1055:0.22620739 1056:0.37259084 1057:0.37259084 1058:0.4508572 1059:0.37259084 
0.7236443230030906 2:0.072210178 4:0.17375165 8:0.20211622 10:0.023159541 19:0.071651526 28:0.080565882 29:0.26135124 39:0.057650899 205:0.31791557 231:0.2311774 596:0.24457387 635:0.12747819 1060:0.39125728 1061:0.31791557 1062:0.31791557 1063:0.39125728 1064:0.31791557 
1 10:0.022946353 17:0.062979144 18:0.038135848 26:0.054017543 27:0.18371772 33:0.024280751 39:0.03899061 41:0.035409365 113:0.20202458 296:0.10813721 315:0.1606538 389:0.21501351 881:0.19194959 1021:0.20202458 1065:0.26461617 1066:0.17675777 1067:0.41940671 1068:0.23332038 1069:0.26461617 1070:0.26461617 1071:0.23332038 1072:0.17675777 1073:0.26461617 1074:0.26461617 1075:0.23332038 
1 3:0.054291149 4:0.13475373 6:0.049471411 10:0.026313073 19:0.055569604 33:0.044130516 39:0.044711366 107:0.096912178 122:0.056439789 145:0.13678437 203:0.10870564 218:0.19654049 268:0.13978436 361:0.090601357 447:0.20269191 456:0.2201127 1076:0.42134607 1077:0.26755346 1078:0.48916764 1079:0.30344102 1080:0.26755346 1081:0.1598908 1082:0.30344102 
1 2:0.064150524 7:0.14204403 10:0.025962274 19:0.063654226 26:0.044767586 30:0.085994174 32:0.057109777 41:0.02934587 71:0.13343367 135:0.29029022 145:0.15668464 190:0.19546727 192:0.20021439 596:0.21727604 1020:0.2521361 1083:0.2521361 1084:0.34758756 1085:0.2413231 1086:0.2521361 1087:0.30647885 1088:0.34758756 1089:0.34758756 
0.4936617107679394 2:0.078535137 3:0.076134722 5:0.22422148 6:0.10995805 7:0.17389488 8:0.21981977 9:0.22890736 10:0.025188107 12:0.2954355 223:0.34576211 1090:0.34576211 1091:0.32487468 1092:0.42552788 1093:0.42552788 
1 2:0.098202215 3:0.060064941 10:0.029111434 19:0.061479358 26:0.068530635 30:0.04152801 33:0.048823739 48:0.20381724 258:0.16705122 483:0.23307783 527:0.14483963 800:0.22424793 849:0.16411309 865:0.15133121 1094:0.33571157 1095:0.1216142 1096:0.17014825 1097:0.33571157 1098:0.19835778 1099:0.22424793 1100:0.29600742 1101:0.20381724 1102:0.14908461 1103:0.18454378 1104:0.25630327 1105:0.15865363 1106:0.24352139 1107:0.18454378 
1 10:0.020401742 19:0.043085682 26:0.060603738 28:0.076785229 33:0.021588163 41:0.031482682 44:0.049218098 122:0.043760377 186:0.13901219 268:0.085890131 392:0.11501299 460:0.11118691 551:0.17066355 553:0.14283827 706:0.12397073 712:0.17962129 903:0.20744657 1108:0.23527185 1109:0.23527185 1110:0.23527185 1111:0.23527185 1112:0.23527185 1113:0.20744657 1114:0.23527185 1115:0.23527185 1116:0.23527185 1117:0.23309694 1118:0.16334454 1119:0.17962129 1120:0.17066355 1121:0.23527185 1122:0.19116982 1123:0.16334454 1124:0.20744657 
1 7:0.11565643 10:0.024541908 30:0.035009495 41:0.023894272 107:0.090388901 138:0.17691256 218:0.11565643 268:0.065187654 359:0.17691256 361:0.084502869 517:0.17691256 674:0.18260027 765:0.22996429 894:0.15557655 1125:0.18904847 1126:0.17691256 1127:0.28301603 1128:0.28301603 1129:0.28301603 1130:0.28301603 1131:0.28301603 1132:0.17691256 1133:0.22996429 1134:0.22996429 1135:0.28301603 1136:0.24954411 
-0.2359154929577465 2:0.03166023 7:0.11111069 10:0.016560782 17:0.040828034 18:0.024722655 26:0.035018419 28:0.035323751 30:0.042440734 32:0.028185408 33:0.024948406 37:0.12443682 38:0.15125661 41:0.028966155 44:0.083326227 71:0.065853567 122:0.050571772 123:0.090391433 375:0.077328625 415:0.10414842 471:0.11458829 475:0.09646903 497:0.13096822 631:0.15125661 635:0.055892243 908:0.15125661 1050:0.083860029 1137:0.15125661 1138:0.17154501 1139:0.27189241 1140:0.17154501 1141:0.11910027 1142:0.17154501 1143:0.27189241 1144:0.17154501 1145:0.17154501 1146:0.17154501 1147:0.17154501 1148:0.17154501 1149:0.17154501 1150:0.17154501 1151:0.17154501 1152:0.15125661 1153:0.27189241 1154:0.17154501 1155:0.17154501 1156:0.17154501 1157:0.15125661 1158:0.17154501 1159:0.17154501 1160:0.17154501 
-0.2359154929577465 6:0.035458014 10:0.018859566 18:0.019775726 26:0.028011338 30:0.026903526 32:0.035733919 33:0.019956305 41:0.029102893 102:0.14527689 122:0.040452512 125:0.055341982 167:0.23025843 268:0.07939766 296:0.088877773 312:0.093832981 398:0.071581678 587:0.14273528 694:0.18543219 808:0.15099726 1081:0.11459973 1123:0.15099726 1132:0.13595088 1161:0.21748755 1162:0.21748755 1163:0.21748755 1164:0.21748755 1165:0.21748755 1166:0.21748755 1167:0.21748755 1168:0.21748755 1169:0.21748755 1170:0.11955494 1171:0.17671921 1172:0.21748755 1173:0.21748755 1174:0.21748755 1175:0.21748755 1176:0.21748755 1177:0.21748755 
-0.2359154929577465 10:0.02846921 26:0.061945158 125:0.12238501 268:0.11078022 479:0.33392011 529:0.24376373 1178:0.32126991 1179:0.48095884 1180:0.48095884 1181:0.48095884 
-0.2359154929577465 2:0.052853824 6:0.046689631 10:0.016951492 17:0.068158622 18:0.026039849 19:0.052444922 26:0.036884159 41:0.024178157 44:0.059909444 114:0.17901443 133:0.073494482 203:0.16260625 352:0.13999656 487:0.20773575 593:0.29285309 716:0.18476973 1182:0.46539295 1183:0.28637851 1184:0.23269647 1185:0.23269647 1186:0.21863932 1187:0.20773575 1188:0.28637851 1189:0.21863932 1190:0.20773575 1191:0.25250892 
-0.2359154929577465 3:0.065033088 10:0.035089922 17:0.086508744 18:0.052383759 19:0.066564496 25:0.16384826 32:0.059720836 165:0.22067556 193:0.27750287 379:0.25235638 437:0.15907523 477:0.13953426 652:0.29534458 730:0.20440403 1054:0.29534458 1192:0.36347926 1193:0.32049106 1194:0.36347926 1195:0.36347926 
-0.2359154929577465 3:0.026721557 6:0.038592776 7:0.061033149 8:0.077151743 10:0.01295103 18:0.031532167 19:0.0273508 23:0.061033149 24:0.10833725 26:0.038471265 28:0.048743279 30:0.018474888 32:0.038893072 33:0.021720596 39:0.022006484 41:0.019985213 44:0.031243658 71:0.090871401 96:0.16434658 97:0.10833725 99:0.083987923 133:0.038328456 170:0.094286645 206:0.074317376 218:0.061033149 268:0.054523072 311:0.10833725 312:0.064435934 322:0.074317376 398:0.049155769 410:0.090673761 412:0.19975003 415:0.090673761 432:0.073010267 437:0.065362692 491:0.040368187 569:0.11402363 582:0.093358666 645:0.10833725 661:0.086027654 685:0.19234255 687:0.19234255 688:0.13168712 715:0.22804726 810:0.067323893 869:0.073010267 966:0.12135464 1058:0.11402363 1196:0.13168712 1197:0.14935062 1198:0.10833725 1199:0.10369115 1200:0.11402363 1201:0.19234255 1202:0.20871915 1203:0.14935062 1204:0.14935062 1205:0.14935062 1206:0.13168712 1207:0.14935062 1208:0.14935062 1209:0.10833725 1210:0.14935062 1211:0.14935062 1212:0.14935062 1213:0.13168712 1214:0.23671512 1215:0.13168712 1216:0.13168712 1217:0.13168712 1218:0.13168712 1219:0.14935062 1220:0.14935062 1221:0.14935062 
-0.2359154929577465 3:0.024001312 6:0.043741156 7:0.054819997 10:0.01502969 17:0.05060339 18:0.034243299 26:0.044661566 28:0.027622881 30:0.026301108 32:0.034933772 33:0.024618182 39:0.05109497 41:0.026297338 44:0.028063065 71:0.051496945 107:0.042843438 114:0.083854788 122:0.024951194 125:0.034135051 128:0.083854788 152:0.093135427 153:0.097308561 268:0.048972644 334:0.10900078 361:0.040053518 419:0.070685353 429:0.066751895 460:0.063396307 477:0.051496945 484:0.097308561 604:0.097308561 635:0.069274386 762:0.10241607 774:0.062378856 777:0.079261663 804:0.083854788 894:0.073741736 1096:0.067989432 1126:0.083854788 1209:0.097308561 1222:0.10900078 1223:0.081443205 1224:0.10900078 1225:0.15423042 1226:0.17276215 1227:0.077270071 1228:0.13414678 1229:0.10900078 1230:0.16232562 1231:0.18747162 1232:0.13414678 1233:0.11828142 1234:0.10241607 1235:0.093135427 1236:0.13414678 1237:0.11828142 1238:0.11828142 1239:0.13414678 1240:0.093135427 1241:0.21261761 1242:0.089607092 1243:0.13414678 1244:0.13414678 1245:0.13414678 1246:0.18747162 1247:0.10900078 1248:0.13414678 1249:0.13414678 1250:0.10900078 1251:0.13414678 1252:0.13414678 1253:0.10900078 1254:0.11828142 1255:0.10900078 1256:0.10900078 1257:0.13414678 1258:0.10241607 1259:0.11828142 1260:0.097308561 1261:0.11828142 1262:0.13414678 1263:0.11828142 1264:0.093135427 1265:0.13414678 1266:0.13414678 1267:0.097308561 1268:0.10900078 1269:0.10900078 1270:0.13414678 1271:0.11828142 1272:0.11828142 1273:0.13414678 
-0.2359154929577465 3:0.05217661 5:0.15366335 10:0.017261901 17:0.069406715 18:0.02651668 30:0.057176151 32:0.047914544 33:0.026758813 41:0.024620898 125:0.11761438 172:0.25713276 236:0.17704992 237:0.31374935 361:0.087072604 418:0.15687468 487:0.21153972 591:0.14511238 1085:0.20246771 1274:0.23695752 1275:0.23695752 1276:0.23695752 1277:0.23695752 1278:0.19479744 1279:0.37556878 1280:0.20246771 1281:0.17704992 1282:0.21153972 1283:0.18815315 1284:0.23695752 
-0.2359154929577465 6:0.16749066 26:0.13231529 55:0.50221247 190:0.57772399 1285:0.60700673 
-0.2359154929577465 3:0.031658566 10:0.018551641 18:0.032178406 19:0.051359229 26:0.052915721 28:0.036435541 32:0.029072524 41:0.023677631 44:0.058669224 71:0.067926261 107:0.056511985 122:0.032911493 125:0.045025319 145:0.079762489 148:0.075281508 156:0.095184935 203:0.063389059 268:0.081511859 296:0.072309482 375:0.079762489 392:0.22359787 511:0.13509035 514:0.15601731 553:0.10742642 706:0.093236439 869:0.086499464 889:0.12284887 955:0.15601731 956:0.15601731 957:0.15601731 958:0.21411314 960:0.12284887 1117:0.11060738 1286:0.14377582 1287:0.17694427 1288:0.22787929 1289:0.15601731 1290:0.17694427 1291:0.15601731 1292:0.17694427 1293:0.11819487 1294:0.14377582 1295:0.14377582 1296:0.13509035 1297:0.17694427 1298:0.17694427 1299:0.13509035 1300:0.099505324 1301:0.14377582 1302:0.097267914 1303:0.13509035 1304:0.17694427 1305:0.14377582 1306:0.15601731 1307:0.14377582 1308:0.17694427 1309:0.17694427 1310:0.17694427 1311:0.17694427 
-0.2359154929577465 3:0.038261471 10:0.0079864805 18:0.058334597 26:0.09149484 30:0.026453414 33:0.05072323 41:0.041921658 107:0.17654899 170:0.085178717 268:0.16362568 323:0.36925238 377:0.21868364 479:0.14847098 804:0.13367634 809:0.28569264 1096:0.10838473 1117:0.13367634 1312:0.18855724 1313:0.16326563 1314:0.21384885 1315:0.17376259 1316:0.18855724 1317:0.21384885 1318:0.27540719 1319:0.21384885 1320:0.21384885 1321:0.14847098 1322:0.21384885 1323:0.15512355 1324:0.16326563 1325:0.17376259 1326:0.21384885 
-0.2359154929577465 10:0.012842724 17:0.029153567 18:0.011138055 22:0.068884442 26:0.044290247 28:0.039977814 30:0.035183164 33:0.031553997 39:0.036098152 41:0.029032966 44:0.051250273 71:0.047023239 78:0.099531533 84:0.07055737 107:0.03912149 110:0.068884442 116:0.085044451 122:0.022783604 125:0.049402693 148:0.052115048 152:0.085044451 162:0.074367971 164:0.11183079 203:0.043882274 231:0.072375946 268:0.044718232 287:0.076570052 329:0.049414465 375:0.055217091 398:0.040316126 414:0.065893572 432:0.05988089 437:0.053608571 438:0.076570052 462:0.096608127 470:0.065893572 494:0.068884442 517:0.076570052 527:0.10569694 531:0.072375946 551:0.088855052 553:0.074367971 587:0.08039115 620:0.085044451 635:0.039910279 682:0.056959803 698:0.081822634 751:0.088855052 771:0.10800593 776:0.093518851 862:0.063277607 863:0.074367971 948:0.17118535 980:0.088855052 1078:0.13479227 1200:0.093518851 1301:0.099531533 1327:0.12249301 1328:0.19414683 1329:0.099531533 1330:0.088855052 1331:0.12249301 1332:0.10800593 1333:0.099531533 1334:0.093518851 1335:0.093518851 1336:0.081822634 1337:0.19414683 1338:0.12249301 1339:0.079031769 1340:0.12249301 1341:0.17118535 1342:0.10800593 1343:0.085044451 1344:0.12249301 1345:0.076570052 1346:0.10800593 1347:0.12249301 1348:0.10800593 1349:0.10029263 1350:0.12249301 1351:0.12249301 1352:0.12249301 1353:0.12249301 1354:0.12249301 1355:0.088855052 1356:0.081822634 1357:0.099531533 1358:0.24498603 1359:0.12249301 1360:0.12249301 1361:0.12249301 1362:0.12249301 1363:0.12249301 1364:0.12249301 1365:0.099531533 1366:0.12249301 1367:0.12249301 1368:0.12249301 1369:0.12249301 1370:0.099531533 1371:0.12249301 1372:0.099531533 1373:0.12249301 
-0.2359154929577465 2:0.15664011 3:0.15185243 18:0.077172936 107:0.27106351 1095:0.30745741 1118:0.5892528 1374:0.43843551 1375:0.48887526 
-0.2359154929577465 3:0.061865672 6:0.035567718 10:0.012913486 17:0.082295362 18:0.03967382 26:0.065241542 28:0.07120061 33:0.020018048 39:0.050949349 41:0.018418691 163:0.14572636 242:0.1363715 361:0.065138299 419:0.11495429 676:0.1226834 681:0.30488164 705:0.15825112 751:0.15825112 800:0.23097082 822:0.16655736 924:0.15825112 1137:0.1923589 1345:0.1363715 1376:0.17726597 1377:0.21816044 1378:0.1923589 1379:0.21816044 1380:0.21816044 1381:0.1923589 1382:0.21816044 1383:0.21816044 1384:0.17726597 1385:0.21816044 1386:0.21816044 1387:0.21816044 1388:0.17726597 1389:0.21816044 
-0.1126760563380282 2:0.078360858 10:0.01585666 18:0.038606571 19:0.077754621 30:0.052521607 41:0.056815255 107:0.13560236 220:0.20065358 312:0.18318264 491:0.11476129 494:0.2387663 915:0.26540605 1095:0.24378117 1390:0.24456498 1391:0.30798815 1392:0.30798815 1393:0.37436866 1394:0.19743328 1395:0.37436866 1396:0.34499482 
-0.2359154929577465 6:0.025273775 10:0.013442727 18:0.014095748 28:0.050593862 30:0.019176304 32:0.025470434 33:0.022545238 41:0.02074397 44:0.0514001 71:0.059510188 99:0.13817164 112:0.11245038 122:0.04570042 133:0.063055562 187:0.089293772 203:0.088021123 218:0.063350328 220:0.073261165 427:0.10355051 634:0.10001854 635:0.050508393 671:0.091595269 1305:0.12596198 1349:0.080080879 1397:0.13668674 1398:0.15502085 1399:0.1535878 1400:0.15502085 1401:0.15502085 1402:0.15502085 1403:0.15502085 1404:0.15502085 1405:0.15502085 1406:0.24570223 1407:0.21664336 1408:0.13668674 1409:0.21664336 1410:0.094116272 1411:0.10001854 1412:0.31004169 1413:0.12596198 1414:0.24570223 1415:0.10355051 1416:0.12596198 1417:0.13668674 1418:0.11835264 1419:0.12596198 1420:0.12596198 1421:0.10762788 1422:0.11245038 1423:0.13668674 1424:0.13668674 1425:0.15502085 1426:0.15502085 1427:0.15502085 1428:0.15502085 1429:0.15502085 1430:0.15502085 
-0.2359154929577465 10:0.017393976 531:0.27519041 1263:0.41066401 1264:0.32335905 1431:0.46574731 1432:0.46574731 1433:0.46574731 
-0.2359154929577465 4:0.084624179 10:0.021349993 19:0.034897231 23:0.077872966 26:0.038899714 32:0.031309361 33:0.027713583 39:0.028078352 41:0.032176642 44:0.063183228 48:0.1156918 150:0.1156918 287:0.1191175 296:0.077872966 300:0.1191175 316:0.13230085 373:0.087226697 405:0.12294711 491:0.05150628 582:0.1191175 703:0.13230085 706:0.10041004 959:0.16802126 1011:0.12294711 1096:0.096580428 1201:0.15483792 1286:0.15483792 1294:0.2454123 1376:0.15483792 1434:0.19055834 1435:0.19055834 1436:0.30202782 1437:0.13230085 1438:0.19055834 1439:0.19055834 1440:0.19055834 1441:0.19055834 1442:0.16802126 1443:0.19055834 1444:0.19055834 1445:0.19055834 1446:0.19055834 1447:0.19055834 1448:0.19055834 1449:0.19055834 1450:0.19055834 
-0.2359154929577465 112:0.31013544 268:0.098477021 361:0.12765593 494:0.24043097 932:0.20544617 1451:0.32641374 1452:0.31013544 1453:0.37697876 1454:0.25957042 1455:0.42754378 1456:0.42754378 
-0.2359154929577465 6:0.071654951 10:0.026015591 28:0.090501322 30:0.054367705 120:0.26683378 268:0.10123263 329:0.1773001 526:0.24160132 529:0.22275495 1457:0.4395074 1458:0.4395074 1459:0.27473489 1460:0.38752746 1461:0.38752746 
-0.2359154929577465 32:0.08738859 33:0.048803865 296:0.21735381 491:0.14376088 1470:0.36926926 1499:0.53187367 1500:0.53187367 1501:0.46896969 
-0.2359154929577465 2:0.03660705 10:0.0074075956 19:0.036323841 26:0.040489946 32:0.032589297 33:0.051094224 41:0.026541808 45:0.16116774 110:0.11154204 187:0.11425095 213:0.10903398 329:0.080015022 372:0.13249238 419:0.10451483 420:0.17489002 475:0.11154204 491:0.053611872 785:0.12797323 846:0.17489002 865:0.089411 868:0.13249238 1072:0.13249238 1502:0.19834842 1503:0.19834842 1504:0.1171957 1505:0.46055077 1506:0.19834842 1507:0.19834842 1508:0.19834842 1509:0.19834842 1510:0.17489002 1511:0.15143163 1512:0.19834842 1513:0.19834842 1514:0.19834842 1515:0.13770935 1516:0.19834842 1517:0.16116774 1518:0.19834842 
-0.2359154929577465 6:0.040501963 8:0.064165974 10:0.016630266 17:0.046856024 18:0.035802478 19:0.022747259 23:0.050760376 26:0.031995987 28:0.025577306 30:0.015365294 32:0.040817115 33:0.018064702 39:0.042497021 41:0.024349924 44:0.041185081 107:0.039670725 119:0.086238408 122:0.023103467 124:0.075412038 125:0.073389705 133:0.05052419 162:0.075412038 186:0.073392047 187:0.1134008 189:0.15030482 190:0.13970305 203:0.044498347 211:0.1134008 212:0.086238408 231:0.073392047 240:0.10092888 268:0.028610166 300:0.077645035 312:0.08493881 329:0.050108205 361:0.037087408 363:0.086238408 373:0.056857471 412:0.07154794 414:0.066818665 426:0.10952225 429:0.061808673 438:0.12306447 460:0.058701578 462:0.061808673 470:0.066818665 477:0.047683408 479:0.086238408 481:0.075412038 491:0.053212943 527:0.053590422 589:0.26089736 644:0.10952225 661:0.07154794 724:0.094831781 788:0.073392047 811:0.056857471 862:0.064165974 1023:0.080141313 1050:0.06072157 1170:0.10822265 1278:0.082971359 1285:0.17041106 1487:0.086238408 1519:0.12421272 1520:0.10952225 1521:0.10952225 1522:0.10952225 1523:0.12421272 1524:0.12421272 1525:0.18966356 1526:0.094831781 1527:0.10952225 1528:0.10092888 1529:0.086238408 1530:0.094831781 1531:0.17358866 1532:0.10952225 1533:0.23434959 1534:0.10952225 1535:0.10092888 1536:0.12421272 1537:0.12421272 1538:0.075412038 1539:0.075412038 1540:0.15030482 1541:0.080141313 1542:0.10092888 1543:0.12421272 1544:0.12421272 1545:0.12421272 1546:0.12421272 1547:0.12421272 1548:0.10952225 1549:0.10092888 1550:0.090102507 1551:0.12421272 1552:0.12421272 1553:0.10092888 1554:0.10952225 1555:0.10092888 1556:0.082971359 1557:0.10092888 1558:0.10952225 1559:0.10952225 
-0.2359154929577465 6:0.0383402 8:0.076646811 10:0.0087825954 17:0.091283018 18:0.040473863 19:0.027171798 24:0.10762822 26:0.019109742 30:0.047444341 32:0.048756397 33:0.021578442 39:0.034651178 41:0.037580226 44:0.093117538 55:0.07253244 59:0.15172765 107:0.075106656 119:0.16327099 122:0.043740672 125:0.037755104 133:0.060351582 148:0.063125842 162:0.090080332 167:0.15708564 203:0.05315366 211:0.19844273 212:0.20602505 218:0.060633708 268:0.034175091 296:0.060633708 359:0.092747666 414:0.079815473 460:0.11113685 491:0.063563321 555:0.12056042 635:0.048342467 650:0.090080332 661:0.085464633 788:0.087667435 1003:0.12056042 1023:0.095729491 1030:0.13082527 1285:0.087667435 1410:0.090080332 1415:0.099110006 1525:0.11327738 1526:0.1795404 1527:0.13082527 1542:0.19108374 1556:0.099110006 1560:0.13082527 1561:0.14837317 1562:0.14837317 1563:0.14837317 1564:0.14837317 1565:0.14837317 1566:0.14837317 1567:0.13082527 1568:0.13082527 1569:0.13082527 1570:0.14837317 1571:0.14837317 1572:0.14837317 1573:0.12056042 1574:0.2351659 1575:0.14837317 1576:0.14837317 1577:0.2351659 1578:0.14837317 1579:0.14837317 1580:0.11327738 1581:0.13082527 
-0.2359154929577465 3:0.045029655 6:0.03251718 10:0.012148332 17:0.084079781 18:0.034326788 25:0.056725205 26:0.016207399 28:0.051824199 30:0.015566418 32:0.04135139 33:0.032415814 39:0.018542041 41:0.02124842 44:0.061124807 55:0.14283662 84:0.072484465 85:0.069174652 110:0.070765846 114:0.078661368 122:0.060503321 125:0.032020948 145:0.089907323 162:0.15279829 187:0.072484465 190:0.070765846 231:0.074352711 268:0.045939597 299:0.074352711 322:0.062617717 359:0.078661368 375:0.13171185 398:0.041417258 419:0.066307562 429:0.062617717 591:0.062617717 643:0.078661368 833:0.11095584 849:0.061516384 862:0.065005874 886:0.11095584 937:0.09607308 1118:0.087367224 1141:0.087367224 1170:0.069174652 1186:0.09607308 1209:0.091281902 1280:0.087367224 1285:0.14870542 1422:0.091281902 1517:0.10224998 1539:0.12108978 1541:0.081190321 1582:0.1258386 1583:0.1258386 1584:0.1258386 1585:0.1258386 1586:0.28681668 1587:0.17586084 1588:0.091281902 1589:0.1258386 1590:0.11095584 1591:0.1258386 1592:0.1258386 1593:0.091281902 1594:0.10224998 1595:0.1258386 1596:0.11095584 1597:0.10224998 1598:0.1258386 1599:0.29218818 1600:0.11095584 1601:0.1258386 1602:0.1258386 1603:0.10224998 1604:0.13322785 1605:0.1258386 1606:0.11095584 1607:0.1258386 1608:0.09607308 1609:0.1258386 1610:0.09607308 1611:0.1258386 1612:0.1258386 1613:0.1258386 1614:0.10224998 1615:0.1258386 1616:0.09607308 1617:0.1258386 1618:0.091281902 1619:0.1258386 
-0.2359154929577465 22:0.08256782 39:0.02163439 41:0.012396063 162:0.089140611 315:0.089140611 960:0.10193789 1029:0.1294605 1035:0.11930273 1039:0.17766743 1040:0.1294605 1071:0.1294605 1370:0.11930273 1573:0.11930273 1620:0.14682533 1621:0.14682533 1622:0.1294605 1623:0.14682533 1624:0.1294605 1625:0.14682533 1626:0.14682533 1627:0.14682533 1628:0.1294605 1629:0.14682533 1630:0.14682533 1631:0.1294605 1632:0.14682533 1633:0.14682533 1634:0.14682533 1635:0.11930273 1636:0.1294605 1637:0.14682533 1638:0.14682533 1639:0.14682533 1640:0.14682533 1641:0.14682533 1642:0.14682533 1643:0.11209567 1644:0.14682533 1645:0.14682533 1646:0.14682533 1647:0.14682533 1648:0.14682533 1649:0.14682533 1650:0.14682533 1651:0.14682533 1652:0.1294605 1653:0.14682533 1654:0.14682533 1655:0.14682533 1656:0.1294605 1657:0.11209567 1658:0.14682533 1659:0.14682533 1660:0.1294605 1661:0.14682533 
-0.1959357980958363 6:0.064290534 10:0.014727042 17:0.074376613 18:0.028415418 32:0.032395394 33:0.018091841 39:0.029052311 44:0.041246955 55:0.15276819 110:0.11087838 122:0.058125555 133:0.080199253 206:0.15550321 242:0.12324935 276:0.15053063 429:0.098111605 469:0.13688999 481:0.11970482 491:0.053292887 682:0.091684134 730:0.17573807 865:0.088879014 923:0.17384945 950:0.12324935 1285:0.2329968 1475:0.16020881 1538:0.11970482 1540:0.15053063 1549:0.16020881 1616:0.15053063 1662:0.19716827 1663:0.19716827 1664:0.17384945 1665:0.2385854 1666:0.31250431 1667:0.14302364 1668:0.11970482 1669:0.15053063 1670:0.19716827 1671:0.19716827 1672:0.17384945 1673:0.15053063 1674:0.16020881 1675:0.14302364 1676:0.19716827 1677:0.19716827 
-0.2359154929577465 3:0.039201652 6:0.035721496 10:0.012969318 18:0.019922676 30:0.07006138 33:0.020104597 35:0.17803238 39:0.032284442 41:0.029319151 70:0.17803238 107:0.069976738 133:0.056229463 268:0.050466588 398:0.072113588 491:0.059221834 513:0.19319057 674:0.14136439 865:0.098766993 875:0.19319057 932:0.10528514 1081:0.1154513 1227:0.2000321 1323:0.15893533 1593:0.15893533 1678:0.21910366 1679:0.19319057 1680:0.21910366 1681:0.34727108 1682:0.21910366 1683:0.15211929 1684:0.16727748 1685:0.15893533 1686:0.21910366 1687:0.21910366 1688:0.21910366 1689:0.21910366 1690:0.17803238 1691:0.21910366 1692:0.19319057 
-0.2359154929577465 2:0.023761091 4:0.05717378 6:0.020989902 10:0.015972362 19:0.03736908 23:0.083388882 26:0.033163461 28:0.042018266 30:0.03185189 32:0.033527073 33:0.030537282 39:0.049037497 41:0.025238407 44:0.026933033 53:0.080478157 68:0.069256753 114:0.12755486 122:0.05560198 133:0.052367723 137:0.069256753 148:0.086816287 156:0.069256753 189:0.098292016 203:0.046122008 213:0.070772333 220:0.060843489 312:0.055545836 313:0.10461158 352:0.062937186 361:0.060927002 372:0.085998829 398:0.042373845 418:0.069256753 432:0.062937186 447:0.085998829 460:0.060843489 524:0.11351851 587:0.053309957 843:0.11351851 869:0.062937186 932:0.061865403 1061:0.10461158 1123:0.089385086 1223:0.078163682 1459:0.080478157 1538:0.15632736 1588:0.093390179 1597:0.10461158 1693:0.10461158 1694:0.12874501 1695:0.11351851 1696:0.11351851 1697:0.22703702 1698:0.25749002 1699:0.20405601 1700:0.12874501 1701:0.12874501 1702:0.10461158 1703:0.098292016 1704:0.12874501 1705:0.12874501 1706:0.11351851 1707:0.25749002 1708:0.12874501 1709:0.12874501 1710:0.098292016 1711:0.20405601 1712:0.12874501 1713:0.11351851 1714:0.11351851 1715:0.11351851 1716:0.12874501 1717:0.12874501 1718:0.11351851 1719:0.12874501 1720:0.11351851 1721:0.11351851 1722:0.12874501 1723:0.12874501 1724:0.11351851 1725:0.093390179 1726:0.11351851 1727:0.12874501 1728:0.12874501 1729:0.098292016 1730:0.12874501 1731:0.098292016 
-0.2359154929577465 2:0.049583073 10:0.015902484 17:0.063940765 19:0.049199475 28:0.055320511 32:0.044141155 33:0.024651491 41:0.035950026 71:0.10313324 268:0.061880208 324:0.21829653 432:0.13133315 658:0.15873781 665:0.23688292 924:0.19488044 999:0.21829653 1152:0.23688292 1732:0.23688292 1733:0.23688292 1734:0.26865656 1735:0.26865656 1736:0.26865656 1737:0.26865656 1738:0.20510927 1739:0.26865656 1740:0.26865656 1741:0.19488044 1742:0.23688292 
-0.2359154929577465 3:0.045929529 6:0.026405736 10:0.012097532 18:0.044181204 28:0.066701712 30:0.040070343 32:0.061789299 33:0.034507441 39:0.037825171 41:0.013674172 53:0.1012432 59:0.10449816 71:0.062175527 87:0.14280866 111:0.098331546 114:0.1012432 122:0.047747248 125:0.041213412 148:0.068908068 187:0.093293056 192:0.093293056 231:0.095697632 246:0.1174868 268:0.037305475 308:0.13160356 312:0.069877823 361:0.048359152 398:0.053307183 401:0.17822635 414:0.087126443 433:0.13160356 462:0.12773814 471:0.10818832 477:0.098545879 635:0.05277056 636:0.1174868 765:0.13160356 865:0.073009683 905:0.28561732 950:0.1012432 1055:0.098331546 1170:0.089033074 1343:0.11244831 1349:0.083667536 1437:0.11244831 1541:0.10449816 1597:0.13160356 1668:0.098331546 1710:0.12365341 1731:0.12365341 1743:0.16196391 1744:0.14280866 1745:0.14280866 1746:0.14280866 1747:0.1174868 1748:0.14280866 1749:0.12365341 1750:0.22634637 1751:0.22634637 1752:0.16196391 1753:0.16196391 1754:0.16196391 1755:0.13160356 1756:0.16196391 1757:0.16196391 1758:0.14280866 1759:0.16196391 1760:0.16196391 1761:0.13160356 1762:0.13160356 
-0.2359154929577465 10:0.01193507 17:0.076060089 18:0.058117173 19:0.058524736 26:0.065237138 30:0.062657095 32:0.052507664 39:0.047089069 148:0.13596536 158:0.18408039 299:0.18882495 618:0.20618964 729:0.28178167 824:0.19976715 825:0.28178167 1394:0.14860507 1763:0.28178167 1764:0.31957769 1765:0.31957769 1766:0.31957769 1767:0.31957769 1768:0.25967242 1769:0.25967242 
-0.2359154929577465 3:0.049281122 6:0.056665256 10:0.015069683 17:0.065555059 18:0.025045163 22:0.097727474 26:0.051970281 27:0.12065394 30:0.021497188 33:0.03189206 41:0.01467201 44:0.072709592 48:0.10550704 69:0.097727474 122:0.051231484 186:0.10268093 203:0.062256493 242:0.10863117 258:0.086474926 312:0.074976982 322:0.086474926 394:0.097727474 412:0.10010088 424:0.15322977 446:0.13267671 475:0.097727474 491:0.093944004 569:0.13267671 658:0.10268093 682:0.080809795 870:0.1160831 944:0.097727474 962:0.141207 1050:0.084953988 1058:0.13267671 1132:0.10863117 1196:0.15322977 1200:0.13267671 1295:0.141207 1302:0.095530039 1451:0.13267671 1685:0.1260601 1773:0.27543926 1774:0.141207 1775:0.17378282 1776:0.17378282 1777:0.17378282 1778:0.17378282 1779:0.15322977 1780:0.141207 1781:0.17378282 1782:0.17378282 1783:0.17378282 1784:0.17378282 1785:0.13267671 1786:0.17378282 1787:0.27543926 1788:0.17378282 1789:0.15322977 1790:0.17378282 
-0.2359154929577465 3:0.040957084 6:0.037321088 10:0.019850505 14:0.12314195 17:0.10896441 18:0.020814804 19:0.06644408 26:0.046729672 32:0.037611489 33:0.0487718 39:0.033730124 44:0.04788827 85:0.12583672 102:0.15291019 107:0.073110264 111:0.13897891 122:0.067484552 130:0.12583672 148:0.15436367 150:0.13897891 204:0.18600459 211:0.13185766 322:0.11390889 334:0.18600459 361:0.10833123 373:0.10478419 392:0.11190544 397:0.15893112 398:0.0753428 575:0.14309416 730:0.12873129 845:0.20184155 869:0.17736593 1132:0.14309416 1282:0.16605237 1323:0.16605237 1349:0.11825323 1720:0.20184155 1791:0.31991129 1792:0.20184155 1793:0.22891502 1794:0.22891502 1795:0.20184155 1796:0.22891502 1797:0.20184155 1798:0.20184155 
-0.2359154929577465 322:0.30045545 329:0.24357882 491:0.16320331 703:0.41920977 1407:0.53239384 1799:0.60380504 
-0.2359154929577465 10:0.0084042362 17:0.084888547 18:0.057444055 19:0.041210962 26:0.045937587 32:0.036973961 33:0.020648831 41:0.037998154 44:0.094153093 45:0.18285174 71:0.086387509 107:0.071871019 148:0.095741792 167:0.15031831 207:0.14519114 230:0.18285174 268:0.051832725 269:0.12105465 273:0.16323773 299:0.13296357 361:0.067190853 393:0.1718057 401:0.15623718 460:0.10634901 587:0.093181064 635:0.11620964 774:0.10464221 1240:0.15623718 1510:0.19842026 1635:0.18285174 1800:0.22503483 1801:0.16323773 1802:0.19842026 1803:0.22503483 1804:0.22503483 1805:0.22503483 1806:0.22503483 1807:0.22503483 1808:0.1718057 1809:0.19842026 1810:0.22503483 1811:0.22503483 1812:0.19842026 
-0.2359154929577465 2:0.055547124 6:0.049068819 10:0.026098941 18:0.027366775 27:0.2089586 30:0.059009155 32:0.049450631 39:0.070289142 55:0.14713044 182:0.31864472 981:0.17783143 1081:0.15858963 1119:0.22978064 1223:0.18272594 1253:0.24455411 1556:0.20104243 1813:0.26537615 1814:0.30097165 1815:0.22978064 1816:0.20104243 1817:0.2089586 1818:0.18272594 1819:0.19418513 1820:0.24455411 1821:0.22978064 1822:0.30097165 
-0.2359154929577465 3:0.090666321 8:0.26177609 9:0.27259819 10:0.043942881 18:0.046077539 19:0.092801343 26:0.065266557 33:0.04649829 71:0.19453263 145:0.22843016 190:0.45166877 192:0.29189208 268:0.11672007 810:0.22843016 1086:0.36758862 1667:0.36758862 1823:0.33849588 
-0.2359154929577465 18:0.01849283 99:0.29564424 158:0.11714842 1272:0.17932533 1824:0.20337865 1825:0.20337865 1826:0.17932533 1827:0.20337865 1828:0.20337865 1829:0.28422393 1830:0.20337865 1831:0.20337865 1832:0.20337865 1833:0.20337865 1834:0.20337865 1835:0.20337865 1836:0.20337865 1837:0.20337865 1838:0.20337865 1839:0.16525504 1840:0.20337865 1841:0.17932533 1842:0.17932533 1843:0.20337865 1844:0.20337865 
-0.2359154929577465 18:0.039210371 158:0.39368873 737:0.32922345 1845:0.60264034 1846:0.431224 1847:0.431224 
-0.2359154929577465 6:0.070126742 10:0.026199163 17:0.10237267 18:0.039111249 19:0.049699002 33:0.039468387 41:0.022912233 44:0.056772696 122:0.050477258 129:0.22051291 138:0.16964157 226:0.16476284 247:0.18841667 268:0.099073604 418:0.14598774 460:0.12825325 774:0.1261949 828:0.20719177 865:0.12233391 1081:0.14299928 1325:0.22051291 1329:0.22051291 1356:0.18127871 1410:0.16476284 1684:0.20719177 1848:0.22051291 1849:0.27138426 1850:0.22051291 1851:0.23928801 1852:0.23928801 1853:0.23928801 1854:0.27138426 1855:0.27138426 
-0.2359154929577465 2:0.02911665 3:0.028226704 6:0.025720857 10:0.0058918806 26:0.020319119 28:0.032485844 32:0.025920995 33:0.014476086 41:0.026639017 107:0.050385954 122:0.04650884 133:0.08097477 200:0.098617286 203:0.11303508 296:0.064470967 329:0.1008712 414:0.13451049 474:0.093215548 477:0.060562897 480:0.11443957 635:0.051401864 810:0.07111605 811:0.072214913 847:0.20317665 1190:0.11443957 1669:0.12044624 1856:0.1577631 1857:0.1577631 1858:0.13910467 1859:0.1577631 1860:0.12044624 1861:0.13910467 1862:0.12044624 1863:0.13910467 1864:0.35958036 1865:0.25004859 1866:0.25004859 1867:0.1577631 1868:0.12819019 1869:0.095781147 1870:0.13910467 1871:0.13910467 1872:0.1577631 1873:0.13910467 1874:0.13910467 1875:0.13910467 1876:0.13910467 1877:0.25004859 1878:0.20317665 1879:0.088718716 1880:0.12044624 1881:0.1577631 1882:0.25004859 
-0.2359154929577465 2:0.087452946 6:0.077253554 10:0.017696484 18:0.043086031 39:0.069820364 156:0.25490021 200:0.2962007 238:0.28768225 671:0.27997638 924:0.34372353 1012:0.41780607 1883:0.47384735 1884:0.38502403 
-0.2359154929577465 2:0.042898152 3:0.041586976 10:0.020155793 18:0.033498058 19:0.042566272 26:0.047448343 30:0.028752619 33:0.03380394 110:0.13071109 122:0.068522419 141:0.16860615 392:0.11362647 447:0.15526184 477:0.089228546 777:0.13733636 809:0.15526184 932:0.11169148 1223:0.14111631 1410:0.14111631 1416:0.18886521 1600:0.20494574 1798:0.32483131 1885:0.20494574 1886:0.20494574 1887:0.23243558 1888:0.18886521 1889:0.23243558 1890:0.23243558 1891:0.36840167 1892:0.23243558 1893:0.23243558 1894:0.18886521 1895:0.23243558 
-0.2359154929577465 10:0.031506421 1747:0.38610228 1896:0.53226947 1897:0.53226947 1898:0.53226947 
-0.2359154929577465 10:0.015405716 751:0.29922934 777:0.24373411 1899:0.41250895 1900:0.41250895 1901:0.41250895 1902:0.41250895 1903:0.41250895 
-0.2359154929577465 4:0.14816052 6:0.054393373 17:0.12585351 39:0.049159746 41:0.044644477 133:0.085620998 322:0.16601577 389:0.27109116 410:0.20255389 635:0.10870247 776:0.25471459 930:0.23163311 979:0.25471459 1235:0.23163311 1904:0.33363068 1905:0.33363068 1906:0.33363068 1907:0.33363068 1908:0.33363068 
-0.2359154929577465 10:0.024839897 28:0.086411395 29:0.28031376 1225:0.30440592 1909:0.34098216 1910:0.41964522 1911:0.41964522 1912:0.41964522 1913:0.41964522 
-0.2359154929577465 3:0.068562449 4:0.073290776 6:0.026906848 10:0.017303289 14:0.088779877 18:0.023784818 23:0.067443729 26:0.042512071 28:0.067967538 30:0.020415387 32:0.054232428 33:0.01514358 41:0.013933672 42:0.11971639 48:0.10019762 68:0.14071278 71:0.063355457 96:0.11458228 99:0.092809544 122:0.061393714 150:0.10019762 206:0.082123257 258:0.082123257 268:0.038013436 287:0.10316454 343:0.11971639 412:0.095063517 571:0.11971639 573:0.11971639 577:0.1455188 591:0.082123257 645:0.11971639 671:0.097513725 685:0.13410105 687:0.13410105 696:0.1455188 697:0.21254514 699:0.1455188 707:0.1455188 731:0.1455188 887:0.13410105 1058:0.19970533 1117:0.10316454 1198:0.11971639 1201:0.13410105 1215:0.1455188 1216:0.1455188 1217:0.1455188 1218:0.1455188 1556:0.11024146 1884:0.13410105 1914:0.16503757 1915:0.16503757 1916:0.16503757 1917:0.16503757 1918:0.1455188 1919:0.16503757 1920:0.11971639 1921:0.16503757 1922:0.16503757 1923:0.16503757 1924:0.16503757 1925:0.16503757 1926:0.13410105 1927:0.13410105 1928:0.16503757 
-0.2359154929577465 3:0.029272499 6:0.04227699 10:0.018330522 18:0.029753159 19:0.029961811 26:0.054470173 30:0.040477144 32:0.026881364 33:0.03880655 41:0.021893077 44:0.054247397 71:0.099546332 77:0.099329824 88:0.11867954 125:0.041631817 148:0.069607634 268:0.037684206 287:0.10227104 429:0.12903496 453:0.11867954 587:0.067745895 604:0.11867954 635:0.053306295 676:0.092005731 804:0.237466 981:0.096669169 1055:0.15743405 1223:0.099329824 1227:0.094240182 1260:0.11867954 1339:0.10555904 1378:0.14425848 1399:0.10227104 1421:0.1135899 1454:0.099329824 1465:0.1135899 1610:0.12490876 1929:0.16360819 1930:0.16360819 1931:0.16360819 1932:0.16360819 1933:0.14425848 1934:0.16360819 1935:0.25931285 1936:0.16360819 1937:0.16360819 1938:0.16360819 1939:0.16360819 1940:0.25931285 1941:0.16360819 1942:0.14425848 1943:0.14425848 1944:0.16360819 1945:0.14425848 1946:0.16360819 1947:0.14425848 1948:0.14425848 1949:0.16360819 1950:0.16360819 1951:0.14425848 
-0.09757007650825111 10:0.025356995 33:0.039307553 53:0.26777985 133:0.10993718 237:0.23044219 328:0.26777985 419:0.22572489 635:0.13957374 643:0.26777985 1952:0.32705298 1953:0.32705298 1954:0.32705298 1955:0.42838107 1956:0.37771703 
-0.2359154929577465 4:0.090181264 10:0.015168 17:0.04833149 18:0.029266234 19:0.058942943 28:0.04181562 30:0.025120288 32:0.052882873 41:0.034289612 125:0.051673767 220:0.095969564 259:0.17905485 268:0.07413497 269:0.21847992 270:0.17905485 437:0.08887359 774:0.094429344 1225:0.14730606 1345:0.20119465 1538:0.12328903 1668:0.12328903 1733:0.28379523 1801:0.14730606 1957:0.20307189 1958:0.28379523 1959:0.32186133 1960:0.20307189 1961:0.20307189 1962:0.20307189 1963:0.20307189 1964:0.20307189 1965:0.20307189 1966:0.20307189 1967:0.20307189 1968:0.20307189 1969:0.20307189 
-0.2359154929577465 2:0.053537148 7:0.11854357 10:0.010833474 14:0.1560454 15:0.22146601 18:0.041805774 33:0.02661736 39:0.042742793 41:0.048981492 86:0.2357049 90:0.2357049 122:0.053954832 125:0.073814139 170:0.18313123 398:0.095474352 587:0.12011498 676:0.16312821 881:0.21042147 977:0.16312821 1199:0.20139742 1300:0.16312821 1970:0.33351014 1971:0.25577349 1972:0.2357049 1973:0.25577349 1974:0.25577349 1975:0.25577349 1976:0.29008098 1977:0.22146601 
-0.2359154929577465 10:0.0039582528 30:0.0082720058 39:0.015617038 226:0.081197121 361:0.031645753 418:0.083525006 523:0.04850727 531:0.062623588 777:0.07902217 805:0.054335716 816:0.058962015 949:0.086120073 953:0.054335716 1125:0.04466817 1126:0.11734943 1229:0.054335716 1237:0.20397506 1264:0.046427007 1271:0.058962015 1459:0.083601418 1702:0.054335716 1725:0.04850727 1791:0.20397506 1978:0.066870724 1979:0.066870724 1980:0.26748289 1981:0.066870724 1982:0.066870724 1983:0.066870724 1984:0.066870724 1985:0.24745108 1986:0.066870724 1987:0.066870724 1988:0.24745108 1989:0.066870724 1990:0.086120073 1991:0.066870724 1992:0.066870724 1993:0.066870724 1994:0.058962015 1995:0.13374145 1996:0.066870724 1997:0.066870724 1998:0.058962015 1999:0.054335716 2000:0.066870724 2001:0.066870724 2002:0.066870724 2003:0.066870724 2004:0.058962015 2005:0.2313347 2006:0.058962015 2007:0.066870724 2008:0.066870724 2009:0.13374145 2010:0.066870724 2011:0.066870724 2012:0.066870724 2013:0.066870724 2014:0.066870724 2015:0.066870724 2016:0.066870724 2017:0.066870724 2018:0.066870724 2019:0.10598759 2020:0.066870724 2021:0.10598759 2022:0.066870724 2023:0.066870724 2024:0.066870724 2025:0.058962015 2026:0.066870724 2027:0.066870724 2028:0.066870724 2029:0.066870724 2030:0.066870724 2031:0.066870724 2032:0.066870724 2033:0.066870724 2034:0.066870724 2035:0.066870724 2036:0.058962015 2037:0.066870724 2038:0.086120073 2039:0.066870724 2040:0.066870724 2041:0.066870724 2042:0.058962015 2043:0.066870724 2044:0.066870724 2045:0.058962015 2046:0.066870724 2047:0.066870724 2048:0.066870724 2049:0.066870724 2050:0.066870724 2051:0.066870724 2052:0.066870724 2053:0.066870724 2054:0.066870724 2055:0.066870724 2056:0.093452582 2057:0.086120073 2058:0.066870724 2059:0.066870724 2060:0.093452582 2061:0.066870724 2062:0.066870724 2063:0.058962015 2064:0.066870724 2065:0.066870724 2066:0.066870724 2067:0.066870724 2068:0.066870724 2069:0.058962015 2070:0.066870724 2071:0.066870724 2072:0.066870724 2073:0.066870724 2074:0.066870724 2075:0.066870724 2076:0.066870724 2077:0.066870724 2078:0.066870724 2079:0.066870724 2080:0.058962015 2081:0.066870724 2082:0.066870724 2083:0.066870724 2084:0.066870724 2085:0.10598759 2086:0.093452582 2087:0.066870724 2088:0.066870724 2089:0.13374145 2090:0.066870724 2091:0.066870724 2092:0.066870724 2093:0.066870724 2094:0.066870724 2095:0.066870724 2096:0.066870724 2097:0.066870724 
-0.2359154929577465 6:0.064133159 7:0.10142439 10:0.021521915 18:0.022567407 28:0.051106055 32:0.064632189 33:0.022773478 41:0.033211263 106:0.13643216 194:0.18003396 425:0.20166615 432:0.12132786 491:0.067083522 799:0.18003396 930:0.1723131 977:0.13957044 1066:0.1657852 1235:0.1723131 1312:0.21883658 1330:0.18003396 1334:0.30032429 1451:0.18948353 1504:0.14664476 1610:0.18948353 2098:0.24818963 2099:0.39337125 2100:0.24818963 2101:0.24818963 2102:0.24818963 2103:0.24818963 
-0.2359154929577465 3:0.044248337 4:0.1098269 10:0.018472289 18:0.044974903 19:0.045290303 26:0.031852364 33:0.022692793 41:0.020879735 107:0.078985301 220:0.11687616 237:0.13303746 290:0.21806125 373:0.1132045 398:0.081397241 491:0.066845848 553:0.15014706 587:0.1623077 636:0.17939611 646:0.20095165 740:0.1717026 849:0.120898 865:0.11148191 1198:0.17939611 1303:0.1888122 1511:0.1888122 1819:0.15956315 2104:0.2473103 2105:0.2473103 2106:0.2473103 2107:0.2473103 2108:0.21806125 2109:0.2473103 2110:0.2473103 2111:0.2473103 2112:0.20095165 2113:0.21806125 
-0.2359154929577465 3:0.068469786 10:0.014291991 18:0.055151998 26:0.078120079 39:0.056388154 41:0.032309259 268:0.1397068 323:0.25562679 1281:0.23233725 1321:0.26569225 1894:0.31095218 2114:0.53480999 2115:0.31095218 2116:0.38268746 2117:0.38268746 
-0.2359154929577465 10:0.022146348 33:0.086241901 44:0.12405334 2118:0.5929985 2119:0.52286538 2120:0.5929985 
-0.2359154929577465 3:0.032046028 10:0.01553162 18:0.037815188 19:0.032800652 26:0.046136954 28:0.036881468 32:0.046642809 33:0.026048588 39:0.041829446 41:0.015121756 85:0.098458355 122:0.0528019 125:0.045576375 145:0.080738685 158:0.10316931 164:0.20633862 268:0.041254733 271:0.15792677 315:0.10874119 392:0.087558112 449:0.13674369 453:0.12992427 460:0.084645364 582:0.11196108 694:0.096349883 716:0.11556062 1096:0.090778005 1120:0.12992427 1313:0.13674369 1675:0.12992427 1692:0.15792677 2121:0.17910985 2122:0.17910985 2123:0.17910985 2124:0.28388239 2125:0.17910985 2126:0.28388239 2127:0.17910985 2128:0.12435239 2129:0.17910985 2130:0.23066825 2131:0.17910985 2132:0.17910985 2133:0.17910985 2134:0.15792677 2135:0.17910985 2136:0.17910985 2137:0.17910985 2138:0.17910985 2139:0.17910985 
-0.2359154929577465 2:0.04696482 6:0.041487445 10:0.015062747 18:0.023138474 19:0.046601479 26:0.032774505 33:0.037008493 41:0.021484213 44:0.084374369 110:0.14310226 218:0.10399093 229:0.16998039 293:0.22437423 413:0.17667347 477:0.097687253 706:0.21252247 717:0.2067693 1178:0.16998039 1410:0.15449388 1421:0.17667347 1665:0.1942784 2140:0.32772158 2141:0.40332549 2142:0.2067693 2143:0.25447005 2144:0.25447005 2145:0.25447005 2146:0.25447005 2147:0.22437423 
-0.2359154929577465 18:0.037558378 33:0.037901337 1036:0.36420431 1049:0.36420431 2148:0.65467806 2149:0.41305587 2150:0.36420431 
-0.2359154929577465 10:0.020066071 18:0.038716924 26:0.034600572 32:0.04413977 33:0.049301434 34:0.20510284 39:0.039584711 41:0.02268123 44:0.056200307 77:0.16310168 133:0.068944262 158:0.15474438 220:0.12696018 268:0.098074731 299:0.15873283 324:0.21828968 373:0.12297173 460:0.12696018 730:0.15107536 824:0.33586244 829:0.37543876 981:0.15873283 1349:0.13877861 1399:0.16793122 1729:0.20510284 2151:0.23687548 2152:0.23687548 2153:0.26864813 2154:0.26864813 2155:0.23687548 2156:0.23687548 
-0.2359154929577465 6:0.071114898 10:0.0162903 18:0.025024166 26:0.08230189 33:0.025252671 39:0.040551343 41:0.036826746 195:0.18383311 529:0.13948347 756:0.31641086 1247:0.22362016 1267:0.19963303 1296:0.21011131 2157:0.27520834 2158:0.24265982 2159:0.43619489 2160:0.22362016 2161:0.27520834 2162:0.22362016 2163:0.27520834 2164:0.27520834 2165:0.21011131 
-0.2359154929577465 7:0.14265817 10:0.016451194 18:0.03174212 26:0.044961145 30:0.070428424 33:0.046925986 41:0.018595235 44:0.046075894 155:0.19420267 268:0.10146195 398:0.072491383 410:0.13371912 460:0.10408847 531:0.13013732 582:0.13767863 618:0.14210498 740:0.15291623 754:0.17896507 861:0.19420267 932:0.10583672 937:0.16815383 944:0.12385933 1023:0.14210498 1081:0.18394462 1242:0.14712316 1323:0.15976797 1738:0.16815383 2166:0.22025152 2167:0.30780395 2168:0.17896507 2169:0.15976797 2170:0.22025152 2171:0.19420267 2172:0.22025152 2173:0.22025152 2174:0.14712316 2175:0.22025152 2176:0.22025152 2177:0.22025152 
-0.2359154929577465 3:0.027898145 6:0.025421466 10:0.013521282 18:0.039803011 26:0.031830175 28:0.074551789 30:0.019288364 32:0.025619274 33:0.022676984 39:0.053347367 41:0.03056695 43:0.21790935 44:0.03261936 141:0.17927114 154:0.10825681 170:0.0621076 230:0.20081167 268:0.035914919 398:0.051320165 427:0.10415562 462:0.077589674 494:0.087686029 527:0.067273138 591:0.077589674 593:0.10060301 634:0.15945199 698:0.10415562 788:0.092130517 862:0.080548842 865:0.070288258 892:0.089815572 978:0.13748549 980:0.17927114 1014:0.12669805 1023:0.10060301 1066:0.16508275 1078:0.10825681 1120:0.11310749 1199:0.10825681 1235:0.10825681 1240:0.17158299 1293:0.10415562 1333:0.12669805 1335:0.18868067 1452:0.11310749 1643:0.11904425 1797:0.13748549 2112:0.12669805 2178:0.13748549 2179:0.15592673 2180:0.15592673 2181:0.15592673 2182:0.15592673 2183:0.15592673 2184:0.13748549 2185:0.11904425 2186:0.12669805 2187:0.20081167 2188:0.15592673 2189:0.15592673 2190:0.12669805 2191:0.24713802 2192:0.10415562 2193:0.13748549 2194:0.13748549 2195:0.15592673 
-0.2359154929577465 6:0.041855036 10:0.019175479 26:0.052406621 28:0.083786767 30:0.031757223 33:0.037336399 39:0.075655648 41:0.03435338 60:0.17823885 156:0.13810183 170:0.10225673 322:0.1277471 361:0.076652818 419:0.1352748 491:0.069390487 800:0.27179962 894:0.14112398 914:0.15586275 972:0.17823885 1384:0.20860133 1785:0.19599976 1792:0.22636225 1880:0.19599976 2196:0.22636225 2197:0.40689907 2198:0.25672473 2199:0.40689907 2200:0.22636225 2201:0.22636225 
-0.2359154929577465 6:0.039228128 7:0.098327803 10:0.0089859933 18:0.021878402 23:0.098327803 30:0.047174942 33:0.03499309 39:0.056192741 125:0.061226282 133:0.061749277 143:0.16072362 213:0.13226675 218:0.15584588 294:0.16705221 323:0.16072362 328:0.15040601 432:0.11762361 438:0.15040601 591:0.11972943 635:0.1242539 710:0.16072362 925:0.17453735 1010:0.33625818 1050:0.11762361 1061:0.19550909 1233:0.21215529 1300:0.13530922 1302:0.13226675 1480:0.16072362 1706:0.21215529 1738:0.18369842 2202:0.24061216 2203:0.24061216 2204:0.24061216 2205:0.24061216 2206:0.24061216 2207:0.24061216 
-0.2359154929577465 2:0.043548016 3:0.026635947 6:0.024271321 10:0.015608431 17:0.035431846 18:0.031431145 19:0.06330313 25:0.10636398 26:0.019174006 30:0.036831398 32:0.038768468 33:0.021651008 41:0.019921185 44:0.049361376 122:0.043887767 150:0.090383262 164:0.085752041 246:0.10799017 312:0.064229496 352:0.072776359 361:0.04445021 375:0.067108202 392:0.072776359 394:0.16743769 398:0.048998284 410:0.090383262 427:0.099443302 474:0.1759245 477:0.057149787 491:0.063777078 497:0.18014418 608:0.12096585 614:0.13126523 615:0.19172633 618:0.22302449 623:0.26390645 658:0.087962251 661:0.085752041 804:0.14749592 1050:0.1153478 1185:0.12096585 1242:0.099443302 1336:0.099443302 1399:0.093059566 1452:0.10799017 1567:0.13126523 2208:0.13126523 2209:0.14887213 2210:0.14887213 2211:0.14887213 2212:0.13126523 2213:0.14887213 2214:0.14887213 2215:0.14887213 2216:0.14887213 2217:0.14887213 2218:0.14887213 2219:0.12096585 2220:0.14887213 2221:0.12096585 2222:0.14887213 2223:0.14887213 2224:0.14887213 2225:0.14887213 2226:0.13126523 2227:0.14887213 2228:0.14887213 2229:0.14887213 2230:0.14887213 2231:0.11365832 
-0.2359154929577465 3:0.036102455 10:0.017497632 18:0.029080309 19:0.0369526 26:0.04119082 30:0.039561777 33:0.042990895 39:0.04712427 40:0.14009307 41:0.017035887 44:0.066904579 122:0.059485632 125:0.05134549 133:0.08207583 148:0.085848717 194:0.14637024 268:0.073663999 296:0.08245951 322:0.10040731 410:0.12250579 429:0.10040731 437:0.088308987 447:0.1347858 491:0.054539885 566:0.14009307 650:0.12250579 892:0.11622861 977:0.11347281 981:0.11922434 1050:0.15634281 1085:0.14009307 1132:0.12613326 1223:0.12250579 1227:0.11622861 1268:0.16395753 1453:0.17791734 1489:0.14009307 1774:0.25986653 1795:0.28199231 1820:0.16395753 1977:0.15405288 2232:0.2017818 2233:0.2017818 2234:0.16395753 2235:0.2017818 2236:0.2017818 2237:0.17791734 2238:0.2017818 2239:0.17791734 2240:0.17791734 2241:0.2017818 2242:0.2017818 
-0.2359154929577465 2:0.026426165 10:0.0084755066 14:0.077024676 19:0.02622172 23:0.058513613 25:0.064544666 26:0.018441558 28:0.029484033 30:0.028073202 32:0.0235258 33:0.013138443 39:0.033439579 41:0.024177474 114:0.17900937 122:0.026632335 125:0.057748068 133:0.036746202 186:0.084602089 200:0.089504687 203:0.05129511 206:0.1129277 277:0.099410628 317:0.099410628 485:0.11634495 527:0.061775926 620:0.099410628 635:0.046652144 795:0.21863314 809:0.095644564 847:0.11634495 894:0.078710245 932:0.068804304 1096:0.072570368 1225:0.10386494 1343:0.099410628 1526:0.10931657 1538:0.086930618 1710:0.10931657 1808:0.10931657 1868:0.18440238 1870:0.20010292 1871:0.12625089 1873:0.12625089 1874:0.12625089 1875:0.12625089 1878:0.11634495 2185:0.10931657 2243:0.14318521 2244:0.14318521 2245:0.14318521 2246:0.14318521 2247:0.14318521 2248:0.10931657 2249:0.14318521 2250:0.14318521 2251:0.14318521 2252:0.14318521 2253:0.14318521 2254:0.14318521 2255:0.12625089 2256:0.12625089 2257:0.14318521 2258:0.14318521 2259:0.14318521 2260:0.14318521 2261:0.14318521 2262:0.14318521 2263:0.14318521 2264:0.18440238 2265:0.14318521 2266:0.14318521 2267:0.14318521 2268:0.14318521 2269:0.14318521 
-0.2359154929577465 6:0.032325651 10:0.01719351 18:0.036057473 23:0.081026303 26:0.025536814 32:0.051633611 33:0.028835799 44:0.041478412 85:0.10899344 122:0.036878934 164:0.11420847 203:0.071030533 429:0.098662159 432:0.096926869 437:0.086774111 481:0.12037654 491:0.053591941 493:0.13244312 634:0.12792565 677:0.15137533 682:0.09219862 810:0.08937776 862:0.20485001 892:0.11420847 894:0.10899344 915:0.12394097 930:0.13765815 1050:0.096926869 1068:0.17482501 1590:0.17482501 1604:0.13244312 1683:0.13765815 1725:0.22795917 2169:0.14382622 2270:0.16110782 2271:0.31425793 2272:0.31425793 2273:0.16110782 2274:0.23992422 2275:0.19827468 2276:0.19827468 2277:0.16110782 2278:0.25534986 2279:0.19827468 2280:0.19827468 
-0.2359154929577465 3:0.031669153 10:0.010477296 17:0.04212715 18:0.032189167 19:0.032414903 23:0.072333664 26:0.022797182 28:0.057768279 30:0.043791166 32:0.067526885 33:0.041983794 39:0.060558362 41:0.02368555 54:0.20350332 68:0.095216767 84:0.101956 107:0.08959933 130:0.097300443 145:0.079789163 218:0.072333664 233:0.1283963 268:0.064618223 287:0.11064437 306:0.15606948 401:0.12288995 429:0.088077516 517:0.11064437 526:0.097300443 537:0.15606948 574:0.13513553 676:0.099538601 704:0.12288995 776:0.13513553 804:0.22128874 809:0.1182344 869:0.086528391 972:0.12288995 977:0.099538601 981:0.16576149 1123:0.12288995 1227:0.16159643 1260:0.1283963 1280:0.12288995 1349:0.091436676 1538:0.10746235 1675:0.1283963 2174:0.1182344 2281:0.15606948 2282:0.17700344 2283:0.17700344 2284:0.14382391 2285:0.17700344 2286:0.13513553 2287:0.17700344 2288:0.17700344 2289:0.17700344 2290:0.17700344 2291:0.17700344 2292:0.17700344 2293:0.15606948 2294:0.15606948 2295:0.17700344 2296:0.15606948 
-0.2359154929577465 6:0.093121318 10:0.021331315 18:0.051935837 26:0.073564546 80:0.38153224 135:0.30096659 930:0.39655531 1066:0.38153224 2297:0.50362281 2298:0.43607074 
-0.2359154929577465 6:0.050632234 10:0.014990629 17:0.036957063 18:0.032784146 25:0.069996977 26:0.05999814 28:0.031974651 32:0.025513105 33:0.022583009 37:0.11263877 41:0.026219828 69:0.08732265 107:0.049593087 122:0.067062068 125:0.039512762 133:0.079700561 170:0.061850221 307:0.19997948 312:0.10618354 375:0.069996977 382:0.12617301 392:0.12031312 394:0.08732265 400:0.13691574 405:0.15879121 409:0.21700631 491:0.041970999 516:0.13691574 587:0.10190934 620:0.10780819 658:0.09174872 674:0.1001861 706:0.081821279 756:0.11263877 792:0.11855092 811:0.071078549 857:0.17888674 862:0.08021504 914:0.094273947 925:0.11263877 931:0.12617301 932:0.074616441 1050:0.075909128 1222:0.12617301 1345:0.097065457 1355:0.11263877 1488:0.11855092 1550:0.11263877 1741:0.11263877 1839:0.12617301 2219:0.12617301 2264:0.12617301 2299:0.13691574 2300:0.15528056 2301:0.12617301 2302:0.15528056 2303:0.15528056 2304:0.15528056 2305:0.15528056 2306:0.15528056 2307:0.13691574 2308:0.15528056 2309:0.15528056 2310:0.13691574 2311:0.15528056 2312:0.15528056 2313:0.15528056 2314:0.15528056 2315:0.13691574 2316:0.15528056 2317:0.15528056 2318:0.13691574 
-0.2359154929577465 6:0.033869216 10:0.0077584265 18:0.053029861 26:0.080268629 30:0.025698037 33:0.044260838 41:0.017539124 44:0.043459027 163:0.13876734 182:0.13876734 206:0.10337333 268:0.09569945 323:0.21994103 328:0.12985921 377:0.13403417 413:0.14423139 587:0.086020718 716:0.13403417 754:0.1688008 788:0.1227462 1281:0.12612458 1302:0.11419793 1321:0.28846279 1324:0.15860358 1421:0.14423139 2114:0.18317299 2142:0.1688008 2319:0.20774239 2320:0.3292639 2321:0.20774239 2322:0.20774239 2323:0.18317299 2324:0.18317299 2325:0.3292639 2326:0.18317299 2327:0.20774239 2328:0.20774239 
-0.2359154929577465 32:0.037694341 242:0.14340937 243:0.20228618 247:0.15928122 863:0.13928506 1657:0.27761105 2184:0.320616 2329:0.36362096 2330:0.36362096 2331:0.22941928 2332:0.22941928 2333:0.22941928 2334:0.22941928 2335:0.36362096 2336:0.22941928 2337:0.22941928 
-0.1659799175704411 3:0.017704252 6:0.037458606 7:0.040437249 10:0.013248172 17:0.023550667 18:0.034256598 19:0.018121154 22:0.088196561 25:0.044605154 26:0.032944016 30:0.036721372 32:0.016258073 33:0.028781774 39:0.04093208 41:0.0083542142 44:0.032809279 55:0.13579916 106:0.05439462 117:0.075545861 122:0.065980948 123:0.052140119 125:0.0399082 133:0.040249096 137:0.053229767 148:0.066725778 170:0.039413682 206:0.11432862 211:0.05699725 218:0.040437249 268:0.036124025 275:0.092666927 308:0.16080598 311:0.071778378 326:0.060075507 361:0.02954495 365:0.087248732 368:0.10888712 373:0.045294379 381:0.080402992 414:0.053229767 419:0.052140119 433:0.080402992 457:0.075545861 460:0.046763451 461:0.053229767 462:0.049238656 471:0.066097491 477:0.037986043 491:0.075084861 527:0.085383498 591:0.049238656 635:0.074859177 682:0.072928787 788:0.11693264 849:0.076668815 862:0.08101782 863:0.095217427 894:0.086213433 932:0.047548879 977:0.055645835 1050:0.048372637 1096:0.050151509 1187:0.071778378 1199:0.10888712 1256:0.080402992 1269:0.080402992 1280:0.15951674 1285:0.092666927 1339:0.06384299 1343:0.068700121 1345:0.06185438 1356:0.066097491 1420:0.080402992 1422:0.071778378 1530:0.11973736 1532:0.087248732 1539:0.060075507 1540:0.075545861 1548:0.13828597 1588:0.071778378 1593:0.071778378 1608:0.075545861 1668:0.060075507 1669:0.075545861 1813:0.087248732 1819:0.06384299 1879:0.055645835 1920:0.071778378 2151:0.087248732 2192:0.066097491 2338:0.18668997 2339:0.060075507 2340:0.087248732 2341:0.21208405 2342:0.19790321 2343:0.098951603 2344:0.098951603 2345:0.087248732 2346:0.087248732 2347:0.087248732 2348:0.075545861 2349:0.098951603 2350:0.098951603 2351:0.098951603 2352:0.098951603 2353:0.098951603 2354:0.098951603 2355:0.098951603 2356:0.098951603 2357:0.098951603 2358:0.098951603 2359:0.098951603 2360:0.087248732 2361:0.098951603 2362:0.087248732 2363:0.098951603 2364:0.098951603 2365:0.075545861 2366:0.15109172 2367:0.098951603 2368:0.087248732 2369:0.098951603 2370:0.098951603 2371:0.087248732 2372:0.098951603 2373:0.087248732 2374:0.066097491 2375:0.087248732 2376:0.087248732 2377:0.080402992 2378:0.098951603 2379:0.098951603 2380:0.098951603 2381:0.098951603 2382:0.071778378 2383:0.087248732 2384:0.087248732 2385:0.098951603 2386:0.06384299 2387:0.098951603 
-0.2359154929577465 10:0.022348203 19:0.042393851 23:0.094601628 26:0.069229002 28:0.07555228 41:0.030977161 133:0.059409261 170:0.092207028 329:0.1480136 375:0.10435231 377:0.1493586 392:0.1793642 405:0.1493586 437:0.10131244 470:0.12452931 531:0.13678006 857:0.13334321 869:0.11316621 921:0.17673709 954:0.29813174 958:0.17673709 960:0.1607217 1055:0.1405447 1643:0.17673709 1741:0.16792318 1926:0.18810018 2165:0.17673709 2168:0.18810018 2388:0.23149406 2389:0.23149406 2390:0.20411557 2391:0.16792318 2392:0.20411557 2393:0.18810018 2394:0.23149406 2395:0.20411557 2396:0.20411557 2397:0.17673709 
-0.2359154929577465 6:0.056266606 10:0.024396161 18:0.039598592 26:0.07249456 28:0.089674806 41:0.02913758 156:0.11713413 182:0.23053286 195:0.14545004 373:0.099672004 491:0.058855078 636:0.15795105 682:0.10125323 706:0.11473632 874:0.16624154 1023:0.14048893 1062:0.17692984 1267:0.15795105 1293:0.14545004 1815:0.26348661 1816:0.23053286 1817:0.23961024 1818:0.20952957 2158:0.19199416 2160:0.17692984 2398:0.23961024 2399:0.21774677 2400:0.21774677 2401:0.15795105 2402:0.19199416 2403:0.19199416 2404:0.21774677 2405:0.17692984 2406:0.21774677 2407:0.19199416 
-0.2359154929577465 6:0.02720304 10:0.0062314045 17:0.079423276 19:0.048430553 22:0.14871893 26:0.021490023 30:0.032713817 32:0.027414711 41:0.036414508 44:0.055323708 55:0.081566974 122:0.049188946 123:0.087919784 125:0.042457824 149:0.11584361 150:0.1013006 203:0.059774401 206:0.083027274 211:0.096109981 218:0.068186153 276:0.12738705 328:0.10430018 352:0.081566974 359:0.10430018 375:0.075214163 379:0.11584361 394:0.093831196 398:0.054916759 414:0.08975717 469:0.11584361 480:0.12103424 491:0.071480674 635:0.054363934 673:0.11584361 788:0.098587161 1019:0.13557724 1227:0.096109981 1253:0.21488485 1285:0.098587161 1303:0.12738705 1339:0.10765341 1410:0.1013006 1415:0.111455 1437:0.11584361 1477:0.12103424 1669:0.12738705 1693:0.13557724 1762:0.13557724 1848:0.13557724 1970:0.12103424 2140:0.13557724 2341:0.12738705 2408:0.14712068 2409:0.16685431 2410:0.21488485 2411:0.16685431 2412:0.13557724 2413:0.13557724 2414:0.16685431 2415:0.14712068 2416:0.16685431 2417:0.16685431 2418:0.16685431 2419:0.16685431 2420:0.16685431 2421:0.14712068 2422:0.14712068 2423:0.14712068 2424:0.16685431 2425:0.16685431 
-0.2359154929577465 10:0.029028577 18:0.025175491 30:0.034249538 33:0.025405377 39:0.094726683 41:0.037049442 182:0.18494477 268:0.1010772 348:0.22497242 376:0.18494477 575:0.17307229 706:0.23123208 763:0.24412722 1009:0.22497242 1020:0.20084023 1119:0.21138188 1484:0.17307229 1815:0.21138188 1816:0.18494477 1817:0.30467272 1818:0.1680949 2401:0.20084023 2405:0.22497242 2426:0.24412722 2427:0.27687256 2428:0.21138188 2429:0.27687256 
-0.2359154929577465 3:0.026800645 6:0.024421397 7:0.097021559 10:0.018583574 14:0.1277148 15:0.1143611 17:0.035650931 18:0.03823718 19:0.02743175 26:0.030577991 30:0.037059137 32:0.039008184 33:0.031914276 39:0.051248707 40:0.164833 41:0.035503452 44:0.049666591 69:0.084236501 72:0.1143611 79:0.20011638 83:0.17221869 116:0.10399804 122:0.027861314 133:0.060928963 154:0.10399804 229:0.10005819 296:0.061213788 410:0.14413986 477:0.05750316 481:0.090942127 491:0.064171429 494:0.084236501 529:0.075919207 643:0.093634979 810:0.10702166 866:0.096645332 977:0.084236501 981:0.088506146 1021:0.1143611 1054:0.12171381 1081:0.07892956 1227:0.086282269 1496:0.1143611 1517:0.12171381 1970:0.1086579 1977:0.1143611 2234:0.12171381 2248:0.1143611 2340:0.13207687 2384:0.13207687 2430:0.13207687 2431:0.13207687 2432:0.12171381 2433:0.14979265 2434:0.14979265 2435:0.13207687 2436:0.14979265 2437:0.23741573 2438:0.14979265 2439:0.12171381 2440:0.14979265 2441:0.14979265 2442:0.14979265 2443:0.14979265 2444:0.14979265 2445:0.14979265 2446:0.14979265 2447:0.12171381 2448:0.12171381 2449:0.14979265 2450:0.14979265 2451:0.10005819 2452:0.14979265 2453:0.14979265 2454:0.14979265 
-0.2061965923140661 2:0.051828166 10:0.016622539 18:0.051069063 19:0.051427199 30:0.034737988 33:0.040840832 39:0.041378382 41:0.023708967 44:0.058746868 107:0.089687914 122:0.052232517 268:0.064682109 345:0.16592537 361:0.08384753 398:0.092426675 429:0.13973758 591:0.13973758 682:0.13058311 710:0.18758236 774:0.13058311 813:0.17554056 824:0.27822521 972:0.19496853 979:0.2143965 1095:0.10172971 1107:0.15437002 1300:0.15792093 1469:0.18758236 1472:0.18758236 1473:0.18118417 1489:0.19496853 2128:0.19496853 2455:0.2143965 2456:0.2143965 2457:0.24760884 2458:0.18758236 2459:0.32286402 2460:0.22818087 2461:0.20370452 
-0.2359154929577465 6:0.042715595 10:0.015508649 19:0.076048115 26:0.033744726 32:0.043047971 41:0.022120209 133:0.067238923 206:0.13037364 268:0.095648849 326:0.15906735 361:0.12398977 392:0.1280806 415:0.15906735 461:0.14094127 532:0.21289027 534:0.20002961 535:0.21289027 682:0.12183263 744:0.21289027 745:0.1900541 774:0.12183263 1055:0.15906735 1521:0.23101636 2186:0.21289027 2462:0.23101636 2463:0.26200311 2464:0.26200311 2465:0.23101636 2466:0.26200311 2467:0.20002961 2468:0.26200311 2469:0.26200311 
-0.2359154929577465 6:0.062049032 10:0.021176759 14:0.088173475 18:0.023622358 26:0.021110848 30:0.040551884 32:0.026931 39:0.056078792 41:0.03884958 55:0.080127788 59:0.10575395 148:0.069736163 170:0.10347833 175:0.14452485 182:0.10948847 184:0.13318509 195:0.10948847 213:0.090103019 268:0.037753789 348:0.13318509 361:0.048940302 756:0.11889868 1009:0.21109337 1011:0.10575395 1020:0.23779736 1122:0.21109337 1293:0.17353511 1459:0.10245988 1769:0.13318509 1815:0.1251394 1816:0.10948847 1817:0.11379964 1818:0.099513235 2162:0.13318509 2165:0.1251394 2375:0.14452485 2398:0.11379964 2401:0.18844995 2405:0.13318509 2428:0.19834126 2432:0.13318509 2470:0.13318509 2471:0.16391029 2472:0.14452485 2473:0.16391029 2474:0.14452485 2475:0.16391029 2476:0.16391029 2477:0.22906646 2478:0.13318509 2479:0.16391029 2480:0.16391029 2481:0.25979167 2482:0.14452485 2483:0.13318509 
-0.2359154929577465 3:0.052438629 5:0.15443501 10:0.017348586 17:0.06975526 18:0.026649841 30:0.057463276 32:0.04815516 33:0.02689319 41:0.024744538 125:0.11820501 236:0.17793902 237:0.31532493 361:0.087509863 385:0.23814746 418:0.15766246 487:0.21260202 591:0.1458411 1085:0.20348446 1274:0.23814746 1275:0.23814746 1276:0.23814746 1277:0.23814746 1278:0.19577567 1279:0.3774548 1280:0.20348446 1281:0.17793902 1282:0.21260202 1283:0.18909801 1284:0.23814746 
-0.2359154929577465 10:0.01714228 18:0.037489756 28:0.036564071 32:0.046241408 39:0.052328641 101:0.1355669 125:0.045184151 158:0.10228145 401:0.12328223 746:0.15656767 1491:0.1355669 1635:0.14428301 1703:0.21486845 1713:0.15656767 1845:0.15656767 2366:0.1355669 2490:0.49849767 2491:0.15656767 2492:0.17756845 2493:0.17756845 2494:0.17756845 2495:0.17756845 2496:0.15656767 2497:0.15656767 2498:0.17756845 2499:0.28143934 2500:0.31477658 2501:0.28143934 2502:0.17756845 
-0.2359154929577465 2:0.077380863 3:0.032307516 6:0.029439392 10:0.015658354 18:0.016419006 28:0.037182411 30:0.022336937 32:0.059336928 33:0.033137867 41:0.024162985 55:0.088272564 84:0.10401115 85:0.09926175 122:0.033586126 135:0.095147636 190:0.10154502 352:0.1399087 375:0.081397492 394:0.10154502 481:0.10962849 591:0.089852915 658:0.10669197 770:0.15921541 865:0.081397492 1050:0.088272564 1656:0.15921541 1673:0.13785949 1879:0.10154502 2339:0.10962849 2410:0.23255045 2503:0.25235046 2504:0.15921541 2505:0.18057134 2506:0.15921541 2507:0.18057134 2508:0.18057134 2509:0.15921541 2510:0.18057134 2511:0.15921541 2512:0.18057134 2513:0.18057134 2514:0.18057134 2515:0.18057134 2516:0.18057134 2517:0.18057134 2518:0.13098442 2519:0.13785949 2520:0.18057134 2521:0.2861988 2522:0.18057134 2523:0.18057134 
-0.2359154929577465 3:0.059993906 7:0.13702858 26:0.043186882 28:0.069046413 33:0.030767919 41:0.028309693 44:0.1628756 56:0.27245938 71:0.12872225 122:0.06236824 269:0.18037823 329:0.13526803 491:0.090632637 554:0.27245938 555:0.27245938 716:0.21634296 869:0.16391901 942:0.27245938 977:0.18856549 1821:0.25600016 2524:0.23280219 2525:0.33531454 2526:0.33531454 2527:0.33531454 
-0.2359154929577465 6:0.047789523 18:0.026653283 19:0.053680394 26:0.037753058 30:0.036259974 32:0.076333981 33:0.042630203 39:0.043191306 69:0.16483996 268:0.067516045 361:0.087521166 575:0.18323157 592:0.2584574 1264:0.20351075 1376:0.37750355 2470:0.23817822 2528:0.29312488 2529:0.29312488 2530:0.29312488 2531:0.29312488 2532:0.29312488 2533:0.29312488 2534:0.29312488 
-0.2359154929577465 10:0.014241666 17:0.057262944 18:0.034674509 28:0.099085937 32:0.039531158 33:0.022076948 39:0.03545169 41:0.040626187 44:0.05033246 55:0.11761703 135:0.12677759 141:0.17452759 170:0.095833526 268:0.055417586 300:0.1503976 427:0.16071464 587:0.099625663 634:0.15523287 635:0.078391097 719:0.21214343 1066:0.16071464 1235:0.16704288 1333:0.19549816 1335:0.18368815 1750:0.21214343 2187:0.19549816 2190:0.19549816 2194:0.33623938 2239:0.21214343 2403:0.21214343 2535:0.24059871 2536:0.24059871 2537:0.24059871 2538:0.24059871 2539:0.21214343 2540:0.21214343 
-0.2359154929577465 6:0.028168942 10:0.014982621 18:0.031420895 26:0.035270285 30:0.042745984 32:0.028388128 33:0.04098175 39:0.02545858 41:0.014587245 50:0.1403912 107:0.055181638 110:0.097162872 120:0.1048975 122:0.032136725 133:0.070278715 154:0.11995689 203:0.061896818 218:0.11190984 446:0.20907271 449:0.13191019 574:0.26382039 704:0.11995689 1035:0.1403912 1132:0.10800358 1227:0.15773954 1313:0.13191019 1349:0.089254319 1668:0.1048975 1774:0.1403912 1819:0.11147588 1858:0.15234451 1970:0.12533181 2286:0.13191019 2346:0.15234451 2413:0.1403912 2541:0.17277883 2542:0.17277883 2543:0.15234451 2544:0.17277883 2545:0.13191019 2546:0.11995689 2547:0.17277883 2548:0.17277883 2549:0.17277883 2550:0.15234451 2551:0.15234451 2552:0.17277883 2553:0.17277883 2554:0.17277883 2555:0.17277883 2556:0.17277883 2557:0.17277883 2558:0.15234451 2559:0.17277883 2560:0.17277883 
-0.2359154929577465 10:0.015543721 18:0.059982353 39:0.061326775 41:0.035138988 77:0.25268595 182:0.27801525 268:0.095865157 377:0.2685325 1255:0.33818617 2561:0.36698031 2562:0.41620422 2563:0.41620422 2564:0.41620422 
-0.2359154929577465 6:0.06007186 10:0.017364033 18:0.033503417 26:0.059882721 28:0.075871697 39:0.05429186 59:0.14999005 165:0.22369984 170:0.092596858 361:0.06941167 491:0.062835388 795:0.17748429 874:0.17748429 901:0.20497853 914:0.28227777 1047:0.20497853 1851:0.20497853 2056:0.20497853 2115:0.18889543 2178:0.20497853 2201:0.20497853 2565:0.20497853 2566:0.20497853 2567:0.23247276 2568:0.23247276 2569:0.23247276 2570:0.23247276 2571:0.23247276 2572:0.23247276 2573:0.23247276 
-0.2359154929577465 6:0.053005554 10:0.019244599 18:0.02956238 28:0.066946842 41:0.027448849 152:0.22572311 220:0.15364735 226:0.19738583 269:0.17489327 273:0.23583712 1081:0.17131309 1538:0.19738583 1909:0.2641744 2045:0.4543564 2374:0.21717184 2574:0.32511826 2575:0.32511826 2576:0.32511826 2577:0.28666697 
-0.2359154929577465 2:0.045899189 10:0.0092879003 19:0.045544091 32:0.040861591 33:0.022819954 39:0.036644827 41:0.020996736 68:0.13378295 888:0.21928318 1141:0.17266475 1758:0.21928318 2578:0.24869613 2579:0.2020777 2580:0.24869613 2581:0.24869613 2582:0.39417404 2583:0.39417404 2584:0.39417404 2585:0.39417404 
-0.2359154929577465 33:0.053097918 44:0.12105608 329:0.23343961 461:0.31128879 1489:0.40175975 2586:0.57867105 2587:0.57867105 
-0.2359154929577465 3:0.056389307 6:0.040720305 10:0.011770381 17:0.037505278 18:0.028657615 19:0.045739775 23:0.10206804 26:0.020296048 33:0.028919298 39:0.053914358 41:0.013304385 44:0.052249949 107:0.050328743 122:0.029310492 133:0.040441413 148:0.067044605 167:0.10526262 213:0.086625375 311:0.11430963 329:0.063570379 361:0.074574685 377:0.10167224 394:0.08861798 398:0.05186561 405:0.16114669 416:0.13894672 432:0.077035152 475:0.08861798 705:0.11430963 821:0.12804464 866:0.10167224 914:0.095672392 950:0.09850531 1278:0.10526262 1302:0.086625375 1392:0.11430963 1415:0.10526262 1515:0.1094074 1603:0.12804464 1839:0.12804464 1869:0.095672392 2200:0.13894672 2221:0.12804464 2255:0.13894672 2299:0.13894672 2315:0.13894672 2318:0.13894672 2588:0.15758396 2589:0.15758396 2590:0.24976467 2591:0.15758396 2592:0.15758396 2593:0.11430963 2594:0.13894672 2595:0.15758396 2596:0.24976467 2597:0.15758396 2598:0.13894672 2599:0.15758396 2600:0.15758396 2601:0.15758396 2602:0.15758396 2603:0.15758396 2604:0.15758396 2605:0.12030948 2606:0.12804464 2607:0.15758396 2608:0.13894672 2609:0.15758396 
-0.2359154929577465 2:0.11885602 10:0.024051033 41:0.054371083 124:0.39098476 2610:0.64399903 2611:0.64399903 
-0.2359154929577465 2:0.075258064 3:0.072957812 30:0.05044195 33:0.037416468 41:0.034427051 608:0.33133432 1096:0.20667037 2612:0.40777168 2613:0.40777168 2614:0.40777168 2615:0.40777168 2616:0.40777168 
-0.2359154929577465 6:0.049563288 19:0.055672806 26:0.039154308 32:0.049948947 33:0.027894965 41:0.025666276 165:0.18456728 225:0.26805035 315:0.18456728 573:0.22052148 966:0.24701849 2617:0.30400456 2618:0.30400456 2619:0.30400456 2620:0.30400456 2621:0.30400456 2622:0.30400456 2623:0.30400456 2624:0.30400456 
-0.2359154929577465 10:0.019901872 23:0.093789755 30:0.028390396 32:0.037708815 39:0.078521585 361:0.068526265 532:0.29557317 1015:0.20236385 2447:0.18648591 2491:0.4047277 2546:0.15934238 2625:0.22950737 2626:0.18648591 2627:0.22950737 2628:0.45901474 2629:0.29557317 2630:0.22950737 2631:0.20236385 2632:0.22950737 2633:0.20236385 
-0.2359154929577465 3:0.034879502 6:0.031783048 10:0.016904908 18:0.017726115 23:0.126268 26:0.039795502 30:0.038221642 32:0.050766915 33:0.028351775 39:0.028724944 55:0.095299903 71:0.074837066 85:0.10716393 106:0.10716393 110:0.10962898 122:0.036259902 133:0.050029923 135:0.16281099 145:0.087877509 150:0.11835596 226:0.11835596 361:0.058207099 398:0.064162756 410:0.11835596 462:0.097006065 477:0.074837066 491:0.083515436 587:0.080722288 857:0.11229143 865:0.087877509 869:0.095299903 950:0.12186056 1025:0.13534749 1285:0.18256497 1365:0.15840355 1731:0.14883442 1744:0.17189048 1749:0.14883442 1751:0.17189048 2004:0.17189048 2038:0.15840355 2086:0.17189048 2339:0.11835596 2451:0.13021999 2634:0.19494654 2635:0.19494654 2636:0.19494654 2637:0.19494654 2638:0.19494654 2639:0.19494654 2640:0.17189048 2641:0.17189048 2642:0.19494654 2643:0.19494654 2644:0.19494654 2645:0.17189048 2646:0.19494654 
-0.2359154929577465 10:0.014322759 26:0.080558777 32:0.039756249 33:0.022202654 39:0.035653553 41:0.020428756 44:0.050619054 125:0.061571463 170:0.096379204 287:0.15125397 412:0.13937672 419:0.12749946 425:0.19661133 581:0.16799402 800:0.16162975 808:0.16799402 822:0.18473407 914:0.23283741 1123:0.16799402 1126:0.15125397 1133:0.19661133 1264:0.16799402 1384:0.19661133 1721:0.21335138 1880:0.18473407 2057:0.31162158 2500:0.18473407 2647:0.21335138 2648:0.24196868 2649:0.24196868 2650:0.24196868 2651:0.24196868 2652:0.24196868 
-0.2359154929577465 3:0.06234395 7:0.14239618 14:0.18744389 18:0.031683825 28:0.071751056 30:0.043103683 40:0.24192137 41:0.046627414 44:0.11553496 50:0.28313199 83:0.25276118 88:0.25276118 123:0.1836068 133:0.089423955 299:0.20588395 376:0.23275644 477:0.13376447 491:0.094182842 2653:0.34844928 2654:0.34844928 2655:0.34844928 2656:0.34844928 
-0.2359154929577465 10:0.013285099 18:0.032345533 26:0.028906582 30:0.055526729 33:0.02059411 39:0.066141027 44:0.074416826 103:0.15582314 218:0.091718311 242:0.14029588 422:0.19789443 527:0.096831887 648:0.19789443 650:0.1362611 799:0.16280513 889:0.15582314 1198:0.16280513 1209:0.16280513 1349:0.11594072 1452:0.16280513 1668:0.1362611 1755:0.18236717 2128:0.15582314 2155:0.19789443 2301:0.18236717 2593:0.16280513 2657:0.35572655 2658:0.22443846 2659:0.22443846 2660:0.19789443 2661:0.22443846 2662:0.22443846 2663:0.22443846 2664:0.19789443 2665:0.22443846 
-0.2359154929577465 18:0.029328374 19:0.059068096 30:0.039899253 33:0.029596182 41:0.027231573 44:0.067475299 117:0.24625088 122:0.059993065 615:0.26208329 618:0.20810396 623:0.24625088 1157:0.28439781 1497:0.23397032 2208:0.28439781 2226:0.28439781 2551:0.28439781 2666:0.32254473 2667:0.32254473 2668:0.32254473 2669:0.24625088 
-0.2334639252796726 10:0.024854541 33:0.038528666 53:0.26247374 133:0.10775875 237:0.22587594 328:0.26247374 419:0.22125212 635:0.13680806 643:0.26247374 1952:0.32057237 1953:0.32057237 1954:0.32057237 2670:0.41989262 2671:0.41989262 
-0.2359154929577465 2:0.071109869 6:0.062816525 10:0.022806645 33:0.056034902 39:0.056772438 530:0.26750294 981:0.22765481 1113:0.33972709 1230:0.29415873 1268:0.31307131 1748:0.33972709 2672:0.38529546 2673:0.38529546 2674:0.38529546 
-0.2359154929577465 10:0.028853154 17:0.11601287 18:0.044322456 28:0.10037245 30:0.060297679 123:0.25684728 447:0.32560265 593:0.31449676 1330:0.35358725 1819:0.31449676 2675:0.48744519 2676:0.48744519 
-0.2359154929577465 6:0.032521482 7:0.051431606 10:0.017392947 17:0.047475625 18:0.026571626 19:0.023048058 26:0.041901062 30:0.036148885 33:0.011548273 39:0.037088987 41:0.027466818 44:0.026328504 71:0.04831395 101:0.09608579 113:0.09608579 130:0.069183804 133:0.032298744 158:0.11490036 194:0.091293978 268:0.057976986 300:0.078671775 361:0.037577834 392:0.09751406 398:0.065653486 414:0.067702242 429:0.062626001 460:0.059477819 477:0.04831395 481:0.07640925 491:0.034017591 498:0.09608579 528:0.087378783 534:0.09608579 550:0.11097052 551:0.23599151 568:0.10226351 676:0.070775208 706:0.1051089 810:0.089919218 937:0.09608579 1020:0.14469753 1045:0.11097052 1122:0.10226351 1226:0.10226351 1283:0.081201062 1302:0.10965373 1420:0.10226351 1816:0.084068532 1869:0.07640925 2296:0.17588411 2374:0.084068532 2422:0.11097052 2448:0.10226351 2545:0.09608579 2558:0.11097052 2565:0.11097052 2677:0.12585525 2678:0.12585525 2679:0.12585525 2680:0.11097052 2681:0.12585525 2682:0.12585525 2683:0.12585525 2684:0.12585525 2685:0.12585525 2686:0.12585525 2687:0.12585525 2688:0.12585525 2689:0.12585525 2690:0.19947585 2691:0.19947585 2692:0.25171049 2693:0.12585525 2694:0.12585525 2695:0.12585525 2696:0.11097052 2697:0.12585525 2698:0.10226351 2699:0.11097052 2700:0.12585525 2701:0.12585525 2702:0.12585525 2703:0.11097052 2704:0.12585525 2705:0.11097052 2706:0.12585525 2707:0.12585525 
