svm_type c_svc
kernel_type linear
nr_class 2
total_sv 342
rho 0.242707
label 0 1
probA -4.32175
probB 0.265041
nr_sv 67 275
SV
0.2164710916404267 1:0.44267855 2:0.081700452 3:0.07920329 4:0.20263289 5:0.28561359 6:0.11438985 7:0.20920506 8:0.22867948 9:0.26875904 10:0.0262033 11:0.44267855 12:0.30734287 13:0.44267855 
1 3:0.022924422 6:0.020889289 10:0.017707021 14:0.14410647 15:0.19564173 16:0.12812788 17:0.030494676 18:0.034951268 19:0.023464249 20:0.12812788 21:0.12812788 22:0.1550424 23:0.052360334 24:0.11297437 25:0.097820863 26:0.016502248 27:0.088956628 28:0.061260586 29:0.085586602 30:0.015849605 31:0.16501066 32:0.047545378 33:0.02729846 34:0.11297437 35:0.12812788 36:0.12812788 37:0.17906014 38:0.17906014 39:0.04383652 40:0.17791326 41:0.025117429 42:0.12812788 43:0.10411014 44:0.12812788 45:0.027450144 46:0.11297437 47:0.12812788 48:0.11297437 49:0.077789013 50:0.077789013 51:0.12812788 52:0.11297437 53:0.12812788 54:0.12812788 55:0.11297437 56:0.12812788 57:0.097820863 58:0.062635503 59:0.10411014 60:0.11297437 61:0.10411014 62:0.082667353 63:0.11297437 64:0.11297437 65:0.11297437 66:0.097820863 67:0.11297437 68:0.11297437 69:0.12812788 70:0.12812788 71:0.080092393 72:0.037206825 73:0.10411014 74:0.072053233 75:0.12812788 76:0.077958569 77:0.097820863 78:0.12812788 79:0.12812788 80:0.12812788 81:0.11297437 82:0.12812788 83:0.11297437 84:0.085586602 85:0.12812788 86:0.12812788 87:0.10411014 88:0.11297437 89:0.073803118 90:0.080092393 91:0.12812788 92:0.12812788 93:0.097820863 94:0.12812788 95:0.11297437 
1 2:0.028704326 3:0.027826982 6:0.025356621 10:0.005808445 17:0.058669276 18:0.036556419 19:0.045143307 26:0.020031378 28:0.032025808 30:0.019239163 33:0.02261914 39:0.036322356 41:0.013130889 71:0.15409125 72:0.045163784 96:0.15552899 97:0.31105799 98:0.31105799 99:0.15552899 100:0.11281898 101:0.11281898 102:0.17114532 103:0.11281898 104:0.15552899 105:0.13862456 106:0.15552899 107:0.11874059 108:0.13713479 109:0.10798067 110:0.12637487 111:0.15552899 112:0.08549574 113:0.071192269 114:0.15552899 115:0.13713479 116:0.091895511 117:0.094424779 118:0.11874059 119:0.15552899 120:0.10798067 121:0.15552899 122:0.17881385 123:0.12637487 124:0.15552899 125:0.10798067 126:0.094424779 127:0.24650762 128:0.02892827 129:0.13713479 130:0.15552899 131:0.10034639 132:0.03957598 133:0.15552899 134:0.15552899 135:0.097220754 136:0.13713479 137:0.13713479 138:0.15552899 139:0.15552899 
1 4:0.16168485 10:0.019325296 18:0.02026408 19:0.064686086 26:0.045493287 30:0.027567899 33:0.032411086 39:0.052046498 41:0.018815321 45:0.075674373 84:0.14886445 128:0.041451472 140:0.057193038 141:0.19650118 142:0.18108323 143:0.22285833 144:0.22285833 145:0.13930814 146:0.22285833 147:0.39300235 148:0.16165892 149:0.22285833 150:0.17014403 151:0.19650118 152:0.10045951 153:0.19650118 154:0.22285833 155:0.17014403 156:0.18108323 157:0.22285833 158:0.22285833 159:0.16165892 160:0.17014403 161:0.15472608 162:0.19650118 163:0.11988383 
1 2:0.052718631 3:0.051107294 10:0.010667844 19:0.052310775 33:0.026210414 58:0.13963846 128:0.053129929 132:0.072685612 164:0.285646 165:0.16453535 166:0.285646 167:0.285646 168:0.285646 169:0.17342143 170:0.21808007 171:0.285646 172:0.29210401 173:0.23210127 174:0.23210127 175:0.285646 176:0.285646 177:0.11377643 178:0.285646 
0.316689510993061 2:0.088075182 3:0.085383177 4:0.21844346 5:0.30789877 6:0.12331519 7:0.22552842 9:0.28972914 10:0.028247829 12:0.33132349 179:0.4207788 180:0.4207788 181:0.47721882 
1 2:0.066219934 3:0.064195932 10:0.019630486 18:0.020584096 26:0.046211729 39:0.033356265 132:0.057604191 182:0.35880027 183:0.22637777 184:0.22637777 185:0.19960438 186:0.22637777 187:0.22637777 188:0.22637777 189:0.15121536 190:0.22637777 191:0.18394295 192:0.22637777 193:0.13375706 194:0.13743849 195:0.22637777 196:0.17283099 197:0.13743849 198:0.19960438 199:0.13039617 200:0.17283099 201:0.22637777 202:0.15121536 203:0.22637777 204:0.22637777 
0.8584939648286415 2:0.062524636 3:0.06061358 10:0.020053154 115:0.29871118 205:0.33877799 206:0.33877799 207:0.24574574 208:0.29871118 209:0.33877799 210:0.12136487 211:0.33877799 212:0.2752736 213:0.16857709 214:0.24574574 215:0.33877799 
1 4:0.17369669 6:0.061865722 10:0.028343181 17:0.090313037 18:0.034503893 39:0.055913119 169:0.23037995 216:0.33458492 217:0.66916983 218:0.21857533 219:0.27525859 220:0.27525859 221:0.21339287 222:0.3083326 
0.5721982984700675 2:0.049518427 4:0.12281526 6:0.043743232 7:0.12679863 10:0.020040538 19:0.049135329 30:0.033189879 39:0.039534341 41:0.022652369 132:0.068273342 147:0.37496103 161:0.18627969 223:0.26830629 224:0.26830629 225:0.26830629 226:0.13860203 227:0.26830629 228:0.23657407 229:0.15454748 230:0.12679863 231:0.26830629 232:0.23657407 233:0.21801191 234:0.26830629 235:0.23657407 236:0.26830629 
1 2:0.038466199 3:0.074580971 10:0.01807343 17:0.049604796 30:0.025782089 32:0.077340673 39:0.030710504 132:0.053035126 198:0.1837721 199:0.12005337 237:0.20842187 238:0.20842187 239:0.1837721 240:0.16935291 241:0.12314768 242:0.20842187 243:0.16935291 244:0.20842187 245:0.15118688 246:0.12653711 247:0.17770269 248:0.13922122 249:0.16935291 250:0.16935291 251:0.16935291 252:0.16935291 253:0.1837721 254:0.20842187 255:0.20842187 256:0.20842187 257:0.20842187 258:0.33034085 259:0.20842187 260:0.20842187 261:0.20842187 
1 2:0.029572184 3:0.028668315 10:0.01196812 18:0.029139054 19:0.0293434 26:0.047917664 28:0.03299409 30:0.019820848 41:0.013527894 128:0.029802899 152:0.072228671 177:0.063822174 262:0.16023132 263:0.32804428 264:0.32804428 265:0.16023132 266:0.26039149 267:0.16023132 268:0.16023132 269:0.10016017 270:0.14128098 271:0.16023132 272:0.16023132 273:0.16023132 274:0.16023132 275:0.16023132 276:0.16023132 277:0.16023132 278:0.16023132 279:0.16023132 280:0.036906404 281:0.16964011 282:0.14128098 283:0.16023132 284:0.16023132 285:0.11623 286:0.16023132 287:0.11623 288:0.12233064 289:0.11124541 290:0.16023132 291:0.16023132 292:0.16023132 293:0.16023132 294:0.16023132 295:0.16023132 
1 2:0.024396466 3:0.023650791 6:0.021551174 10:0.014810192 18:0.033743201 19:0.048415446 26:0.017025128 30:0.037967719 32:0.030948285 33:0.019224527 39:0.019477561 41:0.028848813 72:0.038385737 132:0.053312645 140:0.033923858 163:0.071108687 213:0.065777033 218:0.12068158 219:0.095887443 280:0.048257435 296:0.13218766 297:0.13218766 298:0.17023909 299:0.10740891 300:0.13218766 301:0.13218766 302:0.11655401 303:0.13218766 304:0.13218766 305:0.11655401 306:0.10740891 307:0.13218766 308:0.085618711 309:0.13218766 310:0.11655401 311:0.13218766 312:0.10092036 313:0.13218766 314:0.20951249 315:0.20951249 316:0.13218766 317:0.13218766 318:0.11655401 319:0.10740891 320:0.11655401 321:0.13218766 322:0.085286701 323:0.13218766 324:0.13218766 325:0.12719924 326:0.20951249 327:0.10740891 328:0.13218766 329:0.10092036 330:0.091775254 331:0.10092036 332:0.11655401 333:0.11655401 334:0.13218766 335:0.13218766 336:0.13218766 337:0.088298447 338:0.13218766 339:0.11655401 340:0.13218766 341:0.13218766 342:0.13218766 343:0.13218766 344:0.05332535 345:0.13218766 346:0.13218766 347:0.10092036 348:0.13218766 349:0.10740891 350:0.13218766 351:0.11655401 352:0.10740891 353:0.13218766 
0.9828449548657996 3:0.049556213 10:0.02673906 27:0.19229945 39:0.040811919 41:0.037063389 145:0.17313744 152:0.12485489 280:0.063796621 354:0.27697678 355:0.27697678 356:0.43899781 357:0.27697678 358:0.24421912 359:0.20091584 360:0.27697678 361:0.16365388 362:0.27697678 363:0.27697678 364:0.22505711 365:0.27697678 
1 2:0.050500186 3:0.03088821 10:0.010218932 18:0.0156977 19:0.03161557 26:0.044470033 30:0.021355651 33:0.015841042 39:0.059065029 41:0.01457541 72:0.050132223 128:0.03211065 132:0.043929707 210:0.061846597 266:0.14027729 366:0.27362577 367:0.17263864 368:0.084394651 369:0.17263864 370:0.27362577 371:0.17263864 372:0.17263864 373:0.17263864 374:0.17263864 375:0.10791595 376:0.17263864 377:0.081699126 378:0.17263864 379:0.17263864 380:0.17263864 381:0.11531881 382:0.17263864 383:0.1522209 384:0.17263864 385:0.17263864 386:0.17263864 387:0.1522209 388:0.17263864 389:0.17263864 390:0.11531881 391:0.079024084 392:0.17263864 393:0.13180317 394:0.13180317 395:0.11985956 396:0.17263864 397:0.13180317 398:0.17263864 399:0.14027729 400:0.1522209 401:0.17263864 
0.9417405165902092 2:0.04193575 6:0.037044901 10:0.016971762 19:0.041611315 128:0.042262922 145:0.14203522 177:0.090505006 368:0.11107731 402:0.22722098 403:0.29262861 404:0.36013673 405:0.22722098 406:0.17347475 407:0.29262861 408:0.22722098 409:0.22722098 410:0.22722098 411:0.11107731 412:0.17347475 413:0.17347475 414:0.20034786 415:0.22722098 416:0.22722098 417:0.1846281 418:0.22722098 419:0.099442341 420:0.22722098 
1 2:0.02739768 3:0.026560274 6:0.038359842 10:0.0055440396 17:0.035331183 18:0.034892339 26:0.030303742 32:0.034755494 33:0.027242912 39:0.034668931 41:0.019864588 113:0.067951536 128:0.02761143 132:0.037774447 140:0.038097117 200:0.11333542 213:0.11707931 280:0.034192599 308:0.060664772 319:0.12062218 361:0.087712349 419:0.064968183 421:0.1308923 422:0.12062218 423:0.14844918 424:0.14844918 425:0.14844918 426:0.19118163 427:0.14844918 428:0.14844918 429:0.1308923 430:0.20745939 431:0.12062218 432:0.14844918 433:0.1308923 434:0.1308923 435:0.087712349 436:0.1308923 437:0.23528638 438:0.23528638 439:0.14707688 440:0.095778535 441:0.20745939 442:0.14844918 443:0.14844918 444:0.14844918 445:0.14844918 446:0.12062218 447:0.14844918 448:0.12062218 449:0.14844918 450:0.073868819 451:0.1308923 452:0.14844918 453:0.079856364 454:0.14844918 455:0.14844918 456:0.14844918 457:0.14844918 458:0.064968183 459:0.12062218 460:0.15716612 461:0.14844918 462:0.14844918 463:0.1308923 
0.9141629051127548 2:0.05873692 10:0.018838343 19:0.058282504 406:0.2429758 464:0.50442218 465:0.50442218 466:0.31825496 467:0.31825496 468:0.2429758 469:0.2125873 470:0.2429758 471:0.2429758 
1 2:0.0394588 3:0.06062917 6:0.055246769 8:0.11044514 10:0.015969319 17:0.080650535 18:0.030812356 26:0.043644179 32:0.050055701 39:0.031502973 152:0.096376264 218:0.12315129 472:0.33886512 473:0.21380009 474:0.33886512 475:0.1632284 476:0.17372297 477:0.21380009 478:0.21380009 479:0.21380009 480:0.1632284 481:0.21380009 482:0.21380009 483:0.10103959 484:0.21380009 485:0.11501106 486:0.12980233 487:0.18851424 488:0.17372297 489:0.18851424 490:0.21380009 491:0.17372297 492:0.21380009 493:0.21380009 
1 2:0.070093287 10:0.019670678 18:0.031019372 19:0.062473808 26:0.018922811 32:0.034397894 33:0.013481305 45:0.049889156 72:0.042664352 128:0.027327336 132:0.037385785 140:0.059761225 207:0.24746043 246:0.23057651 269:0.091840411 337:0.098140515 361:0.086809875 368:0.14364586 440:0.094793068 458:0.064299724 494:0.14692178 495:0.23286552 496:0.12954555 497:0.12954555 498:0.079034721 499:0.21315082 500:0.14692178 501:0.14692178 502:0.20532483 503:0.14692178 504:0.14692178 505:0.094793068 506:0.14692178 507:0.082622061 508:0.14692178 509:0.056401079 510:0.14692178 511:0.14692178 512:0.16891802 513:0.10657541 514:0.17778415 515:0.10200486 516:0.10200486 517:0.12954555 518:0.10657541 519:0.16891802 520:0.12954555 521:0.14692178 522:0.10657541 523:0.14692178 524:0.14692178 525:0.12954555 526:0.039711695 527:0.11216931 528:0.10657541 529:0.14692178 530:0.1193811 531:0.082622061 532:0.14692178 533:0.14692178 534:0.11216931 535:0.11216931 536:0.1193811 
0.9301901581345982 2:0.09118794 18:0.028345261 19:0.090482467 39:0.045933134 207:0.22612742 214:0.22612742 287:0.22612742 537:0.49408472 538:0.31173275 539:0.31173275 540:0.31173275 541:0.31173275 542:0.31173275 543:0.31173275 
0.4621544923432671 2:0.080267305 3:0.077813947 5:0.2806035 6:0.11238328 7:0.2055353 9:0.26404461 10:0.025743655 12:0.30195162 233:0.35338822 544:0.43491331 545:0.43491331 546:0.43491331 
1 10:0.025220049 19:0.047841653 28:0.053793759 30:0.032316028 33:0.023971152 39:0.038493448 41:0.022055958 210:0.093588174 280:0.06017242 377:0.078001613 394:0.19944861 469:0.17450397 547:0.2612421 548:0.2612421 549:0.2612421 550:0.2612421 551:0.23034535 552:0.2612421 553:0.2612421 554:0.23034535 555:0.2612421 556:0.2612421 557:0.2612421 558:0.2612421 559:0.2612421 560:0.21227191 
1 10:0.031906524 19:0.055730978 28:0.062664616 30:0.059666072 39:0.044841208 41:0.025693095 126:0.18476013 229:0.17529306 280:0.070095149 561:0.2207519 562:0.26833044 563:0.30432221 564:0.26514641 565:0.15423922 566:0.21128483 567:0.15423922 568:0.21128483 569:0.20328053 570:0.2472766 571:0.30432221 572:0.23233867 573:0.2472766 574:0.30432221 575:0.30432221 
1 10:0.021521821 18:0.020270958 19:0.040826228 26:0.045508727 28:0.045905526 45:0.047761418 128:0.041465541 280:0.05134883 560:0.18114469 567:0.11298932 576:0.22293396 577:0.22293396 578:0.22293396 579:0.22293396 580:0.22293396 581:0.22293396 582:0.22293396 583:0.22293396 584:0.22293396 585:0.22293396 586:0.22293396 587:0.16171379 588:0.19656787 589:0.19656787 590:0.22293396 591:0.19656787 592:0.14383568 593:0.18114469 594:0.22293396 595:0.22293396 596:0.22293396 
1 10:0.025950881 19:0.049228018 26:0.034621732 41:0.0226951 280:0.061916108 406:0.20522827 566:0.18663109 597:0.26881242 598:0.26881242 599:0.26881242 600:0.42605761 601:0.26881242 602:0.26881242 603:0.26881242 604:0.26881242 605:0.26881242 606:0.18663109 607:0.26881242 608:0.21842317 
1 2:0.055418167 3:0.033896271 10:0.014150627 19:0.054989426 32:0.044355027 33:0.017383728 39:0.027915206 41:0.025351225 72:0.055014369 103:0.13742571 105:0.10653861 177:0.075460791 232:0.167045 411:0.092613459 429:0.167045 567:0.096019259 609:0.15393825 610:0.30027292 611:0.18945112 612:0.13742571 613:0.167045 614:0.167045 615:0.167045 616:0.14463887 617:0.18945112 618:0.18945112 619:0.167045 620:0.18945112 621:0.18945112 622:0.18945112 623:0.13153213 624:0.18945112 625:0.13742571 626:0.18945112 627:0.18945112 628:0.18945112 629:0.078446778 630:0.167045 631:0.18945112 632:0.18945112 633:0.10191284 634:0.167045 635:0.18945112 636:0.18945112 
0.733091892970024 2:0.10907999 6:0.096358297 7:0.27931407 10:0.02207281 19:0.1082361 30:0.0731112 66:0.45122894 637:0.52112918 638:0.3694509 639:0.52112918 
1 10:0.028703053 19:0.054448805 39:0.04380957 161:0.20642391 280:0.068482506 587:0.21567318 640:0.29732083 641:0.29732083 642:0.29732083 643:0.29732083 644:0.29732083 645:0.29732083 646:0.24158764 647:0.21567318 648:0.29732083 649:0.29732083 650:0.29732083 
1 2:0.034700667 6:0.048584848 10:0.011129338 18:0.027096854 19:0.034432207 26:0.024215938 30:0.036863422 33:0.017252323 39:0.027704192 41:0.015873936 45:0.040281239 72:0.086536593 128:0.055428347 325:0.11415014 375:0.1175302 393:0.14354553 496:0.16578229 651:0.15277462 652:0.18801904 653:0.29800314 654:0.18801904 655:0.18801904 656:0.1363869 657:0.18801904 658:0.16578229 659:0.15277462 660:0.18801904 661:0.18801904 662:0.18801904 663:0.13053787 664:0.18801904 665:0.18801904 666:0.18801904 667:0.12559258 668:0.16578229 669:0.18801904 670:0.18801904 671:0.18801904 672:0.26275871 673:0.18801904 674:0.16578229 675:0.18801904 676:0.18801904 
1 2:0.032477807 3:0.049902747 6:0.028690012 10:0.0065720254 17:0.041882355 23:0.071913343 30:0.043536701 33:0.032294342 41:0.029714162 45:0.075401795 48:0.15516258 72:0.051101032 102:0.12217585 108:0.15516258 109:0.19364415 131:0.11353796 132:0.044778653 163:0.15003806 210:0.063041788 229:0.10136354 280:0.064242734 612:0.20232079 629:0.072866623 677:0.17597489 678:0.17597489 679:0.35194979 680:0.24592688 681:0.17597489 682:0.090874735 683:0.27891361 684:0.17597489 685:0.17597489 686:0.14298816 687:0.17597489 688:0.17597489 689:0.17597489 690:0.15516258 691:0.15516258 692:0.11754735 693:0.090905349 694:0.17597489 695:0.15516258 696:0.15516258 697:0.17597489 698:0.17597489 699:0.15516258 
1 2:0.07057258 3:0.086330799 6:0.039333359 10:0.020920801 18:0.034769468 26:0.031072806 33:0.022137407 45:0.05168708 74:0.13567219 101:0.17500555 700:0.19603354 701:0.15565799 702:0.24125761 703:0.31070582 704:0.24125761 705:0.24125761 706:0.19603354 707:0.24125761 708:0.19603354 709:0.24125761 710:0.24125761 711:0.18419119 712:0.24125761 713:0.24125761 714:0.18419119 715:0.24125761 716:0.2127244 717:0.24125761 
1 2:0.039144649 6:0.054806924 10:0.022237311 19:0.038841808 28:0.04367422 33:0.019461762 72:0.061590734 163:0.1140954 248:0.14167674 368:0.10368438 377:0.14704342 718:0.37402679 719:0.21209793 720:0.49247613 721:0.49247613 722:0.18701339 723:0.18701339 724:0.21209793 725:0.1253197 726:0.18701339 727:0.18701339 728:0.17233988 729:0.14725535 
1 10:0.018714662 26:0.06454059 28:0.065103332 33:0.029010834 41:0.026692992 49:0.19195043 72:0.09181073 76:0.12137122 135:0.1976342 280:0.072823038 377:0.094400631 663:0.34791098 730:0.27877304 731:0.21950739 732:0.24138058 733:0.27877304 734:0.3161655 735:0.27877304 736:0.27877304 737:0.14701838 738:0.3161655 739:0.24138058 740:0.24138058 
1 2:0.021703533 3:0.042080336 8:0.060748167 9:0.071395208 10:0.011352649 18:0.027640553 23:0.048056619 26:0.024005619 30:0.023056228 32:0.027532149 33:0.010790466 39:0.034655175 41:0.031472135 45:0.039931389 72:0.095867352 83:0.10368854 102:0.16328982 105:0.066130877 116:0.069482812 128:0.021872859 131:0.075872578 132:0.029923664 163:0.063259562 230:0.055574833 280:0.054172485 359:0.085303188 419:0.051465639 450:0.058516428 606:0.08164491 609:0.09555289 612:0.13520235 613:0.10368854 629:0.077177619 667:0.078551881 680:0.10368854 691:0.10368854 693:0.096283567 741:0.15144775 742:0.088084026 743:0.11759652 744:0.15144775 745:0.11759652 746:0.10368854 747:0.11759652 748:0.11759652 749:0.075872578 750:0.11759652 751:0.11759652 752:0.11759652 753:0.10368854 754:0.089780557 755:0.11759652 756:0.15144775 757:0.09555289 758:0.10368854 759:0.10368854 760:0.11759652 761:0.10368854 762:0.11759652 763:0.10368854 764:0.089780557 765:0.10368854 766:0.11759652 767:0.08164491 768:0.09555289 769:0.085303188 770:0.10368854 771:0.10368854 772:0.09555289 773:0.09555289 774:0.11759652 775:0.11759652 776:0.10368854 777:0.10368854 778:0.09555289 779:0.11759652 780:0.09555289 781:0.08164491 782:0.11759652 783:0.11759652 784:0.10368854 785:0.11759652 786:0.089780557 787:0.10368854 788:0.11759652 789:0.09555289 790:0.11759652 791:0.11759652 792:0.11759652 793:0.11759652 794:0.11759652 795:0.11759652 796:0.11759652 797:0.11759652 798:0.11759652 799:0.11759652 800:0.11759652 801:0.11759652 802:0.10368854 803:0.089780557 804:0.11759652 805:0.11759652 806:0.11759652 
1 10:0.015610029 26:0.078865023 28:0.05430314 30:0.032622033 152:0.11887716 185:0.23252653 263:0.23252653 266:0.21428195 368:0.12891787 391:0.12071401 807:0.17615637 808:0.26371584 809:0.26371584 810:0.26371584 811:0.20133721 812:0.26371584 813:0.26371584 814:0.18309264 815:0.23252653 816:0.26371584 817:0.20133721 818:0.1912965 819:0.21428195 820:0.1912965 821:0.23252653 
1 7:0.071657632 10:0.013148494 18:0.013787222 19:0.027767818 26:0.030952604 30:0.04355142 32:0.056265657 33:0.022051771 39:0.022342018 41:0.029724207 71:0.094782108 72:0.069787347 100:0.10998907 177:0.060395268 229:0.08733932 280:0.055354387 344:0.061167612 377:0.045272988 391:0.069406511 397:0.11576215 434:0.13369496 436:0.13369496 526:0.040983681 561:0.10998907 616:0.11576215 731:0.10527213 749:0.097829341 822:0.15162777 823:0.24032433 824:0.24032433 825:0.15162777 826:0.12320494 827:0.10998907 828:0.15162777 829:0.15162777 830:0.15162777 831:0.13369496 832:0.15162777 833:0.10998907 834:0.085268489 835:0.15162777 836:0.15162777 837:0.13369496 838:0.13369496 839:0.15162777 840:0.15162777 841:0.11576215 842:0.13369496 843:0.15162777 844:0.15162777 845:0.19527521 846:0.12320494 847:0.15162777 848:0.15162777 849:0.15162777 850:0.15162777 851:0.13369496 852:0.13369496 853:0.15162777 854:0.15162777 855:0.12320494 856:0.070507595 857:0.15162777 858:0.15162777 859:0.11576215 860:0.092056266 
1 2:0.046721824 3:0.045293778 10:0.018908728 19:0.046360362 26:0.032604929 33:0.023228948 41:0.033875489 50:0.15369453 128:0.047086336 140:0.064967792 327:0.20569947 861:0.40123868 862:0.25315342 863:0.25315342 864:0.25315342 865:0.25315342 866:0.25315342 867:0.25315342 868:0.25315342 869:0.17575936 870:0.25315342 871:0.22321331 872:0.22321331 873:0.22321331 874:0.25315342 
0.9922478960680112 2:0.069798737 10:0.017822602 19:0.069258741 32:0.0558648 33:0.021894666 39:0.035158978 41:0.031929664 105:0.13418452 110:0.193884 132:0.060717363 172:0.15395116 173:0.193884 174:0.193884 308:0.097510493 419:0.10442765 485:0.12835841 526:0.064494817 568:0.16566366 753:0.21039183 875:0.23861217 876:0.21039183 877:0.23861217 878:0.17308658 879:0.23861217 880:0.21039183 881:0.23861217 882:0.23861217 883:0.21039183 884:0.17308658 885:0.193884 886:0.16566366 887:0.23861217 888:0.23861217 889:0.23861217 
1 2:0.044551277 10:0.02330381 19:0.044206608 26:0.049276814 29:0.16124502 30:0.029860631 33:0.03510661 39:0.035568686 41:0.032301741 49:0.14655437 71:0.15089394 72:0.070097597 210:0.086477272 243:0.19614333 890:0.36162906 891:0.33734902 892:0.33734902 893:0.38259841 894:0.24139272 895:0.16759414 896:0.24139272 897:0.21284353 898:0.13269583 899:0.13904496 900:0.21284353 901:0.21284353 902:0.21284353 
0.845669414689096 10:0.026290947 19:0.055522877 26:0.039048864 28:0.062430624 30:0.037504532 41:0.040570532 145:0.18952066 173:0.24635326 177:0.12076278 280:0.069833411 411:0.14821285 606:0.21049588 647:0.21992761 885:0.24635326 903:0.26732848 904:0.30318586 905:0.30318586 906:0.30318586 907:0.26732848 908:0.30318586 909:0.26732848 910:0.24635326 911:0.23147111 
1 2:0.043670304 3:0.042335528 5:0.1526654 10:0.02051859 17:0.056315845 18:0.034101011 30:0.029270156 39:0.034865338 41:0.031662995 419:0.10355549 737:0.11002906 912:0.23661934 913:0.30473237 914:0.33067816 915:0.23661934 916:0.20863469 917:0.23661934 918:0.20863469 919:0.19226472 920:0.23661934 921:0.23661934 922:0.14365636 923:0.23661934 924:0.20863469 925:0.171641 926:0.13629543 927:0.23661934 928:0.23661934 929:0.23661934 
1 2:0.085617276 3:0.083000396 10:0.027459519 135:0.28998334 878:0.33650865 930:0.37694223 931:0.46390112 932:0.46390112 933:0.46390112 
1 2:0.046646838 3:0.028531328 4:0.07299426 6:0.041206549 10:0.015394656 19:0.046285956 30:0.019726137 32:0.07466944 39:0.023496917 140:0.040924326 177:0.06351721 246:0.096814821 377:0.047613231 934:0.25274713 935:0.20536934 936:0.25274713 937:0.14060589 938:0.12957362 939:0.25274713 940:0.14060589 941:0.12957362 942:0.15946568 943:0.15946568 944:0.10288632 945:0.15946568 946:0.15946568 947:0.15946568 948:0.15946568 949:0.15946568 950:0.15946568 951:0.15946568 952:0.15946568 953:0.091854048 954:0.15946568 955:0.15946568 956:0.15946568 957:0.15946568 958:0.084026529 959:0.15946568 960:0.15946568 961:0.071883537 962:0.10288632 963:0.15946568 964:0.10651956 965:0.077955033 966:0.14060589 967:0.12174611 968:0.15946568 969:0.15946568 970:0.15946568 971:0.12174611 972:0.14060589 973:0.14060589 
1 2:0.031333471 3:0.030375769 10:0.012680928 18:0.043337902 26:0.034657001 28:0.034959182 30:0.021001356 33:0.024690919 39:0.025015903 45:0.036372529 71:0.1061256 72:0.049300519 90:0.1061256 128:0.031577928 177:0.067623353 322:0.10953752 435:0.10031259 458:0.074301134 509:0.065173905 512:0.24630506 856:0.07894592 899:0.09779206 974:0.26908626 975:0.26908626 976:0.16977453 977:0.39420424 978:0.12315253 979:0.16977453 980:0.16977453 981:0.16977453 982:0.26908626 983:0.16977453 984:0.23726179 985:0.16977453 986:0.12315253 987:0.16977453 988:0.16977453 989:0.12315253 990:0.16977453 991:0.095473393 992:0.16977453 993:0.14969553 994:0.16977453 995:0.16977453 
0.9693454360117183 2:0.089674396 19:0.088980633 375:0.30372469 996:0.48588386 997:0.48588386 998:0.42841904 999:0.48588386 
1 2:0.042764866 3:0.035709774 6:0.016269806 10:0.011814079 18:0.025474034 19:0.042434017 26:0.025705841 28:0.032569425 30:0.019565735 32:0.023364045 33:0.014513331 39:0.038010209 71:0.062380663 72:0.067286833 116:0.058963777 128:0.018561517 132:0.025393506 135:0.098871011 177:0.07949806 218:0.057482206 269:0.062380663 280:0.022985644 299:0.081087094 377:0.02979633 381:0.1056534 458:0.043674232 480:0.076188637 629:0.041321901 682:0.032514405 749:0.064386193 834:0.056119293 900:0.13946256 922:0.060586655 953:0.057482206 1000:0.13946256 1001:0.099793525 1002:0.29230004 1003:0.34522887 1004:0.28015584 1005:0.099793525 1006:0.099793525 1007:0.099793525 1008:0.099793525 1009:0.25796252 1010:0.13946256 1011:0.15816899 1012:0.099793525 1013:0.06928465 1014:0.076188637 1015:0.099793525 1016:0.099793525 1017:0.099793525 1018:0.099793525 1019:0.099793525 1020:0.099793525 1021:0.099793525 1022:0.099793525 1023:0.099793525 1024:0.099793525 1025:0.087991081 1026:0.087991081 1027:0.072389099 1028:0.099793525 1029:0.099793525 1030:0.099793525 1031:0.15816899 1032:0.099793525 1033:0.081087094 1034:0.099793525 1035:0.081087094 1036:0.099793525 1037:0.099793525 1038:0.15816899 1039:0.15816899 1040:0.087991081 1041:0.099793525 1042:0.099793525 1043:0.099793525 1044:0.099793525 1045:0.099793525 1046:0.087991081 1047:0.099793525 1048:0.072389099 1049:0.099793525 1050:0.099793525 1051:0.099793525 1052:0.099793525 1053:0.087991081 
0.6017916449712133 2:0.084079718 10:0.021469147 19:0.052637988 72:0.083467081 128:0.053462266 229:0.16556454 368:0.14051193 406:0.2194442 470:0.2194442 491:0.2335531 564:0.15800447 567:0.23089601 1054:0.45557015 1055:0.40169049 1056:0.2335531 1057:0.17967344 1058:0.28743276 1059:0.28743276 1060:0.28743276 
1 10:0.032391886 19:0.068407224 145:0.23349983 280:0.086038586 569:0.24951755 1061:0.30352071 1062:0.30352071 1063:0.32936333 1064:0.32936333 1065:0.32936333 1066:0.28518508 1067:0.37354158 1068:0.37354158 
0.9618022586009195 2:0.039606714 3:0.03839614 10:0.018609303 28:0.070039098 41:0.018118223 105:0.12068204 132:0.054607606 145:0.13414684 177:0.085478521 210:0.076879515 281:0.1433491 359:0.15566954 742:0.10141835 886:0.2361492 1069:0.21460153 1070:0.21460153 1071:0.21460153 1072:0.21460153 1073:0.21460153 1074:0.1892209 1075:0.21460153 1076:0.21460153 1077:0.21460153 1078:0.34013538 1079:0.21460153 1080:0.34013538 1081:0.14899356 1082:0.21460153 1083:0.1892209 1084:0.21460153 
1 2:0.067727282 3:0.041425086 8:0.11960447 10:0.022351745 17:0.055104751 18:0.021052647 27:0.16074717 28:0.047675735 30:0.02864069 39:0.05407186 77:0.17676509 131:0.14938227 377:0.1095691 419:0.10132849 476:0.18812999 534:0.17676509 764:0.17676509 786:0.17676509 898:0.12727461 925:0.16794979 926:0.21137748 1085:0.23153074 1086:0.21682562 1087:0.3235668 1088:0.18812999 1089:0.17676509 1090:0.14472924 1091:0.18812999 1092:0.23153074 1093:0.18812999 1094:0.23153074 1095:0.23153074 1096:0.13336434 1097:0.23153074 1098:0.23153074 
0.932037522995256 2:0.078475166 3:0.04799898 4:0.12280011 6:0.043737835 10:0.020038065 12:0.2952099 18:0.038662888 28:0.087555814 30:0.033185783 41:0.022649574 239:0.23654488 329:0.20481658 1099:0.53654637 1100:0.23654488 1101:0.26827319 1102:0.26827319 1103:0.23654488 1104:0.23654488 1105:0.26827319 1106:0.26827319 1107:0.18625671 
1 2:0.063643141 10:0.012878466 18:0.031355494 19:0.063150768 30:0.042657012 39:0.050811179 58:0.16857476 212:0.28019797 1108:0.3448384 1109:0.54655593 1110:0.3448384 1111:0.3448384 1112:0.23034445 1113:0.30405483 1114:0.28019797 
0.8934062219819225 2:0.047612401 3:0.046157135 7:0.24383599 14:0.14507545 19:0.047244049 23:0.10542482 28:0.053121806 30:0.050579892 39:0.038012615 41:0.034521198 125:0.28388193 243:0.20962036 368:0.12611334 1115:0.51595769 1116:0.33224042 1117:0.25797885 1118:0.25797885 1119:0.25797885 1120:0.25797885 1121:0.25797885 1122:0.20962036 
0.9324362257450405 2:0.065279346 3:0.031642046 4:0.12830698 5:0.11410382 6:0.028832999 7:0.083578298 8:0.091358411 10:0.015335823 18:0.032161614 19:0.032387157 26:0.022777668 30:0.043753683 32:0.041405256 33:0.016227647 39:0.07315614 41:0.041916972 45:0.037888794 126:0.10737036 128:0.03289432 140:0.045386231 210:0.063355981 491:0.1437008 564:0.097217158 565:0.089633629 682:0.057621328 749:0.11410382 1123:0.41063747 1124:0.1559359 1125:0.11410382 1126:0.1559359 1127:0.17685193 1128:0.17685193 1129:0.1559359 1130:0.28030368 1131:0.1559359 1132:0.17685193 1133:0.17685193 1134:0.17685193 1135:0.17685193 1136:0.17685193 1137:0.22776038 1138:0.1282864 1139:0.13501986 1140:0.17685193 1141:0.17685193 1142:0.17685193 1143:0.1437008 1144:0.17685193 1145:0.1437008 1146:0.17685193 
1 10:0.043657817 17:0.13911177 26:0.07528058 28:0.12035724 84:0.39043221 140:0.15000226 567:0.29624066 767:0.40580572 1147:0.51537078 1148:0.51537078 
1 4:0.15465724 10:0.019999369 17:0.080413535 26:0.043515926 28:0.11026978 33:0.031002342 220:0.24508661 422:0.27453527 1149:0.33786933 1150:0.53551022 1151:0.33786933 1152:0.33786933 1153:0.33786933 1154:0.27453527 
1 2:0.057033795 10:0.018822619 18:0.017728636 30:0.024118601 33:0.017890523 39:0.06670674 41:0.016461146 76:0.07484771 132:0.049613242 281:0.13023851 285:0.14143214 470:0.14885559 566:0.13536674 592:0.12579625 855:0.15842608 1155:0.17191493 1156:0.38994853 1157:0.19497427 1158:0.14885559 1159:0.3991741 1160:0.17191493 1161:0.19497427 1162:0.19497427 1163:0.19497427 1164:0.17191493 1165:0.19497427 1166:0.19497427 1167:0.17191493 1168:0.19497427 1169:0.17191493 1170:0.10488395 1171:0.17191493 1172:0.19497427 1173:0.19497427 
1 6:0.058272247 10:0.021156765 17:0.085067198 30:0.04421367 210:0.20294509 229:0.20587936 647:0.25927017 1174:0.31515053 1175:0.25927017 1176:0.35742239 1177:0.35742239 1178:0.43250246 1179:0.35742239 1180:0.31515053 
0.7479919761943762 2:0.070339496 4:0.17445553 8:0.19688018 10:0.022559568 19:0.069795317 28:0.078478736 29:0.25458066 39:0.05615739 212:0.30967963 241:0.2251885 638:0.23823792 682:0.12417573 1181:0.38112134 1182:0.30967963 1183:0.30967963 1184:0.38112134 1185:0.38112134 
1 10:0.022425163 17:0.061548675 18:0.037269654 26:0.052790622 27:0.17954487 33:0.023729253 39:0.038105002 41:0.034605099 308:0.10568104 407:0.21012983 978:0.18758976 1139:0.19743592 1186:0.25860584 1187:0.172743 1188:0.21012983 1189:0.40988056 1190:0.22802088 1191:0.25860584 1192:0.25860584 1193:0.22802088 1194:0.21012983 1195:0.18758976 1196:0.25860584 1197:0.25860584 1198:0.25860584 
1 3:0.050798522 4:0.12996242 6:0.046288845 10:0.024620316 19:0.051994732 33:0.041291538 39:0.04183502 128:0.052808937 152:0.12798484 210:0.10171246 226:0.23246311 280:0.13079184 377:0.084772843 469:0.18965246 693:0.14666789 1199:0.39424028 1200:0.25034137 1201:0.25034137 1202:0.28392023 1203:0.28392023 1204:0.34356045 1205:0.28392023 1206:0.1496048 1207:0.25034137 1208:0.28392023 
1 2:0.061440302 7:0.15732621 10:0.024865424 19:0.060964971 26:0.042876252 30:0.082361104 32:0.07794047 41:0.02810607 76:0.12779639 152:0.15006505 197:0.20211194 199:0.19175576 229:0.30392569 638:0.2080966 1138:0.24148389 1209:0.24148389 1210:0.33290273 1211:0.23112771 1212:0.33290273 1213:0.29353078 1214:0.33290273 1215:0.33290273 
0.5634957088116477 2:0.076655316 3:0.074312358 5:0.26797648 6:0.10732609 7:0.19628631 8:0.21455815 9:0.25216274 10:0.024585203 12:0.28836395 233:0.33748593 1216:0.33748593 1217:0.31709846 1218:0.41534242 1219:0.41534242 
1 2:0.086073496 3:0.052646465 10:0.025515951 19:0.053886191 26:0.060066581 30:0.036398985 33:0.042793636 50:0.17864427 517:0.25944826 565:0.14913365 886:0.20429095 944:0.18984749 961:0.13264066 1220:0.29424864 1221:0.10659392 1222:0.16949057 1223:0.29424864 1224:0.17385909 1225:0.23909134 1226:0.25944826 1227:0.17864427 1228:0.13067153 1229:0.25944826 1230:0.23909134 1231:0.14384388 1232:0.29424864 1233:0.29424864 1234:0.16547192 
1 10:0.019046424 19:0.040223437 26:0.056577742 28:0.071684273 33:0.02015403 41:0.029391241 128:0.040853311 193:0.12977741 280:0.080184322 411:0.1073725 483:0.1038006 780:0.17847013 1000:0.19366558 1235:0.21964239 1236:0.21964239 1237:0.21964239 1238:0.21964239 1239:0.21964239 1240:0.14171197 1241:0.19366558 1242:0.21964239 1243:0.21964239 1244:0.21964239 1245:0.21964239 1246:0.21761197 1247:0.17847013 1248:0.17847013 1249:0.21964239 1250:0.19366558 1251:0.21964239 1252:0.17847013 1253:0.19366558 1254:0.16768878 1255:0.19366558 
1 7:0.12442439 10:0.022830692 30:0.032568414 41:0.022228214 145:0.16457711 280:0.060642362 375:0.16457711 377:0.0786108 729:0.1827917 846:0.21392974 1256:0.17586683 1257:0.16457711 1258:0.26328238 1259:0.26328238 1260:0.26328238 1261:0.26328238 1262:0.26328238 1263:0.16457711 1264:0.21392974 1265:0.21392974 1266:0.26328238 1267:0.26328238 1268:0.26328238 1269:0.16457711 1270:0.23214433 1271:0.16457711 
-0.2359154929577465 2:0.030783452 7:0.12493497 10:0.016102158 17:0.039697367 18:0.024038001 26:0.034048641 28:0.034345517 30:0.041265407 32:0.039050535 33:0.024257501 38:0.14706781 41:0.028163984 45:0.082971906 76:0.064029859 128:0.049171269 507:0.093797477 534:0.12734127 682:0.054344397 716:0.14706781 749:0.10761473 831:0.14706781 925:0.12099074 1170:0.089724915 1272:0.16679435 1273:0.16679435 1274:0.087888189 1275:0.16679435 1276:0.16679435 1277:0.16679435 1278:0.13552852 1279:0.16679435 1280:0.26436279 1281:0.16679435 1282:0.16679435 1283:0.16679435 1284:0.16679435 1285:0.16679435 1286:0.16679435 1287:0.16679435 1288:0.16679435 1289:0.16679435 1290:0.16679435 1291:0.26436279 1292:0.16679435 1293:0.16679435 1294:0.16679435 1295:0.16679435 1296:0.16679435 1297:0.16679435 1298:0.16679435 1299:0.16679435 
-0.2359154929577465 6:0.033483084 10:0.017809131 18:0.018674263 26:0.02645117 30:0.025405061 33:0.018844784 41:0.027481928 72:0.059638182 128:0.038199399 132:0.05225956 174:0.16687636 280:0.074975391 308:0.083927483 325:0.12468668 419:0.089881094 629:0.13478525 757:0.16687636 895:0.14258706 1206:0.10821678 1254:0.15679539 1263:0.12837873 1300:0.20537399 1301:0.20537399 1302:0.20537399 1303:0.20537399 1304:0.20537399 1305:0.20537399 1306:0.20537399 1307:0.20537399 1308:0.20537399 1309:0.20537399 1310:0.112896 1311:0.18108469 1312:0.20537399 1313:0.20537399 1314:0.20537399 1315:0.20537399 1316:0.20537399 1317:0.20537399 1318:0.20537399 1319:0.20537399 
-0.2359154929577465 10:0.027543621 26:0.059931201 132:0.11840603 280:0.10717854 567:0.23583849 1320:0.3108248 1321:0.46532193 1322:0.41028894 1323:0.46532193 1324:0.46532193 
-0.2359154929577465 2:0.0487997 6:0.043108328 10:0.015651237 17:0.062930552 18:0.024042476 19:0.048422162 26:0.034054979 41:0.022323585 45:0.056647681 120:0.18357597 140:0.067857127 210:0.15013362 368:0.1292582 522:0.19180149 1325:0.23314036 1326:0.264412 1327:0.21484761 1328:0.23314036 1329:0.264412 1330:0.21484761 1331:0.19180149 1332:0.36951872 1333:0.23314036 1334:0.264412 1335:0.264412 1336:0.264412 1337:0.19180149 1338:0.23314036 
-0.2359154929577465 3:0.061836475 10:0.033365124 17:0.082256525 18:0.049808906 19:0.063292609 72:0.10036191 172:0.22298742 200:0.26386259 322:0.22298742 397:0.26386259 458:0.1512561 509:0.13267564 703:0.28082732 803:0.26386259 1174:0.30473776 1339:0.34561293 1340:0.30473776 1341:0.34561293 1342:0.34561293 
-0.2359154929577465 3:0.024909242 6:0.035975329 7:0.065794484 8:0.071919142 10:0.012072662 18:0.029393586 19:0.025495809 23:0.056893747 26:0.035862059 28:0.045437403 30:0.017221881 32:0.051661906 33:0.020247458 39:0.020513956 41:0.018629772 45:0.029826806 76:0.084708303 102:0.15320023 103:0.10098958 105:0.078291678 140:0.035728936 177:0.087891918 213:0.069277009 226:0.071919142 280:0.050825198 325:0.084524067 337:0.09299678 419:0.060929651 433:0.12275581 453:0.074892357 458:0.060929651 526:0.037630328 696:0.12275581 741:0.17929746 744:0.17929746 746:0.12275581 749:0.089824779 930:0.1131241 965:0.068058551 1093:0.1131241 1096:0.08019307 1178:0.1062903 1343:0.13922133 1344:0.13922133 1345:0.10098958 1346:0.1131241 1347:0.1062903 1348:0.12275581 1349:0.13922133 1350:0.13922133 1351:0.22066058 1352:0.22066058 1353:0.13922133 1354:0.082260001 1355:0.12275581 1356:0.13922133 1357:0.13922133 1358:0.13922133 1359:0.13922133 1360:0.13922133 1361:0.13922133 1362:0.13922133 1363:0.13922133 1364:0.13922133 1365:0.13922133 1366:0.1131241 1367:0.13922133 1368:0.12275581 1369:0.13922133 1370:0.13922133 1371:0.12275581 1372:0.12275581 1373:0.12275581 1374:0.12275581 1375:0.12275581 1376:0.13922133 1377:0.1131241 1378:0.13922133 1379:0.13922133 1380:0.13922133 
-0.2359154929577465 3:0.022856992 6:0.04165569 7:0.060373734 10:0.014313113 17:0.048190751 18:0.032610667 26:0.042532218 28:0.026305894 30:0.025047139 32:0.029909558 33:0.02344445 39:0.048658893 41:0.025043548 45:0.027369401 72:0.037097384 76:0.049041703 120:0.08869497 128:0.023761586 132:0.03250758 135:0.079856808 159:0.09266914 280:0.046637754 349:0.10380391 377:0.038143869 440:0.082424195 450:0.063569337 483:0.060373734 509:0.049041703 518:0.09266914 682:0.065971562 693:0.065993787 841:0.097533131 856:0.059404793 860:0.077560203 890:0.082424195 991:0.071841295 1222:0.073586033 1257:0.079856808 1381:0.11264207 1382:0.077560203 1383:0.10380391 1384:0.1645253 1385:0.17853345 1386:0.075482671 1387:0.12775101 1388:0.10380391 1389:0.12775101 1390:0.12775101 1391:0.17853345 1392:0.12775101 1393:0.11264207 1394:0.12775101 1395:0.12775101 1396:0.12775101 1397:0.11264207 1398:0.11264207 1399:0.12775101 1400:0.097533131 1401:0.20248055 1402:0.085334857 1403:0.12775101 1404:0.12775101 1405:0.12775101 1406:0.17853345 1407:0.12775101 1408:0.12775101 1409:0.12775101 1410:0.12775101 1411:0.10380391 1412:0.12775101 1413:0.12775101 1414:0.11264207 1415:0.12775101 1416:0.10380391 1417:0.11264207 1418:0.12775101 1419:0.12775101 1420:0.097533131 1421:0.11264207 1422:0.09266914 1423:0.12775101 1424:0.12775101 1425:0.11264207 1426:0.08869497 1427:0.12775101 1428:0.12775101 1429:0.09266914 1430:0.10380391 1431:0.12775101 1432:0.12775101 1433:0.11264207 1434:0.10380391 1435:0.12775101 1436:0.12775101 
-0.2359154929577465 3:0.051059104 10:0.01689219 17:0.067920179 18:0.025948752 30:0.055951566 32:0.066813482 33:0.026185699 41:0.024093573 132:0.11509534 179:0.25162555 220:0.20700901 246:0.1732579 247:0.30702954 377:0.085207704 439:0.17838818 522:0.20700901 633:0.15351477 1211:0.19813131 1437:0.23188242 1438:0.23188242 1439:0.23188242 1440:0.23188242 1441:0.19062532 1442:0.36752493 1443:0.20700901 1444:0.1732579 1445:0.21787444 1446:0.18412333 1447:0.23188242 
-0.2359154929577465 6:0.15566459 26:0.12297286 58:0.4667526 197:0.57967482 1448:0.63778156 
-0.2359154929577465 3:0.029980353 10:0.017568223 18:0.030472636 19:0.048636688 26:0.05011067 28:0.034504101 32:0.039230844 41:0.022422485 45:0.056898649 76:0.064325505 128:0.031166862 132:0.042638538 152:0.075534297 163:0.090139204 210:0.060028819 280:0.077190934 308:0.068476373 411:0.211745 834:0.094230569 965:0.081914147 986:0.12154939 1063:0.14774687 1064:0.14774687 1065:0.14774687 1066:0.20276305 1240:0.10811162 1246:0.10474411 1269:0.10474411 1274:0.088293997 1449:0.12154939 1450:0.14774687 1451:0.1361543 1452:0.1361543 1453:0.16756449 1454:0.14774687 1455:0.14774687 1456:0.16756449 1457:0.14774687 1458:0.16756449 1459:0.16756449 1460:0.1361543 1461:0.1361543 1462:0.16756449 1463:0.16756449 1464:0.16756449 1465:0.16756449 1466:0.11633668 1467:0.1361543 1468:0.12154939 1469:0.14774687 1470:0.16756449 1471:0.1361543 1472:0.16756449 1473:0.14774687 1474:0.16756449 1475:0.16756449 1476:0.16756449 1477:0.14774687 1478:0.16756449 1479:0.16756449 
-0.2359154929577465 3:0.034913422 10:0.007287628 18:0.053230061 26:0.083488635 30:0.024138623 33:0.046284722 41:0.038253327 113:0.17864429 177:0.0777252 280:0.1493077 395:0.21472931 514:0.23612638 693:0.15977006 890:0.12590068 1246:0.12197906 1480:0.15855759 1481:0.17205764 1482:0.19513612 1483:0.19513612 1484:0.19513612 1485:0.17205764 1486:0.17205764 1487:0.29795832 1488:0.19513612 1489:0.25130784 1490:0.19513612 1491:0.31711519 1492:0.19513612 1493:0.13547911 1494:0.19513612 1495:0.17205764 1496:0.14897916 1497:0.15855759 1498:0.19513612 
-0.2359154929577465 10:0.011854109 17:0.026909365 18:0.010280663 26:0.040880844 28:0.036900376 30:0.032474812 33:0.029125013 39:0.033319365 41:0.026798048 45:0.048445567 49:0.068643226 76:0.043403454 89:0.06512596 113:0.051754074 122:0.082015112 128:0.021029753 132:0.045599741 159:0.082015112 169:0.068643226 210:0.040504277 241:0.066804545 280:0.041275883 344:0.045610607 381:0.07552404 419:0.049481857 435:0.066804545 453:0.060821174 458:0.049481857 460:0.07552404 488:0.091869731 498:0.060821174 531:0.063581812 565:0.090824546 589:0.099691783 591:0.099691783 629:0.074202749 682:0.036838041 737:0.052575115 852:0.099691783 859:0.086319897 958:0.059576126 1055:0.15800774 1204:0.1368138 1274:0.059576126 1467:0.091869731 1499:0.11306367 1500:0.099691783 1501:0.17920167 1502:0.11306367 1503:0.099691783 1504:0.091869731 1505:0.11306367 1506:0.11306367 1507:0.099691783 1508:0.086319897 1509:0.11306367 1510:0.07552404 1511:0.06512596 1512:0.17920167 1513:0.11306367 1514:0.11306367 1515:0.072948012 1516:0.11306367 1517:0.15800774 1518:0.11306367 1519:0.11306367 1520:0.099691783 1521:0.078497846 1522:0.11306367 1523:0.070675794 1524:0.099691783 1525:0.11306367 1526:0.11306367 1527:0.11306367 1528:0.11306367 1529:0.091869731 1530:0.099691783 1531:0.092572244 1532:0.11306367 1533:0.11306367 1534:0.11306367 1535:0.11306367 1536:0.11306367 1537:0.11306367 1538:0.11306367 1539:0.099691783 1540:0.11306367 1541:0.078497846 1542:0.11306367 1543:0.091869731 1544:0.22612734 1545:0.11306367 1546:0.11306367 1547:0.11306367 1548:0.11306367 1549:0.11306367 1550:0.11306367 1551:0.11306367 1552:0.11306367 1553:0.11306367 1554:0.11306367 1555:0.11306367 1556:0.091869731 1557:0.11306367 1558:0.11306367 1559:0.11306367 1560:0.11306367 
-0.2359154929577465 2:0.13664624 3:0.13246967 18:0.067322422 113:0.33890905 1221:0.2682129 1247:0.6016045 1561:0.38247269 1562:0.51403935 
-0.2359154929577465 3:0.059601723 6:0.034266133 10:0.012440923 17:0.079283798 18:0.038221974 26:0.062854055 28:0.068595054 33:0.019285496 39:0.049084879 41:0.017744667 170:0.16046227 377:0.06275459 736:0.29372463 740:0.16046227 769:0.15245999 826:0.17077899 886:0.23128035 911:0.16046227 1025:0.18531961 1523:0.13138104 1563:0.17077899 1564:0.21017695 1565:0.17077899 1566:0.18531961 1567:0.21017695 1568:0.21017695 1569:0.18531961 1570:0.21017695 1571:0.21017695 1572:0.21017695 1573:0.13560493 1574:0.18531961 1575:0.21017695 1576:0.21017695 1577:0.21017695 1578:0.17077899 1579:0.21017695 
-0.2359154929577465 2:0.068130731 10:0.013786549 18:0.033566426 19:0.06760364 30:0.045664833 41:0.049397939 230:0.17445795 526:0.099779032 531:0.207595 1221:0.21195517 1269:0.23075689 1580:0.26777984 1581:0.2381757 1582:0.28183499 1583:0.32549427 1584:0.32549427 1585:0.32549427 1586:0.32549427 1587:0.32549427 1588:0.25629594 
-0.2359154929577465 6:0.024263448 10:0.01290535 18:0.013532266 28:0.048571355 30:0.018409725 33:0.021643985 41:0.019914723 45:0.050535022 72:0.043216686 76:0.057131249 105:0.13264819 128:0.043873531 140:0.060534895 210:0.08450245 226:0.076879619 230:0.070332525 682:0.048489304 725:0.087933717 1471:0.12092661 1531:0.076879619 1589:0.13122265 1590:0.14882384 1591:0.12092661 1592:0.14882384 1593:0.14882384 1594:0.14882384 1595:0.14882384 1596:0.14882384 1597:0.14882384 1598:0.14882384 1599:0.14882384 1600:0.2358802 1601:0.13122265 1602:0.13122265 1603:0.090353943 1604:0.096020261 1605:0.29764767 1606:0.13122265 1607:0.14882384 1608:0.2358802 1609:0.12092661 1610:0.14882384 1611:0.099411044 1612:0.14882384 1613:0.14882384 1614:0.11362145 1615:0.14882384 1616:0.14882384 1617:0.10795514 1618:0.10332542 1619:0.10795514 1620:0.13122265 1621:0.14882384 1622:0.13122265 1623:0.14882384 1624:0.14882384 1625:0.14882384 1626:0.14882384 1627:0.14882384 1628:0.14882384 1629:0.14882384 
-0.2359154929577465 10:0.016638174 1425:0.39281985 1426:0.30930846 1630:0.39281985 1631:0.44550967 1632:0.44550967 1633:0.44550967 
-0.2359154929577465 4:0.083733111 10:0.020494887 19:0.033499534 23:0.074754014 26:0.03734171 32:0.042827371 33:0.026603604 39:0.026953763 41:0.03088791 45:0.06211489 50:0.11105813 308:0.074754014 330:0.12700196 381:0.12219063 391:0.083733111 426:0.14863638 526:0.04944336 623:0.12700196 767:0.12700196 1125:0.11802286 1131:0.16129171 1222:0.10536754 1451:0.14863638 1460:0.23558309 1563:0.14863638 1634:0.18292613 1635:0.18292613 1636:0.18292613 1637:0.16129171 1638:0.18292613 1639:0.18292613 1640:0.18292613 1641:0.18292613 1642:0.13269256 1643:0.18292613 1644:0.18292613 1645:0.18292613 1646:0.18292613 1647:0.18292613 1648:0.18292613 1649:0.18292613 1650:0.18292613 1651:0.18292613 1652:0.18292613 1653:0.18292613 1654:0.18292613 1655:0.18292613 
-0.2359154929577465 118:0.30603698 280:0.092329476 377:0.11968686 531:0.22542179 1656:0.30603698 1657:0.35344541 1658:0.20707362 1659:0.35344541 1660:0.35344541 1661:0.40085385 1662:0.40085385 
-0.2359154929577465 6:0.071654951 10:0.026015591 28:0.090501322 30:0.054367705 126:0.26683378 280:0.10123263 344:0.1773001 564:0.24160132 567:0.22275495 1663:0.4395074 1664:0.4395074 1665:0.27473489 1666:0.38752746 1667:0.38752746 
-0.04744974567819267 2:0.026446711 6:0.023362305 10:0.013833703 17:0.054054898 18:0.041303105 19:0.026242107 23:0.092813988 26:0.018455896 28:0.046767419 30:0.041158473 33:0.013148658 41:0.031273227 45:0.030699878 72:0.041611622 117:0.086998205 128:0.026653042 132:0.057792966 344:0.11561348 498:0.077084562 499:0.16475002 526:0.07746364 706:0.1164354 711:0.10940156 827:0.10394569 958:0.075506592 1170:0.077084562 1224:0.16933573 1227:0.086998205 1228:0.0636359 1402:0.095718927 1561:0.074024317 1668:0.1164354 1669:0.17339737 1670:0.17339737 1671:0.12634905 1672:0.19897584 1673:0.15768462 1674:0.12634905 1675:0.12634905 1676:0.12634905 1677:0.084667866 1678:0.12634905 1679:0.099487919 1680:0.1164354 1681:0.1164354 1682:0.21880312 1683:0.12634905 1684:0.12634905 1685:0.10940156 1686:0.10394569 1687:0.12634905 1688:0.12634905 1689:0.12634905 1690:0.095718927 1691:0.12634905 1692:0.12634905 1693:0.1164354 1694:0.12634905 1695:0.12634905 1696:0.092454077 1697:0.099487919 1698:0.12634905 1699:0.12634905 1700:0.10394569 1701:0.12634905 1702:0.12634905 1703:0.12634905 1704:0.099487919 1705:0.17339737 1706:0.099487919 1707:0.15171091 1708:0.1164354 1709:0.12634905 1710:0.12634905 1711:0.1164354 1712:0.12634905 1713:0.12634905 1714:0.10940156 1715:0.10940156 1716:0.1164354 
-0.2359154929577465 32:0.12403721 33:0.04861296 308:0.21650358 526:0.14319853 1679:0.36782479 1717:0.52979314 1718:0.52979314 1719:0.46713523 
-0.2359154929577465 2:0.035202295 10:0.0071233373 19:0.034929953 26:0.038936189 32:0.044656086 33:0.049133539 41:0.025523296 116:0.11269845 221:0.10726173 344:0.076944534 390:0.12740813 441:0.16817881 507:0.10726173 526:0.051554575 869:0.1324249 940:0.16817881 961:0.085979951 964:0.12740813 1573:0.1230624 1720:0.19073702 1721:0.19073702 1722:0.19073702 1723:0.11269845 1724:0.30231102 1725:0.30231102 1726:0.19073702 1727:0.19073702 1728:0.19073702 1729:0.19073702 1730:0.19073702 1731:0.15498311 1732:0.19073702 1733:0.19073702 1734:0.19073702 1735:0.19073702 1736:0.15498311 1737:0.19073702 1738:0.19073702 1739:0.16817881 1740:0.19073702 
-0.2359154929577465 6:0.03753363 8:0.059463338 10:0.015411457 17:0.04342201 18:0.033178564 19:0.021080144 23:0.047040217 26:0.029651045 28:0.02370278 30:0.014239193 32:0.053899684 33:0.016740764 39:0.039382472 41:0.022565351 45:0.039086837 125:0.079918113 128:0.021410246 131:0.074267866 132:0.068011074 140:0.046821342 169:0.069885193 193:0.068013245 194:0.11076541 196:0.13928918 197:0.13977039 210:0.041237124 218:0.10508981 219:0.083499018 241:0.068013245 250:0.093531938 280:0.026513366 312:0.08788169 344:0.046435844 377:0.034369323 391:0.052690465 435:0.068013245 450:0.0572788 460:0.12186856 483:0.05439942 498:0.061921617 509:0.044188756 526:0.04931304 565:0.058340713 958:0.060654042 1269:0.071954537 1310:0.10029116 1354:0.068013245 1441:0.076890502 1448:0.076890502 1480:0.093531938 1588:0.12666721 1677:0.068013245 1700:0.083499018 1741:0.11510934 1742:0.11510934 1743:0.10149551 1744:0.2623621 1745:0.10149551 1746:0.11510934 1747:0.11510934 1748:0.14853573 1749:0.11510934 1750:0.17576338 1751:0.10149551 1752:0.11510934 1753:0.093531938 1754:0.11510934 1755:0.093531938 1756:0.16086658 1757:0.10149551 1758:0.11510934 1759:0.21717443 1760:0.10149551 1761:0.093531938 1762:0.11510934 1763:0.11510934 1764:0.093531938 1765:0.069885193 1766:0.14824461 1767:0.093531938 1768:0.093531938 1769:0.11510934 1770:0.11510934 1771:0.11510934 1772:0.11510934 1773:0.11510934 1774:0.11510934 1775:0.10149551 1776:0.11510934 1777:0.083499018 1778:0.11510934 1779:0.10149551 1780:0.11510934 1781:0.11510934 1782:0.11510934 1783:0.093531938 1784:0.083499018 1785:0.10149551 1786:0.10149551 1787:0.093531938 1788:0.10149551 1789:0.093531938 1790:0.093531938 1791:0.11510934 1792:0.11510934 1793:0.11510934 
-0.2359154929577465 6:0.035860578 8:0.071689741 10:0.0082145881 17:0.085379363 18:0.037856248 19:0.025414484 24:0.12236426 26:0.017873835 30:0.044375917 32:0.06498213 33:0.020182874 39:0.032410142 41:0.035149756 45:0.089195 58:0.067841463 62:0.089538264 125:0.15271157 128:0.04091178 132:0.035313324 140:0.056448393 169:0.084254459 210:0.04971599 218:0.15987455 219:0.20133491 280:0.031964845 308:0.056712272 375:0.086749286 435:0.081997615 483:0.10394916 526:0.059452415 682:0.045215958 693:0.11362555 701:0.089538264 827:0.10066746 834:0.07804195 872:0.12236426 1116:0.11276327 1311:0.12236426 1354:0.081997615 1448:0.092700147 1603:0.084254459 1611:0.092700147 1750:0.10595126 1751:0.19394276 1768:0.17872555 1794:0.13877725 1795:0.12236426 1796:0.13877725 1797:0.13877725 1798:0.13877725 1799:0.12236426 1800:0.13877725 1801:0.13877725 1802:0.11276327 1803:0.13877725 1804:0.13877725 1805:0.13877725 1806:0.13877725 1807:0.13877725 1808:0.13877725 1809:0.13877725 1810:0.13877725 1811:0.11276327 1812:0.21995674 1813:0.13877725 1814:0.13877725 1815:0.13877725 1816:0.13877725 1817:0.21995674 1818:0.13877725 1819:0.13877725 1820:0.13877725 1821:0.11276327 1822:0.13877725 1823:0.13877725 
-0.2359154929577465 3:0.041516689 6:0.029980369 10:0.011200586 17:0.077520339 18:0.0316488 26:0.014942987 28:0.04778116 30:0.014352011 32:0.027163369 33:0.02988691 39:0.017095492 41:0.019590735 45:0.057714868 58:0.13169329 72:0.053399343 89:0.066829626 90:0.072524641 116:0.068552121 128:0.055783185 132:0.02952285 152:0.082893248 169:0.1408778 194:0.070438902 197:0.070438902 241:0.068552121 280:0.042355642 322:0.074856299 375:0.072524641 393:0.14039279 440:0.074856299 450:0.057732627 754:0.088577987 924:0.10229967 958:0.061134611 1040:0.10229967 1274:0.096896065 1278:0.094273002 1310:0.063778026 1443:0.08416059 1448:0.12283414 1619:0.08416059 1748:0.074856299 1765:0.11164302 1767:0.094273002 1824:0.094273002 1825:0.11602136 1826:0.11602136 1827:0.11602136 1828:0.11602136 1829:0.11602136 1830:0.26444082 1831:0.18388951 1832:0.11602136 1833:0.11602136 1834:0.11602136 1835:0.10229967 1836:0.11602136 1837:0.11602136 1838:0.08416059 1839:0.077499714 1840:0.10229967 1841:0.11602136 1842:0.11602136 1843:0.11602136 1844:0.11602136 1845:0.11602136 1846:0.11602136 1847:0.11602136 1848:0.094273002 1849:0.10229967 1850:0.11602136 1851:0.11602136 1852:0.11602136 1853:0.23204273 1854:0.11602136 1855:0.11602136 1856:0.11602136 1857:0.11602136 1858:0.11602136 1859:0.088577987 1860:0.11602136 1861:0.11602136 1862:0.10229967 1863:0.11602136 1864:0.11602136 1865:0.11602136 1866:0.094273002 1867:0.11602136 1868:0.11602136 1869:0.11602136 1870:0.10229967 1871:0.11602136 1872:0.10229967 1873:0.10229967 1874:0.11602136 
-0.2359154929577465 22:0.11088371 39:0.021400483 41:0.012262039 169:0.088176841 1147:0.1280608 1154:0.11801285 1158:0.17574653 1159:0.1280608 1193:0.1280608 1449:0.10535393 1556:0.11801285 1811:0.11801285 1875:0.14523789 1876:0.14523789 1877:0.1280608 1878:0.14523789 1879:0.1280608 1880:0.14523789 1881:0.14523789 1882:0.14523789 1883:0.1280608 1884:0.14523789 1885:0.14523789 1886:0.1280608 1887:0.14523789 1888:0.14523789 1889:0.14523789 1890:0.11801285 1891:0.1280608 1892:0.14523789 1893:0.14523789 1894:0.14523789 1895:0.14523789 1896:0.14523789 1897:0.14523789 1898:0.11088371 1899:0.14523789 1900:0.14523789 1901:0.14523789 1902:0.14523789 1903:0.14523789 1904:0.14523789 1905:0.14523789 1906:0.14523789 1907:0.1280608 1908:0.14523789 1909:0.14523789 1910:0.14523789 1911:0.14523789 1912:0.1280608 1913:0.11801285 1914:0.14523789 1915:0.14523789 1916:0.1280608 1917:0.14523789 
-0.2359154929577465 6:0.057543483 10:0.013181495 17:0.066571065 18:0.025433326 33:0.01619317 39:0.026003379 45:0.037808297 58:0.13673574 72:0.051246605 128:0.052025496 140:0.071782641 213:0.13918373 288:0.134733 450:0.087815159 513:0.12801385 526:0.047699998 737:0.082062228 961:0.079551495 1057:0.1103148 1448:0.11788221 1918:0.1764762 1919:0.1556046 1920:0.1764762 1921:0.1764762 1922:0.1764762 1923:0.1556046 1924:0.1556046 1925:0.1764762 1926:0.134733 1927:0.1433955 1928:0.1764762 1929:0.1764762 1930:0.1764762 1931:0.1433955 1932:0.1764762 1933:0.134733 1934:0.24662745 1935:0.1764762 1936:0.1764762 1937:0.1764762 1938:0.1764762 1939:0.1764762 1940:0.1764762 1941:0.1556046 1942:0.1433955 1943:0.1764762 1944:0.12801385 1945:0.1556046 1946:0.1764762 1947:0.1764762 
-0.2359154929577465 3:0.037753844 6:0.034402218 10:0.012490331 18:0.019186885 30:0.06747385 33:0.019362087 39:0.031092102 41:0.028236326 73:0.17145723 140:0.054152777 280:0.048602739 526:0.057034634 551:0.18605559 693:0.10900468 742:0.099721808 961:0.095119298 972:0.18605559 1206:0.11118741 1386:0.19760975 1658:0.10900468 1838:0.15306547 1948:0.21101165 1949:0.17145723 1950:0.18605559 1951:0.21101165 1952:0.33444555 1953:0.21101165 1954:0.14650117 1955:0.17145723 1956:0.17145723 1957:0.18605559 1958:0.21101165 1959:0.21101165 1960:0.21101165 1961:0.21101165 1962:0.21101165 1963:0.17145723 1964:0.21101165 1965:0.21101165 
-0.2359154929577465 2:0.022260118 4:0.05520939 6:0.019663983 10:0.014963398 19:0.035008498 23:0.078121258 26:0.031068546 28:0.039363998 30:0.029839826 32:0.028238208 33:0.028608261 39:0.045939829 41:0.023644112 45:0.025839996 71:0.075394401 72:0.035024378 128:0.052089638 140:0.049059687 163:0.064881847 196:0.09208297 210:0.043208509 221:0.067826796 230:0.057000044 325:0.073226131 327:0.098003333 368:0.058961483 377:0.057078281 390:0.080566336 453:0.064881847 469:0.080566336 483:0.057000044 562:0.10634762 629:0.0499424 742:0.057000044 834:0.067826796 937:0.10634762 965:0.058961483 1182:0.098003333 1382:0.073226131 1658:0.062306047 1665:0.075394401 1966:0.12061227 1967:0.12061227 1968:0.12061227 1969:0.087490779 1970:0.10634762 1971:0.12061227 1972:0.24122453 1973:0.12061227 1974:0.19116592 1975:0.12061227 1976:0.12061227 1977:0.087490779 1978:0.098003333 1979:0.24122453 1980:0.098003333 1981:0.12061227 1982:0.12061227 1983:0.10634762 1984:0.24122453 1985:0.12061227 1986:0.12061227 1987:0.09208297 1988:0.19116592 1989:0.10634762 1990:0.12061227 1991:0.12061227 1992:0.12061227 1993:0.12061227 1994:0.16855699 1995:0.10634762 1996:0.12061227 1997:0.12061227 1998:0.12061227 1999:0.12061227 2000:0.12061227 2001:0.12061227 2002:0.12061227 2003:0.12061227 2004:0.12061227 2005:0.10634762 2006:0.10634762 2007:0.10634762 2008:0.12061227 2009:0.087490779 2010:0.10634762 2011:0.12061227 2012:0.12061227 2013:0.09208297 2014:0.12061227 2015:0.098003333 
-0.2359154929577465 2:0.045962771 10:0.014741366 17:0.059272138 19:0.045607182 28:0.051281291 33:0.022851565 41:0.03332514 72:0.072318462 76:0.095602982 280:0.057362033 339:0.21958694 453:0.13396827 718:0.21958694 1693:0.20235763 2016:0.24904064 2017:0.21958694 2018:0.24904064 2019:0.24904064 2020:0.21958694 2021:0.24904064 2022:0.24904064 2023:0.19013325 2024:0.24904064 2025:0.24904064 2026:0.24904064 2027:0.24904064 2028:0.24904064 2029:0.24904064 
-0.2359154929577465 3:0.041916448 6:0.024098541 10:0.011040513 18:0.040320882 28:0.060873667 30:0.036569207 32:0.054849843 33:0.031492362 39:0.034520206 41:0.012479394 62:0.095367659 72:0.068031287 76:0.056742956 117:0.089739852 120:0.10262316 128:0.043575344 132:0.0376124 194:0.089739852 199:0.085141599 241:0.087336075 280:0.034045918 377:0.044133783 422:0.12010473 435:0.087336075 509:0.089935457 682:0.048159746 754:0.11284922 846:0.12010473 922:0.089739852 961:0.06663048 1002:0.26066158 1057:0.092397104 1310:0.081253831 1521:0.10262316 1531:0.076357106 1588:0.10262316 1637:0.13033079 1987:0.11284922 2010:0.13033079 2015:0.12010473 2030:0.14781235 2031:0.14781235 2032:0.13033079 2033:0.14781235 2034:0.13033079 2035:0.13033079 2036:0.13033079 2037:0.14781235 2038:0.11284922 2039:0.12010473 2040:0.20656941 2041:0.20656941 2042:0.14781235 2043:0.14781235 2044:0.14781235 2045:0.14781235 2046:0.14781235 2047:0.14781235 2048:0.12010473 2049:0.10262316 2050:0.14781235 2051:0.19036149 2052:0.14781235 2053:0.14781235 2054:0.14781235 2055:0.14781235 2056:0.13033079 2057:0.14781235 2058:0.14781235 2059:0.14781235 2060:0.13033079 2061:0.092397104 
-0.2359154929577465 10:0.01127918 17:0.071880218 18:0.054923352 19:0.055308518 26:0.061652041 30:0.059213783 32:0.070708996 39:0.044501296 165:0.17396428 802:0.2662964 913:0.24540216 914:0.2662964 922:0.18335959 2062:0.24540216 2063:0.2662964 2064:0.30201534 2065:0.2662964 2066:0.30201534 2067:0.14512641 2068:0.30201534 2069:0.30201534 2070:0.24540216 2071:0.24540216 
-0.000620258810622817 6:0.08305175 17:0.1212409 18:0.046319814 33:0.046742777 41:0.043008228 113:0.23317944 193:0.30098975 245:0.36952139 1561:0.2631525 1697:0.35367425 2067:0.38797632 2072:0.26842191 2073:0.44916413 2074:0.26842191 
-0.2359154929577465 3:0.045524288 6:0.052345509 10:0.013920881 17:0.060557619 18:0.023135903 22:0.1225624 26:0.048008446 27:0.11145616 30:0.019858399 33:0.029460842 41:0.013553523 45:0.068786053 50:0.097463956 74:0.090277443 128:0.047325968 193:0.094853281 210:0.057510512 269:0.10034992 325:0.097463956 468:0.1225624 507:0.090277443 526:0.086782397 737:0.074649445 1048:0.1164502 1178:0.1225624 1263:0.10034992 1348:0.14154864 1377:0.1304424 1461:0.1304424 1565:0.1304424 1656:0.1225624 1790:0.1304424 2075:0.25444177 2076:0.1304424 2077:0.16053488 2078:0.16053488 2079:0.16053488 2080:0.16053488 2081:0.16053488 2082:0.14154864 2083:0.16053488 2084:0.16053488 2085:0.16053488 2086:0.16053488 2087:0.16053488 2088:0.14154864 2089:0.1164502 2090:0.1225624 2091:0.16053488 2092:0.16053488 2093:0.16053488 2094:0.16053488 2095:0.11145616 2096:0.16053488 2097:0.25444177 2098:0.16053488 2099:0.1164502 2100:0.14154864 2101:0.16053488 2102:0.16053488 
-0.2359154929577465 3:0.035290267 6:0.032157347 10:0.017103992 17:0.093888105 18:0.01793487 19:0.057250886 26:0.040264161 33:0.04202374 39:0.029063228 45:0.042257245 72:0.057276855 117:0.11974981 128:0.058147399 155:0.23867506 218:0.11361385 349:0.16026902 377:0.093342539 391:0.090286262 411:0.09642222 693:0.10189173 742:0.093214595 803:0.1505872 965:0.1528256 1263:0.12329567 1495:0.17391478 1531:0.10189173 2089:0.14307739 2103:0.19724237 2104:0.17391478 2105:0.19724237 2106:0.27564841 2107:0.17391478 2108:0.17391478 2109:0.17391478 2110:0.19724237 2111:0.19724237 2112:0.19724237 2113:0.1505872 2114:0.19724237 2115:0.19724237 2116:0.16026902 2117:0.19724237 2118:0.17391478 2119:0.19724237 2120:0.19724237 2121:0.17391478 
-0.2359154929577465 337:0.37552856 344:0.22678985 526:0.15195432 767:0.39031523 2122:0.56218705 2123:0.56218705 
-0.2359154929577465 10:0.0077108211 17:0.077884579 18:0.052704472 19:0.037810735 26:0.042147378 33:0.018945141 41:0.03486301 45:0.088467362 46:0.18204904 72:0.059955781 76:0.079259865 214:0.14976934 240:0.16776505 280:0.047556121 281:0.13791587 285:0.14976934 377:0.061647082 412:0.15763039 483:0.097574385 629:0.085492898 682:0.10662144 693:0.10665736 856:0.096008409 922:0.12535069 1890:0.16776505 2065:0.18204904 2124:0.20646769 2125:0.20646769 2126:0.18204904 2127:0.20646769 2128:0.20646769 2129:0.20646769 2130:0.20646769 2131:0.20646769 2132:0.20646769 2133:0.20646769 2134:0.20646769 2135:0.18204904 2136:0.18204904 2137:0.20646769 2138:0.20646769 2139:0.18204904 2140:0.20646769 
-0.2359154929577465 2:0.053082115 6:0.046891297 10:0.024940751 18:0.026152323 27:0.19968567 30:0.056390512 39:0.067169927 58:0.14060124 72:0.083520136 189:0.30450425 1090:0.17978765 1206:0.15155191 1248:0.23370156 1382:0.17461713 1414:0.25359958 2141:0.28761546 2142:0.25359958 2143:0.28761546 2144:0.21958369 2145:0.19212079 2146:0.20863302 2147:0.20863302 2148:0.1855678 2149:0.23370156 2150:0.21958369 2151:0.28761546 
-0.2359154929577465 3:0.084777683 8:0.24477413 9:0.28767453 10:0.041088859 18:0.043084874 19:0.086774038 26:0.061027594 33:0.043478297 76:0.18189804 152:0.21359397 197:0.45595334 199:0.27293414 280:0.10913929 898:0.26047132 1926:0.36175508 2152:0.36175508 2153:0.36175508 
-0.2359154929577465 18:0.018281449 105:0.29226489 165:0.11580935 2154:0.20105393 2155:0.20105393 2156:0.17727556 2157:0.20105393 2158:0.20105393 2159:0.28097512 2160:0.20105393 2161:0.20105393 2162:0.20105393 2163:0.20105393 2164:0.20105393 2165:0.20105393 2166:0.20105393 2167:0.20105393 2168:0.20105393 2169:0.20105393 2170:0.20105393 2171:0.20105393 2172:0.17727556 2173:0.17727556 2174:0.20105393 2175:0.20105393 
-0.2359154929577465 18:0.039210371 165:0.39368873 811:0.32922345 2176:0.60264034 2177:0.431224 2178:0.431224 
-0.2359154929577465 6:0.064581429 10:0.024127449 17:0.094277491 18:0.036018504 19:0.045769025 33:0.036347402 41:0.021100436 45:0.053543853 128:0.04648574 136:0.22036618 145:0.15622706 280:0.091239302 483:0.11811155 856:0.11621597 961:0.11266029 1206:0.13169153 1497:0.20307573 1541:0.17351751 1603:0.15173412 1977:0.18129234 2179:0.24992439 2180:0.22036618 2181:0.24992439 2182:0.22036618 2183:0.17351751 2184:0.24992439 2185:0.22036618 2186:0.24992439 2187:0.22036618 2188:0.22036618 2189:0.24992439 2190:0.24992439 2191:0.24992439 
-0.2359154929577465 2:0.028104671 3:0.027245656 6:0.024826902 10:0.0056871022 26:0.019612907 28:0.031356765 32:0.035652351 33:0.013972955 41:0.02571315 128:0.044892377 140:0.078160407 207:0.11046211 210:0.10910642 308:0.062230211 344:0.097365318 509:0.05845797 512:0.11046211 535:0.18426776 682:0.049615339 693:0.078664944 898:0.083709669 941:0.19611503 1337:0.11046211 1933:0.11626001 2192:0.15227988 2193:0.15227988 2194:0.15227988 2195:0.15227988 2196:0.13426994 2197:0.15227988 2198:0.11626001 2199:0.13426994 2200:0.34708277 2201:0.24135789 2202:0.24135789 2203:0.15227988 2204:0.13426994 2205:0.092452174 2206:0.13426994 2207:0.15227988 2208:0.13426994 2209:0.15227988 2210:0.13426994 2211:0.13426994 2212:0.13426994 2213:0.13426994 2214:0.24135789 2215:0.19611503 2216:0.11626001 2217:0.085635205 2218:0.11626001 2219:0.15227988 2220:0.24135789 
-0.2359154929577465 2:0.081401075 6:0.071907496 10:0.016471861 18:0.040104415 39:0.064988694 163:0.23726074 207:0.31993736 248:0.29461598 725:0.26060161 1126:0.38889329 2221:0.44105643 2222:0.44105643 2223:0.3583798 
-0.2359154929577465 2:0.040609396 3:0.039368176 10:0.019080416 18:0.031710827 19:0.040295223 26:0.04491682 30:0.027218573 33:0.03200039 116:0.13000902 128:0.064866526 148:0.15961046 411:0.10756413 469:0.14697812 509:0.084467914 1382:0.1335873 1487:0.16798805 1603:0.1335873 1658:0.11366566 1849:0.19401122 2121:0.19401122 2224:0.22003438 2225:0.22003438 2226:0.22003438 2227:0.22003438 2228:0.22003438 2229:0.22003438 2230:0.22003438 2231:0.34874625 2232:0.22003438 2233:0.22003438 2234:0.22003438 2235:0.22003438 2236:0.22003438 2237:0.22003438 
-0.2359154929577465 10:0.030441554 2035:0.45345646 2238:0.51427961 2239:0.51427961 2240:0.51427961 
-0.2359154929577465 10:0.015208338 826:0.33088922 860:0.24723381 2241:0.40722389 2242:0.40722389 2243:0.40722389 2244:0.40722389 2245:0.40722389 
-0.2359154929577465 4:0.13930586 6:0.049616705 17:0.11480142 39:0.04484268 41:0.040723929 140:0.07810201 407:0.24728472 682:0.099156539 859:0.23234629 1148:0.26833925 2089:0.22075915 2246:0.3043322 2247:0.3043322 2248:0.3043322 2249:0.3043322 2250:0.24728472 2251:0.3043322 2252:0.3043322 2253:0.3043322 
-0.2359154929577465 10:0.023864236 28:0.083017328 29:0.2693036 1384:0.32758906 2254:0.4031624 2255:0.4031624 2256:0.4031624 2257:0.4031624 2258:0.4031624 
-0.2359154929577465 3:0.064449507 4:0.071012951 6:0.025292753 10:0.016265294 14:0.08724206 18:0.022358008 23:0.063397897 26:0.039961846 28:0.063890283 30:0.019190704 32:0.036321331 33:0.014235143 41:0.013097815 50:0.094186943 72:0.071402602 76:0.059554873 102:0.10770869 105:0.08724206 128:0.057710811 213:0.077196825 269:0.096975876 280:0.035733076 359:0.11253481 381:0.10362826 612:0.11253481 633:0.083454126 725:0.091664046 741:0.12605656 744:0.12605656 756:0.12605656 759:0.13678938 761:0.21680604 763:0.13678938 771:0.13678938 772:0.12605656 773:0.12605656 984:0.13678938 1178:0.18772535 1246:0.096975876 1345:0.11253481 1355:0.13678938 1371:0.13678938 1372:0.13678938 1373:0.13678938 1374:0.13678938 1375:0.13678938 1802:0.12605656 2223:0.12605656 2259:0.15513725 2260:0.15513725 2261:0.15513725 2262:0.15513725 2263:0.13678938 2264:0.15513725 2265:0.11253481 2266:0.15513725 2267:0.15513725 2268:0.15513725 2269:0.15513725 2270:0.15513725 2271:0.13678938 2272:0.15513725 2273:0.15513725 2274:0.15513725 2275:0.15513725 2276:0.15513725 2277:0.15513725 2278:0.15513725 
-0.2359154929577465 3:0.02789926 6:0.040293681 10:0.017470596 18:0.028357371 19:0.028556236 26:0.051914855 30:0.03857827 33:0.036986047 41:0.020866024 45:0.052949018 72:0.045281093 76:0.09487639 132:0.039678775 280:0.035916355 299:0.12670312 450:0.12298164 487:0.13749099 629:0.064567783 646:0.12670312 682:0.050805577 740:0.11904901 834:0.087689535 890:0.23360229 1382:0.094670039 1386:0.092134202 1422:0.11311202 1515:0.10060703 1566:0.13749099 1617:0.11311202 1618:0.10826114 1672:0.10826114 1862:0.13749099 2279:0.15593297 2280:0.15593297 2281:0.15593297 2282:0.15593297 2283:0.15593297 2284:0.13749099 2285:0.15593297 2286:0.15593297 2287:0.15593297 2288:0.15593297 2289:0.15593297 2290:0.11904901 2291:0.12670312 2292:0.15593297 2293:0.15593297 2294:0.24714791 2295:0.15593297 2296:0.11311202 2297:0.13749099 2298:0.13749099 2299:0.15593297 2300:0.15593297 2301:0.15593297 2302:0.15593297 2303:0.15593297 2304:0.13749099 2305:0.15593297 2306:0.15593297 2307:0.13749099 2308:0.15593297 
-0.0489188387024532 10:0.024224041 33:0.037551286 140:0.10502517 247:0.22014601 682:0.13333757 692:0.27336394 1573:0.26403984 2009:0.29685877 2309:0.31244021 2310:0.31244021 2311:0.31244021 2312:0.31244021 2313:0.40924095 2314:0.36084058 
-0.2359154929577465 4:0.089774134 10:0.01464901 17:0.046677773 18:0.028264856 19:0.056926143 28:0.040384851 30:0.024260769 32:0.072777043 41:0.033116354 132:0.04990569 230:0.092685856 270:0.17292829 280:0.071598357 281:0.13100621 282:0.17292829 458:0.085832679 592:0.12653776 856:0.091198336 1523:0.19431054 2017:0.27408485 2061:0.1225963 2315:0.19612355 2316:0.19612355 2317:0.14973302 2318:0.27408485 2319:0.31084848 2320:0.19612355 2321:0.19612355 2322:0.19612355 2323:0.19612355 2324:0.19612355 2325:0.17292829 2326:0.19612355 2327:0.19612355 2328:0.19612355 2329:0.19612355 2330:0.19612355 2331:0.19612355 
-0.2359154929577465 2:0.049073958 10:0.0099303286 14:0.14952883 15:0.20300323 18:0.038320585 33:0.024398371 39:0.039179488 41:0.04489809 95:0.23445062 128:0.049456821 132:0.067660533 177:0.16786427 419:0.11636919 629:0.11010145 926:0.15316029 978:0.19287943 1086:0.15710791 1466:0.18460768 2332:0.23445062 2333:0.23445062 2334:0.23445062 2335:0.23445062 2336:0.23445062 2337:0.26589802 2338:0.23445062 2339:0.26589802 2340:0.23445062 2341:0.20300323 2342:0.26589802 2343:0.23445062 
-0.2359154929577465 10:0.0039145589 30:0.0081806938 39:0.015444646 377:0.031296425 561:0.047971813 686:0.10747184 860:0.080300811 1056:0.08516942 1061:0.053735921 1256:0.044175092 1257:0.11605404 1388:0.053735921 1397:0.20172344 1426:0.045914514 1433:0.058311151 1630:0.058311151 1665:0.082678568 1977:0.1113871 1978:0.053735921 2106:0.20172344 2344:0.066132559 2345:0.066132559 2346:0.26453023 2347:0.066132559 2348:0.066132559 2349:0.066132559 2350:0.066132559 2351:0.24471955 2352:0.066132559 2353:0.066132559 2354:0.24471955 2355:0.066132559 2356:0.08516942 2357:0.066132559 2358:0.066132559 2359:0.066132559 2360:0.066132559 2361:0.058311151 2362:0.13226512 2363:0.066132559 2364:0.066132559 2365:0.058311151 2366:0.058311151 2367:0.066132559 2368:0.066132559 2369:0.066132559 2370:0.066132559 2371:0.066132559 2372:0.22878106 2373:0.058311151 2374:0.066132559 2375:0.066132559 2376:0.13226512 2377:0.066132559 2378:0.066132559 2379:0.066132559 2380:0.066132559 2381:0.066132559 2382:0.066132559 2383:0.066132559 2384:0.066132559 2385:0.066132559 2386:0.10481763 2387:0.066132559 2388:0.10481763 2389:0.066132559 2390:0.066132559 2391:0.066132559 2392:0.058311151 2393:0.066132559 2394:0.066132559 2395:0.066132559 2396:0.066132559 2397:0.066132559 2398:0.066132559 2399:0.066132559 2400:0.066132559 2401:0.066132559 2402:0.066132559 2403:0.058311151 2404:0.066132559 2405:0.08516942 2406:0.066132559 2407:0.066132559 2408:0.066132559 2409:0.058311151 2410:0.066132559 2411:0.066132559 2412:0.058311151 2413:0.066132559 2414:0.066132559 2415:0.066132559 2416:0.066132559 2417:0.066132559 2418:0.066132559 2419:0.066132559 2420:0.066132559 2421:0.066132559 2422:0.066132559 2423:0.066132559 2424:0.092420988 2425:0.08516942 2426:0.066132559 2427:0.066132559 2428:0.092420988 2429:0.066132559 2430:0.066132559 2431:0.058311151 2432:0.066132559 2433:0.066132559 2434:0.066132559 2435:0.066132559 2436:0.066132559 2437:0.066132559 2438:0.066132559 2439:0.066132559 2440:0.066132559 2441:0.066132559 2442:0.066132559 2443:0.066132559 2444:0.066132559 2445:0.066132559 2446:0.066132559 2447:0.066132559 2448:0.066132559 2449:0.066132559 2450:0.058311151 2451:0.066132559 2452:0.066132559 2453:0.066132559 2454:0.066132559 2455:0.10481763 2456:0.092420988 2457:0.066132559 2458:0.066132559 2459:0.13226512 2460:0.066132559 2461:0.066132559 2462:0.066132559 2463:0.066132559 2464:0.066132559 2465:0.066132559 2466:0.066132559 2467:0.066132559 
-0.2359154929577465 6:0.060820559 10:0.020410267 18:0.021401757 28:0.04846633 32:0.087340577 33:0.021597184 41:0.031495838 112:0.12938517 446:0.19124971 453:0.12661441 526:0.06361853 884:0.17073486 926:0.13557589 1086:0.13907028 1187:0.15722208 1481:0.20753325 1508:0.28481197 1656:0.17969635 1723:0.13907028 2250:0.19124971 2468:0.20753325 2469:0.23537016 2470:0.23537016 2471:0.37305288 2472:0.23537016 2473:0.19124971 2474:0.23537016 2475:0.23537016 2476:0.23537016 2477:0.23537016 
-0.2359154929577465 3:0.041547352 4:0.10629432 10:0.017344713 18:0.042229567 19:0.042525714 26:0.029908047 33:0.02130759 41:0.019605204 230:0.10974186 247:0.12491665 302:0.20475046 391:0.10629432 526:0.062765476 629:0.15240019 693:0.11995748 742:0.10974186 814:0.16122161 961:0.10467689 1240:0.14982317 1345:0.1684455 1839:0.15511391 2148:0.14982317 2478:0.23221411 2479:0.23221411 2480:0.23221411 2481:0.23221411 2482:0.20475046 2483:0.23221411 2484:0.23221411 2485:0.23221411 2486:0.23221411 2487:0.23221411 2488:0.18868526 2489:0.23221411 2490:0.23221411 2491:0.20475046 
-0.2359154929577465 3:0.066199193 10:0.013818041 18:0.053323049 26:0.075529462 39:0.054518211 41:0.03123782 280:0.13507384 514:0.28247875 1444:0.22463248 1493:0.25688137 2492:0.51707463 2493:0.30064038 2494:0.36999678 2495:0.36999678 2496:0.36999678 
-0.2359154929577465 10:0.022138037 33:0.086209536 45:0.12699644 2497:0.59277596 2498:0.52266916 2499:0.59277596 
-0.2359154929577465 3:0.030241642 10:0.014657095 18:0.035685963 19:0.030953776 26:0.043539163 28:0.034804817 32:0.062721333 33:0.024581895 39:0.039474194 41:0.01427031 128:0.049828833 132:0.043010148 152:0.076192606 165:0.097360252 280:0.038931841 329:0.12904419 411:0.082628059 471:0.12904419 475:0.12904419 483:0.079879316 663:0.18599629 786:0.12904419 1944:0.12260874 2113:0.12904419 2500:0.16902488 2501:0.16902488 2502:0.14903453 2503:0.16902488 2504:0.26789809 2505:0.16902488 2506:0.26789809 2507:0.16902488 2508:0.16902488 2509:0.11735059 2510:0.16902488 2511:0.13734093 2512:0.16902488 2513:0.16902488 2514:0.16902488 2515:0.16902488 2516:0.13734093 2517:0.13734093 2518:0.16902488 2519:0.16902488 2520:0.16902488 2521:0.13734093 2522:0.14903453 2523:0.16902488 2524:0.16902488 2525:0.16902488 2526:0.16902488 2527:0.16902488 
-0.2359154929577465 2:0.044405754 6:0.039226836 10:0.014241993 18:0.021877681 19:0.04406221 26:0.030988654 33:0.034991937 41:0.02031356 45:0.08170022 116:0.14216287 226:0.12429166 305:0.2121483 509:0.092364372 789:0.19550264 1026:0.2121483 1320:0.16071833 1603:0.14607567 1618:0.16704671 1931:0.19550264 2528:0.30986436 2529:0.38134868 2530:0.19550264 2531:0.24060423 2532:0.24060423 2533:0.24060423 2534:0.30986436 2535:0.24060423 2536:0.24060423 2537:0.18369236 
-0.2359154929577465 18:0.037558378 33:0.037901337 1155:0.36420431 1169:0.36420431 2538:0.65467806 2539:0.41305587 2540:0.36420431 
-0.2359154929577465 10:0.017672265 18:0.034098143 26:0.030472856 32:0.055393572 33:0.043419962 39:0.034862406 41:0.019975446 45:0.050689112 140:0.060719475 165:0.13628397 230:0.11181432 280:0.086374791 391:0.10830168 483:0.11181432 913:0.38449711 918:0.33065035 1090:0.14789767 1531:0.12222286 1617:0.17162657 1923:0.20861714 2013:0.18063485 2541:0.23659944 2542:0.20861714 2543:0.23659944 2544:0.23659944 2545:0.23659944 2546:0.23659944 2547:0.23659944 2548:0.20861714 2549:0.23659944 2550:0.20861714 
-0.2359154929577465 6:0.070232053 10:0.016088067 18:0.024713508 26:0.081280167 33:0.024939176 39:0.040047925 41:0.036369566 202:0.18155094 567:0.13775188 833:0.31248283 1429:0.19715472 2551:0.23964736 2552:0.27179181 2553:0.23964736 2554:0.27179181 2555:0.22084407 2556:0.23964736 2557:0.27179181 2558:0.23964736 2559:0.27179181 2560:0.27179181 2561:0.27179181 2562:0.27179181 
-0.2359154929577465 7:0.15307337 10:0.01526425 18:0.029451944 26:0.041717223 30:0.065347052 33:0.043540303 41:0.0172536 45:0.043782234 162:0.18019106 280:0.09414153 483:0.096578545 569:0.13650831 623:0.14188341 742:0.096578545 814:0.14188341 845:0.16605284 1206:0.17067312 1366:0.16605284 1402:0.13650831 1658:0.10556882 1757:0.18019106 1949:0.16605284 2023:0.15602162 2062:0.16605284 2563:0.20436049 2564:0.28559607 2565:0.16605284 2566:0.20436049 2567:0.20436049 2568:0.20436049 2569:0.20436049 2570:0.20436049 2571:0.20436049 2572:0.20436049 2573:0.15602162 2574:0.16605284 2575:0.20436049 2576:0.20436049 2577:0.20436049 
-0.2359154929577465 3:0.025625922 6:0.023350961 10:0.012420013 18:0.036561172 26:0.0292377 28:0.068479764 30:0.017717383 32:0.033532846 33:0.02083001 39:0.04900238 41:0.028077361 45:0.030684972 148:0.16467003 161:0.099439612 177:0.057049117 240:0.18445614 280:0.032989753 419:0.062682696 531:0.080544257 565:0.072591526 633:0.077047133 958:0.075469929 961:0.064563484 989:0.10389522 1087:0.1262877 1089:0.17331318 1187:0.15163724 1204:0.10934844 1250:0.1262877 1330:0.11637887 1400:0.17331318 1507:0.1262877 1609:0.11637887 1898:0.10934844 2488:0.11637887 2578:0.1262877 2579:0.14322695 2580:0.14322695 2581:0.14322695 2582:0.14322695 2583:0.18445614 2584:0.1262877 2585:0.14322695 2586:0.14322695 2587:0.14322695 2588:0.14322695 2589:0.1262877 2590:0.14322695 2591:0.11637887 2592:0.14322695 2593:0.1262877 2594:0.1262877 2595:0.20016126 2596:0.10934844 2597:0.11637887 2598:0.14322695 2599:0.14322695 2600:0.14322695 2601:0.14322695 2602:0.14322695 2603:0.1262877 2604:0.11637887 2605:0.11637887 2606:0.22700935 2607:0.14322695 2608:0.14322695 2609:0.1262877 2610:0.14322695 
-0.2359154929577465 6:0.040481181 10:0.018546061 26:0.050686419 28:0.081036539 30:0.03071482 33:0.036110864 39:0.073172317 41:0.03322576 163:0.13356876 177:0.098900238 377:0.074136756 526:0.067112804 886:0.27322902 991:0.13963137 1013:0.17238832 1081:0.17238832 1573:0.16020038 1574:0.2189321 2089:0.18011255 2090:0.18956624 2109:0.2189321 2218:0.18956624 2611:0.2189321 2612:0.39354296 2613:0.24829797 2614:0.39354296 2615:0.2189321 2616:0.2189321 2617:0.2189321 
-0.2359154929577465 6:0.036823166 7:0.10673942 10:0.0084350882 18:0.020537101 23:0.092299612 30:0.044282784 33:0.032847766 39:0.052747728 132:0.057472676 140:0.057963609 221:0.12701381 226:0.11667554 306:0.18352299 453:0.12149904 460:0.15087012 633:0.12149904 682:0.11663625 1027:0.16383697 1124:0.31564317 1170:0.12149904 1182:0.18352299 1271:0.14118506 1393:0.19914867 1468:0.16383697 1491:0.18352299 1690:0.15087012 1983:0.19914867 2023:0.1724364 2618:0.15087012 2619:0.22586093 2620:0.19914867 2621:0.22586093 2622:0.1724364 2623:0.22586093 2624:0.22586093 2625:0.22586093 2626:0.22586093 2627:0.22586093 
-0.2359154929577465 2:0.040015434 3:0.024475259 6:0.022302449 10:0.014342286 17:0.032557641 18:0.028881474 19:0.058168027 26:0.017618625 30:0.033843663 32:0.050761822 33:0.019894695 41:0.018305193 45:0.046450727 128:0.040327624 322:0.13988847 325:0.083051439 368:0.066872795 377:0.040844442 411:0.066872795 413:0.10443844 431:0.11115319 448:0.11115319 505:0.13988847 509:0.052513839 526:0.058603529 534:0.16553102 651:0.11115319 658:0.12061709 659:0.17617364 668:0.24123418 742:0.064648174 776:0.12061709 890:0.13988847 1170:0.11663349 1274:0.072081155 1328:0.12061709 1354:0.080826819 1402:0.091376536 1510:0.091376536 2062:0.17617364 2095:0.15053109 2216:0.10443844 2521:0.11115319 2603:0.12061709 2628:0.13679573 2629:0.12061709 2630:0.13679573 2631:0.13679573 2632:0.13679573 2633:0.13679573 2634:0.13679573 2635:0.13679573 2636:0.12061709 2637:0.13679573 2638:0.13679573 2639:0.13679573 2640:0.13679573 2641:0.13679573 2642:0.13679573 2643:0.11115319 2644:0.13679573 2645:0.11115319 2646:0.13679573 2647:0.13679573 2648:0.13679573 2649:0.13679573 2650:0.13679573 2651:0.13679573 2652:0.13679573 2653:0.13679573 2654:0.13679573 2655:0.13679573 2656:0.13679573 2657:0.12061709 2658:0.13679573 
-0.2359154929577465 3:0.03287181 10:0.015931848 18:0.026478044 19:0.033645879 26:0.03750484 30:0.036021573 33:0.039143835 39:0.042907332 40:0.12755678 41:0.015511423 45:0.062386243 128:0.054162532 132:0.046750814 140:0.074731236 280:0.067072141 308:0.075080582 450:0.091422316 458:0.080406616 469:0.12272443 519:0.13327223 526:0.049659357 606:0.12755678 701:0.11853845 1090:0.11484616 1211:0.12755678 1263:0.11484616 1366:0.14928571 1382:0.1115433 1386:0.10855549 1430:0.14928571 1659:0.16199632 1704:0.12755678 2076:0.14928571 2149:0.14928571 2341:0.14026739 2659:0.18372526 2660:0.18372526 2661:0.29119765 2662:0.16199632 2663:0.14928571 2664:0.18372526 2665:0.18372526 2666:0.18372526 2667:0.18372526 2668:0.16199632 2669:0.18372526 2670:0.16199632 2671:0.18372526 2672:0.16199632 2673:0.18372526 2674:0.18372526 2675:0.18372526 2676:0.18372526 2677:0.18372526 
-0.2359154929577465 2:0.024887703 10:0.0079820848 14:0.075833073 19:0.02469516 23:0.055107104 26:0.017367939 28:0.02776755 30:0.026438854 32:0.031571447 33:0.012373557 39:0.031492814 41:0.022769925 120:0.14838927 128:0.025081871 132:0.054386127 140:0.034606935 193:0.079676778 210:0.048308843 213:0.10635335 289:0.093623203 322:0.087003999 499:0.097818193 520:0.11890089 682:0.043936178 941:0.10957165 991:0.075833073 1504:0.10957165 1511:0.077674756 1521:0.093623203 1658:0.069660655 1987:0.10295245 1994:0.11890089 2204:0.18845346 2206:0.18845346 2208:0.11890089 2210:0.11890089 2211:0.11890089 2212:0.11890089 2215:0.10957165 2591:0.10957165 2678:0.13484934 2679:0.13484934 2680:0.13484934 2681:0.13484934 2682:0.13484934 2683:0.13484934 2684:0.13484934 2685:0.11890089 2686:0.13484934 2687:0.13484934 2688:0.13484934 2689:0.13484934 2690:0.13484934 2691:0.13484934 2692:0.13484934 2693:0.13484934 2694:0.18845346 2695:0.13484934 2696:0.13484934 2697:0.13484934 2698:0.11890089 2699:0.11890089 2700:0.13484934 2701:0.13484934 2702:0.13484934 2703:0.13484934 2704:0.13484934 2705:0.13484934 2706:0.13484934 2707:0.18845346 2708:0.13484934 2709:0.13484934 2710:0.10957165 2711:0.13484934 2712:0.13484934 2713:0.13484934 
-0.2359154929577465 6:0.029395188 10:0.015634843 18:0.032788704 23:0.073680911 26:0.02322179 32:0.066905355 33:0.026221707 45:0.038627553 128:0.033535696 210:0.064591302 450:0.089717999 458:0.078907656 526:0.048733595 663:0.12517883 732:0.13765249 737:0.083840409 958:0.19000954 991:0.10139255 1014:0.13765249 1033:0.14650269 1096:0.10385497 1170:0.096990223 1190:0.15897635 1609:0.14650269 1704:0.12517883 1784:0.13078774 1835:0.15897635 1954:0.12517883 2113:0.13765249 2714:0.18030021 2715:0.28576907 2716:0.28576907 2717:0.18030021 2718:0.23220127 2719:0.18030021 2720:0.18030021 2721:0.18030021 2722:0.14650269 2723:0.15897635 2724:0.18030021 2725:0.28576907 2726:0.18030021 2727:0.15897635 2728:0.13765249 2729:0.15897635 2730:0.18030021 
-0.2359154929577465 3:0.028675773 10:0.0094869779 17:0.038145276 18:0.029146634 19:0.029351033 23:0.065496658 26:0.020642383 28:0.052307999 30:0.039652008 33:0.03801547 39:0.054834363 41:0.021446782 57:0.19393992 72:0.10806576 89:0.092319075 113:0.11627888 152:0.07224746 280:0.058510483 318:0.14131774 381:0.10705884 450:0.079752395 564:0.088103567 740:0.12236247 859:0.12236247 890:0.20681439 965:0.078349694 1074:0.14131774 1081:0.11127434 1090:0.15879141 1122:0.13022961 1271:0.10018622 1386:0.15009365 1422:0.11626023 1487:0.12236247 1531:0.082794046 1764:0.13022961 1944:0.11626023 1989:0.14131774 2039:0.13022961 2107:0.14131774 2668:0.14131774 2731:0.14131774 2732:0.16027301 2733:0.16027301 2734:0.13022961 2735:0.14131774 2736:0.16027301 2737:0.16027301 2738:0.16027301 2739:0.16027301 2740:0.16027301 2741:0.16027301 2742:0.16027301 2743:0.16027301 2744:0.16027301 2745:0.16027301 2746:0.14131774 2747:0.16027301 2748:0.14131774 2749:0.16027301 2750:0.16027301 2751:0.16027301 2752:0.14131774 
-0.2359154929577465 6:0.08592546 10:0.019682958 18:0.047922547 26:0.067879918 100:0.38230736 229:0.30357983 1033:0.42824394 1187:0.35204971 2753:0.52703791 2754:0.4023738 
-0.2359154929577465 6:0.046473345 10:0.013759311 17:0.033921442 18:0.030091284 26:0.055069944 28:0.02934828 32:0.033368723 33:0.02072806 37:0.12566959 41:0.024066154 43:0.11580926 74:0.080150041 128:0.061553646 132:0.036267217 140:0.073154024 177:0.056769896 319:0.18355334 411:0.1104307 421:0.12566959 430:0.19918159 486:0.13714738 526:0.038523536 554:0.12566959 629:0.093538596 693:0.073626245 729:0.098952914 781:0.098952914 833:0.10338671 876:0.12566959 878:0.16386406 953:0.16419313 958:0.075100549 1027:0.10338671 1170:0.076670033 1523:0.089092582 1539:0.12566959 1677:0.084212558 1777:0.10338671 2095:0.098952914 2643:0.11580926 2755:0.12566959 2756:0.11580926 2757:0.14252594 2758:0.12566959 2759:0.14252594 2760:0.14252594 2761:0.14252594 2762:0.14252594 2763:0.14252594 2764:0.14252594 2765:0.14252594 2766:0.12566959 2767:0.14252594 2768:0.12566959 2769:0.14252594 2770:0.14252594 2771:0.14252594 2772:0.12566959 2773:0.14252594 2774:0.14252594 2775:0.14252594 2776:0.14252594 2777:0.10338671 2778:0.14252594 2779:0.12566959 2780:0.14252594 2781:0.14252594 2782:0.14252594 2783:0.12566959 2784:0.14252594 2785:0.14252594 2786:0.14252594 
-0.2359154929577465 6:0.032042878 10:0.0073400668 18:0.050170318 26:0.075940283 30:0.024312315 33:0.041874149 41:0.016593357 45:0.042106823 189:0.13128455 213:0.097799098 280:0.090539023 395:0.13645397 514:0.23782545 629:0.0813822 845:0.15969851 1444:0.11932353 1468:0.14256808 1493:0.27290793 1496:0.15005115 1618:0.13645397 2492:0.1732957 2530:0.15969851 2622:0.15005115 2787:0.19654025 2788:0.19654025 2789:0.31150892 2790:0.15005115 2791:0.1732957 2792:0.19654025 2793:0.19654025 2794:0.1732957 2795:0.19654025 2796:0.31150892 2797:0.1732957 2798:0.19654025 2799:0.19654025 2800:0.19654025 
-0.2359154929577465 32:0.05223867 252:0.18129917 253:0.1967355 1112:0.14904197 1913:0.28735239 2589:0.31181839 2801:0.22312408 2802:0.3536433 2803:0.3536433 2804:0.22312408 2805:0.22312408 2806:0.22312408 2807:0.22312408 2808:0.3536433 2809:0.22312408 2810:0.22312408 
-0.2359154929577465 3:0.016430922 6:0.034764499 10:0.012295334 17:0.02185685 18:0.031792787 19:0.01681784 26:0.030574608 30:0.034080289 33:0.026711724 39:0.037988153 41:0.0077533604 45:0.031183666 49:0.088369176 58:0.12603218 72:0.026667737 112:0.050482437 123:0.074620228 128:0.06123545 132:0.037037913 140:0.037354291 177:0.036578962 213:0.10610585 218:0.05289788 280:0.033525904 287:0.066615916 320:0.16194722 322:0.059251259 377:0.027420011 383:0.080973608 391:0.042036705 399:0.074620228 435:0.054261292 440:0.059251259 480:0.070112434 483:0.043400118 485:0.049401363 509:0.035254001 526:0.06968459 565:0.093089 633:0.049401363 682:0.069475138 737:0.067683585 807:0.061343611 818:0.10558373 834:0.051643662 926:0.05289788 958:0.07669647 991:0.051643662 1086:0.054261292 1222:0.05289788 1270:0.080973608 1331:0.066615916 1346:0.074620228 1347:0.070112434 1417:0.080973608 1443:0.10558373 1448:0.061343611 1515:0.059251259 1521:0.063759054 1523:0.057405674 1529:0.074620228 1541:0.063759054 1619:0.066615916 1658:0.047440136 1748:0.059251259 1755:0.11827026 1765:0.055754742 1766:0.074620228 1775:0.080973608 1838:0.066615916 1839:0.097227323 1859:0.070112434 1933:0.070112434 2051:0.074620228 2061:0.057405674 2142:0.080973608 2148:0.059251259 2217:0.051643662 2265:0.066615916 2340:0.080973608 2542:0.080973608 2662:0.080973608 2735:0.12834013 2790:0.070112434 2811:0.1732628 2812:0.061343611 2813:0.080973608 2814:0.16194722 2815:0.091834782 2816:0.18366956 2817:0.091834782 2818:0.091834782 2819:0.091834782 2820:0.091834782 2821:0.074620228 2822:0.091834782 2823:0.14022487 2824:0.080973608 2825:0.091834782 2826:0.091834782 2827:0.080973608 2828:0.091834782 2829:0.091834782 2830:0.091834782 2831:0.091834782 2832:0.091834782 2833:0.091834782 2834:0.091834782 2835:0.091834782 2836:0.091834782 2837:0.091834782 2838:0.091834782 2839:0.091834782 2840:0.091834782 2841:0.080973608 2842:0.091834782 2843:0.080973608 2844:0.091834782 2845:0.091834782 2846:0.091834782 2847:0.070112434 2848:0.091834782 2849:0.11112558 2850:0.091834782 2851:0.14555469 2852:0.091834782 2853:0.074620228 2854:0.091834782 2855:0.091834782 2856:0.080973608 2857:0.091834782 2858:0.080973608 2859:0.061343611 2860:0.080973608 2861:0.091834782 2862:0.091834782 2863:0.091834782 2864:0.091834782 2865:0.091834782 2866:0.091834782 2867:0.091834782 2868:0.091834782 2869:0.091834782 2870:0.066615916 2871:0.080973608 2872:0.091834782 2873:0.091834782 2874:0.091834782 2875:0.091834782 2876:0.080973608 2877:0.091834782 
-0.2359154929577465 10:0.020919049 19:0.039682789 23:0.088551911 26:0.064801849 28:0.070720756 41:0.02899619 140:0.055610075 177:0.086310444 344:0.13854822 411:0.16789397 458:0.094833567 498:0.11656573 569:0.14474425 781:0.15044364 878:0.1571846 953:0.12481599 965:0.1059293 1062:0.27906639 1066:0.16543486 1449:0.1571846 1898:0.16543486 2290:0.16543486 2565:0.17607129 2878:0.17607129 2879:0.21669015 2880:0.21669015 2881:0.1910625 2882:0.1910625 2883:0.21669015 2884:0.1910625 2885:0.21669015 2886:0.1910625 2887:0.21669015 2888:0.1910625 2889:0.1910625 2890:0.17607129 2891:0.1910625 2892:0.1910625 
-0.2359154929577465 6:0.053404116 10:0.023155038 18:0.037584065 26:0.068806494 28:0.085112716 41:0.027655243 163:0.11117508 189:0.2188048 202:0.13805046 391:0.09460132 526:0.055860902 737:0.096102101 971:0.15778422 1183:0.16792877 1429:0.1499155 1799:0.1822267 2144:0.25008207 2145:0.2188048 2146:0.23761044 2147:0.23761044 2482:0.1822267 2553:0.1822267 2555:0.16792877 2777:0.1499155 2893:0.15778422 2894:0.20666918 2895:0.20666918 2896:0.15778422 2897:0.1499155 2898:0.1822267 2899:0.20666918 2900:0.20666918 2901:0.16792877 2902:0.20666918 2903:0.20666918 2904:0.20666918 
-0.2359154929577465 6:0.024657676 10:0.0056483377 17:0.071991713 19:0.043898951 26:0.019479221 30:0.029652816 32:0.035409337 41:0.033007236 45:0.051356108 49:0.14553443 58:0.073934827 128:0.044586381 132:0.038485085 156:0.12289141 210:0.054181366 213:0.075258488 218:0.087117058 288:0.11546756 368:0.073934827 375:0.094540906 397:0.11546756 512:0.10970917 526:0.064792294 535:0.11546756 682:0.049277151 742:0.071475278 781:0.10500423 1137:0.12289141 1271:0.094540906 1386:0.089362451 1469:0.13335473 1515:0.097580384 1603:0.091822 1611:0.10102626 1642:0.10970917 1686:0.10970917 1748:0.097580384 1933:0.11546756 2343:0.13335473 2528:0.12289141 2622:0.11546756 2823:0.11546756 2905:0.1512419 2906:0.1512419 2907:0.13335473 2908:0.1512419 2909:0.1512419 2910:0.1512419 2911:0.1512419 2912:0.1512419 2913:0.1512419 2914:0.1512419 2915:0.1512419 2916:0.12289141 2917:0.1512419 2918:0.1512419 2919:0.1512419 2920:0.1512419 2921:0.1512419 2922:0.1512419 2923:0.1512419 2924:0.1512419 2925:0.1512419 2926:0.1512419 2927:0.1512419 2928:0.13335473 2929:0.1512419 2930:0.12289141 2931:0.1512419 2932:0.11546756 2933:0.1512419 2934:0.1512419 
-0.2359154929577465 10:0.027265389 18:0.023646338 30:0.03216923 33:0.023862261 39:0.088973007 41:0.034799068 189:0.17371127 280:0.094937798 364:0.21130765 616:0.19854259 842:0.22929899 1138:0.18864125 1248:0.21130765 1696:0.1677862 2144:0.19854259 2145:0.17371127 2146:0.2989893 2147:0.18864125 2777:0.2989893 2897:0.18864125 2901:0.21130765 2935:0.26005538 2936:0.26005538 2937:0.19854259 2938:0.21130765 2939:0.22929899 2940:0.26005538 
-0.2359154929577465 3:0.025757712 6:0.023471051 7:0.068035604 10:0.017860404 14:0.12831616 15:0.1099108 17:0.034263593 18:0.0367492 19:0.026364258 26:0.029388064 30:0.035617 32:0.0337053 33:0.030672349 39:0.049254391 40:0.15841861 41:0.034121854 45:0.048884649 72:0.041805314 74:0.080958482 77:0.1099108 84:0.19232895 122:0.10442953 128:0.026777105 140:0.058557945 161:0.099951012 308:0.058831686 509:0.055265455 513:0.10442953 526:0.061674232 531:0.080958482 567:0.072964851 692:0.096164476 898:0.12543093 926:0.08292464 962:0.09288443 1086:0.085061976 1090:0.089991223 1139:0.1099108 1206:0.075858058 1386:0.085061976 1714:0.1099108 1739:0.12693717 2341:0.1099108 2537:0.1099108 2663:0.11697738 2813:0.12693717 2941:0.14396354 2942:0.12693717 2943:0.12693717 2944:0.14396354 2945:0.14396354 2946:0.12693717 2947:0.12693717 2948:0.14396354 2949:0.11697738 2950:0.14396354 2951:0.14396354 2952:0.14396354 2953:0.11697738 2954:0.11697738 2955:0.14396354 2956:0.14396354 2957:0.14396354 2958:0.14396354 2959:0.14396354 2960:0.14396354 2961:0.14396354 2962:0.14396354 2963:0.14396354 2964:0.14396354 2965:0.14396354 2966:0.14396354 2967:0.11697738 2968:0.14396354 2969:0.14396354 2970:0.14396354 2971:0.10442953 2972:0.14396354 2973:0.14396354 2974:0.14396354 
-0.2359154929577465 2:0.047034499 10:0.015085095 18:0.046345606 19:0.046670618 30:0.031525018 33:0.037063401 39:0.037551232 41:0.021516088 45:0.054598601 128:0.047401451 280:0.058699561 361:0.15057868 377:0.076092343 419:0.11153302 450:0.12681303 633:0.13709205 737:0.11850528 778:0.20707607 856:0.11850528 1081:0.17693559 1088:0.20707607 1221:0.092320576 1234:0.14331458 1269:0.15930454 1706:0.17693559 1707:0.17023258 2509:0.17693559 2618:0.17023258 2975:0.19456664 2976:0.29300183 2977:0.22470712 2978:0.22470712 2979:0.22470712 2980:0.17023258 2981:0.29300183 2982:0.22470712 2983:0.20707607 2984:0.22470712 2985:0.22470712 
-0.2359154929577465 6:0.041231483 10:0.014969816 19:0.073405898 26:0.032572298 32:0.059209939 41:0.021351664 140:0.064902773 213:0.12584394 280:0.092325624 377:0.11968187 411:0.12363057 485:0.1360444 570:0.20549361 572:0.19307978 573:0.20549361 737:0.11759967 749:0.16316963 807:0.16893167 819:0.20549361 820:0.18345086 856:0.11759967 1175:0.18345086 1745:0.22298992 2986:0.22298992 2987:0.25290007 2988:0.25290007 2989:0.22298992 2990:0.25290007 2991:0.25290007 2992:0.25290007 2993:0.25290007 2994:0.25290007 
-0.2359154929577465 6:0.059834197 10:0.020420856 14:0.088885416 18:0.02277916 26:0.020357298 30:0.039104388 39:0.054077064 41:0.037462847 58:0.077267633 62:0.10197908 72:0.045898622 177:0.099784676 189:0.10558028 191:0.12843106 202:0.10558028 221:0.088885416 280:0.03640617 364:0.12843106 377:0.047193382 833:0.1146546 834:0.088885416 1125:0.10197908 1138:0.2293092 1253:0.22088995 1665:0.098802585 2071:0.12843106 2144:0.12067256 2145:0.10558028 2146:0.1146546 2147:0.1146546 2860:0.13936604 2878:0.12843106 2896:0.19126148 2897:0.18172325 2901:0.12843106 2937:0.19126148 2939:0.22088995 2995:0.15805953 2996:0.15805953 2997:0.13936604 2998:0.15805953 2999:0.13936604 3000:0.15805953 3001:0.15805953 3002:0.15805953 3003:0.15805953 3004:0.15805953 3005:0.15805953 3006:0.13936604 3007:0.13936604 3008:0.12843106 3009:0.15805953 3010:0.15805953 3011:0.25051843 3012:0.13936604 3013:0.12843106 
-0.2359154929577465 3:0.051304567 10:0.016973398 17:0.0682467 18:0.026073499 30:0.056220549 32:0.067134683 33:0.026311585 41:0.024209401 132:0.11564865 220:0.20800419 246:0.17409083 247:0.30850557 377:0.085617334 403:0.23299717 439:0.17924576 522:0.20800419 633:0.15425278 1211:0.19908381 1437:0.23299717 1438:0.23299717 1439:0.23299717 1440:0.23299717 1441:0.19154174 1442:0.36929178 1443:0.20800419 1444:0.17409083 1445:0.21892186 1446:0.18500849 1447:0.23299717 
-0.2359154929577465 10:0.016907342 18:0.036975953 28:0.036062954 32:0.064988607 39:0.051611469 107:0.13370893 132:0.044564894 165:0.10087967 821:0.15442189 1705:0.13370893 1890:0.14230558 1980:0.22554902 2039:0.14230558 2176:0.15442189 2849:0.13370893 3026:0.49166568 3027:0.15442189 3028:0.17513485 3029:0.17513485 3030:0.17513485 3031:0.17513485 3032:0.15442189 3033:0.17513485 3034:0.17513485 3035:0.17513485 3036:0.27758217 3037:0.31046252 3038:0.27758217 3039:0.17513485 
-0.2359154929577465 2:0.07390896 3:0.030857951 6:0.028118513 10:0.014955799 18:0.015682322 28:0.035514121 30:0.02133473 32:0.080758454 33:0.031651046 41:0.023078847 58:0.084311975 89:0.099344403 90:0.10781023 128:0.032079193 229:0.099344403 368:0.13363132 513:0.12510744 633:0.092777799 781:0.11974214 851:0.15207178 961:0.077745371 1170:0.092777799 1912:0.15207178 2217:0.096988929 3040:0.24102807 3041:0.15207178 3042:0.14013987 3043:0.17246951 3044:0.17246951 3045:0.14013987 3046:0.15207178 3047:0.17246951 3048:0.17246951 3049:0.15207178 3050:0.17246951 3051:0.14013987 3052:0.15207178 3053:0.17246951 3054:0.17246951 3055:0.17246951 3056:0.17246951 3057:0.17246951 3058:0.17246951 3059:0.12510744 3060:0.27335771 3061:0.13167405 3062:0.17246951 3063:0.15207178 3064:0.17246951 3065:0.17246951 3066:0.17246951 3067:0.17246951 
-0.2359154929577465 3:0.055550941 26:0.039988594 28:0.063933048 33:0.028489341 41:0.026213164 45:0.15444947 59:0.25228187 76:0.11918947 128:0.057749439 281:0.20739525 344:0.1252505 526:0.083920662 593:0.25228187 926:0.17884127 965:0.15177967 1053:0.27376187 1086:0.1834508 1333:0.27376187 2150:0.23704157 3068:0.31048218 3069:0.27376187 3070:0.31048218 3071:0.31048218 3072:0.31048218 
-0.2359154929577465 6:0.046233932 18:0.025785695 19:0.05193305 26:0.036524163 30:0.03507968 32:0.10523143 33:0.041242553 39:0.041785391 74:0.15947428 280:0.065318338 377:0.084672276 634:0.25004438 1426:0.19688629 1563:0.36521548 2108:0.25004438 3073:0.28358341 3074:0.28358341 3075:0.28358341 3076:0.28358341 3077:0.28358341 3078:0.28358341 3079:0.28358341 3080:0.28358341 
-0.2359154929577465 10:0.01320719 17:0.053103516 18:0.032155845 28:0.091888599 33:0.020473337 39:0.032876574 41:0.037675209 45:0.047801759 58:0.10907365 72:0.064792071 142:0.18129769 148:0.16185038 177:0.088872435 280:0.051392201 629:0.092389121 682:0.072696977 1187:0.14904075 2040:0.1967339 2583:0.18129769 2596:0.17034553 2597:0.18129769 2604:0.18129769 2605:0.18129769 2609:0.31181585 3081:0.1967339 3082:0.22312226 3083:0.22312226 3084:0.22312226 3085:0.22312226 3086:0.22312226 3087:0.1967339 3088:0.22312226 3089:0.22312226 3090:0.1967339 3091:0.22312226 3092:0.22312226 
-0.2359154929577465 6:0.026249292 10:0.013961589 18:0.029279631 26:0.032866694 30:0.039832942 33:0.038188936 39:0.023723635 41:0.013593157 116:0.09513066 126:0.097748969 128:0.029946679 140:0.065489379 161:0.11178209 210:0.057678689 468:0.19482488 471:0.12292081 615:0.28392515 693:0.083171838 1154:0.13082386 1263:0.10064338 1271:0.10064338 1386:0.15077853 1531:0.083171838 2061:0.10064338 2076:0.13082386 2148:0.10387905 2824:0.14196257 2916:0.13082386 3093:0.16100434 3094:0.14196257 3095:0.16100434 3096:0.14196257 3097:0.14196257 3098:0.16100434 3099:0.12292081 3100:0.13082386 3101:0.11679073 3102:0.16100434 3103:0.16100434 3104:0.16100434 3105:0.16100434 3106:0.16100434 3107:0.16100434 3108:0.16100434 3109:0.16100434 3110:0.16100434 3111:0.16100434 3112:0.16100434 3113:0.16100434 3114:0.16100434 3115:0.16100434 3116:0.16100434 3117:0.14196257 3118:0.16100434 3119:0.16100434 3120:0.16100434 
-0.2359154929577465 10:0.014976099 18:0.057791932 39:0.059087259 41:0.033855791 189:0.26786275 280:0.092364376 395:0.27841001 1416:0.32583637 2296:0.29088478 3121:0.40100537 3122:0.40100537 3123:0.40100537 3124:0.40100537 
-0.2359154929577465 6:0.058525647 10:0.016917093 18:0.032641059 26:0.058341376 28:0.073918806 39:0.05289442 62:0.1461294 172:0.23160962 177:0.090213471 377:0.067625056 526:0.061218043 880:0.1997025 971:0.17291595 998:0.1997025 1013:0.31449365 1167:0.1997025 2185:0.1997025 2424:0.1997025 2493:0.18403337 2578:0.1997025 2617:0.1997025 3125:0.1997025 3126:0.22648905 3127:0.22648905 3128:0.22648905 3129:0.22648905 3130:0.22648905 3131:0.22648905 3132:0.22648905 3133:0.22648905 
-0.2359154929577465 6:0.049689034 10:0.018040478 18:0.027712683 28:0.062758025 41:0.025731394 159:0.22108096 230:0.14403374 285:0.22108096 1206:0.16059415 1764:0.2476452 2183:0.21159978 2317:0.232685 2412:0.42592764 2859:0.20358355 3134:0.30477584 3135:0.30477584 3136:0.30477584 3137:0.30477584 3138:0.30477584 
-0.2359154929577465 2:0.044325125 10:0.0089693816 19:0.043982205 33:0.022037368 39:0.035388132 41:0.020276676 72:0.069741766 1278:0.19514766 2056:0.21176309 3139:0.24016736 3140:0.24016736 3141:0.19514766 3142:0.24016736 3143:0.24016736 3144:0.24016736 3145:0.38065626 3146:0.38065626 3147:0.38065626 3148:0.38065626 
-0.2359154929577465 33:0.049001913 45:0.11441113 344:0.21543194 485:0.28727579 3149:0.53403202 3150:0.53403202 3151:0.53403202 
-0.2359154929577465 3:0.053041257 6:0.038302583 10:0.011071528 17:0.035278445 18:0.026956102 19:0.043024028 23:0.096007866 26:0.019090993 33:0.027202248 39:0.050713254 41:0.012514452 45:0.050332561 128:0.027570215 140:0.03804025 221:0.083356388 344:0.05979596 377:0.070146898 395:0.10291146 426:0.19089626 507:0.083356388 693:0.076571612 742:0.070050748 769:0.10752263 834:0.083356388 910:0.12044213 962:0.09563557 1057:0.09265667 1441:0.099012768 1611:0.099012768 1697:0.10291146 1736:0.12044213 2205:0.089991953 2616:0.13069692 2645:0.12044213 2698:0.13069692 2728:0.11316624 2755:0.13069692 2779:0.13069692 2783:0.13069692 3152:0.1482276 3153:0.1482276 3154:0.1482276 3155:0.23493518 3156:0.1482276 3157:0.1482276 3158:0.1482276 3159:0.10752263 3160:0.1482276 3161:0.1482276 3162:0.1482276 3163:0.13069692 3164:0.1482276 3165:0.1482276 3166:0.1482276 3167:0.1482276 3168:0.12044213 3169:0.1482276 3170:0.1482276 3171:0.1482276 3172:0.1482276 3173:0.1482276 3174:0.1482276 3175:0.11316624 3176:0.1482276 3177:0.1482276 3178:0.1482276 3179:0.1482276 3180:0.1482276 3181:0.13069692 3182:0.1482276 
-0.2359154929577465 2:0.11769799 10:0.0238167 41:0.053841338 131:0.41145606 3183:0.63772446 3184:0.63772446 
-0.2359154929577465 2:0.070999276 3:0.068829194 30:0.047587484 33:0.035299103 41:0.032478855 651:0.31258441 3185:0.38469624 3186:0.38469624 3187:0.38469624 3188:0.38469624 3189:0.38469624 3190:0.38469624 
-0.2359154929577465 6:0.046833885 19:0.052606958 26:0.036998118 32:0.067255195 33:0.026358816 41:0.024252859 172:0.1853406 235:0.25328908 614:0.25328908 3191:0.28726332 3192:0.28726332 3193:0.28726332 3194:0.28726332 3195:0.28726332 3196:0.28726332 3197:0.28726332 3198:0.28726332 3199:0.28726332 3200:0.28726332 
-0.2359154929577465 10:0.01924807 23:0.090708642 30:0.027457735 39:0.075942051 377:0.06627509 570:0.28586321 1129:0.19571594 3027:0.39143188 3100:0.18035961 3101:0.16101291 3201:0.22196776 3202:0.18035961 3203:0.22196776 3204:0.44393553 3205:0.31020242 3206:0.22196776 3207:0.22196776 3208:0.22196776 3209:0.19571594 3210:0.19571594 
